batch_number;w0;w1;w2;w3;w4;w5;w6;w7;w8;w9;w10;w11;w12;w13;w14;w15;w16
1;-0.166448712348938;0.1268061250448227;-0.4207451343536377;0.44370362162590027;-0.24456074833869934;0.3561888635158539;0.38055849075317383;0.6347668766975403;0.12166358530521393;0.24484777450561523;-0.15028268098831177;0.003086164128035307;-0.40767642855644226;0.26295310258865356;-0.024730315431952477;0.4758584201335907;0.023421481251716614
2;-0.09840274602174759;0.1933162361383438;-0.3513919711112976;0.5085193514823914;-0.17450201511383057;0.4214760661125183;0.44571471214294434;0.6985429525375366;0.18967965245246887;0.31137919425964355;-0.052085235714912415;0.06902580708265305;-0.3383898138999939;0.32873979210853577;0.04061264917254448;0.5423310995101929;0.09047667682170868
batch_number;w0;w1;w2;w3;w4;w5;w6;w7;w8;w9;w10;w11;w12;w13;w14;w15;w16
1;-0.166448712348938;0.1268061250448227;-0.4207451343536377;0.44370362162590027;-0.24456074833869934;0.3561888635158539;0.38055849075317383;0.6347668766975403;0.12166358530521393;0.24484777450561523;-0.15028268098831177;0.003086164128035307;-0.40767642855644226;0.26295310258865356;-0.024730315431952477;0.4758584201335907;0.023421481251716614
2;-0.09840274602174759;0.1933162361383438;-0.3513919711112976;0.5085193514823914;-0.17450201511383057;0.4214760661125183;0.44571471214294434;0.6985429525375366;0.18967965245246887;0.31137919425964355;-0.052085235714912415;0.06902580708265305;-0.3383898138999939;0.32873979210853577;0.04061264917254448;0.5423310995101929;0.09047667682170868
batch_number;w0;w1;w2;w3;w4;w5;w6;w7;w8;w9;w10;w11;w12;w13;w14;w15;w16
1;-0.14203746616840363;0.15153615176677704;-0.3965931236743927;0.4687686264514923;-0.20700792968273163;0.38123416900634766;0.40557894110679626;0.6600402593612671;0.16034500300884247;0.2819032371044159;-0.15028268098831177;0.03712190315127373;-0.3944070339202881;0.2768913507461548;0.009289738722145557;0.4887823462486267;0.03714517131447792
3;-0.049492936581373215;0.2398562729358673;-0.300471693277359;0.5524351596832275;-0.14193467795848846;0.4661230444908142;0.4901586174964905;0.7408431768417358;0.21785865724086761;0.3565182685852051;-0.012616642750799656;0.09929685294628143;-0.2991996109485626;0.36194413900375366;0.07636623084545135;0.5723580718040466;0.137858584523201
2;-0.06489584594964981;0.22735005617141724;-0.31876081228256226;0.5440529584884644;-0.1347033679485321;0.45706382393836975;0.47984153032302856;0.7351796627044678;0.2311674952507019;0.35233455896377563;-0.052085235714912415;0.10932702571153641;-0.3195366859436035;0.3497375547885895;0.07331551611423492;0.5540609955787659;0.11054828017950058
batch_number;w0;w1;w2;w3;w4;w5;w6;w7;w8;w9;w10;w11;w12;w13;w14;w15;w16
1;-0.166448712348938;0.1268061250448227;-0.4207451343536377;0.44370362162590027;-0.24456074833869934;0.3561888635158539;0.38055849075317383;0.6347668766975403;0.12166358530521393;0.24484777450561523;-0.15028268098831177;0.003086164128035307;-0.40767642855644226;0.26295310258865356;-0.024730315431952477;0.4758584201335907;0.023421481251716614
4;0.00736977718770504;0.29394468665122986;-0.24126434326171875;0.6034398078918457;-0.14079587161540985;0.5179888010025024;0.5417845845222473;0.7899454236030579;0.20878131687641144;0.36670035123825073;-0.0020805555395781994;0.12065891921520233;-0.2637089490890503;0.3914068937301636;0.08743482083082199;0.5820633172988892;0.15289677679538727
3;-0.03758745640516281;0.2554470896720886;-0.2881961762905121;0.5707058310508728;-0.12247783690690994;0.48457586765289307;0.5065298676490784;0.7614634037017822;0.24038447439670563;0.37520867586135864;-0.012616642750799656;0.11844809353351593;-0.31179240345954895;0.3585207164287567;0.07084480673074722;0.5459910035133362;0.11978551000356674
batch_number;w0;w1;w2;w3;w4;w5;w6;w7;w8;w9;w10;w11;w12;w13;w14;w15;w16
1;-0.14203746616840363;0.15153615176677704;-0.3965931236743927;0.4687686264514923;-0.20700792968273163;0.38123416900634766;0.40557894110679626;0.6600402593612671;0.16034500300884247;0.2819032371044159;-0.15028268098831177;0.03712190315127373;-0.3944070339202881;0.2768913507461548;0.009289738722145557;0.4887823462486267;0.03714517131447792
2;-0.09840274602174759;0.1933162361383438;-0.3513919711112976;0.5085193514823914;-0.17450201511383057;0.4214760661125183;0.44571471214294434;0.6985429525375366;0.18967965245246887;0.31137919425964355;-0.052085235714912415;0.06902580708265305;-0.3383898138999939;0.32873979210853577;0.04061264917254448;0.5423310995101929;0.09047667682170868
4;0.012358604930341244;0.30469849705696106;-0.2363934963941574;0.618826150894165;-0.11109142005443573;0.5332835912704468;0.5543584823608398;0.808857262134552;0.2467951476573944;0.3914908468723297;-0.0020805555395781994;0.14220885932445526;-0.3020418584346771;0.37851792573928833;0.06914719194173813;0.5548884868621826;0.126388818025589
5;0.058020323514938354;0.34108760952949524;-0.18765777349472046;0.646669864654541;-0.13087424635887146;0.5623124837875366;0.5858056545257568;0.8307550549507141;0.21308302879333496;0.3801552355289459;-0.0002284487127326429;0.12618371844291687;-0.2700387239456177;0.36966657638549805;0.1076798141002655;0.5944478511810303;0.1416536271572113
2;-0.06489584594964981;0.22735005617141724;-0.31876081228256226;0.5440529584884644;-0.1347033679485321;0.45706382393836975;0.47984153032302856;0.7351796627044678;0.2311674952507019;0.35233455896377563;-0.052085235714912415;0.10932702571153641;-0.3195366859436035;0.3497375547885895;0.07331551611423492;0.5540609955787659;0.11054828017950058
3;-0.049492936581373215;0.2398562729358673;-0.300471693277359;0.5524351596832275;-0.14193467795848846;0.4661230444908142;0.4901586174964905;0.7408431768417358;0.21785865724086761;0.3565182685852051;-0.012616642750799656;0.09929685294628143;-0.2991996109485626;0.36194413900375366;0.07636623084545135;0.5723580718040466;0.137858584523201
5;0.03874273598194122;0.3304385840892792;-0.20839159190654755;0.6426073312759399;-0.11911841481924057;0.5574373602867126;0.5781640410423279;0.8327329754829407;0.23710310459136963;0.3825004994869232;-0.0002284487127326429;0.13434790074825287;-0.3096669614315033;0.3669048547744751;0.048200830817222595;0.5381116271018982;0.11753173172473907
6;0.07419812679290771;0.3560693562030792;-0.1704058200120926;0.6604155898094177;-0.2099829763174057;0.5763924717903137;0.5997923612594604;0.8437865376472473;0.13475394248962402;0.29257652163505554;-2.1480274881469086e-05;0.06565317511558533;-0.33192333579063416;0.3060590326786041;0.005325669888406992;0.5107900500297546;0.04360518231987953
3;-0.03758745640516281;0.2554470896720886;-0.2881961762905121;0.5707058310508728;-0.12247783690690994;0.48457586765289307;0.5065298676490784;0.7614634037017822;0.24038447439670563;0.37520867586135864;-0.012616642750799656;0.11844809353351593;-0.31179240345954895;0.3585207164287567;0.07084480673074722;0.5459910035133362;0.11978551000356674
4;0.00736977718770504;0.29394468665122986;-0.24126434326171875;0.6034398078918457;-0.14079587161540985;0.5179888010025024;0.5417845845222473;0.7899454236030579;0.20878131687641144;0.36670035123825073;-0.0020805555395781994;0.12065891921520233;-0.2637089490890503;0.3914068937301636;0.08743482083082199;0.5820633172988892;0.15289677679538727
6;0.06456422805786133;0.3522856533527374;-0.18127766251564026;0.665764331817627;-0.14349772036075592;0.5817300081253052;0.6014890670776367;0.8560749888420105;0.20963764190673828;0.3627229928970337;-2.1480274881469086e-05;0.10833441466093063;-0.3348706364631653;0.3378552794456482;0.04142792895436287;0.5276582837104797;0.10251729190349579
7;0.11293045431375504;0.39110445976257324;-0.12853696942329407;0.6913588643074036;-0.21115583181381226;0.6084767580032349;0.6315595507621765;0.872214138507843;0.12504519522190094;0.2867332696914673;-9.772433031685068e-07;0.04681762307882309;-0.34474146366119385;0.2813216745853424;0.009392199106514454;0.5035252571105957;0.028188027441501617
4;0.012358604930341244;0.30469849705696106;-0.2363934963941574;0.618826150894165;-0.11109142005443573;0.5332835912704468;0.5543584823608398;0.808857262134552;0.2467951476573944;0.3914908468723297;-0.0020805555395781994;0.14220885932445526;-0.3020418584346771;0.37851792573928833;0.06914719194173813;0.5548884868621826;0.126388818025589
7;0.08715444058179855;0.3735658824443817;-0.15696291625499725;0.6861361265182495;-0.16311822831630707;0.6016991138458252;0.6216179132461548;0.8749088644981384;0.1862860769033432;0.35432952642440796;-9.772433031685068e-07;0.08811382204294205;-0.3528057038784027;0.3145151436328888;0.017390884459018707;0.5153137445449829;0.08226025849580765
5;0.058020323514938354;0.34108760952949524;-0.18765777349472046;0.646669864654541;-0.13087424635887146;0.5623124837875366;0.5858056545257568;0.8307550549507141;0.21308302879333496;0.3801552355289459;-0.0002284487127326429;0.12618371844291687;-0.2700387239456177;0.36966657638549805;0.1076798141002655;0.5944478511810303;0.1416536271572113
8;0.14339451491832733;0.41740232706069946;-0.09453845769166946;0.713049590587616;-0.21206218004226685;0.6314501166343689;0.6541755199432373;0.8910736441612244;0.11897583305835724;0.288871705532074;-2.5561321947975557e-08;0.048183634877204895;-0.3397867977619171;0.2709907293319702;-0.0038382094353437424;0.5025588274002075;0.021631743758916855
5;0.03874273598194122;0.3304385840892792;-0.20839159190654755;0.6426073312759399;-0.11911841481924057;0.5574373602867126;0.5781640410423279;0.8327329754829407;0.23710310459136963;0.3825004994869232;-0.0002284487127326429;0.13434790074825287;-0.3096669614315033;0.3669048547744751;0.048200830817222595;0.5381116271018982;0.11753173172473907
8;0.09336873888969421;0.37857040762901306;-0.15151380002498627;0.6882948279380798;-0.184553325176239;0.6052483916282654;0.6243465542793274;0.8713691234588623;0.1619611382484436;0.34749653935432434;-2.5561321947975557e-08;0.06744138896465302;-0.37374401092529297;0.29042938351631165;-0.023611145094037056;0.4865054488182068;0.0601486973464489
6;0.07419812679290771;0.3560693562030792;-0.1704058200120926;0.6604155898094177;-0.2099829763174057;0.5763924717903137;0.5997923612594604;0.8437865376472473;0.13475394248962402;0.29257652163505554;-2.1480274881469086e-05;0.06565317511558533;-0.33192333579063416;0.3060590326786041;0.005325669888406992;0.5107900500297546;0.04360518231987953
9;0.17624545097351074;0.44996964931488037;-0.06141059100627899;0.7453525066375732;-0.1628863513469696;0.6655798554420471;0.6865267157554626;0.9232392311096191;0.16912402212619781;0.3394932448863983;-5.553727477902726e-10;0.09162041544914246;-0.2807920277118683;0.33594760298728943;0.03388221934437752;0.5582440495491028;0.08058356493711472
6;0.06456422805786133;0.3522856533527374;-0.18127766251564026;0.665764331817627;-0.14349772036075592;0.5817300081253052;0.6014890670776367;0.8560749888420105;0.20963764190673828;0.3627229928970337;-2.1480274881469086e-05;0.10833441466093063;-0.3348706364631653;0.3378552794456482;0.04142792895436287;0.5276582837104797;0.10251729190349579
9;0.10036057978868484;0.3844466805458069;-0.15101931989192963;0.6824965476989746;-0.2017667293548584;0.6095543503761292;0.6219217777252197;0.8737768530845642;0.14208926260471344;0.3338238298892975;-3.500313927595755e-10;0.04387715831398964;-0.3950585424900055;0.26662376523017883;-0.05447175353765488;0.46318820118904114;0.03603866323828697
7;0.11293045431375504;0.39110445976257324;-0.12853696942329407;0.6913588643074036;-0.21115583181381226;0.6084767580032349;0.6315595507621765;0.872214138507843;0.12504519522190094;0.2867332696914673;-9.772433031685068e-07;0.04681762307882309;-0.34474146366119385;0.2813216745853424;0.009392199106514454;0.5035252571105957;0.028188027441501617
10;0.23246125876903534;0.5041533708572388;-0.003488117828965187;0.7972611784934998;-0.017234472557902336;0.7183029055595398;0.7388964891433716;0.9737361073493958;0.30575039982795715;0.4899021089076996;-3.791256805024679e-12;0.21465149521827698;-0.14853736758232117;0.4548349380493164;0.19640441238880157;0.6842389702796936;0.24165086448192596
7;0.08715444058179855;0.3735658824443817;-0.15696291625499725;0.6861361265182495;-0.16311822831630707;0.6016991138458252;0.6216179132461548;0.8749088644981384;0.1862860769033432;0.35432952642440796;-9.772433031685068e-07;0.08811382204294205;-0.3528057038784027;0.3145151436328888;0.017390884459018707;0.5153137445449829;0.08226025849580765
10;0.11502762883901596;0.39736682176589966;-0.13525372743606567;0.693234384059906;-0.2031458169221878;0.6209352612495422;0.6333276033401489;0.8838475346565247;0.13841429352760315;0.3331807255744934;-2.1924825236580014e-12;0.039238929748535156;-0.39541417360305786;0.2640557289123535;-0.07844559103250504;0.4282168745994568;0.024517986923456192
8;0.14339451491832733;0.41740232706069946;-0.09453845769166946;0.713049590587616;-0.21206218004226685;0.6314501166343689;0.6541755199432373;0.8910736441612244;0.11897583305835724;0.288871705532074;-2.5561321947975557e-08;0.048183634877204895;-0.3397867977619171;0.2709907293319702;-0.0038382094353437424;0.5025588274002075;0.021631743758916855
11;0.2540540099143982;0.5211198925971985;0.02202732115983963;0.8091079592704773;-0.011094242334365845;0.7317245602607727;0.7517755031585693;0.982438862323761;0.3021079897880554;0.4822092354297638;-9.828157168309537e-15;0.21444331109523773;-0.13422228395938873;0.4504622519016266;0.20940928161144257;0.6939165592193604;0.24145859479904175
8;0.09336873888969421;0.37857040762901306;-0.15151380002498627;0.6882948279380798;-0.184553325176239;0.6052483916282654;0.6243465542793274;0.8713691234588623;0.1619611382484436;0.34749653935432434;-2.5561321947975557e-08;0.06744138896465302;-0.37374401092529297;0.29042938351631165;-0.023611145094037056;0.4865054488182068;0.0601486973464489
11;0.12646673619747162;0.40895041823387146;-0.12071280181407928;0.7038877010345459;-0.2135191559791565;0.6317892074584961;0.6444169878959656;0.8926169872283936;0.12489238381385803;0.33644822239875793;-5.076744485411379e-15;0.025245336815714836;-0.38629859685897827;0.24847374856472015;-0.06817442178726196;0.4050165116786957;0.009401283226907253
9;0.17624545097351074;0.44996964931488037;-0.06141059100627899;0.7453525066375732;-0.1628863513469696;0.6655798554420471;0.6865267157554626;0.9232392311096191;0.16912402212619781;0.3394932448863983;-5.553727477902726e-10;0.09162041544914246;-0.2807920277118683;0.33594760298728943;0.03388221934437752;0.5582440495491028;0.08058356493711472
12;0.2742348611354828;0.5364741086959839;0.0463019460439682;0.8191218972206116;-0.004330492112785578;0.7433440089225769;0.762863278388977;0.9891758561134338;0.30035197734832764;0.4883699417114258;-6.629596597212932e-18;0.21630671620368958;-0.12162650376558304;0.4484555721282959;0.21736404299736023;0.6960693001747131;0.2447635531425476
9;0.10036057978868484;0.3844466805458069;-0.15101931989192963;0.6824965476989746;-0.2017667293548584;0.6095543503761292;0.6219217777252197;0.8737768530845642;0.14208926260471344;0.3338238298892975;-3.500313927595755e-10;0.04387715831398964;-0.3950585424900055;0.26662376523017883;-0.05447175353765488;0.46318820118904114;0.03603866323828697
10;0.23246125876903534;0.5041533708572388;-0.003488117828965187;0.7972611784934998;-0.017234472557902336;0.7183029055595398;0.7388964891433716;0.9737361073493958;0.30575039982795715;0.4899021089076996;-3.791256805024679e-12;0.21465149521827698;-0.14853736758232117;0.4548349380493164;0.19640441238880157;0.6842389702796936;0.24165086448192596
12;0.13956758379936218;0.42028769850730896;-0.10944734513759613;0.7132251858711243;-0.2207765281200409;0.6420938372612;0.6542860865592957;0.900895893573761;0.11502004414796829;0.33962106704711914;-2.884150907713649e-18;0.01481754519045353;-0.39589688181877136;0.23452086746692657;-0.07818203419446945;0.3933994174003601;-0.0015991112450137734
13;0.2946648597717285;0.551444947719574;0.07135488837957382;0.8280530571937561;-0.0014955353690311313;0.7534074783325195;0.7730080485343933;0.9943971037864685;0.29381313920021057;0.48212480545043945;-3.1442597189496755e-22;0.21324744820594788;-0.10420998185873032;0.4450322985649109;0.22386878728866577;0.6874052882194519;0.24824242293834686
10;0.11502762883901596;0.39736682176589966;-0.13525372743606567;0.693234384059906;-0.2031458169221878;0.6209352612495422;0.6333276033401489;0.8838475346565247;0.13841429352760315;0.3331807255744934;-2.1924825236580014e-12;0.039238929748535156;-0.39541417360305786;0.2640557289123535;-0.07844559103250504;0.4282168745994568;0.024517986923456192
11;0.2540540099143982;0.5211198925971985;0.02202732115983963;0.8091079592704773;-0.011094242334365845;0.7317245602607727;0.7517755031585693;0.982438862323761;0.3021079897880554;0.4822092354297638;-9.828157168309537e-15;0.21444331109523773;-0.13422228395938873;0.4504622519016266;0.20940928161144257;0.6939165592193604;0.24145859479904175
13;0.14998392760753632;0.4251108169555664;-0.09781109541654587;0.7189467549324036;-0.223479226231575;0.6497939825057983;0.6605437994003296;0.9065273404121399;0.12077299505472183;0.3290538191795349;-7.272149595748451e-23;0.009989605285227299;-0.3977525234222412;0.2206859290599823;-0.09587612748146057;0.3735366761684418;-0.0064094699919223785
14;0.31741389632225037;0.5682361125946045;0.09914527088403702;0.8382425308227539;0.0026149125769734383;0.7647494077682495;0.7845256328582764;1.000529408454895;0.28726303577423096;0.4840534031391144;4.6204985295794175e-29;0.2102641463279724;-0.0989910289645195;0.43692412972450256;0.21779729425907135;0.676595151424408;0.24110421538352966
11;0.12646673619747162;0.40895041823387146;-0.12071280181407928;0.7038877010345459;-0.2135191559791565;0.6317892074584961;0.6444169878959656;0.8926169872283936;0.12489238381385803;0.33644822239875793;-5.076744485411379e-15;0.025245336815714836;-0.38629859685897827;0.24847374856472015;-0.06817442178726196;0.4050165116786957;0.009401283226907253
12;0.2742348611354828;0.5364741086959839;0.0463019460439682;0.8191218972206116;-0.004330492112785578;0.7433440089225769;0.762863278388977;0.9891758561134338;0.30035197734832764;0.4883699417114258;-6.629596597212932e-18;0.21630671620368958;-0.12162650376558304;0.4484555721282959;0.21736404299736023;0.6960693001747131;0.2447635531425476
14;0.16108638048171997;0.4346168339252472;-0.08543220907449722;0.7262612581253052;-0.23055395483970642;0.6577734351158142;0.6662184596061707;0.9127011299133301;0.11128871887922287;0.3361077904701233;-1.4947482225024522e-27;0.0021348726004362106;-0.40466514229774475;0.2196660190820694;-0.1153489351272583;0.3651633560657501;-0.01521350909024477
15;0.3363356292247772;0.5806828141212463;0.12354668229818344;0.8435156941413879;0.007831726223230362;0.7721431851387024;0.791242778301239;1.0014010667800903;0.2813889980316162;0.47781357169151306;1.6508131322905598e-31;0.20648886263370514;-0.08625484257936478;0.42735591530799866;0.2168710082769394;0.6722981333732605;0.23864243924617767
12;0.13956758379936218;0.42028769850730896;-0.10944734513759613;0.7132251858711243;-0.2207765281200409;0.6420938372612;0.6542860865592957;0.900895893573761;0.11502004414796829;0.33962106704711914;-2.884150907713649e-18;0.01481754519045353;-0.39589688181877136;0.23452086746692657;-0.07818203419446945;0.3933994174003601;-0.0015991112450137734
13;0.2946648597717285;0.551444947719574;0.07135488837957382;0.8280530571937561;-0.0014955353690311313;0.7534074783325195;0.7730080485343933;0.9943971037864685;0.29381313920021057;0.48212480545043945;-3.1442597189496755e-22;0.21324744820594788;-0.10420998185873032;0.4450322985649109;0.22386878728866577;0.6874052882194519;0.24824242293834686
15;0.16835829615592957;0.440321683883667;-0.07664927840232849;0.731427013874054;-0.25294244289398193;0.6624695658683777;0.6716821193695068;0.9074084758758545;0.09469961374998093;0.31732746958732605;1.39632110326303e-32;-0.013984205201268196;-0.415631502866745;0.20422400534152985;-0.09679882228374481;0.3443400263786316;-0.033108435571193695
16;0.354065477848053;0.5984049439430237;0.14139315485954285;0.8630433678627014;0.04585680365562439;0.7898419499397278;0.8101099729537964;1.0244852304458618;0.32163918018341064;0.5185968279838562;8.734330546623797e-35;0.24410133063793182;-0.05753407999873161;0.45881426334381104;0.2526208460330963;0.7119039297103882;0.2694946229457855
13;0.14998392760753632;0.4251108169555664;-0.09781109541654587;0.7189467549324036;-0.223479226231575;0.6497939825057983;0.6605437994003296;0.9065273404121399;0.12077299505472183;0.3290538191795349;-7.272149595748451e-23;0.009989605285227299;-0.3977525234222412;0.2206859290599823;-0.09587612748146057;0.3735366761684418;-0.0064094699919223785
14;0.31741389632225037;0.5682361125946045;0.09914527088403702;0.8382425308227539;0.0026149125769734383;0.7647494077682495;0.7845256328582764;1.000529408454895;0.28726303577423096;0.4840534031391144;4.6204985295794175e-29;0.2102641463279724;-0.0989910289645195;0.43692412972450256;0.21779729425907135;0.676595151424408;0.24110421538352966
16;0.172784686088562;0.44379884004592896;-0.07101447880268097;0.7329356670379639;-0.26145729422569275;0.664334237575531;0.6731405258178711;0.9085633754730225;0.0843072310090065;0.31068646907806396;1.4712421001142961e-35;-0.02190854772925377;-0.42277395725250244;0.225664883852005;-0.09949733316898346;0.33619225025177;-0.04259282350540161
17;0.37020689249038696;0.607842743396759;0.16333191096782684;0.8645968437194824;0.05023779720067978;0.7934617400169373;0.8132784962654114;1.0215767621994019;0.31615233421325684;0.5172972679138184;3.361119464067898e-39;0.24259907007217407;-0.04412441700696945;0.4531056880950928;0.25304871797561646;0.7024368643760681;0.2714027464389801
14;0.16108638048171997;0.4346168339252472;-0.08543220907449722;0.7262612581253052;-0.23055395483970642;0.6577734351158142;0.6662184596061707;0.9127011299133301;0.11128871887922287;0.3361077904701233;-1.4947482225024522e-27;0.0021348726004362106;-0.40466514229774475;0.2196660190820694;-0.1153489351272583;0.3651633560657501;-0.01521350909024477
15;0.3363356292247772;0.5806828141212463;0.12354668229818344;0.8435156941413879;0.007831726223230362;0.7721431851387024;0.791242778301239;1.0014010667800903;0.2813889980316162;0.47781357169151306;1.6508131322905598e-31;0.20648886263370514;-0.08625484257936478;0.42735591530799866;0.2168710082769394;0.6722981333732605;0.23864243924617767
17;0.18399488925933838;0.45290878415107727;-0.058242689818143845;0.7391865253448486;-0.25862541794776917;0.6715442538261414;0.6798799633979797;0.9135093688964844;0.08655335009098053;0.31792953610420227;-2.0287578776955404e-40;-0.019443221390247345;-0.4182592034339905;0.2261393517255783;-0.097878098487854;0.33040851354599;-0.04012629762291908
18;0.38582760095596313;0.6160525679588318;0.1852436363697052;0.8646132349967957;0.05311218276619911;0.7957391738891602;0.8149636387825012;1.0144954919815063;0.3075598180294037;0.5095550417900085;-1.7624130785813224e-41;0.23698566854000092;-0.03243020176887512;0.4449177086353302;0.25570014119148254;0.6968224048614502;0.268770307302475
15;0.16835829615592957;0.440321683883667;-0.07664927840232849;0.731427013874054;-0.25294244289398193;0.6624695658683777;0.6716821193695068;0.9074084758758545;0.09469961374998093;0.31732746958732605;1.39632110326303e-32;-0.013984205201268196;-0.415631502866745;0.20422400534152985;-0.09679882228374481;0.3443400263786316;-0.033108435571193695
16;0.354065477848053;0.5984049439430237;0.14139315485954285;0.8630433678627014;0.04585680365562439;0.7898419499397278;0.8101099729537964;1.0244852304458618;0.32163918018341064;0.5185968279838562;8.734330546623797e-35;0.24410133063793182;-0.05753407999873161;0.45881426334381104;0.2526208460330963;0.7119039297103882;0.2694946229457855
18;0.19021227955818176;0.45941784977912903;-0.04835868999361992;0.7439867258071899;-0.25951915979385376;0.6766937375068665;0.6851630806922913;0.917152464389801;0.08332714438438416;0.3134258985519409;-1.7624130785813224e-41;-0.022280562669038773;-0.4196959137916565;0.22042310237884521;-0.09571723639965057;0.31675979495048523;-0.04479572921991348
19;0.4007408320903778;0.6232437491416931;0.206814244389534;0.863002598285675;0.05612867325544357;0.7963426113128662;0.8151169419288635;1.0077126026153564;0.2980402410030365;0.5004693269729614;-1.7624130785813224e-41;0.2337278574705124;-0.01720605604350567;0.4387596845626831;0.258108526468277;0.6873798370361328;0.2698165476322174
16;0.172784686088562;0.44379884004592896;-0.07101447880268097;0.7329356670379639;-0.26145729422569275;0.664334237575531;0.6731405258178711;0.9085633754730225;0.0843072310090065;0.31068646907806396;1.4712421001142961e-35;-0.02190854772925377;-0.42277395725250244;0.225664883852005;-0.09949733316898346;0.33619225025177;-0.04259282350540161
17;0.37020689249038696;0.607842743396759;0.16333191096782684;0.8645968437194824;0.05023779720067978;0.7934617400169373;0.8132784962654114;1.0215767621994019;0.31615233421325684;0.5172972679138184;3.361119464067898e-39;0.24259907007217407;-0.04412441700696945;0.4531056880950928;0.25304871797561646;0.7024368643760681;0.2714027464389801
19;0.19438567757606506;0.4624512791633606;-0.04263608530163765;0.7449355125427246;-0.27123621106147766;0.6789705753326416;0.6847726106643677;0.9185409545898438;0.06919590383768082;0.3074343502521515;-1.7624130785813224e-41;-0.0392785370349884;-0.44221824407577515;0.20316007733345032;-0.11848919838666916;0.29411181807518005;-0.05797387659549713
20;0.4215642213821411;0.6360896825790405;0.23448272049427032;0.866848349571228;0.059801552444696426;0.8023390173912048;0.8207625150680542;1.0051987171173096;0.28743624687194824;0.4892423450946808;-1.7624130785813224e-41;0.22984567284584045;-0.008835723623633385;0.4227127432823181;0.2621121406555176;0.6674129366874695;0.2642350494861603
17;0.18399488925933838;0.45290878415107727;-0.058242689818143845;0.7391865253448486;-0.25862541794776917;0.6715442538261414;0.6798799633979797;0.9135093688964844;0.08655335009098053;0.31792953610420227;-2.0287578776955404e-40;-0.019443221390247345;-0.4182592034339905;0.2261393517255783;-0.097878098487854;0.33040851354599;-0.04012629762291908
18;0.38582760095596313;0.6160525679588318;0.1852436363697052;0.8646132349967957;0.05311218276619911;0.7957391738891602;0.8149636387825012;1.0144954919815063;0.3075598180294037;0.5095550417900085;-1.7624130785813224e-41;0.23698566854000092;-0.03243020176887512;0.4449177086353302;0.25570014119148254;0.6968224048614502;0.268770307302475
20;0.2024316042661667;0.4686204493045807;-0.03301459178328514;0.7492993474006653;-0.27936607599258423;0.6839690208435059;0.6874524354934692;0.9222158789634705;0.057786181569099426;0.2934286296367645;-1.7624130785813224e-41;-0.051470812410116196;-0.45233362913131714;0.18851830065250397;-0.12004005163908005;0.30011898279190063;-0.07200761139392853
21;0.4413655400276184;0.6471630930900574;0.26164430379867554;0.8682301640510559;0.0647326409816742;0.8064547181129456;0.8241505026817322;1.000851035118103;0.27701467275619507;0.48127779364585876;-1.7624130785813224e-41;0.2267783135175705;0.006337224971503019;0.4124116897583008;0.2600513994693756;0.6443686485290527;0.2612227201461792
18;0.19021227955818176;0.45941784977912903;-0.04835868999361992;0.7439867258071899;-0.25951915979385376;0.6766937375068665;0.6851630806922913;0.917152464389801;0.08332714438438416;0.3134258985519409;-1.7624130785813224e-41;-0.022280562669038773;-0.4196959137916565;0.22042310237884521;-0.09571723639965057;0.31675979495048523;-0.04479572921991348
19;0.4007408320903778;0.6232437491416931;0.206814244389534;0.863002598285675;0.05612867325544357;0.7963426113128662;0.8151169419288635;1.0077126026153564;0.2980402410030365;0.5004693269729614;-1.7624130785813224e-41;0.2337278574705124;-0.01720605604350567;0.4387596845626831;0.258108526468277;0.6873798370361328;0.2698165476322174
21;0.21688182651996613;0.4811103343963623;-0.016896478831768036;0.7591677904129028;-0.2844076454639435;0.6946045756340027;0.6974738240242004;0.930598258972168;0.05008299648761749;0.2857426106929779;-1.7624130785813224e-41;-0.058449506759643555;-0.4538448452949524;0.19004859030246735;-0.11918916553258896;0.29770946502685547;-0.07910378277301788
22;0.46045419573783875;0.657309889793396;0.28787848353385925;0.8695399761199951;0.07095056772232056;0.8124946355819702;0.8273406624794006;0.9964669942855835;0.26976656913757324;0.47367599606513977;-1.7624130785813224e-41;0.2217547744512558;0.014370103366672993;0.39465317130088806;0.25853896141052246;0.6265063881874084;0.2546808421611786
19;0.19438567757606506;0.4624512791633606;-0.04263608530163765;0.7449355125427246;-0.27123621106147766;0.6789705753326416;0.6847726106643677;0.9185409545898438;0.06919590383768082;0.3074343502521515;-1.7624130785813224e-41;-0.0392785370349884;-0.44221824407577515;0.20316007733345032;-0.11848919838666916;0.29411181807518005;-0.05797387659549713
20;0.4215642213821411;0.6360896825790405;0.23448272049427032;0.866848349571228;0.059801552444696426;0.8023390173912048;0.8207625150680542;1.0051987171173096;0.28743624687194824;0.4892423450946808;-1.7624130785813224e-41;0.22984567284584045;-0.008835723623633385;0.4227127432823181;0.2621121406555176;0.6674129366874695;0.2642350494861603
22;0.22160686552524567;0.48552200198173523;-0.010813775472342968;0.7528570890426636;-0.29282519221305847;0.7162172198295593;0.6914088129997253;0.9335839748382568;0.03937898203730583;0.28896740078926086;-1.7624130785813224e-41;-0.06903006881475449;-0.46253126859664917;0.17753608524799347;-0.1501060128211975;0.2703717052936554;-0.09485312551259995
23;0.4758261442184448;0.6629224419593811;0.3114389181137085;0.864139199256897;0.07619866728782654;0.8108707070350647;0.8241399526596069;0.9847732782363892;0.2610953450202942;0.4627665877342224;-1.7624130785813224e-41;0.21728552877902985;0.028027115389704704;0.3825041353702545;0.2528866231441498;0.6129408478736877;0.25193455815315247
20;0.2024316042661667;0.4686204493045807;-0.03301459178328514;0.7492993474006653;-0.27936607599258423;0.6839690208435059;0.6874524354934692;0.9222158789634705;0.057786181569099426;0.2934286296367645;-1.7624130785813224e-41;-0.051470812410116196;-0.45233362913131714;0.18851830065250397;-0.12004005163908005;0.30011898279190063;-0.07200761139392853
21;0.4413655400276184;0.6471630930900574;0.26164430379867554;0.8682301640510559;0.0647326409816742;0.8064547181129456;0.8241505026817322;1.000851035118103;0.27701467275619507;0.48127779364585876;-1.7624130785813224e-41;0.2267783135175705;0.006337224971503019;0.4124116897583008;0.2600513994693756;0.6443686485290527;0.2612227201461792
23;0.22574426233768463;0.4888356924057007;-0.005177305079996586;0.7500962018966675;-0.2966597378253937;0.7184951305389404;0.692141056060791;0.9353001117706299;0.0333477184176445;0.2801288962364197;-1.7624130785813224e-41;-0.07477759569883347;-0.4657178819179535;0.16994450986385345;-0.1644257754087448;0.2478940635919571;-0.10279940813779831
24;0.49659261107444763;0.6739598512649536;0.3405309319496155;0.8642265200614929;0.08094149082899094;0.813896894454956;0.82642662525177;0.9780450463294983;0.2515498995780945;0.4550444483757019;-1.7624130785813224e-41;0.20962963998317719;0.038983747363090515;0.3654803931713104;0.24797068536281586;0.5808718204498291;0.2450198084115982
21;0.21688182651996613;0.4811103343963623;-0.016896478831768036;0.7591677904129028;-0.2844076454639435;0.6946045756340027;0.6974738240242004;0.930598258972168;0.05008299648761749;0.2857426106929779;-1.7624130785813224e-41;-0.058449506759643555;-0.4538448452949524;0.19004859030246735;-0.11918916553258896;0.29770946502685547;-0.07910378277301788
22;0.46045419573783875;0.657309889793396;0.28787848353385925;0.8695399761199951;0.07095056772232056;0.8124946355819702;0.8273406624794006;0.9964669942855835;0.26976656913757324;0.47367599606513977;-1.7624130785813224e-41;0.2217547744512558;0.014370103366672993;0.39465317130088806;0.25853896141052246;0.6265063881874084;0.2546808421611786
24;0.22941000759601593;0.4872361421585083;-0.00021512049715965986;0.7486653923988342;-0.30813509225845337;0.7197567224502563;0.6929316520690918;0.9315659403800964;0.01984969712793827;0.2719739079475403;-1.7624130785813224e-41;-0.08684318512678146;-0.4793011248111725;0.15581338107585907;-0.1443132758140564;0.22763261198997498;-0.11377540230751038
25;0.5147814750671387;0.6817299127578735;0.36754652857780457;0.8606206774711609;0.08855468779802322;0.8132750988006592;0.8251228928565979;0.9674518704414368;0.2441110610961914;0.44203755259513855;-1.7624130785813224e-41;0.2073410004377365;0.04671275243163109;0.3436577022075653;0.25391197204589844;0.5686856508255005;0.23264813423156738
23;0.4758261442184448;0.6629224419593811;0.3114389181137085;0.864139199256897;0.07619866728782654;0.8108707070350647;0.8241399526596069;0.9847732782363892;0.2610953450202942;0.4627665877342224;-1.7624130785813224e-41;0.21728552877902985;0.028027115389704704;0.3825041353702545;0.2528866231441498;0.6129408478736877;0.25193455815315247
22;0.22160686552524567;0.48552200198173523;-0.010813775472342968;0.7528570890426636;-0.29282519221305847;0.7162172198295593;0.6914088129997253;0.9335839748382568;0.03937898203730583;0.28896740078926086;-1.7624130785813224e-41;-0.06903006881475449;-0.46253126859664917;0.17753608524799347;-0.1501060128211975;0.2703717052936554;-0.09485312551259995
25;0.23959563672542572;0.4951028525829315;0.01170170959085226;0.7540097236633301;-0.3093673586845398;0.7272865772247314;0.6985657215118408;0.9365255832672119;0.01612146385014057;0.267585813999176;-1.7624130785813224e-41;-0.09050127863883972;-0.478016197681427;0.1532307267189026;-0.14428254961967468;0.22549697756767273;-0.11556123197078705
26;0.5344269871711731;0.6911609172821045;0.39585673809051514;0.8588462471961975;0.09412141889333725;0.8113985061645508;0.8256468176841736;0.958960771560669;0.23655231297016144;0.4267653524875641;-1.7624130785813224e-41;0.20557323098182678;0.05616946890950203;0.3278275430202484;0.2423499971628189;0.5417585968971252;0.22593769431114197
24;0.49659261107444763;0.6739598512649536;0.3405309319496155;0.8642265200614929;0.08094149082899094;0.813896894454956;0.82642662525177;0.9780450463294983;0.2515498995780945;0.4550444483757019;-1.7624130785813224e-41;0.20962963998317719;0.038983747363090515;0.3654803931713104;0.24797068536281586;0.5808718204498291;0.2450198084115982
23;0.22574426233768463;0.4888356924057007;-0.005177305079996586;0.7500962018966675;-0.2966597378253937;0.7184951305389404;0.692141056060791;0.9353001117706299;0.0333477184176445;0.2801288962364197;-1.7624130785813224e-41;-0.07477759569883347;-0.4657178819179535;0.16994450986385345;-0.1644257754087448;0.2478940635919571;-0.10279940813779831
26;0.25024715065956116;0.5027132034301758;0.023833679035305977;0.7604217529296875;-0.3066374361515045;0.7293102741241455;0.7053915858268738;0.9388661980628967;0.018516642972826958;0.26499852538108826;-1.7624130785813224e-41;-0.08876083791255951;-0.4762442708015442;0.1506045162677765;-0.16564756631851196;0.21563059091567993;-0.11591122299432755
27;0.5546912550926208;0.702101469039917;0.4240414500236511;0.8596708178520203;0.10451889783143997;0.8154478073120117;0.8294576406478882;0.9536597728729248;0.23277994990348816;0.41973188519477844;-1.7624130785813224e-41;0.20302166044712067;0.07514683902263641;0.31520184874534607;0.23253083229064941;0.5122510194778442;0.2224532514810562
24;0.22941000759601593;0.4872361421585083;-0.00021512049715965986;0.7486653923988342;-0.30813509225845337;0.7197567224502563;0.6929316520690918;0.9315659403800964;0.01984969712793827;0.2719739079475403;-1.7624130785813224e-41;-0.08684318512678146;-0.4793011248111725;0.15581338107585907;-0.1443132758140564;0.22763261198997498;-0.11377540230751038
25;0.5147814750671387;0.6817299127578735;0.36754652857780457;0.8606206774711609;0.08855468779802322;0.8132750988006592;0.8251228928565979;0.9674518704414368;0.2441110610961914;0.44203755259513855;-1.7624130785813224e-41;0.2073410004377365;0.04671275243163109;0.3436577022075653;0.25391197204589844;0.5686856508255005;0.23264813423156738
27;0.2589939832687378;0.5099825859069824;0.03381475806236267;0.7665845155715942;-0.31152138113975525;0.735839307308197;0.7124021649360657;0.9414179921150208;0.011681346222758293;0.2724316418170929;-1.7624130785813224e-41;-0.0953422337770462;-0.46510252356529236;0.14456616342067719;-0.18232183158397675;0.2035622000694275;-0.12011772394180298
28;0.28021639585494995;0.5208329558372498;0.06814491003751755;0.7489549517631531;-0.39311483502388;0.7682968974113464;0.6751703023910522;0.9187643527984619;-0.1105736792087555;0.1629900485277176;-1.7624130785813224e-41;-0.15942710638046265;-0.4991113543510437;0.08754289150238037;-0.11863620579242706;0.34445422887802124;-0.16734011471271515
26;0.5344269871711731;0.6911609172821045;0.39585673809051514;0.8588462471961975;0.09412141889333725;0.8113985061645508;0.8256468176841736;0.958960771560669;0.23655231297016144;0.4267653524875641;-1.7624130785813224e-41;0.20557323098182678;0.05616946890950203;0.3278275430202484;0.2423499971628189;0.5417585968971252;0.22593769431114197
25;0.23959563672542572;0.4951028525829315;0.01170170959085226;0.7540097236633301;-0.3093673586845398;0.7272865772247314;0.6985657215118408;0.9365255832672119;0.01612146385014057;0.267585813999176;-1.7624130785813224e-41;-0.09050127863883972;-0.478016197681427;0.1532307267189026;-0.14428254961967468;0.22549697756767273;-0.11556123197078705
28;0.2646121084690094;0.5138757824897766;0.040523964911699295;0.7688419818878174;-0.3136717975139618;0.738151490688324;0.7155837416648865;0.9423493146896362;0.005390002857893705;0.27104267477989197;-1.7624130785813224e-41;-0.10128188878297806;-0.47136133909225464;0.1360698938369751;-0.16762122511863708;0.20330177247524261;-0.12840768694877625
29;0.2999480068683624;0.5367417335510254;0.0911332219839096;0.7566255927085876;-0.36783352494239807;0.7586598992347717;0.6799911260604858;0.9262985587120056;-0.08781299740076065;0.17216531932353973;-1.7624130785813224e-41;-0.14175283908843994;-0.47479531168937683;0.11300613731145859;-0.15086419880390167;0.35523632168769836;-0.13621607422828674
27;0.5546912550926208;0.702101469039917;0.4240414500236511;0.8596708178520203;0.10451889783143997;0.8154478073120117;0.8294576406478882;0.9536597728729248;0.23277994990348816;0.41973188519477844;-1.7624130785813224e-41;0.20302166044712067;0.07514683902263641;0.31520184874534607;0.23253083229064941;0.5122510194778442;0.2224532514810562
26;0.25024715065956116;0.5027132034301758;0.023833679035305977;0.7604217529296875;-0.3066374361515045;0.7293102741241455;0.7053915858268738;0.9388661980628967;0.018516642972826958;0.26499852538108826;-1.7624130785813224e-41;-0.08876083791255951;-0.4762442708015442;0.1506045162677765;-0.16564756631851196;0.21563059091567993;-0.11591122299432755
29;0.2709274888038635;0.5194288492202759;0.04802766814827919;0.7737913131713867;-0.3239435851573944;0.7428613901138306;0.717930257320404;0.9464351534843445;-0.006911132484674454;0.2579890191555023;-1.7624130785813224e-41;-0.11024381965398788;-0.4803965985774994;0.12523646652698517;-0.18864275515079498;0.18766289949417114;-0.13690605759620667
30;0.30400070548057556;0.5385134220123291;0.09718480706214905;0.753911554813385;-0.36097291111946106;0.7881277203559875;0.6773905754089355;0.9236590266227722;-0.07088834047317505;0.1623896211385727;-1.7624130785813224e-41;-0.15096797049045563;-0.4806036949157715;0.09991614520549774;-0.13844779133796692;0.3476482033729553;-0.14452111721038818
28;0.28021639585494995;0.5208329558372498;0.06814491003751755;0.7489549517631531;-0.39311483502388;0.7682968974113464;0.6751703023910522;0.9187643527984619;-0.1105736792087555;0.1629900485277176;-1.7624130785813224e-41;-0.15942710638046265;-0.4991113543510437;0.08754289150238037;-0.11863620579242706;0.34445422887802124;-0.16734011471271515
27;0.2589939832687378;0.5099825859069824;0.03381475806236267;0.7665845155715942;-0.31152138113975525;0.735839307308197;0.7124021649360657;0.9414179921150208;0.011681346222758293;0.2724316418170929;-1.7624130785813224e-41;-0.0953422337770462;-0.46510252356529236;0.14456616342067719;-0.18232183158397675;0.2035622000694275;-0.12011772394180298
30;0.27794286608695984;0.5244883894920349;0.05751663073897362;0.7759813666343689;-0.3217625021934509;0.7463202476501465;0.720436692237854;0.9474942684173584;-0.006066158879548311;0.25493186712265015;-1.7624130785813224e-41;-0.11007542163133621;-0.4773537218570709;0.12588833272457123;-0.1913246065378189;0.18171240389347076;-0.13536395132541656
31;0.6150692105293274;0.7290549874305725;0.5133131742477417;0.8497819304466248;0.1462022066116333;0.8160486817359924;0.8266403675079346;0.9228841662406921;0.2333599030971527;0.40700438618659973;-1.7624130785813224e-41;0.21751925349235535;0.13609755039215088;0.30008336901664734;0.2537840008735657;0.4794238805770874;0.23393532633781433
29;0.2999480068683624;0.5367417335510254;0.0911332219839096;0.7566255927085876;-0.36783352494239807;0.7586598992347717;0.6799911260604858;0.9262985587120056;-0.08781299740076065;0.17216531932353973;-1.7624130785813224e-41;-0.14175283908843994;-0.47479531168937683;0.11300613731145859;-0.15086419880390167;0.35523632168769836;-0.13621607422828674
31;0.28830817341804504;0.5335988998413086;0.06057750806212425;0.7771451473236084;-0.32205402851104736;0.7540770769119263;0.7216240763664246;0.9544581770896912;-0.008137166500091553;0.2599678635597229;-1.7624130785813224e-41;-0.11188482493162155;-0.4871136248111725;0.12035392224788666;-0.2044239491224289;0.16478420794010162;-0.1374218612909317
28;0.2646121084690094;0.5138757824897766;0.040523964911699295;0.7688419818878174;-0.3136717975139618;0.738151490688324;0.7155837416648865;0.9423493146896362;0.005390002857893705;0.27104267477989197;-1.7624130785813224e-41;-0.10128188878297806;-0.47136133909225464;0.1360698938369751;-0.16762122511863708;0.20330177247524261;-0.12840768694877625
32;0.6286839246749878;0.7315930128097534;0.5364341139793396;0.8404126763343811;0.15425525605678558;0.8096384406089783;0.819563627243042;0.9063861966133118;0.22839178144931793;0.3963100016117096;-1.7624130785813224e-41;0.21525323390960693;0.1505364328622818;0.29125240445137024;0.2586227059364319;0.4712762236595154;0.2324741929769516
30;0.30400070548057556;0.5385134220123291;0.09718480706214905;0.753911554813385;-0.36097291111946106;0.7881277203559875;0.6773905754089355;0.9236590266227722;-0.07088834047317505;0.1623896211385727;-1.7624130785813224e-41;-0.15096797049045563;-0.4806036949157715;0.09991614520549774;-0.13844779133796692;0.3476482033729553;-0.14452111721038818
32;0.2951045632362366;0.5393216013908386;0.06865982711315155;0.7799178957939148;-0.3248288035392761;0.757839560508728;0.7245490550994873;0.957481861114502;-0.013208621181547642;0.24874195456504822;-1.7624130785813224e-41;-0.11572011560201645;-0.4866369366645813;0.10652092099189758;-0.20652346312999725;0.16060183942317963;-0.14149780571460724
29;0.2709274888038635;0.5194288492202759;0.04802766814827919;0.7737913131713867;-0.3239435851573944;0.7428613901138306;0.717930257320404;0.9464351534843445;-0.006911132484674454;0.2579890191555023;-1.7624130785813224e-41;-0.11024381965398788;-0.4803965985774994;0.12523646652698517;-0.18864275515079498;0.18766289949417114;-0.13690605759620667
33;0.6431705951690674;0.735447883605957;0.5599749088287354;0.8329102396965027;0.1608799546957016;0.8052836656570435;0.8143190145492554;0.8919214606285095;0.22602617740631104;0.38954195380210876;-1.7624130785813224e-41;0.2124677449464798;0.16273273527622223;0.2822377681732178;0.25841793417930603;0.4535523056983948;0.23156216740608215
31;0.6150692105293274;0.7290549874305725;0.5133131742477417;0.8497819304466248;0.1462022066116333;0.8160486817359924;0.8266403675079346;0.9228841662406921;0.2333599030971527;0.40700438618659973;-1.7624130785813224e-41;0.21751925349235535;0.13609755039215088;0.30008336901664734;0.2537840008735657;0.4794238805770874;0.23393532633781433
33;0.3036991357803345;0.5456913709640503;0.07881848514080048;0.78402179479599;-0.3244331181049347;0.7633934617042542;0.7291111946105957;0.9605404138565063;-0.009116720408201218;0.2500036358833313;-1.7624130785813224e-41;-0.11855635046958923;-0.4885547161102295;0.10174456238746643;-0.20492227375507355;0.16338519752025604;-0.14407210052013397
30;0.27794286608695984;0.5244883894920349;0.05751663073897362;0.7759813666343689;-0.3217625021934509;0.7463202476501465;0.720436692237854;0.9474942684173584;-0.006066158879548311;0.25493186712265015;-1.7624130785813224e-41;-0.11007542163133621;-0.4773537218570709;0.12588833272457123;-0.1913246065378189;0.18171240389347076;-0.13536395132541656
34;0.6569492220878601;0.7398097515106201;0.5817946195602417;0.8272708654403687;0.16840322315692902;0.8027470111846924;0.8106945753097534;0.8801384568214417;0.22439725697040558;0.3838194012641907;-1.7624130785813224e-41;0.21293579041957855;0.17281721532344818;0.274498850107193;0.25766775012016296;0.44351673126220703;0.23060822486877441
32;0.6286839246749878;0.7315930128097534;0.5364341139793396;0.8404126763343811;0.15425525605678558;0.8096384406089783;0.819563627243042;0.9063861966133118;0.22839178144931793;0.3963100016117096;-1.7624130785813224e-41;0.21525323390960693;0.1505364328622818;0.29125240445137024;0.2586227059364319;0.4712762236595154;0.2324741929769516
34;0.31229647994041443;0.5522308945655823;0.08886770159006119;0.787876307964325;-0.3201027810573578;0.7687336206436157;0.73345947265625;0.964163064956665;-0.007009701803326607;0.2520138621330261;-1.7624130785813224e-41;-0.11659960448741913;-0.48325908184051514;0.10341177880764008;-0.2056497037410736;0.1558719128370285;-0.1419491320848465
31;0.28830817341804504;0.5335988998413086;0.06057750806212425;0.7771451473236084;-0.32205402851104736;0.7540770769119263;0.7216240763664246;0.9544581770896912;-0.008137166500091553;0.2599678635597229;-1.7624130785813224e-41;-0.11188482493162155;-0.4871136248111725;0.12035392224788666;-0.2044239491224289;0.16478420794010162;-0.1374218612909317
35;0.6693373918533325;0.7444084882736206;0.6021060943603516;0.820624053478241;0.17628654837608337;0.7991122603416443;0.8059065341949463;0.8682616353034973;0.22341270744800568;0.378198504447937;-1.7624130785813224e-41;0.21478460729122162;0.18217550218105316;0.2676510810852051;0.2654772400856018;0.4347721040248871;0.22903519868850708
33;0.6431705951690674;0.735447883605957;0.5599749088287354;0.8329102396965027;0.1608799546957016;0.8052836656570435;0.8143190145492554;0.8919214606285095;0.22602617740631104;0.38954195380210876;-1.7624130785813224e-41;0.2124677449464798;0.16273273527622223;0.2822377681732178;0.25841793417930603;0.4535523056983948;0.23156216740608215
35;0.3160947263240814;0.5849015712738037;0.0942886546254158;0.7869333624839783;-0.32048094272613525;0.769334614276886;0.7329770922660828;0.96284019947052;-0.01043914258480072;0.24502456188201904;-1.7624130785813224e-41;-0.11853411048650742;-0.48235780000686646;0.10127627104520798;-0.2064111977815628;0.18416965007781982;-0.14270725846290588
32;0.2951045632362366;0.5393216013908386;0.06865982711315155;0.7799178957939148;-0.3248288035392761;0.757839560508728;0.7245490550994873;0.957481861114502;-0.013208621181547642;0.24874195456504822;-1.7624130785813224e-41;-0.11572011560201645;-0.4866369366645813;0.10652092099189758;-0.20652346312999725;0.16060183942317963;-0.14149780571460724
36;0.6828075051307678;0.7485939860343933;0.6237288117408752;0.8148224949836731;0.18070565164089203;0.796049177646637;0.8020724654197693;0.8564192056655884;0.21968385577201843;0.3714345097541809;-1.7624130785813224e-41;0.21428970992565155;0.18781448900699615;0.26197779178619385;0.26297205686569214;0.4176064729690552;0.23719008266925812
34;0.6569492220878601;0.7398097515106201;0.5817946195602417;0.8272708654403687;0.16840322315692902;0.8027470111846924;0.8106945753097534;0.8801384568214417;0.22439725697040558;0.3838194012641907;-1.7624130785813224e-41;0.21293579041957855;0.17281721532344818;0.274498850107193;0.25766775012016296;0.44351673126220703;0.23060822486877441
36;0.3254135847091675;0.593437671661377;0.10530024766921997;0.7915188074111938;-0.3226725459098816;0.7759260535240173;0.7380265593528748;0.9665188789367676;-0.015506913885474205;0.24573452770709991;-1.7624130785813224e-41;-0.12327780574560165;-0.4832810163497925;0.10137546807527542;-0.20778636634349823;0.1786692589521408;-0.12965209782123566
33;0.3036991357803345;0.5456913709640503;0.07881848514080048;0.78402179479599;-0.3244331181049347;0.7633934617042542;0.7291111946105957;0.9605404138565063;-0.009116720408201218;0.2500036358833313;-1.7624130785813224e-41;-0.11855635046958923;-0.4885547161102295;0.10174456238746643;-0.20492227375507355;0.16338519752025604;-0.14407210052013397
37;0.6925888061523438;0.7500582337379456;0.6408798694610596;0.8074437975883484;0.1849619299173355;0.7913087606430054;0.7964211702346802;0.8436835408210754;0.2173364907503128;0.3625083267688751;-1.7624130785813224e-41;0.2141786515712738;0.19453677535057068;0.25663667917251587;0.26535564661026;0.40837928652763367;0.23772388696670532
35;0.6693373918533325;0.7444084882736206;0.6021060943603516;0.820624053478241;0.17628654837608337;0.7991122603416443;0.8059065341949463;0.8682616353034973;0.22341270744800568;0.378198504447937;-1.7624130785813224e-41;0.21478460729122162;0.18217550218105316;0.2676510810852051;0.2654772400856018;0.4347721040248871;0.22903519868850708
37;0.33233579993247986;0.598809540271759;0.11389946192502975;0.793062150478363;-0.3157520294189453;0.7793677449226379;0.739935576915741;0.9677107930183411;-0.011159474961459637;0.24494698643684387;-1.7624130785813224e-41;-0.11847598850727081;-0.47643518447875977;0.10384798049926758;-0.20414452254772186;0.18390946090221405;-0.12574632465839386
34;0.31229647994041443;0.5522308945655823;0.08886770159006119;0.787876307964325;-0.3201027810573578;0.7687336206436157;0.73345947265625;0.964163064956665;-0.007009701803326607;0.2520138621330261;-1.7624130785813224e-41;-0.11659960448741913;-0.48325908184051514;0.10341177880764008;-0.2056497037410736;0.1558719128370285;-0.1419491320848465
38;0.3587937653064728;0.5811452269554138;0.15308471024036407;0.832683801651001;-0.4179213345050812;0.7992960810661316;0.7672887444496155;0.9731991291046143;-0.12968309223651886;0.04699919745326042;-1.7624130785813224e-41;-0.24634885787963867;-0.5532954931259155;0.0248858742415905;-0.3442429304122925;0.20933616161346436;-0.19731003046035767
36;0.6828075051307678;0.7485939860343933;0.6237288117408752;0.8148224949836731;0.18070565164089203;0.796049177646637;0.8020724654197693;0.8564192056655884;0.21968385577201843;0.3714345097541809;-1.7624130785813224e-41;0.21428970992565155;0.18781448900699615;0.26197779178619385;0.26297205686569214;0.4176064729690552;0.23719008266925812
38;0.33745986223220825;0.6024178862571716;0.12015092372894287;0.7928934693336487;-0.3157927393913269;0.7819697856903076;0.7399593591690063;0.968989372253418;-0.013232940807938576;0.2428269386291504;-1.7624130785813224e-41;-0.11934155970811844;-0.47849175333976746;0.09974007308483124;-0.18505752086639404;0.17944365739822388;-0.12972784042358398
35;0.3160947263240814;0.5849015712738037;0.0942886546254158;0.7869333624839783;-0.32048094272613525;0.769334614276886;0.7329770922660828;0.96284019947052;-0.01043914258480072;0.24502456188201904;-1.7624130785813224e-41;-0.11853411048650742;-0.48235780000686646;0.10127627104520798;-0.2064111977815628;0.18416965007781982;-0.14270725846290588
37;0.6925888061523438;0.7500582337379456;0.6408798694610596;0.8074437975883484;0.1849619299173355;0.7913087606430054;0.7964211702346802;0.8436835408210754;0.2173364907503128;0.3625083267688751;-1.7624130785813224e-41;0.2141786515712738;0.19453677535057068;0.25663667917251587;0.26535564661026;0.40837928652763367;0.23772388696670532
39;0.3704512417316437;0.5908149480819702;0.16618487238883972;0.8416067957878113;-0.4174226224422455;0.807068407535553;0.7770755887031555;0.9816694855690002;-0.13184891641139984;0.05171163007616997;-1.7624130785813224e-41;-0.2499924749135971;-0.568989634513855;-0.0015061493031680584;-0.3712427020072937;0.2093103975057602;-0.2159045785665512
39;0.34580060839653015;0.6091118454933167;0.12765082716941833;0.7979176044464111;-0.31861940026283264;0.787410318851471;0.7442547678947449;0.9707228541374207;-0.018470924347639084;0.22894200682640076;-1.7624130785813224e-41;-0.12338647991418839;-0.4774210453033447;0.09598156809806824;-0.1910696029663086;0.1835279017686844;-0.13082894682884216
36;0.3254135847091675;0.593437671661377;0.10530024766921997;0.7915188074111938;-0.3226725459098816;0.7759260535240173;0.7380265593528748;0.9665188789367676;-0.015506913885474205;0.24573452770709991;-1.7624130785813224e-41;-0.12327780574560165;-0.4832810163497925;0.10137546807527542;-0.20778636634349823;0.1786692589521408;-0.12965209782123566
38;0.3587937653064728;0.5811452269554138;0.15308471024036407;0.832683801651001;-0.4179213345050812;0.7992960810661316;0.7672887444496155;0.9731991291046143;-0.12968309223651886;0.04699919745326042;-1.7624130785813224e-41;-0.24634885787963867;-0.5532954931259155;0.0248858742415905;-0.3442429304122925;0.20933616161346436;-0.19731003046035767
40;0.34875237941741943;0.6102988123893738;0.13204047083854675;0.7978347539901733;-0.31877338886260986;0.7875161170959473;0.7446520924568176;0.9673429727554321;-0.02079913020133972;0.23678576946258545;-1.7624130785813224e-41;-0.1262974590063095;-0.485748827457428;0.0929514467716217;-0.19715771079063416;0.1753670871257782;-0.1313558667898178
40;0.3715726435184479;0.5910345315933228;0.16840635240077972;0.8412556052207947;-0.41771262884140015;0.8056973814964294;0.7796367406845093;0.9772042036056519;-0.13595779240131378;0.04716821387410164;-1.7624130785813224e-41;-0.26037174463272095;-0.5743706822395325;-0.0007393204141408205;-0.37354734539985657;0.2174500823020935;-0.2121732383966446
37;0.33233579993247986;0.598809540271759;0.11389946192502975;0.793062150478363;-0.3157520294189453;0.7793677449226379;0.739935576915741;0.9677107930183411;-0.011159474961459637;0.24494698643684387;-1.7624130785813224e-41;-0.11847598850727081;-0.47643518447875977;0.10384798049926758;-0.20414452254772186;0.18390946090221405;-0.12574632465839386
39;0.3704512417316437;0.5908149480819702;0.16618487238883972;0.8416067957878113;-0.4174226224422455;0.807068407535553;0.7770755887031555;0.9816694855690002;-0.13184891641139984;0.05171163007616997;-1.7624130785813224e-41;-0.2499924749135971;-0.568989634513855;-0.0015061493031680584;-0.3712427020072937;0.2093103975057602;-0.2159045785665512
41;0.356651246547699;0.616855263710022;0.14136387407779694;0.8015837073326111;-0.31912508606910706;0.7925347089767456;0.7489795684814453;0.9697375893592834;-0.023616712540388107;0.23570652306079865;-1.7624130785813224e-41;-0.1293526589870453;-0.47691819071769714;0.08707607537508011;-0.19158011674880981;0.16795514523983002;-0.13553357124328613
41;0.37935492396354675;0.6016651391983032;0.17608144879341125;0.8487898707389832;-0.4429742991924286;0.8125976920127869;0.799156129360199;0.9856417775154114;-0.1534542441368103;0.05820273980498314;-1.7624130785813224e-41;-0.285134494304657;-0.5778417587280273;-0.012392716482281685;-0.42758017778396606;0.19708241522312164;-0.2248753309249878
38;0.33745986223220825;0.6024178862571716;0.12015092372894287;0.7928934693336487;-0.3157927393913269;0.7819697856903076;0.7399593591690063;0.968989372253418;-0.013232940807938576;0.2428269386291504;-1.7624130785813224e-41;-0.11934155970811844;-0.47849175333976746;0.09974007308483124;-0.18505752086639404;0.17944365739822388;-0.12972784042358398
40;0.3715726435184479;0.5910345315933228;0.16840635240077972;0.8412556052207947;-0.41771262884140015;0.8056973814964294;0.7796367406845093;0.9772042036056519;-0.13595779240131378;0.04716821387410164;-1.7624130785813224e-41;-0.26037174463272095;-0.5743706822395325;-0.0007393204141408205;-0.37354734539985657;0.2174500823020935;-0.2121732383966446
42;0.35891273617744446;0.6156664490699768;0.14488011598587036;0.8018465042114258;-0.32465648651123047;0.8250423669815063;0.7495001554489136;0.9686137437820435;-0.03125406801700592;0.22968633472919464;-1.7624130785813224e-41;-0.13549554347991943;-0.47206631302833557;0.07815705984830856;-0.2080053985118866;0.15748794376850128;-0.14262112975120544
42;0.36616575717926025;0.5881569385528564;0.16303329169750214;0.8725334405899048;-0.4372565448284149;0.8106441497802734;0.8226415514945984;0.9703462719917297;-0.15043720602989197;0.06708530336618423;-1.7624130785813224e-41;-0.27918165922164917;-0.5715113282203674;-0.029683377593755722;-0.4528908431529999;0.17860227823257446;-0.23626747727394104
39;0.34580060839653015;0.6091118454933167;0.12765082716941833;0.7979176044464111;-0.31861940026283264;0.787410318851471;0.7442547678947449;0.9707228541374207;-0.018470924347639084;0.22894200682640076;-1.7624130785813224e-41;-0.12338647991418839;-0.4774210453033447;0.09598156809806824;-0.1910696029663086;0.1835279017686844;-0.13082894682884216
41;0.37935492396354675;0.6016651391983032;0.17608144879341125;0.8487898707389832;-0.4429742991924286;0.8125976920127869;0.799156129360199;0.9856417775154114;-0.1534542441368103;0.05820273980498314;-1.7624130785813224e-41;-0.285134494304657;-0.5778417587280273;-0.012392716482281685;-0.42758017778396606;0.19708241522312164;-0.2248753309249878
43;0.36448314785957336;0.6192619204521179;0.15242989361286163;0.8026236891746521;-0.3210616707801819;0.8283903002738953;0.7505844831466675;0.9681622982025146;-0.029076892882585526;0.22819097340106964;-1.7624130785813224e-41;-0.13426075875759125;-0.4686925709247589;0.07724285125732422;-0.21228954195976257;0.1568165421485901;-0.14251916110515594
40;0.34875237941741943;0.6102988123893738;0.13204047083854675;0.7978347539901733;-0.31877338886260986;0.7875161170959473;0.7446520924568176;0.9673429727554321;-0.02079913020133972;0.23678576946258545;-1.7624130785813224e-41;-0.1262974590063095;-0.485748827457428;0.0929514467716217;-0.19715771079063416;0.1753670871257782;-0.1313558667898178
43;0.36841249465942383;0.5899081826210022;0.16474328935146332;0.8614448308944702;-0.44441160559654236;0.8158475160598755;0.8083835244178772;0.9692962169647217;-0.15672050416469574;0.06247831881046295;-1.7624130785813224e-41;-0.28371426463127136;-0.5712972283363342;-0.029554322361946106;-0.42328476905822754;0.13976119458675385;-0.23899272084236145
42;0.36616575717926025;0.5881569385528564;0.16303329169750214;0.8725334405899048;-0.4372565448284149;0.8106441497802734;0.8226415514945984;0.9703462719917297;-0.15043720602989197;0.06708530336618423;-1.7624130785813224e-41;-0.27918165922164917;-0.5715113282203674;-0.029683377593755722;-0.4528908431529999;0.17860227823257446;-0.23626747727394104
44;0.3748335540294647;0.6277801394462585;0.16436845064163208;0.8083333969116211;-0.32129839062690735;0.8354604840278625;0.756591260433197;0.9724823832511902;-0.03207550197839737;0.22057156264781952;-1.7624130785813224e-41;-0.13701878488063812;-0.4695266783237457;0.0725805014371872;-0.21119490265846252;0.1593681126832962;-0.14560949802398682
41;0.356651246547699;0.616855263710022;0.14136387407779694;0.8015837073326111;-0.31912508606910706;0.7925347089767456;0.7489795684814453;0.9697375893592834;-0.023616712540388107;0.23570652306079865;-1.7624130785813224e-41;-0.1293526589870453;-0.47691819071769714;0.08707607537508011;-0.19158011674880981;0.16795514523983002;-0.13553357124328613
44;0.37143251299858093;0.5910136699676514;0.16864866018295288;0.8609463572502136;-0.45388293266296387;0.8173043727874756;0.8096745610237122;0.9694053530693054;-0.168574720621109;0.07134028524160385;-1.7624130785813224e-41;-0.2974540889263153;-0.5788633823394775;-0.038516514003276825;-0.4415932893753052;0.14126485586166382;-0.24816620349884033
43;0.36841249465942383;0.5899081826210022;0.16474328935146332;0.8614448308944702;-0.44441160559654236;0.8158475160598755;0.8083835244178772;0.9692962169647217;-0.15672050416469574;0.06247831881046295;-1.7624130785813224e-41;-0.28371426463127136;-0.5712972283363342;-0.029554322361946106;-0.42328476905822754;0.13976119458675385;-0.23899272084236145
45;0.3822346329689026;0.6335283517837524;0.17346836626529694;0.8109148740768433;-0.31618568301200867;0.8400586247444153;0.7595199942588806;0.9738772511482239;-0.029617223888635635;0.2194836288690567;-1.7624130785813224e-41;-0.13414622843265533;-0.46335896849632263;0.07473710924386978;-0.2139578014612198;0.15726175904273987;-0.14260010421276093
42;0.35891273617744446;0.6156664490699768;0.14488011598587036;0.8018465042114258;-0.32465648651123047;0.8250423669815063;0.7495001554489136;0.9686137437820435;-0.03125406801700592;0.22968633472919464;-1.7624130785813224e-41;-0.13549554347991943;-0.47206631302833557;0.07815705984830856;-0.2080053985118866;0.15748794376850128;-0.14262112975120544
45;0.3686259984970093;0.5892799496650696;0.16680502891540527;0.855212390422821;-0.45837491750717163;0.8395375609397888;0.8040371537208557;0.963468611240387;-0.17465783655643463;0.05198327451944351;-1.7624130785813224e-41;-0.3012361526489258;-0.5798847675323486;-0.043951936066150665;-0.4305171072483063;0.1486300379037857;-0.25594836473464966
44;0.37143251299858093;0.5910136699676514;0.16864866018295288;0.8609463572502136;-0.45388293266296387;0.8173043727874756;0.8096745610237122;0.9694053530693054;-0.168574720621109;0.07134028524160385;-1.7624130785813224e-41;-0.2974540889263153;-0.5788633823394775;-0.038516514003276825;-0.4415932893753052;0.14126485586166382;-0.24816620349884033
46;0.3872172236442566;0.6375788450241089;0.17984941601753235;0.812343955039978;-0.31102603673934937;0.842423141002655;0.7612510323524475;0.9705320596694946;-0.02712511271238327;0.21145938336849213;-1.7624130785813224e-41;-0.13072915375232697;-0.4580206274986267;0.07625067234039307;-0.2290884107351303;0.15575861930847168;-0.13886640965938568
43;0.36448314785957336;0.6192619204521179;0.15242989361286163;0.8026236891746521;-0.3210616707801819;0.8283903002738953;0.7505844831466675;0.9681622982025146;-0.029076892882585526;0.22819097340106964;-1.7624130785813224e-41;-0.13426075875759125;-0.4686925709247589;0.07724285125732422;-0.21228954195976257;0.1568165421485901;-0.14251916110515594
46;0.37348487973213196;0.5936572551727295;0.17259597778320312;0.8498979806900024;-0.45220983028411865;0.8462421298027039;0.798555850982666;0.965660810470581;-0.17161059379577637;0.04432738572359085;-1.7624130785813224e-41;-0.29550981521606445;-0.5704390406608582;-0.034868720918893814;-0.4505646228790283;0.12964707612991333;-0.24687065184116364
45;0.3686259984970093;0.5892799496650696;0.16680502891540527;0.855212390422821;-0.45837491750717163;0.8395375609397888;0.8040371537208557;0.963468611240387;-0.17465783655643463;0.05198327451944351;-1.7624130785813224e-41;-0.3012361526489258;-0.5798847675323486;-0.043951936066150665;-0.4305171072483063;0.1486300379037857;-0.25594836473464966
47;0.3930056691169739;0.6414153575897217;0.18729472160339355;0.8131544589996338;-0.30697911977767944;0.845173716545105;0.7625508308410645;0.9702454805374146;-0.025767261162400246;0.21134665608406067;-1.7624130785813224e-41;-0.1291852742433548;-0.4541379511356354;0.07680381834506989;-0.22592733800411224;0.15926209092140198;-0.13686861097812653
44;0.3748335540294647;0.6277801394462585;0.16436845064163208;0.8083333969116211;-0.32129839062690735;0.8354604840278625;0.756591260433197;0.9724823832511902;-0.03207550197839737;0.22057156264781952;-1.7624130785813224e-41;-0.13701878488063812;-0.4695266783237457;0.0725805014371872;-0.21119490265846252;0.1593681126832962;-0.14560949802398682
47;0.38328519463539124;0.6017000079154968;0.18370071053504944;0.8577155470848083;-0.4473971724510193;0.830281138420105;0.8068084120750427;0.971929669380188;-0.16839048266410828;0.04867862910032272;-1.7624130785813224e-41;-0.292243629693985;-0.5706634521484375;-0.028995059430599213;-0.4818856418132782;0.12666566669940948;-0.2390223741531372
46;0.37348487973213196;0.5936572551727295;0.17259597778320312;0.8498979806900024;-0.45220983028411865;0.8462421298027039;0.798555850982666;0.965660810470581;-0.17161059379577637;0.04432738572359085;-1.7624130785813224e-41;-0.29550981521606445;-0.5704390406608582;-0.034868720918893814;-0.4505646228790283;0.12964707612991333;-0.24687065184116364
48;0.4013633131980896;0.6482871770858765;0.19711947441101074;0.8157481551170349;-0.3039385974407196;0.8491121530532837;0.7666483521461487;0.9748916625976562;-0.026497336104512215;0.20645107328891754;-1.7624130785813224e-41;-0.13008758425712585;-0.4541608691215515;0.0746290385723114;-0.22417861223220825;0.1434355080127716;-0.1375901997089386
45;0.3822346329689026;0.6335283517837524;0.17346836626529694;0.8109148740768433;-0.31618568301200867;0.8400586247444153;0.7595199942588806;0.9738772511482239;-0.029617223888635635;0.2194836288690567;-1.7624130785813224e-41;-0.13414622843265533;-0.46335896849632263;0.07473710924386978;-0.2139578014612198;0.15726175904273987;-0.14260010421276093
48;0.3928549885749817;0.6099838614463806;0.19446833431720734;0.8658015131950378;-0.44479870796203613;0.8367144465446472;0.8153495788574219;0.9781959652900696;-0.17100337147712708;0.05703238770365715;-1.7624130785813224e-41;-0.29179948568344116;-0.5788552165031433;-0.03465430438518524;-0.5097386837005615;0.10539666563272476;-0.24339982867240906
47;0.38328519463539124;0.6017000079154968;0.18370071053504944;0.8577155470848083;-0.4473971724510193;0.830281138420105;0.8068084120750427;0.971929669380188;-0.16839048266410828;0.04867862910032272;-1.7624130785813224e-41;-0.292243629693985;-0.5706634521484375;-0.028995059430599213;-0.4818856418132782;0.12666566669940948;-0.2390223741531372
49;0.4047565758228302;0.6497951149940491;0.20215272903442383;0.8145456910133362;-0.2993829846382141;0.8493045568466187;0.7659813761711121;0.9723547101020813;-0.02458677813410759;0.20429369807243347;-1.7624130785813224e-41;-0.12689238786697388;-0.4499798119068146;0.0741749182343483;-0.21938322484493256;0.14466528594493866;-0.13648490607738495
46;0.3872172236442566;0.6375788450241089;0.17984941601753235;0.812343955039978;-0.31102603673934937;0.842423141002655;0.7612510323524475;0.9705320596694946;-0.02712511271238327;0.21145938336849213;-1.7624130785813224e-41;-0.13072915375232697;-0.4580206274986267;0.07625067234039307;-0.2290884107351303;0.15575861930847168;-0.13886640965938568
49;0.3961297273635864;0.611669659614563;0.1991262286901474;0.8659718036651611;-0.4422854483127594;0.859683096408844;0.8145769238471985;0.9776447415351868;-0.1695881485939026;0.05934412032365799;-1.7624130785813224e-41;-0.2902127206325531;-0.5794756412506104;-0.04237375035881996;-0.47110864520072937;0.1015649065375328;-0.24967214465141296
48;0.3928549885749817;0.6099838614463806;0.19446833431720734;0.8658015131950378;-0.44479870796203613;0.8367144465446472;0.8153495788574219;0.9781959652900696;-0.17100337147712708;0.05703238770365715;-1.7624130785813224e-41;-0.29179948568344116;-0.5788552165031433;-0.03465430438518524;-0.5097386837005615;0.10539666563272476;-0.24339982867240906
50;0.4081214666366577;0.6538252234458923;0.2093428373336792;0.8169829249382019;-0.2967284917831421;0.8520047068595886;0.768648087978363;0.9737655520439148;-0.022984029725193977;0.19890595972537994;-1.7624130785813224e-41;-0.11749545484781265;-0.45090314745903015;0.0718606561422348;-0.2136121392250061;0.13135889172554016;-0.13650564849376678
47;0.3930056691169739;0.6414153575897217;0.18729472160339355;0.8131544589996338;-0.30697911977767944;0.845173716545105;0.7625508308410645;0.9702454805374146;-0.025767261162400246;0.21134665608406067;-1.7624130785813224e-41;-0.1291852742433548;-0.4541379511356354;0.07680381834506989;-0.22592733800411224;0.15926209092140198;-0.13686861097812653
50;0.405730664730072;0.6207998394966125;0.21024003624916077;0.8737888932228088;-0.432223916053772;0.8448437452316284;0.8225886821746826;0.9849445819854736;-0.15931436419487;0.0574452206492424;-1.7624130785813224e-41;-0.28965285420417786;-0.5777025818824768;-0.04714466258883476;-0.48904845118522644;0.11544959247112274;-0.2553562521934509
49;0.3961297273635864;0.611669659614563;0.1991262286901474;0.8659718036651611;-0.4422854483127594;0.859683096408844;0.8145769238471985;0.9776447415351868;-0.1695881485939026;0.05934412032365799;-1.7624130785813224e-41;-0.2902127206325531;-0.5794756412506104;-0.04237375035881996;-0.47110864520072937;0.1015649065375328;-0.24967214465141296
51;0.408311128616333;0.6528845429420471;0.21052296459674835;0.816123902797699;-0.30060067772865295;0.8492399454116821;0.7660305500030518;0.9714908003807068;-0.02843571826815605;0.19263674318790436;-1.7624130785813224e-41;-0.12121174484491348;-0.4545290172100067;0.06780453771352768;-0.22383736073970795;0.1187073364853859;-0.13985636830329895
48;0.4013633131980896;0.6482871770858765;0.19711947441101074;0.8157481551170349;-0.3039385974407196;0.8491121530532837;0.7666483521461487;0.9748916625976562;-0.026497336104512215;0.20645107328891754;-1.7624130785813224e-41;-0.13008758425712585;-0.4541608691215515;0.0746290385723114;-0.22417861223220825;0.1434355080127716;-0.1375901997089386
51;0.39598625898361206;0.6102798581123352;0.20120641589164734;0.860206127166748;-0.42339402437210083;0.8561119437217712;0.8116831183433533;0.9731137156486511;-0.16074132919311523;0.03326239064335823;-1.7624130785813224e-41;-0.2892242670059204;-0.5710412263870239;-0.048811379820108414;-0.46365949511528015;0.10970409959554672;-0.25685855746269226
50;0.405730664730072;0.6207998394966125;0.21024003624916077;0.8737888932228088;-0.432223916053772;0.8448437452316284;0.8225886821746826;0.9849445819854736;-0.15931436419487;0.0574452206492424;-1.7624130785813224e-41;-0.28965285420417786;-0.5777025818824768;-0.04714466258883476;-0.48904845118522644;0.11544959247112274;-0.2553562521934509
52;0.4137328267097473;0.6566684246063232;0.2174708992242813;0.8185034394264221;-0.3054250180721283;0.8513798117637634;0.7686377167701721;0.9727272987365723;-0.0353434719145298;0.18239985406398773;-1.7624130785813224e-41;-0.1276138573884964;-0.44762906432151794;0.06393422931432724;-0.22714149951934814;0.10835766047239304;-0.1430632472038269
49;0.4047565758228302;0.6497951149940491;0.20215272903442383;0.8145456910133362;-0.2993829846382141;0.8493045568466187;0.7659813761711121;0.9723547101020813;-0.02458677813410759;0.20429369807243347;-1.7624130785813224e-41;-0.12689238786697388;-0.4499798119068146;0.0741749182343483;-0.21938322484493256;0.14466528594493866;-0.13648490607738495
52;0.4003963768482208;0.6115406155586243;0.20780612528324127;0.8571425676345825;-0.411871999502182;0.854867160320282;0.8072375655174255;0.9705091714859009;-0.15369591116905212;0.0225343219935894;-1.7624130785813224e-41;-0.2850780487060547;-0.5532653331756592;-0.03735287860035896;-0.42796847224235535;0.14522084593772888;-0.24682873487472534
51;0.39598625898361206;0.6102798581123352;0.20120641589164734;0.860206127166748;-0.42339402437210083;0.8561119437217712;0.8116831183433533;0.9731137156486511;-0.16074132919311523;0.03326239064335823;-1.7624130785813224e-41;-0.2892242670059204;-0.5710412263870239;-0.048811379820108414;-0.46365949511528015;0.10970409959554672;-0.25685855746269226
53;0.41583487391471863;0.6595972180366516;0.22286337614059448;0.8216378688812256;-0.31045275926589966;0.8527509570121765;0.7720497250556946;0.9744625091552734;-0.04039640724658966;0.17568573355674744;-1.7624130785813224e-41;-0.13371026515960693;-0.4470524489879608;0.062025006860494614;-0.2525941729545593;0.08729531615972519;-0.14386126399040222
50;0.4081214666366577;0.6538252234458923;0.2093428373336792;0.8169829249382019;-0.2967284917831421;0.8520047068595886;0.768648087978363;0.9737655520439148;-0.022984029725193977;0.19890595972537994;-1.7624130785813224e-41;-0.11749545484781265;-0.45090314745903015;0.0718606561422348;-0.2136121392250061;0.13135889172554016;-0.13650564849376678
53;0.40627947449684143;0.6177356243133545;0.2145165205001831;0.8649879693984985;-0.43613147735595703;0.8610080480575562;0.8145691156387329;0.9752521514892578;-0.15850450098514557;0.03049260936677456;-1.7624130785813224e-41;-0.2918827533721924;-0.5576282739639282;-0.04705086722970009;-0.4769692122936249;0.0946730449795723;-0.24641640484333038
52;0.4003963768482208;0.6115406155586243;0.20780612528324127;0.8571425676345825;-0.411871999502182;0.854867160320282;0.8072375655174255;0.9705091714859009;-0.15369591116905212;0.0225343219935894;-1.7624130785813224e-41;-0.2850780487060547;-0.5532653331756592;-0.03735287860035896;-0.42796847224235535;0.14522084593772888;-0.24682873487472534
54;0.4131614565849304;0.6577824354171753;0.22356754541397095;0.8199220299720764;-0.31513136625289917;0.8498803973197937;0.7669168710708618;0.9716908931732178;-0.04671648517251015;0.1719628870487213;-1.7624130785813224e-41;-0.1382252424955368;-0.4486549198627472;0.0560995377600193;-0.2708050012588501;0.08867894113063812;-0.14803510904312134
51;0.408311128616333;0.6528845429420471;0.21052296459674835;0.816123902797699;-0.30060067772865295;0.8492399454116821;0.7660305500030518;0.9714908003807068;-0.02843571826815605;0.19263674318790436;-1.7624130785813224e-41;-0.12121174484491348;-0.4545290172100067;0.06780453771352768;-0.22383736073970795;0.1187073364853859;-0.13985636830329895
54;0.4068359136581421;0.6173998713493347;0.2157912403345108;0.8632538318634033;-0.4352712035179138;0.8594913482666016;0.8125067949295044;0.9742807745933533;-0.15930217504501343;0.02457689680159092;-1.7624130785813224e-41;-0.2918487787246704;-0.5621364116668701;-0.056918177753686905;-0.4990762174129486;0.08021877706050873;-0.24963310360908508
53;0.40627947449684143;0.6177356243133545;0.2145165205001831;0.8649879693984985;-0.43613147735595703;0.8610080480575562;0.8145691156387329;0.9752521514892578;-0.15850450098514557;0.03049260936677456;-1.7624130785813224e-41;-0.2918827533721924;-0.5576282739639282;-0.04705086722970009;-0.4769692122936249;0.0946730449795723;-0.24641640484333038
55;0.41607344150543213;0.6589035987854004;0.22803574800491333;0.8184018731117249;-0.313404381275177;0.84986412525177;0.7657541632652283;0.9691036939620972;-0.048091161996126175;0.16527429223060608;-1.7624130785813224e-41;-0.13696587085723877;-0.44613170623779297;0.052797384560108185;-0.269702672958374;0.09099941700696945;-0.14935865998268127
52;0.4137328267097473;0.6566684246063232;0.2174708992242813;0.8185034394264221;-0.3054250180721283;0.8513798117637634;0.7686377167701721;0.9727272987365723;-0.0353434719145298;0.18239985406398773;-1.7624130785813224e-41;-0.1276138573884964;-0.44762906432151794;0.06393422931432724;-0.22714149951934814;0.10835766047239304;-0.1430632472038269
55;0.4059469997882843;0.6147555112838745;0.21605543792247772;0.8584439158439636;-0.42276352643966675;0.8599551916122437;0.8114811778068542;0.9698512554168701;-0.15963155031204224;0.00557771185413003;-1.7624130785813224e-41;-0.2878740429878235;-0.5607187747955322;-0.06574022024869919;-0.48066720366477966;0.08153336495161057;-0.25432196259498596
54;0.4068359136581421;0.6173998713493347;0.2157912403345108;0.8632538318634033;-0.4352712035179138;0.8594913482666016;0.8125067949295044;0.9742807745933533;-0.15930217504501343;0.02457689680159092;-1.7624130785813224e-41;-0.2918487787246704;-0.5621364116668701;-0.056918177753686905;-0.4990762174129486;0.08021877706050873;-0.24963310360908508
56;0.4218980371952057;0.6634242534637451;0.23552335798740387;0.8198875784873962;-0.311114639043808;0.8524692058563232;0.7676395177841187;0.9693637490272522;-0.048387881368398666;0.16193658113479614;-1.7624130785813224e-41;-0.13726690411567688;-0.44302859902381897;0.05235419422388077;-0.26178815960884094;0.09416943788528442;-0.1486217975616455
53;0.41583487391471863;0.6595972180366516;0.22286337614059448;0.8216378688812256;-0.31045275926589966;0.8527509570121765;0.7720497250556946;0.9744625091552734;-0.04039640724658966;0.17568573355674744;-1.7624130785813224e-41;-0.13371026515960693;-0.4470524489879608;0.062025006860494614;-0.2525941729545593;0.08729531615972519;-0.14386126399040222
56;0.4106971323490143;0.6385414600372314;0.22189410030841827;0.8550840616226196;-0.38684216141700745;0.8555474281311035;0.8066463470458984;0.9598978161811829;-0.1283247172832489;0.02288639545440674;-1.7624130785813224e-41;-0.2621881663799286;-0.532067060470581;-0.03988242521882057;-0.39423590898513794;0.10406427085399628;-0.2292005866765976
55;0.4059469997882843;0.6147555112838745;0.21605543792247772;0.8584439158439636;-0.42276352643966675;0.8599551916122437;0.8114811778068542;0.9698512554168701;-0.15963155031204224;0.00557771185413003;-1.7624130785813224e-41;-0.2878740429878235;-0.5607187747955322;-0.06574022024869919;-0.48066720366477966;0.08153336495161057;-0.25432196259498596
57;0.42853695154190063;0.6681544184684753;0.24377930164337158;0.8218511939048767;-0.3077787756919861;0.8564547896385193;0.7700536847114563;0.9703761339187622;-0.047631487250328064;0.15815004706382751;-1.7624130785813224e-41;-0.13586460053920746;-0.4392623007297516;0.05218803882598877;-0.2579723000526428;0.09951847046613693;-0.1477324366569519
54;0.4131614565849304;0.6577824354171753;0.22356754541397095;0.8199220299720764;-0.31513136625289917;0.8498803973197937;0.7669168710708618;0.9716908931732178;-0.04671648517251015;0.1719628870487213;-1.7624130785813224e-41;-0.1382252424955368;-0.4486549198627472;0.0560995377600193;-0.2708050012588501;0.08867894113063812;-0.14803510904312134
57;0.4225592017173767;0.6487454771995544;0.2350722849369049;0.8644177317619324;-0.37829938530921936;0.8428271412849426;0.81630939245224;0.9679380059242249;-0.1220506951212883;0.009247273206710815;-1.7624130785813224e-41;-0.2556767165660858;-0.5327968597412109;-0.04280342534184456;-0.43516865372657776;0.11073809117078781;-0.2378728687763214
56;0.4106971323490143;0.6385414600372314;0.22189410030841827;0.8550840616226196;-0.38684216141700745;0.8555474281311035;0.8066463470458984;0.9598978161811829;-0.1283247172832489;0.02288639545440674;-1.7624130785813224e-41;-0.2621881663799286;-0.532067060470581;-0.03988242521882057;-0.39423590898513794;0.10406427085399628;-0.2292005866765976
58;0.4354625940322876;0.6735013723373413;0.2524392008781433;0.8262177109718323;-0.3070385754108429;0.8604962825775146;0.7746986746788025;0.9732435941696167;-0.04734983295202255;0.15944603085517883;-1.7624130785813224e-41;-0.1367308646440506;-0.43813249468803406;0.05050110071897507;-0.265779048204422;0.08782554417848587;-0.14343389868736267
55;0.41607344150543213;0.6589035987854004;0.22803574800491333;0.8184018731117249;-0.313404381275177;0.84986412525177;0.7657541632652283;0.9691036939620972;-0.048091161996126175;0.16527429223060608;-1.7624130785813224e-41;-0.13696587085723877;-0.44613170623779297;0.052797384560108185;-0.269702672958374;0.09099941700696945;-0.14935865998268127
58;0.4308088719844818;0.6374742984771729;0.24550794064998627;0.8714177012443542;-0.4119122624397278;0.8528034687042236;0.8235684037208557;0.9801763892173767;-0.13504089415073395;-0.0020285474602133036;-1.7624130785813224e-41;-0.26858678460121155;-0.5486268401145935;-0.05725061893463135;-0.501530110836029;0.08199793100357056;-0.24338316917419434
57;0.4225592017173767;0.6487454771995544;0.2350722849369049;0.8644177317619324;-0.37829938530921936;0.8428271412849426;0.81630939245224;0.9679380059242249;-0.1220506951212883;0.009247273206710815;-1.7624130785813224e-41;-0.2556767165660858;-0.5327968597412109;-0.04280342534184456;-0.43516865372657776;0.11073809117078781;-0.2378728687763214
59;0.4380483329296112;0.6745834946632385;0.25631412863731384;0.8240862488746643;-0.30563732981681824;0.8603031039237976;0.7760125994682312;0.9726764559745789;-0.04837235435843468;0.1631353795528412;-1.7624130785813224e-41;-0.1377783715724945;-0.43686583638191223;0.04934235289692879;-0.26416251063346863;0.07942250370979309;-0.14397752285003662
56;0.4218980371952057;0.6634242534637451;0.23552335798740387;0.8198875784873962;-0.311114639043808;0.8524692058563232;0.7676395177841187;0.9693637490272522;-0.048387881368398666;0.16193658113479614;-1.7624130785813224e-41;-0.13726690411567688;-0.44302859902381897;0.05235419422388077;-0.26178815960884094;0.09416943788528442;-0.1486217975616455
59;0.4354322850704193;0.6396802663803101;0.25175243616104126;0.8681975603103638;-0.4038103222846985;0.8522580862045288;0.8225929737091064;0.9791962504386902;-0.13090448081493378;-0.0005876244395039976;-1.7624130785813224e-41;-0.26538389921188354;-0.5224002599716187;-0.042235128581523895;-0.4767564833164215;0.10208868235349655;-0.22411133348941803
58;0.4308088719844818;0.6374742984771729;0.24550794064998627;0.8714177012443542;-0.4119122624397278;0.8528034687042236;0.8235684037208557;0.9801763892173767;-0.13504089415073395;-0.0020285474602133036;-1.7624130785813224e-41;-0.26858678460121155;-0.5486268401145935;-0.05725061893463135;-0.501530110836029;0.08199793100357056;-0.24338316917419434
60;0.4440877437591553;0.6788747310638428;0.26406168937683105;0.8256708979606628;-0.30427461862564087;0.8629211783409119;0.778123676776886;0.9732550978660583;-0.04961104691028595;0.16173669695854187;-1.7624130785813224e-41;-0.1357438713312149;-0.43299993872642517;0.052583955228328705;-0.2733864486217499;0.06859096139669418;-0.14313383400440216
57;0.42853695154190063;0.6681544184684753;0.24377930164337158;0.8218511939048767;-0.3077787756919861;0.8564547896385193;0.7700536847114563;0.9703761339187622;-0.047631487250328064;0.15815004706382751;-1.7624130785813224e-41;-0.13586460053920746;-0.4392623007297516;0.05218803882598877;-0.2579723000526428;0.09951847046613693;-0.1477324366569519
60;0.4353291392326355;0.638063907623291;0.2531106173992157;0.8637368083000183;-0.3946995735168457;0.8710470199584961;0.8222929835319519;0.9749307036399841;-0.13313589990139008;-0.012810392305254936;-1.7624130785813224e-41;-0.27298083901405334;-0.5227324962615967;-0.04557317495346069;-0.4554930031299591;0.07897058874368668;-0.2282988727092743
59;0.4354322850704193;0.6396802663803101;0.25175243616104126;0.8681975603103638;-0.4038103222846985;0.8522580862045288;0.8225929737091064;0.9791962504386902;-0.13090448081493378;-0.0005876244395039976;-1.7624130785813224e-41;-0.26538389921188354;-0.5224002599716187;-0.042235128581523895;-0.4767564833164215;0.10208868235349655;-0.22411133348941803
61;0.4570173919200897;0.6901947259902954;0.2686818242073059;0.827192485332489;-0.3068586587905884;0.8724928498268127;0.7797438502311707;0.9817376136779785;-0.05440552532672882;0.1598166525363922;-1.7624130785813224e-41;-0.13923637568950653;-0.4294948875904083;0.04836304113268852;-0.28235527873039246;0.05053562670946121;-0.14732636511325836
58;0.4354625940322876;0.6735013723373413;0.2524392008781433;0.8262177109718323;-0.3070385754108429;0.8604962825775146;0.7746986746788025;0.9732435941696167;-0.04734983295202255;0.15944603085517883;-1.7624130785813224e-41;-0.1367308646440506;-0.43813249468803406;0.05050110071897507;-0.265779048204422;0.08782554417848587;-0.14343389868736267
61;0.7747359275817871;0.7759762406349182;0.7747212648391724;0.77552729845047;0.1976088136434555;0.7780008912086487;0.7756681442260742;0.7771612405776978;0.20581696927547455;0.31338366866111755;-1.7624130785813224e-41;0.20276470482349396;0.23119215667247772;0.2255280613899231;0.2165810763835907;0.3358272910118103;0.22637301683425903
60;0.4353291392326355;0.638063907623291;0.2531106173992157;0.8637368083000183;-0.3946995735168457;0.8710470199584961;0.8222929835319519;0.9749307036399841;-0.13313589990139008;-0.012810392305254936;-1.7624130785813224e-41;-0.27298083901405334;-0.5227324962615967;-0.04557317495346069;-0.4554930031299591;0.07897058874368668;-0.2282988727092743
62;0.46226778626441956;0.6937012672424316;0.27521276473999023;0.8279103636741638;-0.3066130578517914;0.8744553327560425;0.7808728218078613;0.9815133810043335;-0.05720682442188263;0.15914298593997955;-1.7624130785813224e-41;-0.14155597984790802;-0.41996365785598755;0.04550471529364586;-0.2820456326007843;0.03883214667439461;-0.14700807631015778
59;0.4380483329296112;0.6745834946632385;0.25631412863731384;0.8240862488746643;-0.30563732981681824;0.8603031039237976;0.7760125994682312;0.9726764559745789;-0.04837235435843468;0.1631353795528412;-1.7624130785813224e-41;-0.1377783715724945;-0.43686583638191223;0.04934235289692879;-0.26416251063346863;0.07942250370979309;-0.14397752285003662
62;0.7776838541030884;0.7788403630256653;0.7777301073074341;0.7783480286598206;0.19504494965076447;0.7808037996292114;0.778506338596344;0.779924213886261;0.2029811143875122;0.31609034538269043;-1.7624130785813224e-41;0.20018646121025085;0.23166219890117645;0.22302868962287903;0.2134452909231186;0.32598772644996643;0.22367151081562042
61;0.7747359275817871;0.7759762406349182;0.7747212648391724;0.77552729845047;0.1976088136434555;0.7780008912086487;0.7756681442260742;0.7771612405776978;0.20581696927547455;0.31338366866111755;-1.7624130785813224e-41;0.20276470482349396;0.23119215667247772;0.2255280613899231;0.2165810763835907;0.3358272910118103;0.22637301683425903
63;0.4669542610645294;0.6965953707695007;0.28133007884025574;0.8283839225769043;-0.30235227942466736;0.8758261203765869;0.782202959060669;0.9806899428367615;-0.050536029040813446;0.15687547624111176;-1.7624130785813224e-41;-0.13668672740459442;-0.41444167494773865;0.04729585722088814;-0.2771948277950287;0.03587237372994423;-0.1444312483072281
60;0.4440877437591553;0.6788747310638428;0.26406168937683105;0.8256708979606628;-0.30427461862564087;0.8629211783409119;0.778123676776886;0.9732550978660583;-0.04961104691028595;0.16173669695854187;-1.7624130785813224e-41;-0.1357438713312149;-0.43299993872642517;0.052583955228328705;-0.2733864486217499;0.06859096139669418;-0.14313383400440216
63;0.7771083116531372;0.778200089931488;0.7771964073181152;0.7776785492897034;0.19463443756103516;0.7800809144973755;0.7778388261795044;0.7792039513587952;0.20454460382461548;0.31493672728538513;-1.7624130785813224e-41;0.1989532709121704;0.23287208378314972;0.22237420082092285;0.21353520452976227;0.32113245129585266;0.22285917401313782
62;0.7776838541030884;0.7788403630256653;0.7777301073074341;0.7783480286598206;0.19504494965076447;0.7808037996292114;0.778506338596344;0.779924213886261;0.2029811143875122;0.31609034538269043;-1.7624130785813224e-41;0.20018646121025085;0.23166219890117645;0.22302868962287903;0.2134452909231186;0.32598772644996643;0.22367151081562042
64;0.4676855504512787;0.6963079571723938;0.2800126075744629;0.8233755826950073;-0.3135855197906494;0.8747812509536743;0.7771407961845398;0.9808838367462158;-0.05095036327838898;0.16312642395496368;-1.7624130785813224e-41;-0.14826300740242004;-0.42247000336647034;0.034943077713251114;-0.3068927824497223;0.029476556926965714;-0.1519879549741745
61;0.4570173919200897;0.6901947259902954;0.2686818242073059;0.827192485332489;-0.3068586587905884;0.8724928498268127;0.7797438502311707;0.9817376136779785;-0.05440552532672882;0.1598166525363922;-1.7624130785813224e-41;-0.13923637568950653;-0.4294948875904083;0.04836304113268852;-0.28235527873039246;0.05053562670946121;-0.14732636511325836
64;0.7757411599159241;0.7767714858055115;0.7758536338806152;0.7762836813926697;0.19556693732738495;0.778556764125824;0.7764537334442139;0.7776590585708618;0.20570367574691772;0.3157699704170227;-1.7624130785813224e-41;0.200493723154068;0.23381608724594116;0.22364118695259094;0.21070925891399384;0.3193355202674866;0.22305896878242493
63;0.7771083116531372;0.778200089931488;0.7771964073181152;0.7776785492897034;0.19463443756103516;0.7800809144973755;0.7778388261795044;0.7792039513587952;0.20454460382461548;0.31493672728538513;-1.7624130785813224e-41;0.1989532709121704;0.23287208378314972;0.22237420082092285;0.21353520452976227;0.32113245129585266;0.22285917401313782
65;0.4680849313735962;0.6951696276664734;0.28161510825157166;0.8217172026634216;-0.3167155981063843;0.8724337220191956;0.7757983803749084;0.9779787063598633;-0.054483190178871155;0.16252271831035614;-1.7624130785813224e-41;-0.15108002722263336;-0.42593154311180115;0.026915976777672768;-0.3136221468448639;0.03210398554801941;-0.157852441072464
62;0.46226778626441956;0.6937012672424316;0.27521276473999023;0.8279103636741638;-0.3066130578517914;0.8744553327560425;0.7808728218078613;0.9815133810043335;-0.05720682442188263;0.15914298593997955;-1.7624130785813224e-41;-0.14155597984790802;-0.41996365785598755;0.04550471529364586;-0.2820456326007843;0.03883214667439461;-0.14700807631015778
65;0.7738744616508484;0.7748548984527588;0.7740122675895691;0.7743601202964783;0.1993015557527542;0.7765642404556274;0.7745196223258972;0.7757116556167603;0.2099420726299286;0.3169582188129425;-1.7624130785813224e-41;0.20443546772003174;0.23634891211986542;0.226921945810318;0.21281838417053223;0.3182382881641388;0.2250158041715622
64;0.7757411599159241;0.7767714858055115;0.7758536338806152;0.7762836813926697;0.19556693732738495;0.778556764125824;0.7764537334442139;0.7776590585708618;0.20570367574691772;0.3157699704170227;-1.7624130785813224e-41;0.200493723154068;0.23381608724594116;0.22364118695259094;0.21070925891399384;0.3193355202674866;0.22305896878242493
66;0.472396582365036;0.6975358724594116;0.2872941493988037;0.821393609046936;-0.317872554063797;0.87331223487854;0.7759653329849243;0.9768044352531433;-0.05800957232713699;0.16325519979000092;-1.7624130785813224e-41;-0.15148170292377472;-0.4261048436164856;0.0231283251196146;-0.31188926100730896;0.026800546795129776;-0.16049490869045258
63;0.4669542610645294;0.6965953707695007;0.28133007884025574;0.8283839225769043;-0.30235227942466736;0.8758261203765869;0.782202959060669;0.9806899428367615;-0.050536029040813446;0.15687547624111176;-1.7624130785813224e-41;-0.13668672740459442;-0.41444167494773865;0.04729585722088814;-0.2771948277950287;0.03587237372994423;-0.1444312483072281
66;0.772185742855072;0.773100733757019;0.772340714931488;0.772587239742279;0.20100948214530945;0.7747220993041992;0.772729754447937;0.7738927602767944;0.21183054149150848;0.3234613239765167;-1.7624130785813224e-41;0.20647138357162476;0.23617738485336304;0.22761179506778717;0.21660251915454865;0.3169610798358917;0.22587713599205017
65;0.7738744616508484;0.7748548984527588;0.7740122675895691;0.7743601202964783;0.1993015557527542;0.7765642404556274;0.7745196223258972;0.7757116556167603;0.2099420726299286;0.3169582188129425;-1.7624130785813224e-41;0.20443546772003174;0.23634891211986542;0.226921945810318;0.21281838417053223;0.3182382881641388;0.2250158041715622
67;0.477966845035553;0.6980602145195007;0.2941893935203552;0.8235751986503601;-0.3222627341747284;0.8766264915466309;0.7785153388977051;0.9790425300598145;-0.05699460208415985;0.16562414169311523;-1.7624130785813224e-41;-0.14788952469825745;-0.42154592275619507;0.023152416571974754;-0.32019975781440735;0.02268306538462639;-0.1582930088043213
64;0.4676855504512787;0.6963079571723938;0.2800126075744629;0.8233755826950073;-0.3135855197906494;0.8747812509536743;0.7771407961845398;0.9808838367462158;-0.05095036327838898;0.16312642395496368;-1.7624130785813224e-41;-0.14826300740242004;-0.42247000336647034;0.034943077713251114;-0.3068927824497223;0.029476556926965714;-0.1519879549741745
66;0.772185742855072;0.773100733757019;0.772340714931488;0.772587239742279;0.20100948214530945;0.7747220993041992;0.772729754447937;0.7738927602767944;0.21183054149150848;0.3234613239765167;-1.7624130785813224e-41;0.20647138357162476;0.23617738485336304;0.22761179506778717;0.21660251915454865;0.3169610798358917;0.22587713599205017
67;0.7722887396812439;0.7730397582054138;0.7723484039306641;0.7725831866264343;0.20162507891654968;0.774636447429657;0.7727415561676025;0.773772656917572;0.21091504395008087;0.3259955942630768;-1.7624130785813224e-41;0.20727215707302094;0.23639698326587677;0.22782763838768005;0.21894635260105133;0.3130049407482147;0.2262926995754242
68;0.4770241677761078;0.6976521015167236;0.2967654764652252;0.8221701383590698;-0.32421639561653137;0.8760404586791992;0.7772005796432495;0.9768221378326416;-0.05973142012953758;0.16867104172706604;-1.7624130785813224e-41;-0.15102379024028778;-0.4229639768600464;0.020514020696282387;-0.3315572738647461;0.017039339989423752;-0.15881690382957458
65;0.4680849313735962;0.6951696276664734;0.28161510825157166;0.8217172026634216;-0.3167155981063843;0.8724337220191956;0.7757983803749084;0.9779787063598633;-0.054483190178871155;0.16252271831035614;-1.7624130785813224e-41;-0.15108002722263336;-0.42593154311180115;0.026915976777672768;-0.3136221468448639;0.03210398554801941;-0.157852441072464
67;0.7722887396812439;0.7730397582054138;0.7723484039306641;0.7725831866264343;0.20162507891654968;0.774636447429657;0.7727415561676025;0.773772656917572;0.21091504395008087;0.3259955942630768;-1.7624130785813224e-41;0.20727215707302094;0.23639698326587677;0.22782763838768005;0.21894635260105133;0.3130049407482147;0.2262926995754242
68;0.7750581502914429;0.7757816910743713;0.7750608921051025;0.7749685645103455;0.20129193365573883;0.7765669226646423;0.7751346230506897;0.7764308452606201;0.2097713202238083;0.3244481682777405;-1.7624130785813224e-41;0.20624597370624542;0.23459379374980927;0.22571517527103424;0.22021038830280304;0.31311166286468506;0.2248307317495346
69;0.48062294721603394;0.6995390057563782;0.30192410945892334;0.8216462135314941;-0.3208347260951996;0.8766722679138184;0.7766987085342407;0.9752914905548096;-0.05845927074551582;0.16981051862239838;-1.7624130785813224e-41;-0.14789466559886932;-0.4178733825683594;0.0214812234044075;-0.33076074719429016;0.015863098204135895;-0.15701895952224731
66;0.472396582365036;0.6975358724594116;0.2872941493988037;0.821393609046936;-0.317872554063797;0.87331223487854;0.7759653329849243;0.9768044352531433;-0.05800957232713699;0.16325519979000092;-1.7624130785813224e-41;-0.15148170292377472;-0.4261048436164856;0.0231283251196146;-0.31188926100730896;0.026800546795129776;-0.16049490869045258
68;0.7750581502914429;0.7757816910743713;0.7750608921051025;0.7749685645103455;0.20129193365573883;0.7765669226646423;0.7751346230506897;0.7764308452606201;0.2097713202238083;0.3244481682777405;-1.7624130785813224e-41;0.20624597370624542;0.23459379374980927;0.22571517527103424;0.22021038830280304;0.31311166286468506;0.2248307317495346
69;0.7763035297393799;0.7769959568977356;0.7762892842292786;0.7762027978897095;0.2006070762872696;0.7779234051704407;0.7763655185699463;0.7776108980178833;0.20890523493289948;0.32164886593818665;-1.7624130785813224e-41;0.20591790974140167;0.2332860678434372;0.2239430695772171;0.21835018694400787;0.3143784701824188;0.22356271743774414
70;0.48514872789382935;0.7027223706245422;0.3076287806034088;0.8229117393493652;-0.3151746988296509;0.8791958093643188;0.7782144546508789;0.9756975173950195;-0.05663888901472092;0.16991394758224487;-1.7624130785813224e-41;-0.14604520797729492;-0.41407662630081177;0.022496039047837257;-0.3295544981956482;0.00964412372559309;-0.15262867510318756
67;0.477966845035553;0.6980602145195007;0.2941893935203552;0.8235751986503601;-0.3222627341747284;0.8766264915466309;0.7785153388977051;0.9790425300598145;-0.05699460208415985;0.16562414169311523;-1.7624130785813224e-41;-0.14788952469825745;-0.42154592275619507;0.023152416571974754;-0.32019975781440735;0.02268306538462639;-0.1582930088043213
69;0.7763035297393799;0.7769959568977356;0.7762892842292786;0.7762027978897095;0.2006070762872696;0.7779234051704407;0.7763655185699463;0.7776108980178833;0.20890523493289948;0.32164886593818665;-1.7624130785813224e-41;0.20591790974140167;0.2332860678434372;0.2239430695772171;0.21835018694400787;0.3143784701824188;0.22356271743774414
70;0.7777745723724365;0.7784040570259094;0.7777086496353149;0.7776868343353271;0.20340244472026825;0.7791241407394409;0.7778374552726746;0.7789524793624878;0.21126776933670044;0.3215094208717346;-1.7624130785813224e-41;0.20851875841617584;0.2346142828464508;0.22636769711971283;0.21916808187961578;0.3094788193702698;0.22614730894565582
71;0.48974379897117615;0.7057633996009827;0.3114595413208008;0.8250069618225098;-0.3137511909008026;0.8817104697227478;0.7805094122886658;0.9767314791679382;-0.05736997351050377;0.17382100224494934;-1.7624130785813224e-41;-0.1445322185754776;-0.4118882715702057;0.020858192816376686;-0.3287164270877838;0.012654670514166355;-0.1455058753490448
68;0.4770241677761078;0.6976521015167236;0.2967654764652252;0.8221701383590698;-0.32421639561653137;0.8760404586791992;0.7772005796432495;0.9768221378326416;-0.05973142012953758;0.16867104172706604;-1.7624130785813224e-41;-0.15102379024028778;-0.4229639768600464;0.020514020696282387;-0.3315572738647461;0.017039339989423752;-0.15881690382957458
70;0.7777745723724365;0.7784040570259094;0.7777086496353149;0.7776868343353271;0.20340244472026825;0.7791241407394409;0.7778374552726746;0.7789524793624878;0.21126776933670044;0.3215094208717346;-1.7624130785813224e-41;0.20851875841617584;0.2346142828464508;0.22636769711971283;0.21916808187961578;0.3094788193702698;0.22614730894565582
71;0.7771393060684204;0.7777621746063232;0.7770350575447083;0.7770283818244934;0.2027159482240677;0.7783315181732178;0.7771484851837158;0.7782721519470215;0.21076083183288574;0.3215545415878296;-1.7624130785813224e-41;0.20832449197769165;0.23487360775470734;0.22658240795135498;0.22344958782196045;0.3116738498210907;0.23018434643745422
72;0.493691086769104;0.7081807255744934;0.3168472349643707;0.8246480226516724;-0.31194496154785156;0.8833354711532593;0.7818438410758972;0.9782670140266418;-0.058025017380714417;0.16840989887714386;-1.7624130785813224e-41;-0.14399467408657074;-0.4077107906341553;0.021960344165563583;-0.3311569392681122;0.007661113515496254;-0.1530846506357193
69;0.48062294721603394;0.6995390057563782;0.30192410945892334;0.8216462135314941;-0.3208347260951996;0.8766722679138184;0.7766987085342407;0.9752914905548096;-0.05845927074551582;0.16981051862239838;-1.7624130785813224e-41;-0.14789466559886932;-0.4178733825683594;0.0214812234044075;-0.33076074719429016;0.015863098204135895;-0.15701895952224731
71;0.7771393060684204;0.7777621746063232;0.7770350575447083;0.7770283818244934;0.2027159482240677;0.7783315181732178;0.7771484851837158;0.7782721519470215;0.21076083183288574;0.3215545415878296;-1.7624130785813224e-41;0.20832449197769165;0.23487360775470734;0.22658240795135498;0.22344958782196045;0.3116738498210907;0.23018434643745422
72;0.7787757515907288;0.7793833017349243;0.7787204384803772;0.778662383556366;0.20270974934101105;0.7799495458602905;0.7788076400756836;0.7797912955284119;0.2105005532503128;0.3198298215866089;-1.7624130785813224e-41;0.20821133255958557;0.2333332896232605;0.22516612708568573;0.22464409470558167;0.3096696734428406;0.22982925176620483
73;0.4947164058685303;0.7081073522567749;0.3189038038253784;0.8193162083625793;-0.31310489773750305;0.8832067251205444;0.7797725200653076;0.9763549566268921;-0.06080564111471176;0.16382180154323578;-1.7624130785813224e-41;-0.14547276496887207;-0.405688613653183;0.021216174587607384;-0.33569326996803284;-0.0028354604728519917;-0.15477196872234344
70;0.48514872789382935;0.7027223706245422;0.3076287806034088;0.8229117393493652;-0.3151746988296509;0.8791958093643188;0.7782144546508789;0.9756975173950195;-0.05663888901472092;0.16991394758224487;-1.7624130785813224e-41;-0.14604520797729492;-0.41407662630081177;0.022496039047837257;-0.3295544981956482;0.00964412372559309;-0.15262867510318756
72;0.7787757515907288;0.7793833017349243;0.7787204384803772;0.778662383556366;0.20270974934101105;0.7799495458602905;0.7788076400756836;0.7797912955284119;0.2105005532503128;0.3198298215866089;-1.7624130785813224e-41;0.20821133255958557;0.2333332896232605;0.22516612708568573;0.22464409470558167;0.3096696734428406;0.22982925176620483
73;0.7796123623847961;0.7802353501319885;0.7797099947929382;0.7794751524925232;0.20183543860912323;0.7804694771766663;0.7797163724899292;0.7806446552276611;0.2095651775598526;0.3210790753364563;-1.7624130785813224e-41;0.20741695165634155;0.23172353208065033;0.2237575650215149;0.22484149038791656;0.3094352185726166;0.22909139096736908
74;0.4964635968208313;0.709105372428894;0.3219853341579437;0.8185238242149353;-0.31213223934173584;0.8824302554130554;0.7792708873748779;0.9761461019515991;-0.05959130823612213;0.160091370344162;-1.7624130785813224e-41;-0.14515870809555054;-0.40397873520851135;0.019430052489042282;-0.34369468688964844;-0.003983502741903067;-0.15541818737983704
