batch_number;w0;w1;w2;w3;w4;w5;w6;w7;w8;w9;w10;w11;w12;w13;w14;w15;w16
1;-0.36216339468955994;0.4477531909942627;0.04149585962295532;-0.18527087569236755;-0.24205589294433594;-0.1131606474518776;0.06409771740436554;0.61507648229599;-0.053755007684230804;-0.4298344850540161;0.5025696158409119;-0.23515678942203522;0.5228398442268372;-0.3093532621860504;-0.04768843576312065;-0.10446613281965256;0.1425202190876007
2;-0.21926522254943848;0.5719884634017944;0.16626456379890442;-0.06020767614245415;-0.20626994967460632;0.01180917676538229;0.17571412026882172;0.7390895485877991;-0.04104788601398468;-0.31243324279785156;0.5012325644493103;-0.1928480863571167;0.6173536777496338;-0.210959792137146;0.040380313992500305;0.015640558674931526;0.239968404173851
batch_number;w0;w1;w2;w3;w4;w5;w6;w7;w8;w9;w10;w11;w12;w13;w14;w15;w16
1;-0.36216339468955994;0.4477531909942627;0.04149585962295532;-0.18527087569236755;-0.24205589294433594;-0.1131606474518776;0.06409771740436554;0.61507648229599;-0.053755007684230804;-0.4298344850540161;0.5025696158409119;-0.23515678942203522;0.5228398442268372;-0.3093532621860504;-0.04768843576312065;-0.10446613281965256;0.1425202190876007
2;-0.21926522254943848;0.5719884634017944;0.16626456379890442;-0.06020767614245415;-0.20626994967460632;0.01180917676538229;0.17571412026882172;0.7390895485877991;-0.04104788601398468;-0.31243324279785156;0.5012325644493103;-0.1928480863571167;0.6173536777496338;-0.210959792137146;0.040380313992500305;0.015640558674931526;0.239968404173851
batch_number;w0;w1;w2;w3;w4;w5;w6;w7;w8;w9;w10;w11;w12;w13;w14;w15;w16
1;-0.36216339468955994;0.45511043071746826;0.048935748636722565;-0.18808288872241974;-0.21732817590236664;-0.10875103622674942;0.0517272874712944;0.6225536465644836;-0.03293490409851074;-0.4021582305431366;0.5076915621757507;-0.30720654129981995;0.4292222261428833;-0.40791887044906616;-0.05052762106060982;-0.1449940949678421;0.14698129892349243
3;-0.13553020358085632;0.657475471496582;0.25235551595687866;0.026216717436909676;-0.16350196301937103;0.09812771528959274;0.2579178214073181;0.8243258595466614;-0.031383711844682693;-0.2445085644721985;0.5267385244369507;-0.18398384749889374;0.6620527505874634;-0.17230670154094696;0.10753076523542404;0.09932241588830948;0.3066827356815338
2;-0.21926522254943848;0.613437294960022;0.20754507184028625;-0.03182050213217735;-0.1925373375415802;0.05012902989983559;0.19992972910404205;0.780814528465271;0.030553197488188744;-0.28683945536613464;0.5345344543457031;-0.254021018743515;0.44827789068222046;-0.37343817949295044;-0.022775616496801376;-0.0781429186463356;0.08457307517528534
batch_number;w0;w1;w2;w3;w4;w5;w6;w7;w8;w9;w10;w11;w12;w13;w14;w15;w16
1;-0.36216339468955994;0.4477531909942627;0.04149585962295532;-0.18527087569236755;-0.24205589294433594;-0.1131606474518776;0.06409771740436554;0.61507648229599;-0.053755007684230804;-0.4298344850540161;0.5025696158409119;-0.23515678942203522;0.5228398442268372;-0.3093532621860504;-0.04768843576312065;-0.10446613281965256;0.1425202190876007
4;-0.06109381094574928;0.7698935866355896;0.36566001176834106;0.14001020789146423;-0.11118845641613007;0.21176624298095703;0.36550524830818176;0.9363760948181152;-0.0207000020891428;-0.17028139531612396;0.5772272348403931;-0.1348496824502945;0.6991997957229614;-0.13531573116779327;0.12956154346466064;0.14936865866184235;0.3374423682689667
3;-0.11868906766176224;0.7373226881027222;0.331994891166687;0.0873190388083458;-0.15404823422431946;0.1712065488100052;0.314424991607666;0.9044956564903259;0.07453127205371857;-0.19938230514526367;0.5541166663169861;-0.23248757421970367;0.37866008281707764;-0.35247039794921875;0.034809451550245285;-0.054964687675237656;0.11559943109750748
batch_number;w0;w1;w2;w3;w4;w5;w6;w7;w8;w9;w10;w11;w12;w13;w14;w15;w16
1;-0.36216339468955994;0.45511043071746826;0.048935748636722565;-0.18808288872241974;-0.21732817590236664;-0.10875103622674942;0.0517272874712944;0.6225536465644836;-0.03293490409851074;-0.4021582305431366;0.5076915621757507;-0.30720654129981995;0.4292222261428833;-0.40791887044906616;-0.05052762106060982;-0.1449940949678421;0.14698129892349243
2;-0.21926522254943848;0.5719884634017944;0.16626456379890442;-0.06020767614245415;-0.20626994967460632;0.01180917676538229;0.17571412026882172;0.7390895485877991;-0.04104788601398468;-0.31243324279785156;0.5012325644493103;-0.1928480863571167;0.6173536777496338;-0.210959792137146;0.040380313992500305;0.015640558674931526;0.239968404173851
4;-0.0563478022813797;0.8529965877532959;0.4483252465724945;0.20604440569877625;-0.12731938064098358;0.2880944311618805;0.41968458890914917;1.019919991493225;0.10729961842298508;-0.10246134549379349;0.6423755884170532;-0.180684432387352;0.468706876039505;-0.3075225055217743;0.054346922785043716;-0.00926219578832388;0.11875005811452866
5;-0.023104559630155563;0.8604314923286438;0.45740076899528503;0.23241421580314636;-0.10976187884807587;0.30395957827568054;0.46233946084976196;1.0264118909835815;0.0055793095380067825;-0.12118270993232727;0.5963201522827148;-0.10515610873699188;0.7214567065238953;-0.1077781468629837;0.16191646456718445;0.21457166969776154;0.36600562930107117
2;-0.21926522254943848;0.613437294960022;0.20754507184028625;-0.03182050213217735;-0.1925373375415802;0.05012902989983559;0.19992972910404205;0.780814528465271;0.030553197488188744;-0.28683945536613464;0.5345344543457031;-0.254021018743515;0.44827789068222046;-0.37343817949295044;-0.022775616496801376;-0.0781429186463356;0.08457307517528534
3;-0.13553020358085632;0.657475471496582;0.25235551595687866;0.026216717436909676;-0.16350196301937103;0.09812771528959274;0.2579178214073181;0.8243258595466614;-0.031383711844682693;-0.2445085644721985;0.5267385244369507;-0.18398384749889374;0.6620527505874634;-0.17230670154094696;0.10753076523542404;0.09932241588830948;0.3066827356815338
5;-0.023104559630155563;0.9287287592887878;0.5252259969711304;0.28202149271965027;-0.11653939634561539;0.36548152565956116;0.49485117197036743;1.0951951742172241;0.06683307141065598;-0.04572867602109909;0.6445292830467224;-0.14673122763633728;0.5036698579788208;-0.293375700712204;0.06923215836286545;0.03669664263725281;0.14447154104709625
6;-0.008079311810433865;0.9188410639762878;0.5173421502113342;0.28947246074676514;-0.10875993967056274;0.36447668075561523;0.5140020847320557;1.084180235862732;0.0045635695569217205;-0.09093904495239258;0.620167076587677;-0.09520985931158066;0.7383779287338257;-0.07184554636478424;0.17702578008174896;0.2580665349960327;0.3962632715702057
3;-0.11868906766176224;0.7373226881027222;0.331994891166687;0.0873190388083458;-0.15404823422431946;0.1712065488100052;0.314424991607666;0.9044956564903259;0.07453127205371857;-0.19938230514526367;0.5541166663169861;-0.23248757421970367;0.37866008281707764;-0.35247039794921875;0.034809451550245285;-0.054964687675237656;0.11559943109750748
4;-0.06109381094574928;0.7698935866355896;0.36566001176834106;0.14001020789146423;-0.11118845641613007;0.21176624298095703;0.36550524830818176;0.9363760948181152;-0.0207000020891428;-0.17028139531612396;0.5772272348403931;-0.1348496824502945;0.6991997957229614;-0.13531573116779327;0.12956154346466064;0.14936865866184235;0.3374423682689667
6;-0.008079311810433865;0.9881698489189148;0.5862019658088684;0.3408900201320648;-0.10801783949136734;0.4269958436489105;0.5458208322525024;1.154109001159668;0.07689569890499115;0.00241107982583344;0.6551061868667603;-0.13555112481117249;0.5002428889274597;-0.28028959035873413;0.07883338630199432;0.07128904014825821;0.16096453368663788
7;-0.0023788397666066885;0.9524227380752563;0.5534099340438843;0.3270426392555237;-0.0952671691775322;0.4014771282672882;0.5489805340766907;1.116726040840149;0.0032681934535503387;-0.0944463387131691;0.6071734428405762;-0.09905412793159485;0.6450149416923523;-0.14192314445972443;0.23273561894893646;0.22489669919013977;0.3289622664451599
4;-0.0563478022813797;0.8529965877532959;0.4483252465724945;0.20604440569877625;-0.12731938064098358;0.2880944311618805;0.41968458890914917;1.019919991493225;0.10729961842298508;-0.10246134549379349;0.6423755884170532;-0.180684432387352;0.468706876039505;-0.3075225055217743;0.054346922785043716;-0.00926219578832388;0.11875005811452866
7;-0.0023788397666066885;1.0538251399993896;0.6531739830970764;0.4107508063316345;-0.09360887110233307;0.4947545826435089;0.6175125241279602;1.2190629243850708;0.08318006992340088;0.015555541962385178;0.6753645539283752;-0.0967453345656395;0.48926669359207153;-0.27049264311790466;0.10432983934879303;0.08124826848506927;0.17279598116874695
5;-0.023104559630155563;0.8604314923286438;0.45740076899528503;0.23241421580314636;-0.10976187884807587;0.30395957827568054;0.46233946084976196;1.0264118909835815;0.0055793095380067825;-0.12118270993232727;0.5963201522827148;-0.10515610873699188;0.7214567065238953;-0.1077781468629837;0.16191646456718445;0.21457166969776154;0.36600562930107117
8;-0.0005809948779642582;1.017224907875061;0.6181939840316772;0.3877171576023102;-0.09207317978143692;0.46855705976486206;0.6002973914146423;1.179127812385559;0.008943791501224041;-0.053679730743169785;0.6110126376152039;-0.08763556182384491;0.6491557955741882;-0.11277922987937927;0.24407437443733215;0.24558913707733154;0.3389308750629425
5;-0.023104559630155563;0.9287287592887878;0.5252259969711304;0.28202149271965027;-0.11653939634561539;0.36548152565956116;0.49485117197036743;1.0951951742172241;0.06683307141065598;-0.04572867602109909;0.6445292830467224;-0.14673122763633728;0.5036698579788208;-0.293375700712204;0.06923215836286545;0.03669664263725281;0.14447154104709625
8;-0.0005809948779642582;1.1115872859954834;0.7127493619918823;0.46756482124328613;-0.08982039242982864;0.5551483035087585;0.6687943339347839;1.276149034500122;0.08717095106840134;0.06842964142560959;0.6302250027656555;-0.08144080638885498;0.49358272552490234;-0.24243280291557312;0.10910015553236008;0.08684375882148743;0.18115931749343872
6;-0.008079311810433865;0.9188410639762878;0.5173421502113342;0.28947246074676514;-0.10875993967056274;0.36447668075561523;0.5140020847320557;1.084180235862732;0.0045635695569217205;-0.09093904495239258;0.620167076587677;-0.09520985931158066;0.7383779287338257;-0.07184554636478424;0.17702578008174896;0.2580665349960327;0.3962632715702057
9;-0.00011558514961507171;1.0697375535964966;0.6728165745735168;0.4188392162322998;-0.08988110721111298;0.5092244744300842;0.6241111755371094;1.2307040691375732;0.010618194937705994;-0.0067056226544082165;0.5696766376495361;-0.07801581919193268;0.649817943572998;-0.07761750370264053;0.26624423265457153;0.29264453053474426;0.34900936484336853
6;-0.008079311810433865;0.9881698489189148;0.5862019658088684;0.3408900201320648;-0.10801783949136734;0.4269958436489105;0.5458208322525024;1.154109001159668;0.07689569890499115;0.00241107982583344;0.6551061868667603;-0.13555112481117249;0.5002428889274597;-0.28028959035873413;0.07883338630199432;0.07128904014825821;0.16096453368663788
9;-0.00011558514961507171;1.1620171070098877;0.7651755213737488;0.4993807077407837;-0.08638817816972733;0.600832462310791;0.6962282657623291;1.325722336769104;0.08625303953886032;0.10823677480220795;0.5814839601516724;-0.06170281395316124;0.502748966217041;-0.20080260932445526;0.1156647577881813;0.1253877878189087;0.1951272338628769
7;-0.0023788397666066885;0.9524227380752563;0.5534099340438843;0.3270426392555237;-0.0952671691775322;0.4014771282672882;0.5489805340766907;1.116726040840149;0.0032681934535503387;-0.0944463387131691;0.6071734428405762;-0.09905412793159485;0.6450149416923523;-0.14192314445972443;0.23273561894893646;0.22489669919013977;0.3289622664451599
10;-1.832396628742572e-05;1.1137847900390625;0.7192596793174744;0.45625752210617065;-0.08748624473810196;0.5471848845481873;0.6581187844276428;1.273545503616333;0.00959803070873022;0.032066769897937775;0.5463784337043762;-0.07456687837839127;0.6345438957214355;-0.04202299937605858;0.27027246356010437;0.3098416030406952;0.35828903317451477
7;-0.0023788397666066885;1.0538251399993896;0.6531739830970764;0.4107508063316345;-0.09360887110233307;0.4947545826435089;0.6175125241279602;1.2190629243850708;0.08318006992340088;0.015555541962385178;0.6753645539283752;-0.0967453345656395;0.48926669359207153;-0.27049264311790466;0.10432983934879303;0.08124826848506927;0.17279598116874695
10;-1.832396628742572e-05;1.205942988395691;0.8114243149757385;0.5313680768013;-0.0787239745259285;0.6373709440231323;0.7218097448348999;1.3686621189117432;0.0898900032043457;0.14319488406181335;0.531245231628418;-0.05747828260064125;0.4854681193828583;-0.18142069876194;0.11097865551710129;0.13677574694156647;0.20432358980178833
8;-0.0005809948779642582;1.017224907875061;0.6181939840316772;0.3877171576023102;-0.09207317978143692;0.46855705976486206;0.6002973914146423;1.179127812385559;0.008943791501224041;-0.053679730743169785;0.6110126376152039;-0.08763556182384491;0.6491557955741882;-0.11277922987937927;0.24407437443733215;0.24558913707733154;0.3389308750629425
11;-2.8144481802883092e-06;1.1487237215042114;0.7565667033195496;0.4852456748485565;-0.0836869478225708;0.5815731883049011;0.6847178339958191;1.3073302507400513;0.009834951721131802;0.0564764030277729;0.5046289563179016;-0.07073516398668289;0.6353246569633484;-0.023343998938798904;0.3001239001750946;0.35255348682403564;0.36644217371940613
8;-0.0005809948779642582;1.1115872859954834;0.7127493619918823;0.46756482124328613;-0.08982039242982864;0.5551483035087585;0.6687943339347839;1.276149034500122;0.08717095106840134;0.06842964142560959;0.6302250027656555;-0.08144080638885498;0.49358272552490234;-0.24243280291557312;0.10910015553236008;0.08684375882148743;0.18115931749343872
11;-2.254624405395589e-06;1.2389402389526367;0.8472341895103455;0.5589548349380493;-0.07138192653656006;0.6703202724456787;0.7441771030426025;1.4004707336425781;0.09053947776556015;0.1565873920917511;0.4883558750152588;-0.052817486226558685;0.4814496636390686;-0.1722763031721115;0.14377284049987793;0.14036644995212555;0.19493818283081055
9;-0.00011558514961507171;1.0697375535964966;0.6728165745735168;0.4188392162322998;-0.08988110721111298;0.5092244744300842;0.6241111755371094;1.2307040691375732;0.010618194937705994;-0.0067056226544082165;0.5696766376495361;-0.07801581919193268;0.649817943572998;-0.07761750370264053;0.26624423265457153;0.29264453053474426;0.34900936484336853
12;-2.6835544986170135e-07;1.1962190866470337;0.8070930242538452;0.5223146677017212;-0.0735829547047615;0.6294703483581543;0.723585307598114;1.3538713455200195;0.015039150603115559;0.08585073053836823;0.5146099328994751;-0.06507427990436554;0.612298309803009;-0.008966190740466118;0.3189767003059387;0.36558178067207336;0.36030760407447815
9;-0.00011558514961507171;1.1620171070098877;0.7651755213737488;0.4993807077407837;-0.08638817816972733;0.600832462310791;0.6962282657623291;1.325722336769104;0.08625303953886032;0.10823677480220795;0.5814839601516724;-0.06170281395316124;0.502748966217041;-0.20080260932445526;0.1156647577881813;0.1253877878189087;0.1951272338628769
10;-1.832396628742572e-05;1.1137847900390625;0.7192596793174744;0.45625752210617065;-0.08748624473810196;0.5471848845481873;0.6581187844276428;1.273545503616333;0.00959803070873022;0.032066769897937775;0.5463784337043762;-0.07456687837839127;0.6345438957214355;-0.04202299937605858;0.27027246356010437;0.3098416030406952;0.35828903317451477
12;-2.086004684542786e-07;1.26914644241333;0.880611002445221;0.584455668926239;-0.0616571269929409;0.7015239596366882;0.7679985761642456;1.429327368736267;0.08992970734834671;0.18436497449874878;0.44041866064071655;-0.04852951318025589;0.45882681012153625;-0.16250620782375336;0.15288229286670685;0.15368911623954773;0.19134391844272614
13;-1.8595873285676134e-08;1.15200674533844;0.77149498462677;0.4859955608844757;-0.039484500885009766;0.5949863791465759;0.6567533612251282;1.307181477546692;0.049795038998126984;0.08706900477409363;0.47398486733436584;-0.019406648352742195;0.7333216071128845;0.15343700349330902;0.2793472409248352;0.26674386858940125;0.5019078254699707
10;-1.832396628742572e-05;1.205942988395691;0.8114243149757385;0.5313680768013;-0.0787239745259285;0.6373709440231323;0.7218097448348999;1.3686621189117432;0.0898900032043457;0.14319488406181335;0.531245231628418;-0.05747828260064125;0.4854681193828583;-0.18142069876194;0.11097865551710129;0.13677574694156647;0.20432358980178833
11;-2.8144481802883092e-06;1.1487237215042114;0.7565667033195496;0.4852456748485565;-0.0836869478225708;0.5815731883049011;0.6847178339958191;1.3073302507400513;0.009834951721131802;0.0564764030277729;0.5046289563179016;-0.07073516398668289;0.6353246569633484;-0.023343998938798904;0.3001239001750946;0.35255348682403564;0.36644217371940613
13;-1.3968020518007052e-08;1.29963219165802;0.9142357110977173;0.6207726001739502;-0.04296918213367462;0.7372707724571228;0.7914356589317322;1.4582667350769043;0.09147338569164276;0.21435660123825073;0.3803724944591522;-0.045812081545591354;0.43296387791633606;-0.14560110867023468;0.15337048470973969;0.16104181110858917;0.17900091409683228
14;-8.946202112447565e-10;1.179538607597351;0.8032664060592651;0.5201314687728882;-0.034195851534605026;0.628541886806488;0.680189311504364;1.3329273462295532;0.048144932836294174;0.10594668239355087;0.44143709540367126;-0.017852965742349625;0.7051412463188171;0.15397922694683075;0.2646845281124115;0.27131086587905884;0.4884391129016876
11;-2.254624405395589e-06;1.2389402389526367;0.8472341895103455;0.5589548349380493;-0.07138192653656006;0.6703202724456787;0.7441771030426025;1.4004707336425781;0.09053947776556015;0.1565873920917511;0.4883558750152588;-0.052817486226558685;0.4814496636390686;-0.1722763031721115;0.14377284049987793;0.14036644995212555;0.19493818283081055
12;-2.6835544986170135e-07;1.1962190866470337;0.8070930242538452;0.5223146677017212;-0.0735829547047615;0.6294703483581543;0.723585307598114;1.3538713455200195;0.015039150603115559;0.08585073053836823;0.5146099328994751;-0.06507427990436554;0.612298309803009;-0.008966190740466118;0.3189767003059387;0.36558178067207336;0.36030760407447815
14;-6.460190160595403e-10;1.3237195014953613;0.9421030282974243;0.6508920192718506;-0.0348685048520565;0.7668762803077698;0.811516284942627;1.480790376663208;0.0862012654542923;0.22572217881679535;0.34179621934890747;-0.04162188246846199;0.40677782893180847;-0.12256928533315659;0.14852115511894226;0.17068108916282654;0.16751496493816376
15;-2.823119515937833e-11;1.2129464149475098;0.8439285159111023;0.5615444183349609;-0.021594276651740074;0.6703522801399231;0.7251288890838623;1.3649623394012451;0.06397385895252228;0.12682311236858368;0.40969905257225037;-0.0030733116436749697;0.7085275650024414;0.1712738424539566;0.2586158812046051;0.2542012929916382;0.4759828448295593
12;-2.086004684542786e-07;1.26914644241333;0.880611002445221;0.584455668926239;-0.0616571269929409;0.7015239596366882;0.7679985761642456;1.429327368736267;0.08992970734834671;0.18436497449874878;0.44041866064071655;-0.04852951318025589;0.45882681012153625;-0.16250620782375336;0.15288229286670685;0.15368911623954773;0.19134391844272614
13;-1.8595873285676134e-08;1.15200674533844;0.77149498462677;0.4859955608844757;-0.039484500885009766;0.5949863791465759;0.6567533612251282;1.307181477546692;0.049795038998126984;0.08706900477409363;0.47398486733436584;-0.019406648352742195;0.7333216071128845;0.15343700349330902;0.2793472409248352;0.26674386858940125;0.5019078254699707
15;-1.9472959703059622e-11;1.3426553010940552;0.9652988910675049;0.6751813292503357;-0.021872373297810555;0.7916057109832764;0.8348639607429504;1.4980850219726562;0.08088753372430801;0.2323635220527649;0.293222576379776;-0.036856092512607574;0.37834256887435913;-0.11391505599021912;0.14365661144256592;0.16349667310714722;0.15486735105514526
16;-5.436932913431558e-13;1.2327160835266113;0.8690004944801331;0.586754560470581;-0.01747591607272625;0.6971776485443115;0.7414559125900269;1.3823742866516113;0.06236684322357178;0.14109991490840912;0.38837215304374695;0.005860982928425074;0.665649950504303;0.16543522477149963;0.25500696897506714;0.271885484457016;0.4507617950439453
13;-1.3968020518007052e-08;1.29963219165802;0.9142357110977173;0.6207726001739502;-0.04296918213367462;0.7372707724571228;0.7914356589317322;1.4582667350769043;0.09147338569164276;0.21435660123825073;0.3803724944591522;-0.045812081545591354;0.43296387791633606;-0.14560110867023468;0.15337048470973969;0.16104181110858917;0.17900091409683228
14;-8.946202112447565e-10;1.179538607597351;0.8032664060592651;0.5201314687728882;-0.034195851534605026;0.628541886806488;0.680189311504364;1.3329273462295532;0.048144932836294174;0.10594668239355087;0.44143709540367126;-0.017852965742349625;0.7051412463188171;0.15397922694683075;0.2646845281124115;0.27131086587905884;0.4884391129016876
16;-3.5525694799115604e-13;1.3626084327697754;0.9897918701171875;0.6967430114746094;-0.01566358655691147;0.818139910697937;0.8500929474830627;1.5161237716674805;0.07397677004337311;0.24608944356441498;0.2598835825920105;-0.027064574882388115;0.348739892244339;-0.10190731287002563;0.14353537559509277;0.1707840859889984;0.1422705054283142
17;-3.556192866631348e-15;1.2660815715789795;0.9084010720252991;0.6064310669898987;-0.04121067374944687;0.7355278134346008;0.7558716535568237;1.4131344556808472;0.05896333232522011;0.16651053726673126;0.34545716643333435;0.03574950620532036;0.5989487171173096;0.15364505350589752;0.22455982863903046;0.2497437745332718;0.43413233757019043
14;-6.460190160595403e-10;1.3237195014953613;0.9421030282974243;0.6508920192718506;-0.0348685048520565;0.7668762803077698;0.811516284942627;1.480790376663208;0.0862012654542923;0.22572217881679535;0.34179621934890747;-0.04162188246846199;0.40677782893180847;-0.12256928533315659;0.14852115511894226;0.17068108916282654;0.16751496493816376
15;-2.823119515937833e-11;1.2129464149475098;0.8439285159111023;0.5615444183349609;-0.021594276651740074;0.6703522801399231;0.7251288890838623;1.3649623394012451;0.06397385895252228;0.12682311236858368;0.40969905257225037;-0.0030733116436749697;0.7085275650024414;0.1712738424539566;0.2586158812046051;0.2542012929916382;0.4759828448295593
17;-3.556192866631348e-15;1.3812683820724487;1.013510823249817;0.7142965197563171;-0.009398599155247211;0.8404549360275269;0.86350017786026;1.5326472520828247;0.0695684626698494;0.26485249400138855;0.22985471785068512;-0.015614215284585953;0.319486528635025;-0.09206195920705795;0.14070360362529755;0.18704617023468018;0.1409102976322174
18;-1.7016802574832738e-17;1.2882877588272095;0.9362005591392517;0.6359730958938599;-0.034946050494909286;0.7666540741920471;0.7734801769256592;1.4325757026672363;0.05651773512363434;0.17740003764629364;0.3067939579486847;0.03992350399494171;0.5524002313613892;0.15466192364692688;0.2177186757326126;0.2614695131778717;0.40838056802749634
15;-1.9472959703059622e-11;1.3426553010940552;0.9652988910675049;0.6751813292503357;-0.021872373297810555;0.7916057109832764;0.8348639607429504;1.4980850219726562;0.08088753372430801;0.2323635220527649;0.293222576379776;-0.036856092512607574;0.37834256887435913;-0.11391505599021912;0.14365661144256592;0.16349667310714722;0.15486735105514526
16;-5.436932913431558e-13;1.2327160835266113;0.8690004944801331;0.586754560470581;-0.01747591607272625;0.6971776485443115;0.7414559125900269;1.3823742866516113;0.06236684322357178;0.14109991490840912;0.38837215304374695;0.005860982928425074;0.665649950504303;0.16543522477149963;0.25500696897506714;0.271885484457016;0.4507617950439453
18;-1.7016802574832738e-17;1.3951436281204224;1.0330952405929565;0.7350772023200989;-0.0036861381959170103;0.8620373606681824;0.8721595406532288;1.5440913438796997;0.06281063705682755;0.27397456765174866;0.19119979441165924;-0.010766763240098953;0.28978222608566284;-0.08191914856433868;0.13435901701450348;0.19168002903461456;0.128379225730896
19;-3.140309123731168e-20;1.301915168762207;0.9566817879676819;0.6562536954879761;-0.030636796727776527;0.7860080599784851;0.7808881998062134;1.4433292150497437;0.048441145569086075;0.1832602471113205;0.2629198729991913;0.04843758046627045;0.5156458616256714;0.1544228047132492;0.20428039133548737;0.27804192900657654;0.39178380370140076
16;-3.5525694799115604e-13;1.3626084327697754;0.9897918701171875;0.6967430114746094;-0.01566358655691147;0.818139910697937;0.8500929474830627;1.5161237716674805;0.07397677004337311;0.24608944356441498;0.2598835825920105;-0.027064574882388115;0.348739892244339;-0.10190731287002563;0.14353537559509277;0.1707840859889984;0.1422705054283142
17;-3.556192866631348e-15;1.2660815715789795;0.9084010720252991;0.6064310669898987;-0.04121067374944687;0.7355278134346008;0.7558716535568237;1.4131344556808472;0.05896333232522011;0.16651053726673126;0.34545716643333435;0.03574950620532036;0.5989487171173096;0.15364505350589752;0.22455982863903046;0.2497437745332718;0.43413233757019043
19;-3.140309123731168e-20;1.407616376876831;1.0517077445983887;0.7538673281669617;0.0019491433631628752;0.8795986175537109;0.8816229701042175;1.5539649724960327;0.056976620107889175;0.2840938866138458;0.1705477386713028;-0.0007139216177165508;0.27870017290115356;-0.06644003093242645;0.13661573827266693;0.2117287516593933;0.1220371425151825
20;-1.4791252413420702e-23;1.314096212387085;0.9761015176773071;0.6791117787361145;-0.025540189817547798;0.8079047203063965;0.7928000688552856;1.4524458646774292;0.04412289336323738;0.19151829183101654;0.21152037382125854;0.05190960690379143;0.46513140201568604;0.14483244717121124;0.20770353078842163;0.2869783341884613;0.36722999811172485
17;-3.556192866631348e-15;1.3812683820724487;1.013510823249817;0.7142965197563171;-0.009398599155247211;0.8404549360275269;0.86350017786026;1.5326472520828247;0.0695684626698494;0.26485249400138855;0.22985471785068512;-0.015614215284585953;0.319486528635025;-0.09206195920705795;0.14070360362529755;0.18704617023468018;0.1409102976322174
18;-1.7016802574832738e-17;1.2882877588272095;0.9362005591392517;0.6359730958938599;-0.034946050494909286;0.7666540741920471;0.7734801769256592;1.4325757026672363;0.05651773512363434;0.17740003764629364;0.3067939579486847;0.03992350399494171;0.5524002313613892;0.15466192364692688;0.2177186757326126;0.2614695131778717;0.40838056802749634
20;-1.4791252413420702e-23;1.419154167175293;1.0697190761566162;0.7757136821746826;0.006653263233602047;0.8999865651130676;0.8916184902191162;1.562755823135376;0.05035271495580673;0.29039785265922546;0.16621026396751404;0.0034554891753941774;0.24806420505046844;-0.056370820850133896;0.1310146301984787;0.21226075291633606;0.11151478439569473
21;-2.874129774662209e-28;1.3225429058074951;0.9924460053443909;0.697313129901886;-0.02026795968413353;0.8262228965759277;0.7988715767860413;1.4580098390579224;0.040922340005636215;0.20791007578372955;0.1834312528371811;0.05398307368159294;0.45748046040534973;0.14783614873886108;0.19388779997825623;0.28726133704185486;0.3492170572280884
18;-1.7016802574832738e-17;1.3951436281204224;1.0330952405929565;0.7350772023200989;-0.0036861381959170103;0.8620373606681824;0.8721595406532288;1.5440913438796997;0.06281063705682755;0.27397456765174866;0.19119979441165924;-0.010766763240098953;0.28978222608566284;-0.08191914856433868;0.13435901701450348;0.19168002903461456;0.128379225730896
19;-3.140309123731168e-20;1.301915168762207;0.9566817879676819;0.6562536954879761;-0.030636796727776527;0.7860080599784851;0.7808881998062134;1.4433292150497437;0.048441145569086075;0.1832602471113205;0.2629198729991913;0.04843758046627045;0.5156458616256714;0.1544228047132492;0.20428039133548737;0.27804192900657654;0.39178380370140076
21;-2.874129774662209e-28;1.4285297393798828;1.086155652999878;0.7962256073951721;0.009654262103140354;0.9190251231193542;0.8976842761039734;1.5691590309143066;0.04406462609767914;0.29758328199386597;0.15583424270153046;0.0075393859297037125;0.27645930647850037;-0.04097101464867592;0.12727518379688263;0.21546633541584015;0.098899707198143
22;-8.99011375517666e-34;1.3353509902954102;1.0121369361877441;0.7104240655899048;-0.01464732363820076;0.8681535720825195;0.7992711663246155;1.4679075479507446;0.03789456933736801;0.21720735728740692;0.1476258933544159;0.05992094799876213;0.4326680898666382;0.15245917439460754;0.20444166660308838;0.3175347149372101;0.33728447556495667
19;-3.140309123731168e-20;1.407616376876831;1.0517077445983887;0.7538673281669617;0.0019491433631628752;0.8795986175537109;0.8816229701042175;1.5539649724960327;0.056976620107889175;0.2840938866138458;0.1705477386713028;-0.0007139216177165508;0.27870017290115356;-0.06644003093242645;0.13661573827266693;0.2117287516593933;0.1220371425151825
20;-1.4791252413420702e-23;1.314096212387085;0.9761015176773071;0.6791117787361145;-0.025540189817547798;0.8079047203063965;0.7928000688552856;1.4524458646774292;0.04412289336323738;0.19151829183101654;0.21152037382125854;0.05190960690379143;0.46513140201568604;0.14483244717121124;0.20770353078842163;0.2869783341884613;0.36722999811172485
22;-7.112636402233372e-33;1.4358311891555786;1.1011945009231567;0.8107858896255493;0.016111299395561218;0.936722457408905;0.9001153111457825;1.5731701850891113;0.03657461330294609;0.30592045187950134;0.13123632967472076;0.012135522440075874;0.24723659455776215;-0.03172706067562103;0.12954914569854736;0.20638476312160492;0.08700864762067795
23;8.264733683076385e-37;1.3446881771087646;1.031000018119812;0.7184763550758362;-0.01064242422580719;0.886918842792511;0.7930079698562622;1.4732030630111694;0.03512061387300491;0.2218596339225769;0.12575595080852509;0.06311970204114914;0.3832259476184845;0.14227797091007233;0.1960367113351822;0.3312399089336395;0.306241899728775
20;-1.4791252413420702e-23;1.419154167175293;1.0697190761566162;0.7757136821746826;0.006653263233602047;0.8999865651130676;0.8916184902191162;1.562755823135376;0.05035271495580673;0.29039785265922546;0.16621026396751404;0.0034554891753941774;0.24806420505046844;-0.056370820850133896;0.1310146301984787;0.21226075291633606;0.11151478439569473
21;-2.874129774662209e-28;1.3225429058074951;0.9924460053443909;0.697313129901886;-0.02026795968413353;0.8262228965759277;0.7988715767860413;1.4580098390579224;0.040922340005636215;0.20791007578372955;0.1834312528371811;0.05398307368159294;0.45748046040534973;0.14783614873886108;0.19388779997825623;0.28726133704185486;0.3492170572280884
23;1.0249839095738418e-37;1.441969871520996;1.1159546375274658;0.820121705532074;0.01798187755048275;0.9504016637802124;0.8947709202766418;1.5758271217346191;0.03231070563197136;0.30559736490249634;0.1095006912946701;0.017126305028796196;0.22034184634685516;-0.021876325830817223;0.12326976656913757;0.2118772268295288;0.07673130184412003
24;2.3066774021250814e-41;1.3532671928405762;1.0481109619140625;0.7397000193595886;-0.0071747517213225365;0.9078662395477295;0.7953413128852844;1.4780675172805786;0.04492998123168945;0.2237897366285324;0.10778836905956268;0.06320729106664658;0.3455529808998108;0.13806740939617157;0.1894461214542389;0.3300608694553375;0.28299716114997864
21;-2.874129774662209e-28;1.4285297393798828;1.086155652999878;0.7962256073951721;0.009654262103140354;0.9190251231193542;0.8976842761039734;1.5691590309143066;0.04406462609767914;0.29758328199386597;0.15583424270153046;0.0075393859297037125;0.27645930647850037;-0.04097101464867592;0.12727518379688263;0.21546633541584015;0.098899707198143
22;-8.99011375517666e-34;1.3353509902954102;1.0121369361877441;0.7104240655899048;-0.01464732363820076;0.8681535720825195;0.7992711663246155;1.4679075479507446;0.03789456933736801;0.21720735728740692;0.1476258933544159;0.05992094799876213;0.4326680898666382;0.15245917439460754;0.20444166660308838;0.3175347149372101;0.33728447556495667
24;2.3066774021250814e-41;1.451088547706604;1.1335383653640747;0.8437678217887878;0.01846151053905487;0.9712316393852234;0.8950749039649963;1.5817444324493408;0.04041709750890732;0.30206596851348877;0.09158598631620407;0.019940858706831932;0.1915941685438156;-0.013599669560790062;0.11405106633901596;0.2044987976551056;0.06635766476392746
25;2.3066774021250814e-41;1.355233073234558;1.0609878301620483;0.7517799139022827;-0.004666202701628208;0.9206627011299133;0.7927690148353577;1.475489616394043;0.04220198839902878;0.23230229318141937;0.09127102792263031;0.06643427163362503;0.3014080822467804;0.13291282951831818;0.17697176337242126;0.3329257071018219;0.2569918632507324
23;8.264733683076385e-37;1.3446881771087646;1.031000018119812;0.7184763550758362;-0.01064242422580719;0.886918842792511;0.7930079698562622;1.4732030630111694;0.03512061387300491;0.2218596339225769;0.12575595080852509;0.06311970204114914;0.3832259476184845;0.14227797091007233;0.1960367113351822;0.3312399089336395;0.306241899728775
22;-7.112636402233372e-33;1.4358311891555786;1.1011945009231567;0.8107858896255493;0.016111299395561218;0.936722457408905;0.9001153111457825;1.5731701850891113;0.03657461330294609;0.30592045187950134;0.13123632967472076;0.012135522440075874;0.24723659455776215;-0.03172706067562103;0.12954914569854736;0.20638476312160492;0.08700864762067795
25;2.3066774021250814e-41;1.454306960105896;1.146411657333374;0.8574802279472351;0.01858656108379364;0.9837051033973694;0.8944927453994751;1.5815250873565674;0.036896489560604095;0.3078575134277344;0.07937130331993103;0.02351154200732708;0.16648156940937042;-0.0031490500550717115;0.11341815441846848;0.20557759702205658;0.06331025063991547
26;2.3066774021250814e-41;1.3587543964385986;1.0749691724777222;0.767467200756073;-0.003565582912415266;0.9389256834983826;0.8031005263328552;1.474575161933899;0.05458337813615799;0.23469178378582;0.07603279501199722;0.06487324088811874;0.2587643563747406;0.12122276425361633;0.1636945903301239;0.32872238755226135;0.22883616387844086
24;2.3066774021250814e-41;1.3532671928405762;1.0481109619140625;0.7397000193595886;-0.0071747517213225365;0.9078662395477295;0.7953413128852844;1.4780675172805786;0.04492998123168945;0.2237897366285324;0.10778836905956268;0.06320729106664658;0.3455529808998108;0.13806740939617157;0.1894461214542389;0.3300608694553375;0.28299716114997864
23;1.0249839095738418e-37;1.441969871520996;1.1159546375274658;0.820121705532074;0.01798187755048275;0.9504016637802124;0.8947709202766418;1.5758271217346191;0.03231070563197136;0.30559736490249634;0.1095006912946701;0.017126305028796196;0.22034184634685516;-0.021876325830817223;0.12326976656913757;0.2118772268295288;0.07673130184412003
26;2.3066774021250814e-41;1.456065058708191;1.1580742597579956;0.8720484972000122;0.018105698749423027;0.9984155297279358;0.901178777217865;1.5791481733322144;0.04215168580412865;0.30658867955207825;0.06847110390663147;0.026255689561367035;0.14250318706035614;0.0038304198533296585;0.10362955927848816;0.19889827072620392;0.05481204390525818
27;2.3066774021250814e-41;1.3551527261734009;1.0836639404296875;0.776866614818573;0.015166250057518482;0.9304904341697693;0.8168365359306335;1.46437668800354;0.05389803275465965;0.2573614716529846;0.06568426638841629;0.04850762337446213;0.22574923932552338;0.11350911110639572;0.15016166865825653;0.34394386410713196;0.1716322898864746
24;2.3066774021250814e-41;1.451088547706604;1.1335383653640747;0.8437678217887878;0.01846151053905487;0.9712316393852234;0.8950749039649963;1.5817444324493408;0.04041709750890732;0.30206596851348877;0.09158598631620407;0.019940858706831932;0.1915941685438156;-0.013599669560790062;0.11405106633901596;0.2044987976551056;0.06635766476392746
25;2.3066774021250814e-41;1.355233073234558;1.0609878301620483;0.7517799139022827;-0.004666202701628208;0.9206627011299133;0.7927690148353577;1.475489616394043;0.04220198839902878;0.23230229318141937;0.09127102792263031;0.06643427163362503;0.3014080822467804;0.13291282951831818;0.17697176337242126;0.3329257071018219;0.2569918632507324
27;2.3066774021250814e-41;1.4530388116836548;1.1663473844528198;0.8794047236442566;0.018038492649793625;1.0096861124038696;0.8973302841186523;1.571479320526123;0.03967919945716858;0.3061359226703644;0.06196526810526848;0.02955365739762783;0.12631471455097198;0.010640504769980907;0.09680429100990295;0.20147736370563507;0.04812348634004593
28;2.3066774021250814e-41;1.35017728805542;1.0922536849975586;0.791243314743042;0.016928978264331818;0.9431707262992859;0.8275993466377258;1.4552122354507446;0.05065690353512764;0.28012776374816895;0.06781897693872452;0.044868871569633484;0.2043144702911377;0.11139541119337082;0.13945221900939941;0.3409692645072937;0.14557714760303497
26;2.3066774021250814e-41;1.3587543964385986;1.0749691724777222;0.767467200756073;-0.003565582912415266;0.9389256834983826;0.8031005263328552;1.474575161933899;0.05458337813615799;0.23469178378582;0.07603279501199722;0.06487324088811874;0.2587643563747406;0.12122276425361633;0.1636945903301239;0.32872238755226135;0.22883616387844086
25;2.3066774021250814e-41;1.454306960105896;1.146411657333374;0.8574802279472351;0.01858656108379364;0.9837051033973694;0.8944927453994751;1.5815250873565674;0.036896489560604095;0.3078575134277344;0.07937130331993103;0.02351154200732708;0.16648156940937042;-0.0031490500550717115;0.11341815441846848;0.20557759702205658;0.06331025063991547
28;2.3066774021250814e-41;1.4487968683242798;1.1737765073776245;0.8874335289001465;0.01745591126382351;1.0203803777694702;0.8967848420143127;1.5623966455459595;0.03674650937318802;0.3072225749492645;0.06425685435533524;0.03182612359523773;0.11225205659866333;0.015862133353948593;0.09096404165029526;0.19980484247207642;0.041911832988262177
29;2.3066774021250814e-41;1.3443783521652222;1.0995920896530151;0.7978315353393555;0.017055317759513855;0.9538630247116089;0.8260961771011353;1.4438589811325073;0.04730185866355896;0.28108251094818115;0.06300672143697739;0.05051013082265854;0.18006190657615662;0.10572762787342072;0.13422061502933502;0.3469732105731964;0.1298818141222
27;2.3066774021250814e-41;1.3551527261734009;1.0836639404296875;0.776866614818573;0.015166250057518482;0.9304904341697693;0.8168365359306335;1.46437668800354;0.05389803275465965;0.2573614716529846;0.06568426638841629;0.04850762337446213;0.22574923932552338;0.11350911110639572;0.15016166865825653;0.34394386410713196;0.1716322898864746
26;2.3066774021250814e-41;1.456065058708191;1.1580742597579956;0.8720484972000122;0.018105698749423027;0.9984155297279358;0.901178777217865;1.5791481733322144;0.04215168580412865;0.30658867955207825;0.06847110390663147;0.026255689561367035;0.14250318706035614;0.0038304198533296585;0.10362955927848816;0.19889827072620392;0.05481204390525818
29;2.3066774021250814e-41;1.4424151182174683;1.1797353029251099;0.8935166001319885;0.01686946488916874;1.0296120643615723;0.8917335867881775;1.5508953332901;0.0343770794570446;0.3061860501766205;0.061049580574035645;0.037965867668390274;0.09777239710092545;0.020613238215446472;0.08745867013931274;0.19976294040679932;0.03709432855248451
30;2.3066774021250814e-41;1.3402191400527954;1.1092416048049927;0.8044013977050781;0.01899169199168682;0.9647803902626038;0.8187402486801147;1.4338561296463013;0.040749259293079376;0.2811180353164673;0.05955256521701813;0.05201340839266777;0.16391167044639587;0.10491051524877548;0.12441764771938324;0.33895495533943176;0.12396202236413956
28;2.3066774021250814e-41;1.35017728805542;1.0922536849975586;0.791243314743042;0.016928978264331818;0.9431707262992859;0.8275993466377258;1.4552122354507446;0.05065690353512764;0.28012776374816895;0.06781897693872452;0.044868871569633484;0.2043144702911377;0.11139541119337082;0.13945221900939941;0.3409692645072937;0.14557714760303497
27;2.3066774021250814e-41;1.4530388116836548;1.1663473844528198;0.8794047236442566;0.018038492649793625;1.0096861124038696;0.8973302841186523;1.571479320526123;0.03967919945716858;0.3061359226703644;0.06196526810526848;0.02955365739762783;0.12631471455097198;0.010640504769980907;0.09680429100990295;0.20147736370563507;0.04812348634004593
30;2.3066774021250814e-41;1.4383693933486938;1.188442587852478;0.899808943271637;0.0171192679554224;1.037817120552063;0.8825563192367554;1.5415385961532593;0.03276105597615242;0.30121827125549316;0.05726971477270126;0.0398775190114975;0.08790707588195801;0.028868097811937332;0.0818571150302887;0.19325314462184906;0.03518234193325043
31;2.3066774021250814e-41;1.3450732231140137;1.1256881952285767;0.8212748765945435;0.018754243850708008;0.985183596611023;0.8337235450744629;1.4339321851730347;0.03887658193707466;0.27465349435806274;0.05520728975534439;0.050515834242105484;0.15796037018299103;0.09721048176288605;0.11427927762269974;0.3435584008693695;0.1082913801074028
29;2.3066774021250814e-41;1.3443783521652222;1.0995920896530151;0.7978315353393555;0.017055317759513855;0.9538630247116089;0.8260961771011353;1.4438589811325073;0.04730185866355896;0.28108251094818115;0.06300672143697739;0.05051013082265854;0.18006190657615662;0.10572762787342072;0.13422061502933502;0.3469732105731964;0.1298818141222
31;2.3066774021250814e-41;1.4333192110061646;1.1963434219360352;0.9057838916778564;0.01627814769744873;1.0492022037506104;0.8786371350288391;1.531149983406067;0.03060678392648697;0.2964611351490021;0.05359582230448723;0.03993460536003113;0.08611740916967392;0.03208421915769577;0.07623419910669327;0.19509859383106232;0.030932072550058365
28;2.3066774021250814e-41;1.4487968683242798;1.1737765073776245;0.8874335289001465;0.01745591126382351;1.0203803777694702;0.8967848420143127;1.5623966455459595;0.03674650937318802;0.3072225749492645;0.06425685435533524;0.03182612359523773;0.11225205659866333;0.015862133353948593;0.09096404165029526;0.19980484247207642;0.041911832988262177
32;2.3066774021250814e-41;1.338282585144043;1.1330673694610596;0.8270958662033081;0.019459452480077744;0.9951385259628296;0.8280836939811707;1.4213908910751343;0.037161361426115036;0.26350080966949463;0.05267253518104553;0.049698591232299805;0.14883626997470856;0.09487145394086838;0.1090792715549469;0.3423401713371277;0.09814249724149704
30;2.3066774021250814e-41;1.3402191400527954;1.1092416048049927;0.8044013977050781;0.01899169199168682;0.9647803902626038;0.8187402486801147;1.4338561296463013;0.040749259293079376;0.2811180353164673;0.05955256521701813;0.05201340839266777;0.16391167044639587;0.10491051524877548;0.12441764771938324;0.33895495533943176;0.12396202236413956
32;2.3066774021250814e-41;1.426618218421936;1.2033450603485107;0.9119672179222107;0.015545996837317944;1.0598299503326416;0.8694407939910889;1.518750786781311;0.028997033834457397;0.29181453585624695;0.05126410350203514;0.040051572024822235;0.08062636852264404;0.03493744507431984;0.07427109032869339;0.19612596929073334;0.02823035791516304
29;2.3066774021250814e-41;1.4424151182174683;1.1797353029251099;0.8935166001319885;0.01686946488916874;1.0296120643615723;0.8917335867881775;1.5508953332901;0.0343770794570446;0.3061860501766205;0.061049580574035645;0.037965867668390274;0.09777239710092545;0.020613238215446472;0.08745867013931274;0.19976294040679932;0.03709432855248451
33;2.3066774021250814e-41;1.3359277248382568;1.1442279815673828;0.8316118121147156;0.018535640090703964;0.9995540380477905;0.8234968185424805;1.4138907194137573;0.04815781116485596;0.2669174075126648;0.051069475710392;0.047238148748874664;0.13445508480072021;0.09637033194303513;0.10138685256242752;0.3403645157814026;0.0977119728922844
31;2.3066774021250814e-41;1.3450732231140137;1.1256881952285767;0.8212748765945435;0.018754243850708008;0.985183596611023;0.8337235450744629;1.4339321851730347;0.03887658193707466;0.27465349435806274;0.05520728975534439;0.050515834242105484;0.15796037018299103;0.09721048176288605;0.11427927762269974;0.3435584008693695;0.1082913801074028
33;2.3066774021250814e-41;1.4224275350570679;1.2127548456192017;0.9179328083992004;0.01480080932378769;1.065924048423767;0.8630391359329224;1.5088566541671753;0.04564735293388367;0.29868078231811523;0.04989636689424515;0.039175763726234436;0.0732690691947937;0.040693290531635284;0.0716065838932991;0.20928287506103516;0.03639813885092735
30;2.3066774021250814e-41;1.4383693933486938;1.188442587852478;0.899808943271637;0.0171192679554224;1.037817120552063;0.8825563192367554;1.5415385961532593;0.03276105597615242;0.30121827125549316;0.05726971477270126;0.0398775190114975;0.08790707588195801;0.028868097811937332;0.0818571150302887;0.19325314462184906;0.03518234193325043
34;2.3066774021250814e-41;1.3517063856124878;1.1717430353164673;0.8255189061164856;0.01741398684680462;1.0214287042617798;0.7928151488304138;1.4248207807540894;0.019150318577885628;0.259249746799469;0.04999294504523277;0.04539204388856888;0.12179278582334518;0.09155246615409851;0.09873294085264206;0.3117462992668152;0.07073229551315308
32;2.3066774021250814e-41;1.338282585144043;1.1330673694610596;0.8270958662033081;0.019459452480077744;0.9951385259628296;0.8280836939811707;1.4213908910751343;0.037161361426115036;0.26350080966949463;0.05267253518104553;0.049698591232299805;0.14883626997470856;0.09487145394086838;0.1090792715549469;0.3423401713371277;0.09814249724149704
34;2.3066774021250814e-41;1.418836236000061;1.2230210304260254;0.9213420748710632;0.014211801812052727;1.0753141641616821;0.8561755418777466;1.499543309211731;0.04624888300895691;0.2966660261154175;0.049619439989328384;0.03832264617085457;0.0674125924706459;0.043013207614421844;0.06937326490879059;0.2066371738910675;0.03686777129769325
31;2.3066774021250814e-41;1.4333192110061646;1.1963434219360352;0.9057838916778564;0.01627814769744873;1.0492022037506104;0.8786371350288391;1.531149983406067;0.03060678392648697;0.2964611351490021;0.05359582230448723;0.03993460536003113;0.08611740916967392;0.03208421915769577;0.07623419910669327;0.19509859383106232;0.030932072550058365
35;2.3066774021250814e-41;1.346001386642456;1.1819789409637451;0.8292787671089172;0.018198708072304726;1.0351520776748657;0.7810479402542114;1.4124476909637451;0.034483153373003006;0.25564122200012207;0.04962219297885895;0.047388918697834015;0.11616848409175873;0.09084372967481613;0.1054530143737793;0.3368665874004364;0.08045953512191772
33;2.3066774021250814e-41;1.3359277248382568;1.1442279815673828;0.8316118121147156;0.018535640090703964;0.9995540380477905;0.8234968185424805;1.4138907194137573;0.04815781116485596;0.2669174075126648;0.051069475710392;0.047238148748874664;0.13445508480072021;0.09637033194303513;0.10138685256242752;0.3403645157814026;0.0977119728922844
35;2.3066774021250814e-41;1.4147835969924927;1.2330349683761597;0.9210367202758789;0.014791318215429783;1.0886954069137573;0.8435401916503906;1.4896845817565918;0.04567861557006836;0.29242339730262756;0.048682548105716705;0.03755470737814903;0.06273511797189713;0.04414014890789986;0.06800797581672668;0.21555958688259125;0.03722057491540909
32;2.3066774021250814e-41;1.426618218421936;1.2033450603485107;0.9119672179222107;0.015545996837317944;1.0598299503326416;0.8694407939910889;1.518750786781311;0.028997033834457397;0.29181453585624695;0.05126410350203514;0.040051572024822235;0.08062636852264404;0.03493744507431984;0.07427109032869339;0.19612596929073334;0.02823035791516304
36;2.3066774021250814e-41;1.340692400932312;1.1897209882736206;0.8392189145088196;0.017491616308689117;1.0460609197616577;0.7836721539497375;1.4017226696014404;0.033352211117744446;0.25848332047462463;0.049655795097351074;0.045468900352716446;0.10901902616024017;0.09054688364267349;0.1040489599108696;0.3323913514614105;0.0932229682803154
34;2.3066774021250814e-41;1.3517063856124878;1.1717430353164673;0.8255189061164856;0.01741398684680462;1.0214287042617798;0.7928151488304138;1.4248207807540894;0.019150318577885628;0.259249746799469;0.04999294504523277;0.04539204388856888;0.12179278582334518;0.09155246615409851;0.09873294085264206;0.3117462992668152;0.07073229551315308
36;2.3066774021250814e-41;1.407084584236145;1.2390694618225098;0.9308352470397949;0.015324482694268227;1.0982728004455566;0.8459115028381348;1.4763556718826294;0.044069673866033554;0.29879260063171387;0.04939741641283035;0.0360659658908844;0.05869762971997261;0.047251202166080475;0.06740650534629822;0.2125290185213089;0.052034612745046616
33;2.3066774021250814e-41;1.4224275350570679;1.2127548456192017;0.9179328083992004;0.01480080932378769;1.065924048423767;0.8630391359329224;1.5088566541671753;0.04564735293388367;0.29868078231811523;0.04989636689424515;0.039175763726234436;0.0732690691947937;0.040693290531635284;0.0716065838932991;0.20928287506103516;0.03639813885092735
37;2.3066774021250814e-41;1.338964581489563;1.1991561651229858;0.8507838845252991;0.018210289999842644;1.0573619604110718;0.7897250056266785;1.3950735330581665;0.036780476570129395;0.2562177777290344;0.048811230808496475;0.043370913714170456;0.10516458749771118;0.08752305060625076;0.10792792588472366;0.31258389353752136;0.09563041478395462
35;2.3066774021250814e-41;1.346001386642456;1.1819789409637451;0.8292787671089172;0.018198708072304726;1.0351520776748657;0.7810479402542114;1.4124476909637451;0.034483153373003006;0.25564122200012207;0.04962219297885895;0.047388918697834015;0.11616848409175873;0.09084372967481613;0.1054530143737793;0.3368665874004364;0.08045953512191772
37;2.3066774021250814e-41;1.4025815725326538;1.247926950454712;0.9346530437469482;0.01586025021970272;1.1113849878311157;0.841756284236908;1.4665887355804443;0.04232019931077957;0.2925475239753723;0.04780714586377144;0.03429027274250984;0.05489272251725197;0.04706030339002609;0.0702875629067421;0.21338291466236115;0.0534508191049099
34;2.3066774021250814e-41;1.418836236000061;1.2230210304260254;0.9213420748710632;0.014211801812052727;1.0753141641616821;0.8561755418777466;1.499543309211731;0.04624888300895691;0.2966660261154175;0.049619439989328384;0.03832264617085457;0.0674125924706459;0.043013207614421844;0.06937326490879059;0.2066371738910675;0.03686777129769325
38;2.3066774021250814e-41;1.346479892730713;1.2168047428131104;0.8777881860733032;0.016717571765184402;1.079912543296814;0.7867942452430725;1.398672103881836;0.034160539507865906;0.25738266110420227;0.04821633920073509;0.038588542491197586;0.10192028433084488;0.0850488618016243;0.11311199516057968;0.307151198387146;0.09553307294845581
36;2.3066774021250814e-41;1.340692400932312;1.1897209882736206;0.8392189145088196;0.017491616308689117;1.0460609197616577;0.7836721539497375;1.4017226696014404;0.033352211117744446;0.25848332047462463;0.049655795097351074;0.045468900352716446;0.10901902616024017;0.09054688364267349;0.1040489599108696;0.3323913514614105;0.0932229682803154
38;2.3066774021250814e-41;1.4007823467254639;1.2587586641311646;0.9492252469062805;0.0156968105584383;1.126797080039978;0.8458999991416931;1.459428071975708;0.040320560336112976;0.2882075905799866;0.04592324420809746;0.03328409418463707;0.05126151815056801;0.04791420325636864;0.07291171699762344;0.21561592817306519;0.05260497331619263
35;2.3066774021250814e-41;1.4147835969924927;1.2330349683761597;0.9210367202758789;0.014791318215429783;1.0886954069137573;0.8435401916503906;1.4896845817565918;0.04567861557006836;0.29242339730262756;0.048682548105716705;0.03755470737814903;0.06273511797189713;0.04414014890789986;0.06800797581672668;0.21555958688259125;0.03722057491540909
37;2.3066774021250814e-41;1.338964581489563;1.1991561651229858;0.8507838845252991;0.018210289999842644;1.0573619604110718;0.7897250056266785;1.3950735330581665;0.036780476570129395;0.2562177777290344;0.048811230808496475;0.043370913714170456;0.10516458749771118;0.08752305060625076;0.10792792588472366;0.31258389353752136;0.09563041478395462
39;2.3066774021250814e-41;1.3392256498336792;1.2224100828170776;0.8839307427406311;0.016508057713508606;1.0877184867858887;0.7817788124084473;1.3854998350143433;0.03386775776743889;0.253650963306427;0.04779333621263504;0.03799598664045334;0.09686540067195892;0.08371298015117645;0.11349128931760788;0.3096023499965668;0.09358043968677521
39;2.3066774021250814e-41;1.3957724571228027;1.2663747072219849;0.9603484272956848;0.015333018265664577;1.1380940675735474;0.8383686542510986;1.4494545459747314;0.039040446281433105;0.2854573130607605;0.045002859085798264;0.03236240893602371;0.04907785356044769;0.047948285937309265;0.07357697933912277;0.21638603508472443;0.05265500396490097
36;2.3066774021250814e-41;1.407084584236145;1.2390694618225098;0.9308352470397949;0.015324482694268227;1.0982728004455566;0.8459115028381348;1.4763556718826294;0.044069673866033554;0.29879260063171387;0.04939741641283035;0.0360659658908844;0.05869762971997261;0.047251202166080475;0.06740650534629822;0.2125290185213089;0.052034612745046616
38;2.3066774021250814e-41;1.346479892730713;1.2168047428131104;0.8777881860733032;0.016717571765184402;1.079912543296814;0.7867942452430725;1.398672103881836;0.034160539507865906;0.25738266110420227;0.04821633920073509;0.038588542491197586;0.10192028433084488;0.0850488618016243;0.11311199516057968;0.307151198387146;0.09553307294845581
40;2.3066774021250814e-41;1.3950937986373901;1.2777018547058105;0.9674943685531616;0.016024673357605934;1.1451990604400635;0.8344219923019409;1.443827509880066;0.037481874227523804;0.293422132730484;0.043365444988012314;0.03127594292163849;0.04762572422623634;0.046724624931812286;0.0735778734087944;0.21809063851833344;0.05132056027650833
40;2.3066774021250814e-41;1.3392274379730225;1.2329347133636475;0.8872975707054138;0.018648017197847366;1.091612696647644;0.7763489484786987;1.3812148571014404;0.032287802547216415;0.2542334198951721;0.04528512433171272;0.03686289116740227;0.09116803854703903;0.08045809715986252;0.11574621498584747;0.30607572197914124;0.08877280354499817
37;2.3066774021250814e-41;1.4025815725326538;1.247926950454712;0.9346530437469482;0.01586025021970272;1.1113849878311157;0.841756284236908;1.4665887355804443;0.04232019931077957;0.2925475239753723;0.04780714586377144;0.03429027274250984;0.05489272251725197;0.04706030339002609;0.0702875629067421;0.21338291466236115;0.0534508191049099
39;2.3066774021250814e-41;1.3392256498336792;1.2224100828170776;0.8839307427406311;0.016508057713508606;1.0877184867858887;0.7817788124084473;1.3854998350143433;0.03386775776743889;0.253650963306427;0.04779333621263504;0.03799598664045334;0.09686540067195892;0.08371298015117645;0.11349128931760788;0.3096023499965668;0.09358043968677521
41;2.3066774021250814e-41;1.389839768409729;1.2843282222747803;0.9752853512763977;0.016143688932061195;1.153821587562561;0.8287367224693298;1.4337234497070312;0.03638111799955368;0.2939033508300781;0.042092517018318176;0.030389906838536263;0.04709175229072571;0.04582956060767174;0.07423260062932968;0.21786470711231232;0.05037100240588188
41;2.3066774021250814e-41;1.333415150642395;1.2377257347106934;0.893069863319397;0.01849491521716118;1.0985307693481445;0.7700321674346924;1.371050477027893;0.030844807624816895;0.2544795870780945;0.04290403053164482;0.035831891000270844;0.08794569224119186;0.07897719740867615;0.11818356812000275;0.3049149215221405;0.08608674257993698
38;2.3066774021250814e-41;1.4007823467254639;1.2587586641311646;0.9492252469062805;0.0156968105584383;1.126797080039978;0.8458999991416931;1.459428071975708;0.040320560336112976;0.2882075905799866;0.04592324420809746;0.03328409418463707;0.05126151815056801;0.04791420325636864;0.07291171699762344;0.21561592817306519;0.05260497331619263
40;2.3066774021250814e-41;1.3392274379730225;1.2329347133636475;0.8872975707054138;0.018648017197847366;1.091612696647644;0.7763489484786987;1.3812148571014404;0.032287802547216415;0.2542334198951721;0.04528512433171272;0.03686289116740227;0.09116803854703903;0.08045809715986252;0.11574621498584747;0.30607572197914124;0.08877280354499817
42;2.3066774021250814e-41;1.3869332075119019;1.29192316532135;0.9848913550376892;0.01562490314245224;1.164783000946045;0.8188729882240295;1.4261502027511597;0.03493896871805191;0.29048556089401245;0.044400859624147415;0.0288455318659544;0.05870913714170456;0.044289372861385345;0.07466398924589157;0.21402184665203094;0.04894428700208664
42;2.3066774021250814e-41;1.3310999870300293;1.2452055215835571;0.8989705443382263;0.01747213490307331;1.1088944673538208;0.7596534490585327;1.3647520542144775;0.029240045696496964;0.25363650918006897;0.04333958029747009;0.0334445983171463;0.09517852216959;0.07641107589006424;0.11919893324375153;0.2992146909236908;0.08313807100057602
39;2.3066774021250814e-41;1.3957724571228027;1.2663747072219849;0.9603484272956848;0.015333018265664577;1.1380940675735474;0.8383686542510986;1.4494545459747314;0.039040446281433105;0.2854573130607605;0.045002859085798264;0.03236240893602371;0.04907785356044769;0.047948285937309265;0.07357697933912277;0.21638603508472443;0.05265500396490097
41;2.3066774021250814e-41;1.333415150642395;1.2377257347106934;0.893069863319397;0.01849491521716118;1.0985307693481445;0.7700321674346924;1.371050477027893;0.030844807624816895;0.2544795870780945;0.04290403053164482;0.035831891000270844;0.08794569224119186;0.07897719740867615;0.11818356812000275;0.3049149215221405;0.08608674257993698
43;2.3066774021250814e-41;1.3844257593154907;1.2995374202728271;0.9970827102661133;0.015000827610492706;1.1755067110061646;0.8175520300865173;1.4195839166641235;0.03428086265921593;0.2866082489490509;0.04400349408388138;0.02732878550887108;0.058979351073503494;0.042743001133203506;0.07475543022155762;0.21222485601902008;0.04755613952875137
40;2.3066774021250814e-41;1.3950937986373901;1.2777018547058105;0.9674943685531616;0.016024673357605934;1.1451990604400635;0.8344219923019409;1.443827509880066;0.037481874227523804;0.293422132730484;0.043365444988012314;0.03127594292163849;0.04762572422623634;0.046724624931812286;0.0735778734087944;0.21809063851833344;0.05132056027650833
43;2.3066774021250814e-41;1.3310630321502686;1.2531232833862305;0.9108957648277283;0.0167287178337574;1.1202337741851807;0.7641886472702026;1.3615437746047974;0.027130557224154472;0.2506880462169647;0.043701767921447754;0.03203752264380455;0.09424857050180435;0.07427715510129929;0.11710523068904877;0.29351142048835754;0.08216681331396103
42;2.3066774021250814e-41;1.3310999870300293;1.2452055215835571;0.8989705443382263;0.01747213490307331;1.1088944673538208;0.7596534490585327;1.3647520542144775;0.029240045696496964;0.25363650918006897;0.04333958029747009;0.0334445983171463;0.09517852216959;0.07641107589006424;0.11919893324375153;0.2992146909236908;0.08313807100057602
44;2.3066774021250814e-41;1.3787280321121216;1.303192377090454;1.0039904117584229;0.014214972034096718;1.181752324104309;0.811346173286438;1.4099810123443604;0.03437573462724686;0.2834874093532562;0.04319613426923752;0.026410704478621483;0.05832059308886528;0.041518762707710266;0.07466698437929153;0.21264539659023285;0.046456221491098404
41;2.3066774021250814e-41;1.389839768409729;1.2843282222747803;0.9752853512763977;0.016143688932061195;1.153821587562561;0.8287367224693298;1.4337234497070312;0.03638111799955368;0.2939033508300781;0.042092517018318176;0.030389906838536263;0.04709175229072571;0.04582956060767174;0.07423260062932968;0.21786470711231232;0.05037100240588188
44;2.3066774021250814e-41;1.3249350786209106;1.2565288543701172;0.914106011390686;0.015721846371889114;1.1260279417037964;0.7602463960647583;1.3525128364562988;0.02758207730948925;0.24825836718082428;0.04326947405934334;0.03095264732837677;0.09231816232204437;0.07245413213968277;0.11593331396579742;0.29350215196609497;0.07966525107622147
43;2.3066774021250814e-41;1.3310630321502686;1.2531232833862305;0.9108957648277283;0.0167287178337574;1.1202337741851807;0.7641886472702026;1.3615437746047974;0.027130557224154472;0.2506880462169647;0.043701767921447754;0.03203752264380455;0.09424857050180435;0.07427715510129929;0.11710523068904877;0.29351142048835754;0.08216681331396103
45;2.3066774021250814e-41;1.3775253295898438;1.3101184368133545;1.011418104171753;0.013576874509453773;1.1873258352279663;0.8057259321212769;1.4054577350616455;0.033355824649333954;0.2790556252002716;0.04186628386378288;0.0249430313706398;0.05642580986022949;0.039827995002269745;0.07301429659128189;0.21081072092056274;0.04498054459691048
42;2.3066774021250814e-41;1.3869332075119019;1.29192316532135;0.9848913550376892;0.01562490314245224;1.164783000946045;0.8188729882240295;1.4261502027511597;0.03493896871805191;0.29048556089401245;0.044400859624147415;0.0288455318659544;0.05870913714170456;0.044289372861385345;0.07466398924589157;0.21402184665203094;0.04894428700208664
45;2.3066774021250814e-41;1.321212887763977;1.260966181755066;0.9204413890838623;0.01440634485334158;1.1297918558120728;0.7547759413719177;1.3455451726913452;0.02701374888420105;0.24835312366485596;0.041672661900520325;0.029575275257229805;0.08904936909675598;0.06912875920534134;0.11460554599761963;0.2904466390609741;0.07688065618276596
44;2.3066774021250814e-41;1.3249350786209106;1.2565288543701172;0.914106011390686;0.015721846371889114;1.1260279417037964;0.7602463960647583;1.3525128364562988;0.02758207730948925;0.24825836718082428;0.04326947405934334;0.03095264732837677;0.09231816232204437;0.07245413213968277;0.11593331396579742;0.29350215196609497;0.07966525107622147
46;2.3066774021250814e-41;1.378305435180664;1.3183352947235107;1.0155644416809082;0.013814243488013744;1.1929686069488525;0.8001582622528076;1.4031420946121216;0.032233595848083496;0.2746771574020386;0.04010423645377159;0.023840632289648056;0.05467577278614044;0.03839505836367607;0.07295704632997513;0.20682790875434875;0.04422188922762871
43;2.3066774021250814e-41;1.3844257593154907;1.2995374202728271;0.9970827102661133;0.015000827610492706;1.1755067110061646;0.8175520300865173;1.4195839166641235;0.03428086265921593;0.2866082489490509;0.04400349408388138;0.02732878550887108;0.058979351073503494;0.042743001133203506;0.07475543022155762;0.21222485601902008;0.04755613952875137
46;2.3066774021250814e-41;1.320794939994812;1.2678543329238892;0.9230722784996033;0.013570073992013931;1.1346005201339722;0.7494145631790161;1.3422300815582275;0.026248151436448097;0.24458657205104828;0.039678219705820084;0.028000591322779655;0.085956871509552;0.06656422466039658;0.11715946346521378;0.2864013612270355;0.07488756626844406
45;2.3066774021250814e-41;1.321212887763977;1.260966181755066;0.9204413890838623;0.01440634485334158;1.1297918558120728;0.7547759413719177;1.3455451726913452;0.02701374888420105;0.24835312366485596;0.041672661900520325;0.029575275257229805;0.08904936909675598;0.06912875920534134;0.11460554599761963;0.2904466390609741;0.07688065618276596
47;2.3066774021250814e-41;1.3753048181533813;1.3222804069519043;1.0183312892913818;0.014563918113708496;1.1990060806274414;0.7997696399688721;1.3972331285476685;0.03110959567129612;0.2716163396835327;0.038185931742191315;0.022895365953445435;0.05313156545162201;0.03905220702290535;0.07160517573356628;0.20815260708332062;0.04430875927209854
44;2.3066774021250814e-41;1.3787280321121216;1.303192377090454;1.0039904117584229;0.014214972034096718;1.181752324104309;0.811346173286438;1.4099810123443604;0.03437573462724686;0.2834874093532562;0.04319613426923752;0.026410704478621483;0.05832059308886528;0.041518762707710266;0.07466698437929153;0.21264539659023285;0.046456221491098404
47;2.3066774021250814e-41;1.3195109367370605;1.2719595432281494;0.9285538792610168;0.013060793280601501;1.1399831771850586;0.7524973750114441;1.3386659622192383;0.026302143931388855;0.24210096895694733;0.03821598365902901;0.027010582387447357;0.08376200497150421;0.06670957803726196;0.11232545226812363;0.28161147236824036;0.07380063831806183
46;2.3066774021250814e-41;1.320794939994812;1.2678543329238892;0.9230722784996033;0.013570073992013931;1.1346005201339722;0.7494145631790161;1.3422300815582275;0.026248151436448097;0.24458657205104828;0.039678219705820084;0.028000591322779655;0.085956871509552;0.06656422466039658;0.11715946346521378;0.2864013612270355;0.07488756626844406
48;2.3066774021250814e-41;1.3779971599578857;1.3313193321228027;1.0177232027053833;0.014864614233374596;1.199846625328064;0.7947089076042175;1.3975056409835815;0.030004432424902916;0.27650660276412964;0.038794200867414474;0.021928677335381508;0.05152806639671326;0.0419367253780365;0.06996620446443558;0.20622481405735016;0.043504904955625534
45;2.3066774021250814e-41;1.3775253295898438;1.3101184368133545;1.011418104171753;0.013576874509453773;1.1873258352279663;0.8057259321212769;1.4054577350616455;0.033355824649333954;0.2790556252002716;0.04186628386378288;0.0249430313706398;0.05642580986022949;0.039827995002269745;0.07301429659128189;0.21081072092056274;0.04498054459691048
48;2.3066774021250814e-41;1.3205032348632812;1.2795295715332031;0.9294228553771973;0.012937800027430058;1.1416246891021729;0.7476811408996582;1.336348295211792;0.026047274470329285;0.2516677975654602;0.039132632315158844;0.025409279391169548;0.08129999786615372;0.06986986100673676;0.1107892394065857;0.2834412157535553;0.0724993348121643
47;2.3066774021250814e-41;1.3195109367370605;1.2719595432281494;0.9285538792610168;0.013060793280601501;1.1399831771850586;0.7524973750114441;1.3386659622192383;0.026302143931388855;0.24210096895694733;0.03821598365902901;0.027010582387447357;0.08376200497150421;0.06670957803726196;0.11232545226812363;0.28161147236824036;0.07380063831806183
49;2.3066774021250814e-41;1.3766502141952515;1.3355984687805176;1.020546793937683;0.014310736209154129;1.201205849647522;0.7956889867782593;1.3938112258911133;0.028903190046548843;0.27928391098976135;0.0381653755903244;0.021231980994343758;0.05001462250947952;0.04281078651547432;0.06939825415611267;0.20974482595920563;0.042448535561561584
46;2.3066774021250814e-41;1.378305435180664;1.3183352947235107;1.0155644416809082;0.013814243488013744;1.1929686069488525;0.8001582622528076;1.4031420946121216;0.032233595848083496;0.2746771574020386;0.04010423645377159;0.023840632289648056;0.05467577278614044;0.03839505836367607;0.07295704632997513;0.20682790875434875;0.04422188922762871
49;2.3066774021250814e-41;1.3214468955993652;1.285332441329956;0.931521475315094;0.012468168511986732;1.1428171396255493;0.7478699088096619;1.3353878259658813;0.0250458512455225;0.2526232600212097;0.039207734167575836;0.024643877521157265;0.07874438166618347;0.07039767503738403;0.10874779522418976;0.2811028063297272;0.06987381726503372
48;2.3066774021250814e-41;1.3205032348632812;1.2795295715332031;0.9294228553771973;0.012937800027430058;1.1416246891021729;0.7476811408996582;1.336348295211792;0.026047274470329285;0.2516677975654602;0.039132632315158844;0.025409279391169548;0.08129999786615372;0.06986986100673676;0.1107892394065857;0.2834412157535553;0.0724993348121643
50;2.3066774021250814e-41;1.3714540004730225;1.335379958152771;1.0228136777877808;0.013327189721167088;1.201766848564148;0.7931146621704102;1.3865938186645508;0.028235098347067833;0.2790435552597046;0.036632683128118515;0.020622186362743378;0.04875645041465759;0.0422370471060276;0.06925708800554276;0.2113649994134903;0.044171642512083054
47;2.3066774021250814e-41;1.3753048181533813;1.3222804069519043;1.0183312892913818;0.014563918113708496;1.1990060806274414;0.7997696399688721;1.3972331285476685;0.03110959567129612;0.2716163396835327;0.038185931742191315;0.022895365953445435;0.05313156545162201;0.03905220702290535;0.07160517573356628;0.20815260708332062;0.04430875927209854
50;2.3066774021250814e-41;1.316719889640808;1.284724473953247;0.9318341612815857;0.011804653331637383;1.1420565843582153;0.7435622811317444;1.3289449214935303;0.02526172809302807;0.25176528096199036;0.037248533219099045;0.02319159172475338;0.0758046954870224;0.06847473978996277;0.10567402839660645;0.27963852882385254;0.06849630177021027
49;2.3066774021250814e-41;1.3214468955993652;1.285332441329956;0.931521475315094;0.012468168511986732;1.1428171396255493;0.7478699088096619;1.3353878259658813;0.0250458512455225;0.2526232600212097;0.039207734167575836;0.024643877521157265;0.07874438166618347;0.07039767503738403;0.10874779522418976;0.2811028063297272;0.06987381726503372
51;2.3066774021250814e-41;1.3650619983673096;1.333400845527649;1.0231654644012451;0.012325868010520935;1.201013207435608;0.7899150252342224;1.3784259557724;0.027652934193611145;0.27663835883140564;0.03476559370756149;0.02023579552769661;0.047870002686977386;0.04140373319387436;0.0685972273349762;0.2111559361219406;0.04466661810874939
48;2.3066774021250814e-41;1.3779971599578857;1.3313193321228027;1.0177232027053833;0.014864614233374596;1.199846625328064;0.7947089076042175;1.3975056409835815;0.030004432424902916;0.27650660276412964;0.038794200867414474;0.021928677335381508;0.05152806639671326;0.0419367253780365;0.06996620446443558;0.20622481405735016;0.043504904955625534
51;2.3066774021250814e-41;1.3098303079605103;1.2819050550460815;0.9298332333564758;0.010949131101369858;1.1400697231292725;0.735508143901825;1.3203974962234497;0.025510089471936226;0.24971091747283936;0.035287462174892426;0.02242436073720455;0.07326841354370117;0.06588030606508255;0.10448576509952545;0.277156800031662;0.06652544438838959
50;2.3066774021250814e-41;1.316719889640808;1.284724473953247;0.9318341612815857;0.011804653331637383;1.1420565843582153;0.7435622811317444;1.3289449214935303;0.02526172809302807;0.25176528096199036;0.037248533219099045;0.02319159172475338;0.0758046954870224;0.06847473978996277;0.10567402839660645;0.27963852882385254;0.06849630177021027
52;2.3066774021250814e-41;1.3606643676757812;1.3329025506973267;1.0191634893417358;0.011088227853178978;1.198330283164978;0.7832754254341125;1.3724286556243896;0.02675144374370575;0.2724442481994629;0.03274516761302948;0.0197644904255867;0.047377150505781174;0.04028242453932762;0.0668947771191597;0.20909228920936584;0.04402304068207741
49;2.3066774021250814e-41;1.3766502141952515;1.3355984687805176;1.020546793937683;0.014310736209154129;1.201205849647522;0.7956889867782593;1.3938112258911133;0.028903190046548843;0.27928391098976135;0.0381653755903244;0.021231980994343758;0.05001462250947952;0.04281078651547432;0.06939825415611267;0.20974482595920563;0.042448535561561584
52;2.3066774021250814e-41;1.3038544654846191;1.279616355895996;0.9271062016487122;0.009534562937915325;1.1377118825912476;0.7304801344871521;1.3130608797073364;0.024890780448913574;0.2483382225036621;0.033477481454610825;0.021787099540233612;0.07086504250764847;0.06237506866455078;0.1008494645357132;0.2749047577381134;0.06314679980278015
51;2.3066774021250814e-41;1.3098303079605103;1.2819050550460815;0.9298332333564758;0.010949131101369858;1.1400697231292725;0.735508143901825;1.3203974962234497;0.025510089471936226;0.24971091747283936;0.035287462174892426;0.02242436073720455;0.07326841354370117;0.06588030606508255;0.10448576509952545;0.277156800031662;0.06652544438838959
53;2.3066774021250814e-41;1.359246015548706;1.334522008895874;1.0250766277313232;0.012161597609519958;1.2014188766479492;0.7812919616699219;1.3696261644363403;0.026319991797208786;0.2681885063648224;0.03192223235964775;0.018698694184422493;0.04638350382447243;0.038637083023786545;0.06464076042175293;0.20364831387996674;0.04270653426647186
50;2.3066774021250814e-41;1.3714540004730225;1.335379958152771;1.0228136777877808;0.013327189721167088;1.201766848564148;0.7931146621704102;1.3865938186645508;0.028235098347067833;0.2790435552597046;0.036632683128118515;0.020622186362743378;0.04875645041465759;0.0422370471060276;0.06925708800554276;0.2113649994134903;0.044171642512083054
53;2.3066774021250814e-41;1.3051284551620483;1.283923864364624;0.9386395215988159;0.009434818290174007;1.1444095373153687;0.7359797358512878;1.3140146732330322;0.026250256225466728;0.24572421610355377;0.0332450233399868;0.020353248342871666;0.06961636245250702;0.0596780963242054;0.0980754867196083;0.2701265513896942;0.06347022205591202
52;2.3066774021250814e-41;1.3038544654846191;1.279616355895996;0.9271062016487122;0.009534562937915325;1.1377118825912476;0.7304801344871521;1.3130608797073364;0.024890780448913574;0.2483382225036621;0.033477481454610825;0.021787099540233612;0.07086504250764847;0.06237506866455078;0.1008494645357132;0.2749047577381134;0.06314679980278015
54;2.3066774021250814e-41;1.357359766960144;1.3356467485427856;1.029868721961975;0.012947026640176773;1.204445719718933;0.7859811186790466;1.366398811340332;0.025990085676312447;0.26726776361465454;0.03247036039829254;0.01790601946413517;0.04499652236700058;0.036822088062763214;0.06254628300666809;0.20193006098270416;0.041025400161743164
51;2.3066774021250814e-41;1.3650619983673096;1.333400845527649;1.0231654644012451;0.012325868010520935;1.201013207435608;0.7899150252342224;1.3784259557724;0.027652934193611145;0.27663835883140564;0.03476559370756149;0.02023579552769661;0.047870002686977386;0.04140373319387436;0.0685972273349762;0.2111559361219406;0.04466661810874939
54;2.3066774021250814e-41;1.3090239763259888;1.2901674509048462;0.9544300436973572;0.010465900413691998;1.154679298400879;0.7565312385559082;1.3167840242385864;0.026429643854498863;0.24691438674926758;0.0335887148976326;0.01938358135521412;0.06729123741388321;0.05796939507126808;0.09502548724412918;0.2651161253452301;0.060688141733407974
53;2.3066774021250814e-41;1.3051284551620483;1.283923864364624;0.9386395215988159;0.009434818290174007;1.1444095373153687;0.7359797358512878;1.3140146732330322;0.026250256225466728;0.24572421610355377;0.0332450233399868;0.020353248342871666;0.06961636245250702;0.0596780963242054;0.0980754867196083;0.2701265513896942;0.06347022205591202
55;2.3066774021250814e-41;1.3560690879821777;1.336855173110962;1.032019019126892;0.013733644038438797;1.2082314491271973;0.7848021388053894;1.36405611038208;0.025333495810627937;0.26533013582229614;0.03175759315490723;0.018444104120135307;0.0441870279610157;0.03509610891342163;0.06311241537332535;0.20105081796646118;0.0398365743458271
52;2.3066774021250814e-41;1.3606643676757812;1.3329025506973267;1.0191634893417358;0.011088227853178978;1.198330283164978;0.7832754254341125;1.3724286556243896;0.02675144374370575;0.2724442481994629;0.03274516761302948;0.0197644904255867;0.047377150505781174;0.04028242453932762;0.0668947771191597;0.20909228920936584;0.04402304068207741
55;2.3066774021250814e-41;1.3091872930526733;1.2923450469970703;0.9593535661697388;0.011178983375430107;1.1585017442703247;0.7565158605575562;1.3161087036132812;0.0262736938893795;0.24665507674217224;0.0330975204706192;0.020914148539304733;0.06582046300172806;0.055447712540626526;0.09633032232522964;0.26019781827926636;0.05945076048374176
54;2.3066774021250814e-41;1.3090239763259888;1.2901674509048462;0.9544300436973572;0.010465900413691998;1.154679298400879;0.7565312385559082;1.3167840242385864;0.026429643854498863;0.24691438674926758;0.0335887148976326;0.01938358135521412;0.06729123741388321;0.05796939507126808;0.09502548724412918;0.2651161253452301;0.060688141733407974
56;2.3066774021250814e-41;1.3552600145339966;1.338403582572937;1.0293784141540527;0.015660790726542473;1.2122206687927246;0.7814125418663025;1.3620959520339966;0.024542292580008507;0.26221004128456116;0.03136919066309929;0.018856465816497803;0.043124523013830185;0.04538429155945778;0.06388487666845322;0.2009245604276657;0.040293365716934204
53;2.3066774021250814e-41;1.359246015548706;1.334522008895874;1.0250766277313232;0.012161597609519958;1.2014188766479492;0.7812919616699219;1.3696261644363403;0.026319991797208786;0.2681885063648224;0.03192223235964775;0.018698694184422493;0.04638350382447243;0.038637083023786545;0.06464076042175293;0.20364831387996674;0.04270653426647186
56;2.3066774021250814e-41;1.3081293106079102;1.2939244508743286;0.9564573764801025;0.011354224756360054;1.1613435745239258;0.7527517080307007;1.3142277002334595;0.0256334338337183;0.24474278092384338;0.03210699185729027;0.020906679332256317;0.06404262781143188;0.06569375097751617;0.09598904103040695;0.2564336657524109;0.058908816426992416
55;2.3066774021250814e-41;1.3091872930526733;1.2923450469970703;0.9593535661697388;0.011178983375430107;1.1585017442703247;0.7565158605575562;1.3161087036132812;0.0262736938893795;0.24665507674217224;0.0330975204706192;0.020914148539304733;0.06582046300172806;0.055447712540626526;0.09633032232522964;0.26019781827926636;0.05945076048374176
57;2.3066774021250814e-41;1.3515926599502563;1.336685299873352;1.0250873565673828;0.015212523750960827;1.2123311758041382;0.777546763420105;1.3576059341430664;0.023770947009325027;0.2597380578517914;0.031012391671538353;0.018761495128273964;0.04210074245929718;0.04718811810016632;0.06306496262550354;0.2017495483160019;0.04116157069802284
54;2.3066774021250814e-41;1.357359766960144;1.3356467485427856;1.029868721961975;0.012947026640176773;1.204445719718933;0.7859811186790466;1.366398811340332;0.025990085676312447;0.26726776361465454;0.03247036039829254;0.01790601946413517;0.04499652236700058;0.036822088062763214;0.06254628300666809;0.20193006098270416;0.041025400161743164
57;2.3066774021250814e-41;1.3039577007293701;1.2915139198303223;0.9531944394111633;0.01121758483350277;1.1595059633255005;0.7487269639968872;1.3092331886291504;0.025168944150209427;0.24334421753883362;0.03226936236023903;0.020825473591685295;0.06210968643426895;0.06630989909172058;0.09370026737451553;0.2567017078399658;0.0594620481133461
56;2.3066774021250814e-41;1.3081293106079102;1.2939244508743286;0.9564573764801025;0.011354224756360054;1.1613435745239258;0.7527517080307007;1.3142277002334595;0.0256334338337183;0.24474278092384338;0.03210699185729027;0.020906679332256317;0.06404262781143188;0.06569375097751617;0.09598904103040695;0.2564336657524109;0.058908816426992416
58;2.3066774021250814e-41;1.3505338430404663;1.3373667001724243;1.023528814315796;0.014431376941502094;1.211076259613037;0.7763711810112;1.3557559251785278;0.02381267584860325;0.2600529193878174;0.029916906729340553;0.01825077459216118;0.04088710620999336;0.04684802144765854;0.06155993044376373;0.20299461483955383;0.04093010723590851
55;2.3066774021250814e-41;1.3560690879821777;1.336855173110962;1.032019019126892;0.013733644038438797;1.2082314491271973;0.7848021388053894;1.36405611038208;0.025333495810627937;0.26533013582229614;0.03175759315490723;0.018444104120135307;0.0441870279610157;0.03509610891342163;0.06311241537332535;0.20105081796646118;0.0398365743458271
58;2.3066774021250814e-41;1.3019375801086426;1.2913365364074707;0.9518789649009705;0.010869240388274193;1.1593053340911865;0.7472037672996521;1.3063522577285767;0.025654500350356102;0.24555984139442444;0.031010398641228676;0.020218461751937866;0.060099370777606964;0.06547410041093826;0.09292856603860855;0.26095932722091675;0.059062711894512177
57;2.3066774021250814e-41;1.3039577007293701;1.2915139198303223;0.9531944394111633;0.01121758483350277;1.1595059633255005;0.7487269639968872;1.3092331886291504;0.025168944150209427;0.24334421753883362;0.03226936236023903;0.020825473591685295;0.06210968643426895;0.06630989909172058;0.09370026737451553;0.2567017078399658;0.0594620481133461
59;2.3066774021250814e-41;1.3471319675445557;1.3355120420455933;1.0203746557235718;0.01402330957353115;1.2097681760787964;0.7730482220649719;1.3517128229141235;0.023758480325341225;0.258667528629303;0.028530936688184738;0.01792813278734684;0.03992123529314995;0.04608667269349098;0.0618312731385231;0.20345814526081085;0.04111986979842186
56;2.3066774021250814e-41;1.3552600145339966;1.338403582572937;1.0293784141540527;0.015660790726542473;1.2122206687927246;0.7814125418663025;1.3620959520339966;0.024542292580008507;0.26221004128456116;0.03136919066309929;0.018856465816497803;0.043124523013830185;0.04538429155945778;0.06388487666845322;0.2009245604276657;0.040293365716934204
59;2.3066774021250814e-41;1.299098014831543;1.289920449256897;0.949249804019928;0.011319187469780445;1.1582461595535278;0.7442203760147095;1.3029255867004395;0.02543363906443119;0.2445639669895172;0.02936309203505516;0.019961414858698845;0.05904483050107956;0.06467832624912262;0.08879885822534561;0.2610302269458771;0.059722114354372025
58;2.3066774021250814e-41;1.3019375801086426;1.2913365364074707;0.9518789649009705;0.010869240388274193;1.1593053340911865;0.7472037672996521;1.3063522577285767;0.025654500350356102;0.24555984139442444;0.031010398641228676;0.020218461751937866;0.060099370777606964;0.06547410041093826;0.09292856603860855;0.26095932722091675;0.059062711894512177
60;2.3066774021250814e-41;1.3457876443862915;1.3356534242630005;1.0185610055923462;0.01615963503718376;1.2068595886230469;0.7694374322891235;1.3497698307037354;0.023120958358049393;0.25533246994018555;0.028402235358953476;0.020211074501276016;0.0391056053340435;0.046592291444540024;0.06068649888038635;0.20132911205291748;0.0412236787378788
57;2.3066774021250814e-41;1.3515926599502563;1.336685299873352;1.0250873565673828;0.015212523750960827;1.2123311758041382;0.777546763420105;1.3576059341430664;0.023770947009325027;0.2597380578517914;0.031012391671538353;0.018761495128273964;0.04210074245929718;0.04718811810016632;0.06306496262550354;0.2017495483160019;0.04116157069802284
60;2.3066774021250814e-41;1.2969934940338135;1.2892175912857056;0.9483544230461121;0.013363605365157127;1.1564444303512573;0.7403061389923096;1.3002218008041382;0.02471047453582287;0.24210284650325775;0.028985606506466866;0.021121710538864136;0.0573592446744442;0.06424733251333237;0.08809323608875275;0.26072821021080017;0.05900498852133751
59;2.3066774021250814e-41;1.299098014831543;1.289920449256897;0.949249804019928;0.011319187469780445;1.1582461595535278;0.7442203760147095;1.3029255867004395;0.02543363906443119;0.2445639669895172;0.02936309203505516;0.019961414858698845;0.05904483050107956;0.06467832624912262;0.08879885822534561;0.2610302269458771;0.059722114354372025
61;2.3066774021250814e-41;1.3491857051849365;1.3404042720794678;1.0167744159698486;0.016084035858511925;1.2091563940048218;0.7679262161254883;1.3526456356048584;0.022327642887830734;0.253597229719162;0.03476923704147339;0.02585533820092678;0.04771170765161514;0.04592264071106911;0.058735061436891556;0.19776637852191925;0.04057581350207329
58;2.3066774021250814e-41;1.3505338430404663;1.3373667001724243;1.023528814315796;0.014431376941502094;1.211076259613037;0.7763711810112;1.3557559251785278;0.02381267584860325;0.2600529193878174;0.029916906729340553;0.01825077459216118;0.04088710620999336;0.04684802144765854;0.06155993044376373;0.20299461483955383;0.04093010723590851
61;2.3066774021250814e-41;1.3006454706192017;1.2940974235534668;0.9472160935401917;0.01391642726957798;1.1605408191680908;0.7393100261688232;1.3033722639083862;0.023901481181383133;0.241885706782341;0.03462368994951248;0.0248153954744339;0.06661674380302429;0.06305830925703049;0.08673214167356491;0.25866204500198364;0.05768571048974991
60;2.3066774021250814e-41;1.2969934940338135;1.2892175912857056;0.9483544230461121;0.013363605365157127;1.1564444303512573;0.7403061389923096;1.3002218008041382;0.02471047453582287;0.24210284650325775;0.028985606506466866;0.021121710538864136;0.0573592446744442;0.06424733251333237;0.08809323608875275;0.26072821021080017;0.05900498852133751
62;2.3066774021250814e-41;1.3468490839004517;1.3390703201293945;1.0162181854248047;0.016306499019265175;1.208532691001892;0.7683799266815186;1.3499069213867188;0.021502474322915077;0.2528780698776245;0.03809896856546402;0.027367183938622475;0.05499298870563507;0.04510384425520897;0.05935167148709297;0.19606269896030426;0.04032284393906593
59;2.3066774021250814e-41;1.3471319675445557;1.3355120420455933;1.0203746557235718;0.01402330957353115;1.2097681760787964;0.7730482220649719;1.3517128229141235;0.023758480325341225;0.258667528629303;0.028530936688184738;0.01792813278734684;0.03992123529314995;0.04608667269349098;0.0618312731385231;0.20345814526081085;0.04111986979842186
62;2.3066774021250814e-41;1.3021835088729858;1.29641592502594;0.9535272717475891;0.014103412628173828;1.1650255918502808;0.7482199668884277;1.3042088747024536;0.023023521527647972;0.24920915067195892;0.03671857342123985;0.026017136871814728;0.07425277680158615;0.06223341077566147;0.08833618462085724;0.25456205010414124;0.05680723488330841
61;2.3066774021250814e-41;1.3006454706192017;1.2940974235534668;0.9472160935401917;0.01391642726957798;1.1605408191680908;0.7393100261688232;1.3033722639083862;0.023901481181383133;0.241885706782341;0.03462368994951248;0.0248153954744339;0.06661674380302429;0.06305830925703049;0.08673214167356491;0.25866204500198364;0.05768571048974991
63;2.3066774021250814e-41;1.3457146883010864;1.3389098644256592;1.012075424194336;0.016698695719242096;1.2056617736816406;0.7646699547767639;1.3483572006225586;0.022164292633533478;0.25061991810798645;0.03832025080919266;0.028467919677495956;0.05629406124353409;0.04372242093086243;0.06109585985541344;0.19389519095420837;0.039775967597961426
60;2.3066774021250814e-41;1.3457876443862915;1.3356534242630005;1.0185610055923462;0.01615963503718376;1.2068595886230469;0.7694374322891235;1.3497698307037354;0.023120958358049393;0.25533246994018555;0.028402235358953476;0.020211074501276016;0.0391056053340435;0.046592291444540024;0.06068649888038635;0.20132911205291748;0.0412236787378788
63;2.3066774021250814e-41;1.3009895086288452;1.296115517616272;0.9495143890380859;0.013918707147240639;1.1641278266906738;0.7450319528579712;1.3026260137557983;0.02394402027130127;0.24868236482143402;0.03711337968707085;0.026780810207128525;0.07465904206037521;0.06155185401439667;0.08895975351333618;0.2515098452568054;0.05505046248435974
62;2.3066774021250814e-41;1.3021835088729858;1.29641592502594;0.9535272717475891;0.014103412628173828;1.1650255918502808;0.7482199668884277;1.3042088747024536;0.023023521527647972;0.24920915067195892;0.03671857342123985;0.026017136871814728;0.07425277680158615;0.06223341077566147;0.08833618462085724;0.25456205010414124;0.05680723488330841
64;2.3066774021250814e-41;1.343331217765808;1.337363362312317;1.0131947994232178;0.015384436585009098;1.205367088317871;0.7614156007766724;1.3457114696502686;0.024540143087506294;0.24832317233085632;0.03742251172661781;0.02873900532722473;0.05559778958559036;0.0421251617372036;0.0608108714222908;0.19161279499530792;0.03860156238079071
61;2.3066774021250814e-41;1.3491857051849365;1.3404042720794678;1.0167744159698486;0.016084035858511925;1.2091563940048218;0.7679262161254883;1.3526456356048584;0.022327642887830734;0.253597229719162;0.03476923704147339;0.02585533820092678;0.04771170765161514;0.04592264071106911;0.058735061436891556;0.19776637852191925;0.04057581350207329
64;2.3066774021250814e-41;1.2987895011901855;1.2945915460586548;0.9503148794174194;0.012914040125906467;1.164109230041504;0.743040919303894;1.3001469373703003;0.02568647637963295;0.24605335295200348;0.036324843764305115;0.027132639661431313;0.07313621044158936;0.05932009592652321;0.08702417463064194;0.24582819640636444;0.05348842218518257
63;2.3066774021250814e-41;1.3009895086288452;1.296115517616272;0.9495143890380859;0.013918707147240639;1.1641278266906738;0.7450319528579712;1.3026260137557983;0.02394402027130127;0.24868236482143402;0.03711337968707085;0.026780810207128525;0.07465904206037521;0.06155185401439667;0.08895975351333618;0.2515098452568054;0.05505046248435974
65;2.3066774021250814e-41;1.3432456254959106;1.3380296230316162;1.0123767852783203;0.013980347663164139;1.203926682472229;0.7595549821853638;1.3453516960144043;0.025517260655760765;0.24640287458896637;0.035922836512327194;0.029183533042669296;0.05452128127217293;0.040673062205314636;0.06022942438721657;0.1895814836025238;0.03742780163884163
62;2.3066774021250814e-41;1.3468490839004517;1.3390703201293945;1.0162181854248047;0.016306499019265175;1.208532691001892;0.7683799266815186;1.3499069213867188;0.021502474322915077;0.2528780698776245;0.03809896856546402;0.027367183938622475;0.05499298870563507;0.04510384425520897;0.05935167148709297;0.19606269896030426;0.04032284393906593
65;2.3066774021250814e-41;1.2974332571029663;1.2939105033874512;0.9497748017311096;0.012107981368899345;1.163017988204956;0.742395281791687;1.298517107963562;0.02541181817650795;0.2460966408252716;0.03516877815127373;0.026807677000761032;0.0709628090262413;0.0579727441072464;0.08551222831010818;0.2437838613986969;0.051524240523576736
64;2.3066774021250814e-41;1.2987895011901855;1.2945915460586548;0.9503148794174194;0.012914040125906467;1.164109230041504;0.743040919303894;1.3001469373703003;0.02568647637963295;0.24605335295200348;0.036324843764305115;0.027132639661431313;0.07313621044158936;0.05932009592652321;0.08702417463064194;0.24582819640636444;0.05348842218518257
66;2.3066774021250814e-41;1.3427472114562988;1.3381986618041992;1.0110076665878296;0.012987907975912094;1.2052562236785889;0.7590436935424805;1.344510793685913;0.025474434718489647;0.24726083874702454;0.03570358827710152;0.028804011642932892;0.053133778274059296;0.03922398388385773;0.06033390015363693;0.1899704486131668;0.03617177531123161
63;2.3066774021250814e-41;1.3457146883010864;1.3389098644256592;1.012075424194336;0.016698695719242096;1.2056617736816406;0.7646699547767639;1.3483572006225586;0.022164292633533478;0.25061991810798645;0.03832025080919266;0.028467919677495956;0.05629406124353409;0.04372242093086243;0.06109585985541344;0.19389519095420837;0.039775967597961426
66;2.3066774021250814e-41;1.300506830215454;1.2977794408798218;0.9579248428344727;0.01145450584590435;1.1693177223205566;0.7431578040122986;1.301384687423706;0.02588925138115883;0.25784802436828613;0.037038858979940414;0.02946529909968376;0.06883183121681213;0.05680472403764725;0.08050382882356644;0.2383424937725067;0.05241869390010834
65;2.3066774021250814e-41;1.2974332571029663;1.2939105033874512;0.9497748017311096;0.012107981368899345;1.163017988204956;0.742395281791687;1.298517107963562;0.02541181817650795;0.2460966408252716;0.03516877815127373;0.026807677000761032;0.0709628090262413;0.0579727441072464;0.08551222831010818;0.2437838613986969;0.051524240523576736
67;2.3066774021250814e-41;1.3481656312942505;1.34360671043396;1.0048328638076782;0.012853210791945457;1.2100898027420044;0.7571690082550049;1.349859356880188;0.030708560720086098;0.24862898886203766;0.035305991768836975;0.048835575580596924;0.05723121762275696;0.03758550435304642;0.060831811279058456;0.18578998744487762;0.034826572984457016
64;2.3066774021250814e-41;1.343331217765808;1.337363362312317;1.0131947994232178;0.015384436585009098;1.205367088317871;0.7614156007766724;1.3457114696502686;0.024540143087506294;0.24832317233085632;0.03742251172661781;0.02873900532722473;0.05559778958559036;0.0421251617372036;0.0608108714222908;0.19161279499530792;0.03860156238079071
66;2.3066774021250814e-41;1.300506830215454;1.2977794408798218;0.9579248428344727;0.01145450584590435;1.1693177223205566;0.7431578040122986;1.301384687423706;0.02588925138115883;0.25784802436828613;0.037038858979940414;0.02946529909968376;0.06883183121681213;0.05680472403764725;0.08050382882356644;0.2383424937725067;0.05241869390010834
67;2.3066774021250814e-41;1.3110359907150269;1.3078019618988037;0.9576427340507507;0.01050758920609951;1.1782461404800415;0.7457944750785828;1.3120417594909668;0.030791273340582848;0.2582952082157135;0.03619111329317093;0.051307663321495056;0.07337737828493118;0.05341719463467598;0.07729899138212204;0.2246014028787613;0.05020039528608322
68;2.3066774021250814e-41;1.3518221378326416;1.3477023839950562;1.0095654726028442;0.01529482938349247;1.2158937454223633;0.753756046295166;1.3533189296722412;0.03360716253519058;0.24907536804676056;0.03692864254117012;0.05505482479929924;0.06093570217490196;0.03576544299721718;0.060034364461898804;0.18305405974388123;0.03338541463017464
65;2.3066774021250814e-41;1.3432456254959106;1.3380296230316162;1.0123767852783203;0.013980347663164139;1.203926682472229;0.7595549821853638;1.3453516960144043;0.025517260655760765;0.24640287458896637;0.035922836512327194;0.029183533042669296;0.05452128127217293;0.040673062205314636;0.06022942438721657;0.1895814836025238;0.03742780163884163
67;2.3066774021250814e-41;1.3110359907150269;1.3078019618988037;0.9576427340507507;0.01050758920609951;1.1782461404800415;0.7457944750785828;1.3120417594909668;0.030791273340582848;0.2582952082157135;0.03619111329317093;0.051307663321495056;0.07337737828493118;0.05341719463467598;0.07729899138212204;0.2246014028787613;0.05020039528608322
68;2.3066774021250814e-41;1.3295319080352783;1.326654076576233;0.972629189491272;0.015786873176693916;1.193766474723816;0.7356330156326294;1.3307348489761353;0.03467341884970665;0.26023587584495544;0.03761237859725952;0.058063577860593796;0.07877026498317719;0.0518651120364666;0.07497107982635498;0.2301957756280899;0.04955179616808891
69;2.3066774021250814e-41;1.3547701835632324;1.3511698246002197;1.015805959701538;0.01550209242850542;1.2214635610580444;0.7553574442863464;1.3559815883636475;0.03394890949130058;0.24917364120483398;0.03964436426758766;0.058163970708847046;0.06126342713832855;0.03422689437866211;0.060901861637830734;0.18188904225826263;0.0321451872587204
66;2.3066774021250814e-41;1.3427472114562988;1.3381986618041992;1.0110076665878296;0.012987907975912094;1.2052562236785889;0.7590436935424805;1.344510793685913;0.025474434718489647;0.24726083874702454;0.03570358827710152;0.028804011642932892;0.053133778274059296;0.03922398388385773;0.06033390015363693;0.1899704486131668;0.03617177531123161
68;2.3066774021250814e-41;1.3295319080352783;1.326654076576233;0.972629189491272;0.015786873176693916;1.193766474723816;0.7356330156326294;1.3307348489761353;0.03467341884970665;0.26023587584495544;0.03761237859725952;0.058063577860593796;0.07877026498317719;0.0518651120364666;0.07497107982635498;0.2301957756280899;0.04955179616808891
69;2.3066774021250814e-41;1.3319847583770752;1.3296228647232056;0.97691410779953;0.01764373853802681;1.1982792615890503;0.7373325228691101;1.3329675197601318;0.03540072590112686;0.26140835881233215;0.04101451858878136;0.061639972031116486;0.07892753928899765;0.050407614558935165;0.07590340077877045;0.2294432371854782;0.04831652343273163
70;2.3066774021250814e-41;1.3551087379455566;1.3518716096878052;1.0152019262313843;0.01634446531534195;1.2243218421936035;0.7563424706459045;1.3561586141586304;0.033286936581134796;0.2493308186531067;0.041299786418676376;0.05856480076909065;0.060371022671461105;0.03284439072012901;0.06106286495923996;0.17902222275733948;0.031493596732616425
67;2.3066774021250814e-41;1.3481656312942505;1.34360671043396;1.0048328638076782;0.012853210791945457;1.2100898027420044;0.7571690082550049;1.349859356880188;0.030708560720086098;0.24862898886203766;0.035305991768836975;0.048835575580596924;0.05723121762275696;0.03758550435304642;0.060831811279058456;0.18578998744487762;0.034826572984457016
69;2.3066774021250814e-41;1.3319847583770752;1.3296228647232056;0.97691410779953;0.01764373853802681;1.1982792615890503;0.7373325228691101;1.3329675197601318;0.03540072590112686;0.26140835881233215;0.04101451858878136;0.061639972031116486;0.07892753928899765;0.050407614558935165;0.07590340077877045;0.2294432371854782;0.04831652343273163
70;2.3066774021250814e-41;1.3333678245544434;1.3312642574310303;0.9786103367805481;0.018183613196015358;1.2023965120315552;0.7405619025230408;1.3343085050582886;0.034322239458560944;0.2605533003807068;0.04206382483243942;0.061646319925785065;0.07731924951076508;0.04801977425813675;0.0745997354388237;0.224402517080307;0.04689045622944832
71;2.3066774021250814e-41;1.3548170328140259;1.35212242603302;1.0144801139831543;0.016616832464933395;1.22622811794281;0.7556923031806946;1.3557066917419434;0.032731298357248306;0.2504746615886688;0.04336880147457123;0.05869665741920471;0.05921231955289841;0.031703513115644455;0.0613228902220726;0.17777715623378754;0.03398754820227623
68;2.3066774021250814e-41;1.3518221378326416;1.3477023839950562;1.0095654726028442;0.01529482938349247;1.2158937454223633;0.753756046295166;1.3533189296722412;0.03360716253519058;0.24907536804676056;0.03692864254117012;0.05505482479929924;0.06093570217490196;0.03576544299721718;0.060034364461898804;0.18305405974388123;0.03338541463017464
70;2.3066774021250814e-41;1.3333678245544434;1.3312642574310303;0.9786103367805481;0.018183613196015358;1.2023965120315552;0.7405619025230408;1.3343085050582886;0.034322239458560944;0.2605533003807068;0.04206382483243942;0.061646319925785065;0.07731924951076508;0.04801977425813675;0.0745997354388237;0.224402517080307;0.04689045622944832
71;2.3066774021250814e-41;1.3325114250183105;1.3305858373641968;0.977927029132843;0.017220962792634964;1.2035292387008667;0.739263117313385;1.333271861076355;0.033944834023714066;0.2592504024505615;0.04448327794671059;0.06186579540371895;0.07611767202615738;0.04637185111641884;0.07538653910160065;0.2225976139307022;0.04813587665557861
72;2.3066774021250814e-41;1.3522237539291382;1.3499940633773804;1.013931393623352;0.018936989828944206;1.2253767251968384;0.7567076086997986;1.3530049324035645;0.03164402022957802;0.24905335903167725;0.04370826482772827;0.05819065496325493;0.05783938989043236;0.030536189675331116;0.06111527606844902;0.176384836435318;0.035656049847602844
69;2.3066774021250814e-41;1.3547701835632324;1.3511698246002197;1.015805959701538;0.01550209242850542;1.2214635610580444;0.7553574442863464;1.3559815883636475;0.03394890949130058;0.24917364120483398;0.03964436426758766;0.058163970708847046;0.06126342713832855;0.03422689437866211;0.060901861637830734;0.18188904225826263;0.0321451872587204
71;2.3066774021250814e-41;1.3325114250183105;1.3305858373641968;0.977927029132843;0.017220962792634964;1.2035292387008667;0.739263117313385;1.333271861076355;0.033944834023714066;0.2592504024505615;0.04448327794671059;0.06186579540371895;0.07611767202615738;0.04637185111641884;0.07538653910160065;0.2225976139307022;0.04813587665557861
72;2.3066774021250814e-41;1.3305413722991943;1.328758955001831;0.9774492979049683;0.018250439316034317;1.2033600807189941;0.7395361661911011;1.3311671018600464;0.03269077092409134;0.25703373551368713;0.044828228652477264;0.06179273501038551;0.07426915317773819;0.044058673083782196;0.07545387744903564;0.21967379748821259;0.04818318784236908
73;2.3066774021250814e-41;1.3487440347671509;1.3468259572982788;1.0103775262832642;0.018436389043927193;1.2221168279647827;0.7529736757278442;1.3494207859039307;0.030446330085396767;0.2468997836112976;0.04306486248970032;0.057425688952207565;0.05648890137672424;0.029454372823238373;0.059753790497779846;0.17681178450584412;0.03851364552974701
70;2.3066774021250814e-41;1.3551087379455566;1.3518716096878052;1.0152019262313843;0.01634446531534195;1.2243218421936035;0.7563424706459045;1.3561586141586304;0.033286936581134796;0.2493308186531067;0.041299786418676376;0.05856480076909065;0.060371022671461105;0.03284439072012901;0.06106286495923996;0.17902222275733948;0.031493596732616425
72;2.3066774021250814e-41;1.3305413722991943;1.328758955001831;0.9774492979049683;0.018250439316034317;1.2033600807189941;0.7395361661911011;1.3311671018600464;0.03269077092409134;0.25703373551368713;0.044828228652477264;0.06179273501038551;0.07426915317773819;0.044058673083782196;0.07545387744903564;0.21967379748821259;0.04818318784236908
73;2.3066774021250814e-41;1.3265438079833984;1.3250608444213867;0.9743394255638123;0.017850030213594437;1.2000313997268677;0.7360835671424866;1.3270245790481567;0.031621333211660385;0.25528883934020996;0.04589724913239479;0.06124561280012131;0.07226328551769257;0.04201215133070946;0.07394584268331528;0.21881282329559326;0.05056355521082878
74;2.3066774021250814e-41;1.3455990552902222;1.343932867050171;1.0105700492858887;0.01817311905324459;1.2203072309494019;0.75102299451828;1.3465161323547363;0.03193015232682228;0.2440560907125473;0.040940362960100174;0.056461501866579056;0.05613594874739647;0.028924616053700447;0.059255313128232956;0.1769198626279831;0.039057109504938126
71;2.3066774021250814e-41;1.3548170328140259;1.35212242603302;1.0144801139831543;0.016616832464933395;1.22622811794281;0.7556923031806946;1.3557066917419434;0.032731298357248306;0.2504746615886688;0.04336880147457123;0.05869665741920471;0.05921231955289841;0.031703513115644455;0.0613228902220726;0.17777715623378754;0.03398754820227623
73;2.3066774021250814e-41;1.3265438079833984;1.3250608444213867;0.9743394255638123;0.017850030213594437;1.2000313997268677;0.7360835671424866;1.3270245790481567;0.031621333211660385;0.25528883934020996;0.04589724913239479;0.06124561280012131;0.07226328551769257;0.04201215133070946;0.07394584268331528;0.21881282329559326;0.05056355521082878
