batch_number;w0;w1;w2;w3;w4;w5;w6;w7;w8;w9;w10;w11;w12;w13;w14;w15;w16
1;-0.1946510523557663;0.6989322304725647;0.058344367891550064;0.6267749667167664;-0.4517867863178253;0.23058553040027618;0.49676546454429626;-0.3450387418270111;0.3867414593696594;-0.2982519268989563;-0.4618588387966156;-0.3278777301311493;0.05492866784334183;-0.14456364512443542;0.47966232895851135;0.1960609406232834;0.3567160964012146
2;-0.09187973290681839;0.799351692199707;0.007394044194370508;0.7273880243301392;-0.4139752984046936;0.33224979043006897;0.5849416255950928;-0.24188114702701569;0.38755014538764954;-0.1973937749862671;-0.4439905881881714;-0.2901344895362854;0.13749973475933075;-0.06271969527006149;0.5420027375221252;0.2939150929450989;0.4361462891101837
batch_number;w0;w1;w2;w3;w4;w5;w6;w7;w8;w9;w10;w11;w12;w13;w14;w15;w16
1;-0.1946510523557663;0.6989322304725647;0.058344367891550064;0.6267749667167664;-0.4517867863178253;0.23058553040027618;0.49676546454429626;-0.3450387418270111;0.3867414593696594;-0.2982519268989563;-0.4618588387966156;-0.3278777301311493;0.05492866784334183;-0.14456364512443542;0.47966232895851135;0.1960609406232834;0.3567160964012146
2;-0.09187973290681839;0.799351692199707;0.007394044194370508;0.7273880243301392;-0.4139752984046936;0.33224979043006897;0.5849416255950928;-0.24188114702701569;0.38755014538764954;-0.1973937749862671;-0.4439905881881714;-0.2901344895362854;0.13749973475933075;-0.06271969527006149;0.5420027375221252;0.2939150929450989;0.4361462891101837
batch_number;w0;w1;w2;w3;w4;w5;w6;w7;w8;w9;w10;w11;w12;w13;w14;w15;w16
1;-0.17596860229969025;0.7179964780807495;0.058344367891550064;0.6338019967079163;-0.4210831820964813;0.24661654233932495;0.49346527457237244;-0.3263070285320282;0.38130995631217957;-0.2668772041797638;-0.43257203698158264;-0.3862486183643341;-0.021631192415952682;-0.22950948774814606;0.47190022468566895;0.15493056178092957;0.3214343190193176
3;0.001401781104505062;0.8900367617607117;0.0003939479065593332;0.8182863593101501;-0.3833474814891815;0.42430931329727173;0.6731564402580261;-0.1481727659702301;0.37734100222587585;-0.1291709691286087;-0.386051744222641;-0.28685638308525085;0.17550717294216156;-0.03388161584734917;0.5905240774154663;0.36840710043907166;0.4862173795700073
2;-0.028778105974197388;0.8644368052482605;0.007394044194370508;0.7771384119987488;-0.39789578318595886;0.39347755908966064;0.6288995146751404;-0.17892801761627197;0.373209148645401;-0.16242365539073944;-0.348599374294281;-0.3355163037776947;0.009453121572732925;-0.20078608393669128;0.49938514828681946;0.2243901789188385;0.29961955547332764
batch_number;w0;w1;w2;w3;w4;w5;w6;w7;w8;w9;w10;w11;w12;w13;w14;w15;w16
1;-0.1946510523557663;0.6989322304725647;0.058344367891550064;0.6267749667167664;-0.4517867863178253;0.23058553040027618;0.49676546454429626;-0.3450387418270111;0.3867414593696594;-0.2982519268989563;-0.4618588387966156;-0.3278777301311493;0.05492866784334183;-0.14456364512443542;0.47966232895851135;0.1960609406232834;0.3567160964012146
4;0.09629430621862411;0.9827167391777039;8.274721949419472e-06;0.9111484289169312;-0.3178519308567047;0.5181586742401123;0.7584788203239441;-0.05291570723056793;0.3786453902721405;-0.0637098178267479;-0.3395599126815796;-0.24529260396957397;0.23639103770256042;0.01183687150478363;0.5971987843513489;0.415484756231308;0.5265064239501953
3;0.0842941626906395;0.9757134914398193;0.0003939479065593332;0.879862368106842;-0.3593246638774872;0.5009603500366211;0.7278119325637817;-0.06558452546596527;0.3247678577899933;-0.08319991081953049;-0.26696979999542236;-0.31444674730300903;0.04350951313972473;-0.18145422637462616;0.5472849011421204;0.2475774586200714;0.3268376290798187
batch_number;w0;w1;w2;w3;w4;w5;w6;w7;w8;w9;w10;w11;w12;w13;w14;w15;w16
1;-0.17596860229969025;0.7179964780807495;0.058344367891550064;0.6338019967079163;-0.4210831820964813;0.24661654233932495;0.49346527457237244;-0.3263070285320282;0.38130995631217957;-0.2668772041797638;-0.43257203698158264;-0.3862486183643341;-0.021631192415952682;-0.22950948774814606;0.47190022468566895;0.15493056178092957;0.3214343190193176
2;-0.09187973290681839;0.799351692199707;0.007394044194370508;0.7273880243301392;-0.4139752984046936;0.33224979043006897;0.5849416255950928;-0.24188114702701569;0.38755014538764954;-0.1973937749862671;-0.4439905881881714;-0.2901344895362854;0.13749973475933075;-0.06271969527006149;0.5420027375221252;0.2939150929450989;0.4361462891101837
4;0.19377802312374115;1.0834295749664307;8.274721949419472e-06;0.9885290265083313;-0.3231709599494934;0.608879804611206;0.8236575722694397;0.04413456469774246;0.25359171628952026;0.006987098604440689;-0.20416581630706787;-0.2655164897441864;0.07273003458976746;-0.14827799797058105;0.5548738837242126;0.27646782994270325;0.32075953483581543
5;0.1628691405057907;1.0455951690673828;5.911587308560229e-08;0.9743313193321228;-0.3155488669872284;0.5829946994781494;0.825737714767456;0.014265576377511024;0.38963863253593445;-0.024302568286657333;-0.29188528656959534;-0.21425721049308777;0.2687157690525055;0.03633316606283188;0.6177318692207336;0.4717386066913605;0.5546881556510925
2;-0.028778105974197388;0.8644368052482605;0.007394044194370508;0.7771384119987488;-0.39789578318595886;0.39347755908966064;0.6288995146751404;-0.17892801761627197;0.373209148645401;-0.16242365539073944;-0.348599374294281;-0.3355163037776947;0.009453121572732925;-0.20078608393669128;0.49938514828681946;0.2243901789188385;0.29961955547332764
3;0.001401781104505062;0.8900367617607117;0.0003939479065593332;0.8182863593101501;-0.3833474814891815;0.42430931329727173;0.6731564402580261;-0.1481727659702301;0.37734100222587585;-0.1291709691286087;-0.386051744222641;-0.28685638308525085;0.17550717294216156;-0.03388161584734917;0.5905240774154663;0.36840710043907166;0.4862173795700073
5;0.26729530096054077;1.1538726091384888;5.911587308560229e-08;1.0564934015274048;-0.3015149235725403;0.6803696751594543;0.8918184041976929;0.11824727058410645;0.4144657254219055;0.059515491127967834;-0.14475400745868683;-0.23270003497600555;0.10872254520654678;-0.1386232078075409;0.5536474585533142;0.3123997747898102;0.3345695734024048
6;0.21939845383167267;1.0976755619049072;1.0639553821301106e-10;1.0217748880386353;-0.30298343300819397;0.6374307870864868;0.8670918941497803;0.07152368873357773;0.37193670868873596;0.003806891618296504;-0.22706377506256104;-0.2027955949306488;0.29341304302215576;0.07689586281776428;0.6185774207115173;0.5086649060249329;0.5845425128936768
3;0.0842941626906395;0.9757134914398193;0.0003939479065593332;0.879862368106842;-0.3593246638774872;0.5009603500366211;0.7278119325637817;-0.06558452546596527;0.3247678577899933;-0.08319991081953049;-0.26696979999542236;-0.31444674730300903;0.04350951313972473;-0.18145422637462616;0.5472849011421204;0.2475774586200714;0.3268376290798187
4;0.09629430621862411;0.9827167391777039;8.274721949419472e-06;0.9111484289169312;-0.3178519308567047;0.5181586742401123;0.7584788203239441;-0.05291570723056793;0.3786453902721405;-0.0637098178267479;-0.3395599126815796;-0.24529260396957397;0.23639103770256042;0.01183687150478363;0.5971987843513489;0.415484756231308;0.5265064239501953
6;0.3274882137775421;1.2101280689239502;1.0639553821301106e-10;1.1075787544250488;-0.28071120381355286;0.7383716106414795;0.9379969239234924;0.17912684381008148;0.3966008722782135;0.10479899495840073;-0.0856650099158287;-0.22126036882400513;0.11483686417341232;-0.12981104850769043;0.5481183528900146;0.34913477301597595;0.3419502079486847
7;0.2655446231365204;1.1354053020477295;2.147746905453371e-14;1.0606352090835571;-0.27177754044532776;0.6796369552612305;0.9074352979660034;0.1190367341041565;0.34506121277809143;0.004098447039723396;-0.1985079050064087;-0.20249587297439575;0.24094952642917633;0.021792486310005188;0.6679085493087769;0.4710537791252136;0.5192875266075134
4;0.19377802312374115;1.0834295749664307;8.274721949419472e-06;0.9885290265083313;-0.3231709599494934;0.608879804611206;0.8236575722694397;0.04413456469774246;0.25359171628952026;0.006987098604440689;-0.20416581630706787;-0.2655164897441864;0.07273003458976746;-0.14827799797058105;0.5548738837242126;0.27646782994270325;0.32075953483581543
7;0.39447370171546936;1.273414134979248;2.147746905453371e-14;1.1729334592819214;-0.2658054828643799;0.8035281896591187;1.0066510438919067;0.24666784703731537;0.3708999752998352;0.11340959370136261;-0.03452232852578163;-0.18289373815059662;0.11363433301448822;-0.12561945617198944;0.5521252155303955;0.3520515263080597;0.34039855003356934
5;0.1628691405057907;1.0455951690673828;5.911587308560229e-08;0.9743313193321228;-0.3155488669872284;0.5829946994781494;0.825737714767456;0.014265576377511024;0.38963863253593445;-0.024302568286657333;-0.29188528656959534;-0.21425721049308777;0.2687157690525055;0.03633316606283188;0.6177318692207336;0.4717386066913605;0.5546881556510925
8;0.3423137068748474;1.2108864784240723;-4.322111758408482e-19;1.123306393623352;-0.25470757484436035;0.7569969296455383;0.9652504920959473;0.17769518494606018;0.3368912637233734;0.04731395095586777;-0.09445568174123764;-0.17494206130504608;0.277533620595932;0.06299515813589096;0.65171217918396;0.4703732430934906;0.5385016202926636
5;0.26729530096054077;1.1538726091384888;5.911587308560229e-08;1.0564934015274048;-0.3015149235725403;0.6803696751594543;0.8918184041976929;0.11824727058410645;0.4144657254219055;0.059515491127967834;-0.14475400745868683;-0.23270003497600555;0.10872254520654678;-0.1386232078075409;0.5536474585533142;0.3123997747898102;0.3345695734024048
8;0.45642054080963135;1.3311432600021362;-4.322111758408482e-19;1.2243701219558716;-0.24734479188919067;0.8634746074676514;1.0546607971191406;0.29961711168289185;0.3431151807308197;0.16495491564273834;-0.008100001141428947;-0.16310115158557892;0.13111308217048645;-0.09498076140880585;0.5278880000114441;0.34924885630607605;0.34811341762542725
6;0.21939845383167267;1.0976755619049072;1.0639553821301106e-10;1.0217748880386353;-0.30298343300819397;0.6374307870864868;0.8670918941497803;0.07152368873357773;0.37193670868873596;0.003806891618296504;-0.22706377506256104;-0.2027955949306488;0.29341304302215576;0.07689586281776428;0.6185774207115173;0.5086649060249329;0.5845425128936768
9;0.40871894359588623;1.2728995084762573;-1.0449248395113901e-23;1.144311547279358;-0.2465851604938507;0.7989832162857056;0.9808619022369385;0.24285228550434113;0.31222763657569885;0.09924900531768799;-0.11332441866397858;-0.1602441817522049;0.2967627942562103;0.09887457638978958;0.6713074445724487;0.5214745998382568;0.5486317873001099
6;0.3274882137775421;1.2101280689239502;1.0639553821301106e-10;1.1075787544250488;-0.28071120381355286;0.7383716106414795;0.9379969239234924;0.17912684381008148;0.3966008722782135;0.10479899495840073;-0.0856650099158287;-0.22126036882400513;0.11483686417341232;-0.12981104850769043;0.5481183528900146;0.34913477301597595;0.3419502079486847
9;0.5181665420532227;1.3882979154586792;-1.0449248395113901e-23;1.2446870803833008;-0.22980400919914246;0.9124261736869812;1.0725778341293335;0.3622831702232361;0.3085510730743408;0.20013849437236786;-0.009023580700159073;-0.14025846123695374;0.15423044562339783;-0.04972498491406441;0.5249835252761841;0.40079349279403687;0.36188310384750366
7;0.2655446231365204;1.1354053020477295;2.147746905453371e-14;1.0606352090835571;-0.27177754044532776;0.6796369552612305;0.9074352979660034;0.1190367341041565;0.34506121277809143;0.004098447039723396;-0.1985079050064087;-0.20249587297439575;0.24094952642917633;0.021792486310005188;0.6679085493087769;0.4710537791252136;0.5192875266075134
10;0.4718141555786133;1.3305292129516602;-2.8328373551720606e-28;1.1865168809890747;-0.22739191353321075;0.845487654209137;1.0250043869018555;0.3059071898460388;0.28996139764785767;0.14730757474899292;-0.09785816818475723;-0.15570035576820374;0.30205634236335754;0.12716980278491974;0.6745344996452332;0.5402625799179077;0.5499727129936218
7;0.39447370171546936;1.273414134979248;2.147746905453371e-14;1.1729334592819214;-0.2658054828643799;0.8035281896591187;1.0066510438919067;0.24666784703731537;0.3708999752998352;0.11340959370136261;-0.03452232852578163;-0.18289373815059662;0.11363433301448822;-0.12561945617198944;0.5521252155303955;0.3520515263080597;0.34039855003356934
10;0.5759332180023193;1.440798044204712;-2.8328373551720606e-28;1.269655704498291;-0.20514750480651855;0.9503471851348877;1.092873454093933;0.42126843333244324;0.2794269919395447;0.23562583327293396;0.010608911514282227;-0.1340637505054474;0.15100759267807007;-0.03760915622115135;0.4945705831050873;0.41033250093460083;0.3586137294769287
8;0.3423137068748474;1.2108864784240723;-4.322111758408482e-19;1.123306393623352;-0.25470757484436035;0.7569969296455383;0.9652504920959473;0.17769518494606018;0.3368912637233734;0.04731395095586777;-0.09445568174123764;-0.17494206130504608;0.277533620595932;0.06299515813589096;0.65171217918396;0.4703732430934906;0.5385016202926636
11;0.5172784924507141;1.3691686391830444;4.191590613131575e-33;1.209753155708313;-0.2117457091808319;0.8808517456054688;1.0488897562026978;0.3514210879802704;0.2631757855415344;0.16297601163387299;-0.08169736713171005;-0.15054987370967865;0.29850688576698303;0.12659698724746704;0.6979522109031677;0.5599058866500854;0.5200796127319336
8;0.45642054080963135;1.3311432600021362;-4.322111758408482e-19;1.2243701219558716;-0.24734479188919067;0.8634746074676514;1.0546607971191406;0.29961711168289185;0.3431151807308197;0.16495491564273834;-0.008100001141428947;-0.16310115158557892;0.13111308217048645;-0.09498076140880585;0.5278880000114441;0.34924885630607605;0.34811341762542725
11;0.6149700284004211;1.4729725122451782;4.191590613131575e-33;1.2869678735733032;-0.1797419637441635;0.9803551435470581;1.106829047203064;0.4614546298980713;0.2471250593662262;0.25206488370895386;0.027081232517957687;-0.12636102735996246;0.1597232222557068;-0.03235596418380737;0.5400465726852417;0.4201345145702362;0.33792081475257874
9;0.40871894359588623;1.2728995084762573;-1.0449248395113901e-23;1.144311547279358;-0.2465851604938507;0.7989832162857056;0.9808619022369385;0.24285228550434113;0.31222763657569885;0.09924900531768799;-0.11332441866397858;-0.1602441817522049;0.2967627942562103;0.09887457638978958;0.6713074445724487;0.5214745998382568;0.5486317873001099
12;0.5678279399871826;1.412706732749939;-1.068404767997165e-37;1.2251667976379395;-0.1790236532688141;0.9209699630737305;1.0703580379486084;0.4056703448295593;0.2394859939813614;0.1873375028371811;-0.05794299766421318;-0.13860267400741577;0.3010305166244507;0.1422549933195114;0.7188073992729187;0.5793537497520447;0.5106979608535767
9;0.5181665420532227;1.3882979154586792;-1.0449248395113901e-23;1.2446870803833008;-0.22980400919914246;0.9124261736869812;1.0725778341293335;0.3622831702232361;0.3085510730743408;0.20013849437236786;-0.009023580700159073;-0.14025846123695374;0.15423044562339783;-0.04972498491406441;0.5249835252761841;0.40079349279403687;0.36188310384750366
10;0.4718141555786133;1.3305292129516602;-2.8328373551720606e-28;1.1865168809890747;-0.22739191353321075;0.845487654209137;1.0250043869018555;0.3059071898460388;0.28996139764785767;0.14730757474899292;-0.09785816818475723;-0.15570035576820374;0.30205634236335754;0.12716980278491974;0.6745344996452332;0.5402625799179077;0.5499727129936218
12;0.6528218388557434;1.5030876398086548;-1.068404767997165e-37;1.3015788793563843;-0.1534811556339264;1.008714199066162;1.1221524477005005;0.5005396008491516;0.21503645181655884;0.27786943316459656;0.04103578254580498;-0.11907031387090683;0.15548491477966309;-0.027213066816329956;0.542769193649292;0.42338359355926514;0.32766321301460266
13;0.5548080801963806;1.3783515691757202;-1.6183595964487312e-41;1.167583703994751;-0.14078451693058014;0.8887683153152466;0.9879788756370544;0.39670348167419434;0.25799524784088135;0.19153350591659546;-0.08079839497804642;-0.08606179803609848;0.4099595546722412;0.2834852337837219;0.6306220293045044;0.46884885430336;0.6161699295043945
10;0.5759332180023193;1.440798044204712;-2.8328373551720606e-28;1.269655704498291;-0.20514750480651855;0.9503471851348877;1.092873454093933;0.42126843333244324;0.2794269919395447;0.23562583327293396;0.010608911514282227;-0.1340637505054474;0.15100759267807007;-0.03760915622115135;0.4945705831050873;0.41033250093460083;0.3586137294769287
11;0.5172784924507141;1.3691686391830444;4.191590613131575e-33;1.209753155708313;-0.2117457091808319;0.8808517456054688;1.0488897562026978;0.3514210879802704;0.2631757855415344;0.16297601163387299;-0.08169736713171005;-0.15054987370967865;0.29850688576698303;0.12659698724746704;0.6979522109031677;0.5599058866500854;0.5200796127319336
13;0.6882335543632507;1.5305891036987305;-1.6183595964487312e-41;1.3279519081115723;-0.12119940668344498;1.0405142307281494;1.137923240661621;0.5377012491226196;0.1867426484823227;0.30242812633514404;0.04707268625497818;-0.11212347447872162;0.149081289768219;-0.01454774010926485;0.5195865631103516;0.42330649495124817;0.30235928297042847
14;0.5868614315986633;1.3995695114135742;-1.6183595964487312e-41;1.189376711845398;-0.12096425145864487;0.9150092005729675;0.9978423714637756;0.4302418828010559;0.22993886470794678;0.20335893332958221;-0.06508249789476395;-0.07614915072917938;0.4008852541446686;0.2776549160480499;0.5945232510566711;0.4876454472541809;0.5870834589004517
11;0.6149700284004211;1.4729725122451782;4.191590613131575e-33;1.2869678735733032;-0.1797419637441635;0.9803551435470581;1.106829047203064;0.4614546298980713;0.2471250593662262;0.25206488370895386;0.027081232517957687;-0.12636102735996246;0.1597232222557068;-0.03235596418380737;0.5400465726852417;0.4201345145702362;0.33792081475257874
12;0.5678279399871826;1.412706732749939;-1.068404767997165e-37;1.2251667976379395;-0.1790236532688141;0.9209699630737305;1.0703580379486084;0.4056703448295593;0.2394859939813614;0.1873375028371811;-0.05794299766421318;-0.13860267400741577;0.3010305166244507;0.1422549933195114;0.7188073992729187;0.5793537497520447;0.5106979608535767
14;0.7190169095993042;1.5522522926330566;-1.6183595964487312e-41;1.3469001054763794;-0.09888362139463425;1.0663610696792603;1.1508945226669312;0.5701349377632141;0.15503999590873718;0.30739733576774597;0.05565221235156059;-0.1039813905954361;0.14370666444301605;-0.002766444580629468;0.49057361483573914;0.4216146767139435;0.27790430188179016
15;0.6199403405189514;1.420780062675476;-1.6183595964487312e-41;1.205762267112732;-0.09551706165075302;0.9421197772026062;1.0196905136108398;0.4650695025920868;0.20080702006816864;0.21533480286598206;-0.049912262707948685;-0.07309837639331818;0.38538485765457153;0.2670154869556427;0.5620055198669434;0.4867645502090454;0.5489296317100525
12;0.6528218388557434;1.5030876398086548;-1.068404767997165e-37;1.3015788793563843;-0.1534811556339264;1.008714199066162;1.1221524477005005;0.5005396008491516;0.21503645181655884;0.27786943316459656;0.04103578254580498;-0.11907031387090683;0.15548491477966309;-0.027213066816329956;0.542769193649292;0.42338359355926514;0.32766321301460266
13;0.5548080801963806;1.3783515691757202;-1.6183595964487312e-41;1.167583703994751;-0.14078451693058014;0.8887683153152466;0.9879788756370544;0.39670348167419434;0.25799524784088135;0.19153350591659546;-0.08079839497804642;-0.08606179803609848;0.4099595546722412;0.2834852337837219;0.6306220293045044;0.46884885430336;0.6161699295043945
15;0.7450655102729797;1.5677549839019775;-1.6183595964487312e-41;1.3574349880218506;-0.07501619309186935;1.0862847566604614;1.1639823913574219;0.5980488657951355;0.12627491354942322;0.3095587491989136;0.05766180530190468;-0.09439484030008316;0.13809365034103394;0.0009332748595625162;0.4606659710407257;0.4109385311603546;0.2529076933860779
16;0.6486319899559021;1.435824990272522;-1.6183595964487312e-41;1.2155746221542358;-0.07884871959686279;0.9634358882904053;1.0240521430969238;0.4976307451725006;0.17621012032032013;0.22216211259365082;-0.006687020417302847;-0.05704563483595848;0.3655489981174469;0.25478219985961914;0.5396185517311096;0.49233680963516235;0.5092458128929138
13;0.6882335543632507;1.5305891036987305;-1.6183595964487312e-41;1.3279519081115723;-0.12119940668344498;1.0405142307281494;1.137923240661621;0.5377012491226196;0.1867426484823227;0.30242812633514404;0.04707268625497818;-0.11212347447872162;0.149081289768219;-0.01454774010926485;0.5195865631103516;0.42330649495124817;0.30235928297042847
14;0.5868614315986633;1.3995695114135742;-1.6183595964487312e-41;1.189376711845398;-0.12096425145864487;0.9150092005729675;0.9978423714637756;0.4302418828010559;0.22993886470794678;0.20335893332958221;-0.06508249789476395;-0.07614915072917938;0.4008852541446686;0.2776549160480499;0.5945232510566711;0.4876454472541809;0.5870834589004517
16;0.7749559283256531;1.586746335029602;-1.6183595964487312e-41;1.3678220510482788;-0.056793130934238434;1.1110581159591675;1.173972487449646;0.6298447847366333;0.10011012852191925;0.318793922662735;0.06803420931100845;-0.07974307239055634;0.131055548787117;0.006599114742130041;0.4371498227119446;0.4070562422275543;0.22703702747821808
17;0.6814577579498291;1.4548792839050293;-1.6183595964487312e-41;1.2206506729125977;-0.06174005568027496;0.9847087264060974;1.0299768447875977;0.5323448777198792;0.1638854593038559;0.2492324709892273;0.009784371592104435;-0.043350789695978165;0.34004175662994385;0.23823407292366028;0.5279806852340698;0.4930148720741272;0.47074297070503235
14;0.7190169095993042;1.5522522926330566;-1.6183595964487312e-41;1.3469001054763794;-0.09888362139463425;1.0663610696792603;1.1508945226669312;0.5701349377632141;0.15503999590873718;0.30739733576774597;0.05565221235156059;-0.1039813905954361;0.14370666444301605;-0.002766444580629468;0.49057361483573914;0.4216146767139435;0.27790430188179016
15;0.6199403405189514;1.420780062675476;-1.6183595964487312e-41;1.205762267112732;-0.09551706165075302;0.9421197772026062;1.0196905136108398;0.4650695025920868;0.20080702006816864;0.21533480286598206;-0.049912262707948685;-0.07309837639331818;0.38538485765457153;0.2670154869556427;0.5620055198669434;0.4867645502090454;0.5489296317100525
17;0.8049647212028503;1.6047213077545166;-1.6183595964487312e-41;1.3676764965057373;-0.04051966220140457;1.1279479265213013;1.1737639904022217;0.6618335843086243;0.0795077309012413;0.3294127583503723;0.06932404637336731;-0.06496386975049973;0.12428013235330582;0.009934267029166222;0.40337085723876953;0.40912145376205444;0.21230554580688477
18;0.7089290022850037;1.4664210081100464;-1.6183595964487312e-41;1.2296028137207031;-0.04676155000925064;1.0034722089767456;1.0288273096084595;0.5623613595962524;0.13764379918575287;0.25590264797210693;0.0179568063467741;-0.029808970168232918;0.32045063376426697;0.22752629220485687;0.49121081829071045;0.4867658317089081;0.43240898847579956
15;0.7450655102729797;1.5677549839019775;-1.6183595964487312e-41;1.3574349880218506;-0.07501619309186935;1.0862847566604614;1.1639823913574219;0.5980488657951355;0.12627491354942322;0.3095587491989136;0.05766180530190468;-0.09439484030008316;0.13809365034103394;0.0009332748595625162;0.4606659710407257;0.4109385311603546;0.2529076933860779
16;0.6486319899559021;1.435824990272522;-1.6183595964487312e-41;1.2155746221542358;-0.07884871959686279;0.9634358882904053;1.0240521430969238;0.4976307451725006;0.17621012032032013;0.22216211259365082;-0.006687020417302847;-0.05704563483595848;0.3655489981174469;0.25478219985961914;0.5396185517311096;0.49233680963516235;0.5092458128929138
18;0.8281968235969543;1.614165186882019;-1.6183595964487312e-41;1.371815800666809;-0.02672816626727581;1.1434071063995361;1.1712614297866821;0.6873725056648254;0.061484768986701965;0.3337300419807434;0.06631501764059067;-0.055216699838638306;0.11754024773836136;0.013104500249028206;0.37007108330726624;0.40230679512023926;0.18776708841323853
19;0.7377719879150391;1.4795162677764893;-1.6183595964487312e-41;1.2332037687301636;-0.034610338509082794;1.0142978429794312;1.0230357646942139;0.5939613580703735;0.11662207543849945;0.2559448182582855;0.02281971462070942;-0.01768789254128933;0.30998536944389343;0.222724050283432;0.44172781705856323;0.49061381816864014;0.3969830274581909
16;0.7749559283256531;1.586746335029602;-1.6183595964487312e-41;1.3678220510482788;-0.056793130934238434;1.1110581159591675;1.173972487449646;0.6298447847366333;0.10011012852191925;0.318793922662735;0.06803420931100845;-0.07974307239055634;0.131055548787117;0.006599114742130041;0.4371498227119446;0.4070562422275543;0.22703702747821808
17;0.6814577579498291;1.4548792839050293;-1.6183595964487312e-41;1.2206506729125977;-0.06174005568027496;0.9847087264060974;1.0299768447875977;0.5323448777198792;0.1638854593038559;0.2492324709892273;0.009784371592104435;-0.043350789695978165;0.34004175662994385;0.23823407292366028;0.5279806852340698;0.4930148720741272;0.47074297070503235
19;0.8523915410041809;1.6239759922027588;-1.6183595964487312e-41;1.3751444816589355;-0.014943416230380535;1.1551628112792969;1.1675655841827393;0.7138746976852417;0.04747346416115761;0.3420429527759552;0.07057815790176392;-0.04272715002298355;0.11780297011137009;0.018980886787176132;0.3446229100227356;0.4126816689968109;0.1680530160665512
20;0.7632574439048767;1.4878348112106323;-1.6183595964487312e-41;1.241368055343628;-0.024144643917679787;1.03061044216156;1.0233426094055176;0.6221392154693604;0.09754712134599686;0.2588121294975281;0.03277761489152908;-0.010548850521445274;0.2840035557746887;0.20433682203292847;0.3979651629924774;0.479010671377182;0.35657545924186707
17;0.8049647212028503;1.6047213077545166;-1.6183595964487312e-41;1.3676764965057373;-0.04051966220140457;1.1279479265213013;1.1737639904022217;0.6618335843086243;0.0795077309012413;0.3294127583503723;0.06932404637336731;-0.06496386975049973;0.12428013235330582;0.009934267029166222;0.40337085723876953;0.40912145376205444;0.21230554580688477
18;0.7089290022850037;1.4664210081100464;-1.6183595964487312e-41;1.2296028137207031;-0.04676155000925064;1.0034722089767456;1.0288273096084595;0.5623613595962524;0.13764379918575287;0.25590264797210693;0.0179568063467741;-0.029808970168232918;0.32045063376426697;0.22752629220485687;0.49121081829071045;0.4867658317089081;0.43240898847579956
20;0.875946044921875;1.632363200187683;-1.6183595964487312e-41;1.3833547830581665;-0.005673401989042759;1.1708707809448242;1.1676421165466309;0.7399939298629761;0.03614491969347;0.34476974606513977;0.07893899083137512;-0.03377838432788849;0.10932434350252151;0.021250244230031967;0.3121323585510254;0.3968633711338043;0.14658235013484955
21;0.8087521195411682;1.5185461044311523;-1.6183595964487312e-41;1.2762001752853394;-0.01800297014415264;1.0717107057571411;1.021562099456787;0.6745632886886597;0.07609494030475616;0.2650160789489746;0.04431799799203873;-0.0016673941863700747;0.27629369497299194;0.10746248066425323;0.3224239647388458;0.43935391306877136;0.3186183571815491
18;0.8281968235969543;1.614165186882019;-1.6183595964487312e-41;1.371815800666809;-0.02672816626727581;1.1434071063995361;1.1712614297866821;0.6873725056648254;0.061484768986701965;0.3337300419807434;0.06631501764059067;-0.055216699838638306;0.11754024773836136;0.013104500249028206;0.37007108330726624;0.40230679512023926;0.18776708841323853
19;0.7377719879150391;1.4795162677764893;-1.6183595964487312e-41;1.2332037687301636;-0.034610338509082794;1.0142978429794312;1.0230357646942139;0.5939613580703735;0.11662207543849945;0.2559448182582855;0.02281971462070942;-0.01768789254128933;0.30998536944389343;0.222724050283432;0.44172781705856323;0.49061381816864014;0.3969830274581909
21;0.8976647257804871;1.6373883485794067;-1.6183595964487312e-41;1.3872904777526855;0.0014486379222944379;1.183817744255066;1.1619805097579956;0.7645360827445984;0.027830863371491432;0.346600204706192;0.08139622956514359;-0.024563094601035118;0.12560920417308807;0.020679505541920662;0.2794000804424286;0.3862426280975342;0.1241607517004013
22;0.8295645117759705;1.5190850496292114;-1.6183595964487312e-41;1.2678332328796387;-0.0067630307748913765;1.0810093879699707;1.0136125087738037;0.698276937007904;0.09959663450717926;0.2712043523788452;0.05315886065363884;0.004393622279167175;0.2619420886039734;0.13812986016273499;0.2945152819156647;0.4408683478832245;0.31502413749694824
19;0.8523915410041809;1.6239759922027588;-1.6183595964487312e-41;1.3751444816589355;-0.014943416230380535;1.1551628112792969;1.1675655841827393;0.7138746976852417;0.04747346416115761;0.3420429527759552;0.07057815790176392;-0.04272715002298355;0.11780297011137009;0.018980886787176132;0.3446229100227356;0.4126816689968109;0.1680530160665512
20;0.7632574439048767;1.4878348112106323;-1.6183595964487312e-41;1.241368055343628;-0.024144643917679787;1.03061044216156;1.0233426094055176;0.6221392154693604;0.09754712134599686;0.2588121294975281;0.03277761489152908;-0.010548850521445274;0.2840035557746887;0.20433682203292847;0.3979651629924774;0.479010671377182;0.35657545924186707
22;0.9181389808654785;1.6393828392028809;-1.6183595964487312e-41;1.383155345916748;0.008258072659373283;1.194508671760559;1.150888204574585;0.7879330515861511;0.03956598415970802;0.3508784770965576;0.07751191407442093;-0.015222352929413319;0.11767613142728806;0.022929787635803223;0.26012006402015686;0.3686402440071106;0.12108493596315384
23;0.8550657033920288;1.521350622177124;-1.6183595964487312e-41;1.2437787055969238;0.003957063425332308;1.0905156135559082;0.9891140460968018;0.7268446087837219;0.0886169895529747;0.2764883041381836;0.05635490268468857;0.010405370965600014;0.2371663898229599;0.13652560114860535;0.26508191227912903;0.46159547567367554;0.2755946218967438
20;0.875946044921875;1.632363200187683;-1.6183595964487312e-41;1.3833547830581665;-0.005673401989042759;1.1708707809448242;1.1676421165466309;0.7399939298629761;0.03614491969347;0.34476974606513977;0.07893899083137512;-0.03377838432788849;0.10932434350252151;0.021250244230031967;0.3121323585510254;0.3968633711338043;0.14658235013484955
21;0.8087521195411682;1.5185461044311523;-1.6183595964487312e-41;1.2762001752853394;-0.01800297014415264;1.0717107057571411;1.021562099456787;0.6745632886886597;0.07609494030475616;0.2650160789489746;0.04431799799203873;-0.0016673941863700747;0.27629369497299194;0.10746248066425323;0.3224239647388458;0.43935391306877136;0.3186183571815491
23;0.9442037343978882;1.6459842920303345;-1.6183595964487312e-41;1.3689900636672974;0.012252453714609146;1.202947735786438;1.129092812538147;0.8170058131217957;0.034142594784498215;0.34485480189323425;0.07191260159015656;-0.00630316324532032;0.10950849950313568;0.02517417073249817;0.23087915778160095;0.36540132761001587;0.1039411723613739
24;0.880206286907196;1.5258232355117798;-1.6183595964487312e-41;1.248883605003357;0.00877480860799551;1.105156421661377;0.9794069528579712;0.7549427151679993;0.08918728679418564;0.27248305082321167;0.05455636978149414;0.0165723729878664;0.2204427421092987;0.12909430265426636;0.23261810839176178;0.4439079761505127;0.24754974246025085
21;0.8976647257804871;1.6373883485794067;-1.6183595964487312e-41;1.3872904777526855;0.0014486379222944379;1.183817744255066;1.1619805097579956;0.7645360827445984;0.027830863371491432;0.346600204706192;0.08139622956514359;-0.024563094601035118;0.12560920417308807;0.020679505541920662;0.2794000804424286;0.3862426280975342;0.1241607517004013
22;0.8295645117759705;1.5190850496292114;-1.6183595964487312e-41;1.2678332328796387;-0.0067630307748913765;1.0810093879699707;1.0136125087738037;0.698276937007904;0.09959663450717926;0.2712043523788452;0.05315886065363884;0.004393622279167175;0.2619420886039734;0.13812986016273499;0.2945152819156647;0.4408683478832245;0.31502413749694824
24;0.9669790863990784;1.648988962173462;-1.6183595964487312e-41;1.3730089664459229;0.01437993161380291;1.215372085571289;1.1150609254837036;0.8432784676551819;0.0405898354947567;0.3386765718460083;0.06605351716279984;0.001085640978999436;0.10007920861244202;0.02644314430654049;0.20236901938915253;0.3438561260700226;0.08759952336549759
25;0.9004617929458618;1.5217039585113525;-1.6183595964487312e-41;1.2326619625091553;0.014347312971949577;1.1025813817977905;0.9602536559104919;0.7786111831665039;0.08124842494726181;0.2744009792804718;0.055312737822532654;0.022542636841535568;0.20010991394519806;0.12947992980480194;0.20568807423114777;0.43322885036468506;0.21996043622493744
23;0.8550657033920288;1.521350622177124;-1.6183595964487312e-41;1.2437787055969238;0.003957063425332308;1.0905156135559082;0.9891140460968018;0.7268446087837219;0.0886169895529747;0.2764883041381836;0.05635490268468857;0.010405370965600014;0.2371663898229599;0.13652560114860535;0.26508191227912903;0.46159547567367554;0.2755946218967438
22;0.9181389808654785;1.6393828392028809;-1.6183595964487312e-41;1.383155345916748;0.008258072659373283;1.194508671760559;1.150888204574585;0.7879330515861511;0.03956598415970802;0.3508784770965576;0.07751191407442093;-0.015222352929413319;0.11767613142728806;0.022929787635803223;0.26012006402015686;0.3686402440071106;0.12108493596315384
25;0.9873942136764526;1.6472476720809937;-1.6183595964487312e-41;1.3623348474502563;0.01556791365146637;1.2181501388549805;1.097083330154419;0.8671700358390808;0.036345474421978;0.34282898902893066;0.06232325732707977;0.008562873117625713;0.09215376526117325;0.029105089604854584;0.18510505557060242;0.33511266112327576;0.0808076560497284
26;0.9236955046653748;1.5191713571548462;-1.6183595964487312e-41;1.2232261896133423;0.01635603792965412;1.1128199100494385;0.9550365209579468;0.8059614896774292;0.08911535143852234;0.270553320646286;0.05437281355261803;0.02382202073931694;0.17621605098247528;0.114854596555233;0.182320237159729;0.4125908613204956;0.18839502334594727
24;0.880206286907196;1.5258232355117798;-1.6183595964487312e-41;1.248883605003357;0.00877480860799551;1.105156421661377;0.9794069528579712;0.7549427151679993;0.08918728679418564;0.27248305082321167;0.05455636978149414;0.0165723729878664;0.2204427421092987;0.12909430265426636;0.23261810839176178;0.4439079761505127;0.24754974246025085
23;0.9442037343978882;1.6459842920303345;-1.6183595964487312e-41;1.3689900636672974;0.012252453714609146;1.202947735786438;1.129092812538147;0.8170058131217957;0.034142594784498215;0.34485480189323425;0.07191260159015656;-0.00630316324532032;0.10950849950313568;0.02517417073249817;0.23087915778160095;0.36540132761001587;0.1039411723613739
26;1.007864236831665;1.64460289478302;-1.6183595964487312e-41;1.3551844358444214;0.015707803890109062;1.2264691591262817;1.0919097661972046;0.8915190100669861;0.04255159944295883;0.336727112531662;0.05806315317749977;0.01431272178888321;0.08357886224985123;0.02942531928420067;0.16079719364643097;0.314067006111145;0.06868652254343033
27;0.9424377679824829;1.5101195573806763;-1.6183595964487312e-41;1.2047021389007568;0.017535826191306114;1.1153279542922974;0.9394347667694092;0.8286672234535217;0.08085386455059052;0.2727038264274597;0.05180087313055992;0.025904148817062378;0.16120092570781708;0.10559967905282974;0.15826915204524994;0.4033680260181427;0.1609438806772232
24;0.9669790863990784;1.648988962173462;-1.6183595964487312e-41;1.3730089664459229;0.01437993161380291;1.215372085571289;1.1150609254837036;0.8432784676551819;0.0405898354947567;0.3386765718460083;0.06605351716279984;0.001085640978999436;0.10007920861244202;0.02644314430654049;0.20236901938915253;0.3438561260700226;0.08759952336549759
25;0.9004617929458618;1.5217039585113525;-1.6183595964487312e-41;1.2326619625091553;0.014347312971949577;1.1025813817977905;0.9602536559104919;0.7786111831665039;0.08124842494726181;0.2744009792804718;0.055312737822532654;0.022542636841535568;0.20010991394519806;0.12947992980480194;0.20568807423114777;0.43322885036468506;0.21996043622493744
27;1.0251091718673706;1.6362155675888062;-1.6183595964487312e-41;1.3377033472061157;0.016069242730736732;1.2297418117523193;1.0743260383605957;0.9128077626228333;0.03996440768241882;0.33194831013679504;0.05553315952420235;0.02011128142476082;0.07876796275377274;0.029920591041445732;0.14198926091194153;0.3031415343284607;0.05951962247490883
28;0.9608805775642395;1.500972032546997;-1.6183595964487312e-41;1.187882661819458;0.016809571534395218;1.1193662881851196;0.9284077286720276;0.8511046171188354;0.07249561697244644;0.268431156873703;0.05112229287624359;0.027673693373799324;0.1484535187482834;0.09755889326334;0.14188401401042938;0.38885965943336487;0.14211194217205048
26;0.9236955046653748;1.5191713571548462;-1.6183595964487312e-41;1.2232261896133423;0.01635603792965412;1.1128199100494385;0.9550365209579468;0.8059614896774292;0.08911535143852234;0.270553320646286;0.05437281355261803;0.02382202073931694;0.17621605098247528;0.114854596555233;0.182320237159729;0.4125908613204956;0.18839502334594727
25;0.9873942136764526;1.6472476720809937;-1.6183595964487312e-41;1.3623348474502563;0.01556791365146637;1.2181501388549805;1.097083330154419;0.8671700358390808;0.036345474421978;0.34282898902893066;0.06232325732707977;0.008562873117625713;0.09215376526117325;0.029105089604854584;0.18510505557060242;0.33511266112327576;0.0808076560497284
28;1.0410672426223755;1.6259114742279053;-1.6183595964487312e-41;1.319674015045166;0.01579108275473118;1.2313157320022583;1.058069109916687;0.9328214526176453;0.03727611526846886;0.327674925327301;0.05709896981716156;0.024663882330060005;0.07422132790088654;0.029780622571706772;0.12676918506622314;0.29007688164711;0.05187546834349632
29;0.9765515923500061;1.4885637760162354;-1.6183595964487312e-41;1.166709303855896;0.01756923459470272;1.1179161071777344;0.9081616997718811;0.8707467317581177;0.06648603081703186;0.2646525502204895;0.05056490749120712;0.034848976880311966;0.13757726550102234;0.09103544801473618;0.12769939005374908;0.37837162613868713;0.13014011085033417
27;0.9424377679824829;1.5101195573806763;-1.6183595964487312e-41;1.2047021389007568;0.017535826191306114;1.1153279542922974;0.9394347667694092;0.8286672234535217;0.08085386455059052;0.2727038264274597;0.05180087313055992;0.025904148817062378;0.16120092570781708;0.10559967905282974;0.15826915204524994;0.4033680260181427;0.1609438806772232
26;1.007864236831665;1.64460289478302;-1.6183595964487312e-41;1.3551844358444214;0.015707803890109062;1.2264691591262817;1.0919097661972046;0.8915190100669861;0.04255159944295883;0.336727112531662;0.05806315317749977;0.01431272178888321;0.08357886224985123;0.02942531928420067;0.16079719364643097;0.314067006111145;0.06868652254343033
29;1.0569837093353271;1.6144371032714844;-1.6183595964487312e-41;1.3000102043151855;0.01537653524428606;1.2325278520584106;1.0395936965942383;0.9530143141746521;0.035105131566524506;0.3238282799720764;0.05682099238038063;0.03295948728919029;0.0690237432718277;0.029459018260240555;0.115444116294384;0.2799108624458313;0.04592807590961456
30;0.9988035559654236;1.480212688446045;-1.6183595964487312e-41;1.150469422340393;0.01970178447663784;1.1236934661865234;0.8913711905479431;0.8973789215087891;0.05627666041254997;0.26543349027633667;0.05014428123831749;0.040439750999212265;0.13144493103027344;0.08845888078212738;0.12331745773553848;0.37522271275520325;0.1266336441040039
28;0.9608805775642395;1.500972032546997;-1.6183595964487312e-41;1.187882661819458;0.016809571534395218;1.1193662881851196;0.9284077286720276;0.8511046171188354;0.07249561697244644;0.268431156873703;0.05112229287624359;0.027673693373799324;0.1484535187482834;0.09755889326334;0.14188401401042938;0.38885965943336487;0.14211194217205048
27;1.0251091718673706;1.6362155675888062;-1.6183595964487312e-41;1.3377033472061157;0.016069242730736732;1.2297418117523193;1.0743260383605957;0.9128077626228333;0.03996440768241882;0.33194831013679504;0.05553315952420235;0.02011128142476082;0.07876796275377274;0.029920591041445732;0.14198926091194153;0.3031415343284607;0.05951962247490883
30;1.0775139331817627;1.608081579208374;-1.6183595964487312e-41;1.2769490480422974;0.0156293585896492;1.2308906316757202;1.0139997005462646;0.9777626991271973;0.03359859064221382;0.3147777020931244;0.05473645031452179;0.03579733893275261;0.06474291533231735;0.028111860156059265;0.10339784622192383;0.26023009419441223;0.04226481914520264
31;1.019108533859253;1.4725340604782104;-1.6183595964487312e-41;1.132607340812683;0.01959371194243431;1.1292517185211182;0.8777068853378296;0.9217427968978882;0.05198502913117409;0.2615186870098114;0.04883250221610069;0.04285772889852524;0.1358121782541275;0.0835273414850235;0.10810726881027222;0.3714401423931122;0.13128992915153503
29;0.9765515923500061;1.4885637760162354;-1.6183595964487312e-41;1.166709303855896;0.01756923459470272;1.1179161071777344;0.9081616997718811;0.8707467317581177;0.06648603081703186;0.2646525502204895;0.05056490749120712;0.034848976880311966;0.13757726550102234;0.09103544801473618;0.12769939005374908;0.37837162613868713;0.13014011085033417
31;1.0971581935882568;1.599440336227417;-1.6183595964487312e-41;1.2494194507598877;0.014745335094630718;1.236438512802124;0.9896688461303711;1.001589059829712;0.03153996914625168;0.3045579791069031;0.052074264734983444;0.03653738275170326;0.09699246287345886;0.02673688344657421;0.09230320155620575;0.28620290756225586;0.052421536296606064
28;1.0410672426223755;1.6259114742279053;-1.6183595964487312e-41;1.319674015045166;0.01579108275473118;1.2313157320022583;1.058069109916687;0.9328214526176453;0.03727611526846886;0.327674925327301;0.05709896981716156;0.024663882330060005;0.07422132790088654;0.029780622571706772;0.12676918506622314;0.29007688164711;0.05187546834349632
32;1.0369189977645874;1.4588465690612793;-1.6183595964487312e-41;1.1094328165054321;0.019329801201820374;1.1301336288452148;0.8603959679603577;0.9440162777900696;0.0492781437933445;0.2556820511817932;0.04749693349003792;0.04399922862648964;0.13278454542160034;0.08258097618818283;0.10011738538742065;0.3578226864337921;0.12555107474327087
30;0.9988035559654236;1.480212688446045;-1.6183595964487312e-41;1.150469422340393;0.01970178447663784;1.1236934661865234;0.8913711905479431;0.8973789215087891;0.05627666041254997;0.26543349027633667;0.05014428123831749;0.040439750999212265;0.13144493103027344;0.08845888078212738;0.12331745773553848;0.37522271275520325;0.1266336441040039
32;1.1148229837417603;1.587380290031433;-1.6183595964487312e-41;1.2291595935821533;0.013845019042491913;1.2386879920959473;0.966835081577301;1.0238364934921265;0.029995465651154518;0.2978998124599457;0.05060483515262604;0.037329841405153275;0.09818840026855469;0.026376264169812202;0.08657978475093842;0.2806636393070221;0.051124926656484604
29;1.0569837093353271;1.6144371032714844;-1.6183595964487312e-41;1.3000102043151855;0.01537653524428606;1.2325278520584106;1.0395936965942383;0.9530143141746521;0.035105131566524506;0.3238282799720764;0.05682099238038063;0.03295948728919029;0.0690237432718277;0.029459018260240555;0.115444116294384;0.2799108624458313;0.04592807590961456
33;1.0758699178695679;1.4293395280838013;-1.6183595964487312e-41;1.1338927745819092;0.018156234174966812;1.149347186088562;0.862610936164856;0.9890812039375305;0.030909990891814232;0.2579944133758545;0.04820021614432335;0.04020680487155914;0.11763127893209457;0.08056263625621796;0.087799571454525;0.331664115190506;0.12081735581159592
31;1.019108533859253;1.4725340604782104;-1.6183595964487312e-41;1.132607340812683;0.01959371194243431;1.1292517185211182;0.8777068853378296;0.9217427968978882;0.05198502913117409;0.2615186870098114;0.04883250221610069;0.04285772889852524;0.1358121782541275;0.0835273414850235;0.10810726881027222;0.3714401423931122;0.13128992915153503
33;1.1419010162353516;1.5559649467468262;-1.6183595964487312e-41;1.2273095846176147;0.013288415037095547;1.2458598613739014;0.954902708530426;1.0549383163452148;0.021859921514987946;0.3054054379463196;0.050314243882894516;0.03617868572473526;0.09211035817861557;0.029410231858491898;0.08183889091014862;0.28790271282196045;0.05927860736846924
30;1.0775139331817627;1.608081579208374;-1.6183595964487312e-41;1.2769490480422974;0.0156293585896492;1.2308906316757202;1.0139997005462646;0.9777626991271973;0.03359859064221382;0.3147777020931244;0.05473645031452179;0.03579733893275261;0.06474291533231735;0.028111860156059265;0.10339784622192383;0.26023009419441223;0.04226481914520264
34;1.096545696258545;1.4190031290054321;-1.6183595964487312e-41;1.114372968673706;0.017373450100421906;1.1549665927886963;0.8441300392150879;1.0140089988708496;0.024215200915932655;0.2642744481563568;0.04934851825237274;0.03847941383719444;0.10938829928636551;0.07603652030229568;0.08846508711576462;0.3277348279953003;0.1131003201007843
32;1.0369189977645874;1.4588465690612793;-1.6183595964487312e-41;1.1094328165054321;0.019329801201820374;1.1301336288452148;0.8603959679603577;0.9440162777900696;0.0492781437933445;0.2556820511817932;0.04749693349003792;0.04399922862648964;0.13278454542160034;0.08258097618818283;0.10011738538742065;0.3578226864337921;0.12555107474327087
34;1.1643614768981934;1.5490168333053589;-1.6183595964487312e-41;1.2050220966339111;0.013014620169997215;1.2465310096740723;0.9374456405639648;1.0818393230438232;0.020624015480279922;0.30071118474006653;0.051947079598903656;0.03553759306669235;0.08807209879159927;0.03023482859134674;0.07856380194425583;0.2756827771663666;0.058383166790008545
31;1.0971581935882568;1.599440336227417;-1.6183595964487312e-41;1.2494194507598877;0.014745335094630718;1.236438512802124;0.9896688461303711;1.001589059829712;0.03153996914625168;0.3045579791069031;0.052074264734983444;0.03653738275170326;0.09699246287345886;0.02673688344657421;0.09230320155620575;0.28620290756225586;0.052421536296606064
35;1.1172252893447876;1.4101308584213257;-1.6183595964487312e-41;1.085979700088501;0.017976591363549232;1.1596494913101196;0.8222975730895996;1.0387568473815918;0.01929308846592903;0.261346697807312;0.04949392378330231;0.03923382982611656;0.10390627384185791;0.07474502176046371;0.09146001189947128;0.33457839488983154;0.10778205096721649
33;1.0758699178695679;1.4293395280838013;-1.6183595964487312e-41;1.1338927745819092;0.018156234174966812;1.149347186088562;0.862610936164856;0.9890812039375305;0.030909990891814232;0.2579944133758545;0.04820021614432335;0.04020680487155914;0.11763127893209457;0.08056263625621796;0.087799571454525;0.331664115190506;0.12081735581159592
35;1.184413194656372;1.5388013124465942;-1.6183595964487312e-41;1.1799850463867188;0.013685964979231358;1.2519359588623047;0.914632260799408;1.1064488887786865;0.020196890458464622;0.294061541557312;0.052114833146333694;0.03493618592619896;0.08387978374958038;0.03036787174642086;0.07615019381046295;0.27728304266929626;0.05729295685887337
32;1.1148229837417603;1.587380290031433;-1.6183595964487312e-41;1.2291595935821533;0.013845019042491913;1.2386879920959473;0.966835081577301;1.0238364934921265;0.029995465651154518;0.2978998124599457;0.05060483515262604;0.037329841405153275;0.09818840026855469;0.026376264169812202;0.08657978475093842;0.2806636393070221;0.051124926656484604
36;1.131420612335205;1.3966315984725952;-1.6183595964487312e-41;1.0772640705108643;0.017268771305680275;1.1609560251235962;0.8188105225563049;1.0570869445800781;0.017097877338528633;0.2602640986442566;0.048709217458963394;0.03748580440878868;0.09897879511117935;0.07387780398130417;0.09067751467227936;0.3229866027832031;0.11328516155481339
34;1.096545696258545;1.4190031290054321;-1.6183595964487312e-41;1.114372968673706;0.017373450100421906;1.1549665927886963;0.8441300392150879;1.0140089988708496;0.024215200915932655;0.2642744481563568;0.04934851825237274;0.03847941383719444;0.10938829928636551;0.07603652030229568;0.08846508711576462;0.3277348279953003;0.1131003201007843
36;1.1971819400787354;1.5255556106567383;-1.6183595964487312e-41;1.1680151224136353;0.01425949390977621;1.251523494720459;0.9082821011543274;1.1233714818954468;0.019822822883725166;0.29560476541519165;0.05268775299191475;0.033994756639003754;0.08089246600866318;0.03217931464314461;0.07386942207813263;0.26894623041152954;0.06450500339269638
33;1.1419010162353516;1.5559649467468262;-1.6183595964487312e-41;1.2273095846176147;0.013288415037095547;1.2458598613739014;0.954902708530426;1.0549383163452148;0.021859921514987946;0.3054054379463196;0.050314243882894516;0.03617868572473526;0.09211035817861557;0.029410231858491898;0.08183889091014862;0.28790271282196045;0.05927860736846924
37;1.148729681968689;1.392051339149475;-1.6183595964487312e-41;1.0622141361236572;0.018013328313827515;1.16531240940094;0.8088887929916382;1.078113317489624;0.015463156625628471;0.25837790966033936;0.04767914488911629;0.03605411574244499;0.09474475681781769;0.07142230123281479;0.09336135536432266;0.3043471872806549;0.11037787795066833
35;1.1172252893447876;1.4101308584213257;-1.6183595964487312e-41;1.085979700088501;0.017976591363549232;1.1596494913101196;0.8222975730895996;1.0387568473815918;0.01929308846592903;0.261346697807312;0.04949392378330231;0.03923382982611656;0.10390627384185791;0.07474502176046371;0.09146001189947128;0.33457839488983154;0.10778205096721649
37;1.2131037712097168;1.512953281402588;-1.6183595964487312e-41;1.1490658521652222;0.014973292127251625;1.254370093345642;0.8950009942054749;1.1438478231430054;0.019435636699199677;0.2877133786678314;0.05130770057439804;0.032592643052339554;0.07710933685302734;0.03189050406217575;0.07495898753404617;0.26328977942466736;0.06432103365659714
34;1.1643614768981934;1.5490168333053589;-1.6183595964487312e-41;1.2050220966339111;0.013014620169997215;1.2465310096740723;0.9374456405639648;1.0818393230438232;0.020624015480279922;0.30071118474006653;0.051947079598903656;0.03553759306669235;0.08807209879159927;0.03023482859134674;0.07856380194425583;0.2756827771663666;0.058383166790008545
38;1.164625644683838;1.3840994834899902;-1.6183595964487312e-41;1.0550428628921509;0.017330294474959373;1.1697441339492798;0.8021402359008789;1.0980221033096313;0.013660176657140255;0.2536705434322357;0.045638520270586014;0.03162327781319618;0.08883565664291382;0.06867647171020508;0.09753584116697311;0.2975088357925415;0.10542459040880203
36;1.131420612335205;1.3966315984725952;-1.6183595964487312e-41;1.0772640705108643;0.017268771305680275;1.1609560251235962;0.8188105225563049;1.0570869445800781;0.017097877338528633;0.2602640986442566;0.048709217458963394;0.03748580440878868;0.09897879511117935;0.07387780398130417;0.09067751467227936;0.3229866027832031;0.11328516155481339
38;1.228764295578003;1.5013749599456787;-1.6183595964487312e-41;1.1400575637817383;0.0150107117369771;1.2578074932098389;0.8887446522712708;1.1640182733535767;0.01902851089835167;0.28150689601898193;0.04962775111198425;0.03202439472079277;0.07355394214391708;0.03317265585064888;0.07619311660528183;0.259648859500885;0.06275985389947891
35;1.184413194656372;1.5388013124465942;-1.6183595964487312e-41;1.1799850463867188;0.013685964979231358;1.2519359588623047;0.914632260799408;1.1064488887786865;0.020196890458464622;0.294061541557312;0.052114833146333694;0.03493618592619896;0.08387978374958038;0.03036787174642086;0.07615019381046295;0.27728304266929626;0.05729295685887337
37;1.148729681968689;1.392051339149475;-1.6183595964487312e-41;1.0622141361236572;0.018013328313827515;1.16531240940094;0.8088887929916382;1.078113317489624;0.015463156625628471;0.25837790966033936;0.04767914488911629;0.03605411574244499;0.09474475681781769;0.07142230123281479;0.09336135536432266;0.3043471872806549;0.11037787795066833
39;1.1828913688659668;1.3812164068222046;-1.6183595964487312e-41;1.0581705570220947;0.01846555434167385;1.1778287887573242;0.7814368605613708;1.1061509847640991;0.016007298603653908;0.248289555311203;0.045764025300741196;0.03122437372803688;0.08497460186481476;0.06714572757482529;0.10101853311061859;0.28881341218948364;0.1043931096792221
39;1.2430447340011597;1.4894499778747559;-1.6183595964487312e-41;1.1318130493164062;0.014743358828127384;1.2600420713424683;0.8746866583824158;1.1802499294281006;0.018909746780991554;0.276723176240921;0.04907873645424843;0.031239589676260948;0.07077759504318237;0.033431462943553925;0.0766649916768074;0.25433650612831116;0.06283444166183472
36;1.1971819400787354;1.5255556106567383;-1.6183595964487312e-41;1.1680151224136353;0.01425949390977621;1.251523494720459;0.9082821011543274;1.1233714818954468;0.019822822883725166;0.29560476541519165;0.05268775299191475;0.033994756639003754;0.08089246600866318;0.03217931464314461;0.07386942207813263;0.26894623041152954;0.06450500339269638
38;1.164625644683838;1.3840994834899902;-1.6183595964487312e-41;1.0550428628921509;0.017330294474959373;1.1697441339492798;0.8021402359008789;1.0980221033096313;0.013660176657140255;0.2536705434322357;0.045638520270586014;0.03162327781319618;0.08883565664291382;0.06867647171020508;0.09753584116697311;0.2975088357925415;0.10542459040880203
40;1.260860562324524;1.482771635055542;-1.6183595964487312e-41;1.119680404663086;0.0158408023416996;1.2566667795181274;0.8650858402252197;1.2021007537841797;0.018522268161177635;0.2850971221923828;0.04801785573363304;0.030533598735928535;0.06851145625114441;0.03259982913732529;0.07643362134695053;0.25170227885246277;0.06111763045191765
40;1.2005528211593628;1.380186676979065;-1.6183595964487312e-41;1.0463448762893677;0.023381022736430168;1.1711848974227905;0.7742173075675964;1.126032829284668;0.01572270132601261;0.24861957132816315;0.044153280556201935;0.03054950200021267;0.08188378810882568;0.06449181586503983;0.10253631323575974;0.27690213918685913;0.09986617416143417
37;1.2131037712097168;1.512953281402588;-1.6183595964487312e-41;1.1490658521652222;0.014973292127251625;1.254370093345642;0.8950009942054749;1.1438478231430054;0.019435636699199677;0.2877133786678314;0.05130770057439804;0.032592643052339554;0.07710933685302734;0.03189050406217575;0.07495898753404617;0.26328977942466736;0.06432103365659714
39;1.1828913688659668;1.3812164068222046;-1.6183595964487312e-41;1.0581705570220947;0.01846555434167385;1.1778287887573242;0.7814368605613708;1.1061509847640991;0.016007298603653908;0.248289555311203;0.045764025300741196;0.03122437372803688;0.08497460186481476;0.06714572757482529;0.10101853311061859;0.28881341218948364;0.1043931096792221
41;1.2730059623718262;1.470877766609192;-1.6183595964487312e-41;1.1100488901138306;0.01619235798716545;1.2566994428634644;0.8549380898475647;1.2183903455734253;0.01848360151052475;0.2842312753200531;0.04705720767378807;0.029820341616868973;0.06798217445611954;0.03194937855005264;0.07760888338088989;0.24663902819156647;0.059798356145620346
41;1.209399938583374;1.3683032989501953;-1.6183595964487312e-41;1.0325840711593628;0.023960385471582413;1.1687790155410767;0.76982581615448;1.1392244100570679;0.017678216099739075;0.24989624321460724;0.04301394894719124;0.029545709490776062;0.0798911526799202;0.06333982944488525;0.10625611245632172;0.2796505093574524;0.0971534252166748
38;1.228764295578003;1.5013749599456787;-1.6183595964487312e-41;1.1400575637817383;0.0150107117369771;1.2578074932098389;0.8887446522712708;1.1640182733535767;0.01902851089835167;0.28150689601898193;0.04962775111198425;0.03202439472079277;0.07355394214391708;0.03317265585064888;0.07619311660528183;0.259648859500885;0.06275985389947891
40;1.2005528211593628;1.380186676979065;-1.6183595964487312e-41;1.0463448762893677;0.023381022736430168;1.1711848974227905;0.7742173075675964;1.126032829284668;0.01572270132601261;0.24861957132816315;0.044153280556201935;0.03054950200021267;0.08188378810882568;0.06449181586503983;0.10253631323575974;0.27690213918685913;0.09986617416143417
42;1.2856966257095337;1.4625927209854126;-1.6183595964487312e-41;1.106446385383606;0.015666915103793144;1.2613409757614136;0.840713381767273;1.234663724899292;0.018048318102955818;0.28021225333213806;0.05075797438621521;0.028248585760593414;0.08371227979660034;0.030798133462667465;0.07836051285266876;0.23828811943531036;0.05782786011695862
42;1.2221126556396484;1.3620948791503906;-1.6183595964487312e-41;1.0256049633026123;0.02334687113761902;1.1743963956832886;0.7569440603256226;1.1545722484588623;0.017193064093589783;0.2492285817861557;0.045226629823446274;0.028295285999774933;0.09722866863012314;0.06180907040834427;0.10748761147260666;0.27048128843307495;0.09449152648448944
39;1.2430447340011597;1.4894499778747559;-1.6183595964487312e-41;1.1318130493164062;0.014743358828127384;1.2600420713424683;0.8746866583824158;1.1802499294281006;0.018909746780991554;0.276723176240921;0.04907873645424843;0.031239589676260948;0.07077759504318237;0.033431462943553925;0.0766649916768074;0.25433650612831116;0.06283444166183472
41;1.209399938583374;1.3683032989501953;-1.6183595964487312e-41;1.0325840711593628;0.023960385471582413;1.1687790155410767;0.76982581615448;1.1392244100570679;0.017678216099739075;0.24989624321460724;0.04301394894719124;0.029545709490776062;0.0798911526799202;0.06333982944488525;0.10625611245632172;0.2796505093574524;0.0971534252166748
43;1.2967231273651123;1.4534491300582886;-1.6183595964487312e-41;1.1046751737594604;0.014989427290856838;1.264253854751587;0.8351271748542786;1.2491756677627563;0.018200278282165527;0.27587801218032837;0.050619546324014664;0.026785120368003845;0.08288824558258057;0.029286686331033707;0.07819728553295135;0.23484471440315247;0.05565066263079643
40;1.260860562324524;1.482771635055542;-1.6183595964487312e-41;1.119680404663086;0.0158408023416996;1.2566667795181274;0.8650858402252197;1.2021007537841797;0.018522268161177635;0.2850971221923828;0.04801785573363304;0.030533598735928535;0.06851145625114441;0.03259982913732529;0.07643362134695053;0.25170227885246277;0.06111763045191765
43;1.2360514402389526;1.3598612546920776;-1.6183595964487312e-41;1.0353745222091675;0.022267043590545654;1.1837211847305298;0.7614333629608154;1.1716248989105225;0.015780124813318253;0.2446841150522232;0.04571984335780144;0.027102772146463394;0.09705644845962524;0.05873163044452667;0.10844280570745468;0.26692765951156616;0.09049657732248306
42;1.2221126556396484;1.3620948791503906;-1.6183595964487312e-41;1.0256049633026123;0.02334687113761902;1.1743963956832886;0.7569440603256226;1.1545722484588623;0.017193064093589783;0.2492285817861557;0.045226629823446274;0.028295285999774933;0.09722866863012314;0.06180907040834427;0.10748761147260666;0.27048128843307495;0.09449152648448944
44;1.3038959503173828;1.4415435791015625;-1.6183595964487312e-41;1.0986413955688477;0.014081441797316074;1.2630796432495117;0.8276292085647583;1.2595058679580688;0.018841935321688652;0.2718876004219055;0.04968373477458954;0.025884423404932022;0.08164561539888382;0.028088213875889778;0.07762213051319122;0.2331210821866989;0.05405379831790924
41;1.2730059623718262;1.470877766609192;-1.6183595964487312e-41;1.1100488901138306;0.01619235798716545;1.2566994428634644;0.8549380898475647;1.2183903455734253;0.01848360151052475;0.2842312753200531;0.04705720767378807;0.029820341616868973;0.06798217445611954;0.03194937855005264;0.07760888338088989;0.24663902819156647;0.059798356145620346
44;1.2435216903686523;1.3505405187606812;-1.6183595964487312e-41;1.0318992137908936;0.0214823167771101;1.1850303411483765;0.7502993941307068;1.1815342903137207;0.016282198950648308;0.242271289229393;0.04424803704023361;0.025634273886680603;0.09589440375566483;0.05608373135328293;0.10711467266082764;0.2628950774669647;0.08710651099681854
43;1.2360514402389526;1.3598612546920776;-1.6183595964487312e-41;1.0353745222091675;0.022267043590545654;1.1837211847305298;0.7614333629608154;1.1716248989105225;0.015780124813318253;0.2446841150522232;0.04571984335780144;0.027102772146463394;0.09705644845962524;0.05873163044452667;0.10844280570745468;0.26692765951156616;0.09049657732248306
45;1.314247727394104;1.4360777139663696;-1.6183595964487312e-41;1.0926424264907837;0.013377147726714611;1.2605509757995605;0.818885862827301;1.272792935371399;0.01868423819541931;0.2667594850063324;0.04860468581318855;0.024471640586853027;0.07926766574382782;0.026850270107388496;0.07587803155183792;0.2283264398574829;0.052164267748594284
42;1.2856966257095337;1.4625927209854126;-1.6183595964487312e-41;1.106446385383606;0.015666915103793144;1.2613409757614136;0.840713381767273;1.234663724899292;0.018048318102955818;0.28021225333213806;0.05075797438621521;0.028248585760593414;0.08371227979660034;0.030798133462667465;0.07836051285266876;0.23828811943531036;0.05782786011695862
45;1.251546025276184;1.3451464176177979;-1.6183595964487312e-41;1.0252776145935059;0.020108580589294434;1.1828255653381348;0.7456256747245789;1.1924914121627808;0.018284428864717484;0.24268421530723572;0.04272604361176491;0.024382319301366806;0.09289132058620453;0.053901463747024536;0.10662578046321869;0.26157283782958984;0.08366367220878601
44;1.2435216903686523;1.3505405187606812;-1.6183595964487312e-41;1.0318992137908936;0.0214823167771101;1.1850303411483765;0.7502993941307068;1.1815342903137207;0.016282198950648308;0.242271289229393;0.04424803704023361;0.025634273886680603;0.09589440375566483;0.05608373135328293;0.10711467266082764;0.2628950774669647;0.08710651099681854
46;1.3261945247650146;1.433334469795227;-1.6183595964487312e-41;1.085249662399292;0.013650399632751942;1.2598950862884521;0.811285138130188;1.2874470949172974;0.018294835463166237;0.2611672282218933;0.0467694066464901;0.023231012746691704;0.07685528695583344;0.025844739750027657;0.07703971117734909;0.22188541293144226;0.05087454244494438
43;1.2967231273651123;1.4534491300582886;-1.6183595964487312e-41;1.1046751737594604;0.014989427290856838;1.264253854751587;0.8351271748542786;1.2491756677627563;0.018200278282165527;0.27587801218032837;0.050619546324014664;0.026785120368003845;0.08288824558258057;0.029286686331033707;0.07819728553295135;0.23484471440315247;0.05565066263079643
46;1.2619702816009521;1.3426762819290161;-1.6183595964487312e-41;1.0262339115142822;0.01925184577703476;1.186043381690979;0.7426446676254272;1.2071824073791504;0.018572239205241203;0.23885536193847656;0.04092450439929962;0.02315978892147541;0.09064467996358871;0.052746642380952835;0.10845227539539337;0.2543300688266754;0.08184275031089783
45;1.251546025276184;1.3451464176177979;-1.6183595964487312e-41;1.0252776145935059;0.020108580589294434;1.1828255653381348;0.7456256747245789;1.1924914121627808;0.018284428864717484;0.24268421530723572;0.04272604361176491;0.024382319301366806;0.09289132058620453;0.053901463747024536;0.10662578046321869;0.26157283782958984;0.08366367220878601
47;1.3326011896133423;1.4255683422088623;-1.6183595964487312e-41;1.080399513244629;0.014484276063740253;1.2606912851333618;0.811069905757904;1.2968311309814453;0.017892180010676384;0.25737419724464417;0.04495600610971451;0.022206338122487068;0.07484413683414459;0.027778973802924156;0.07552903145551682;0.22002092003822327;0.050437722355127335
44;1.3038959503173828;1.4415435791015625;-1.6183595964487312e-41;1.0986413955688477;0.014081441797316074;1.2630796432495117;0.8276292085647583;1.2595058679580688;0.018841935321688652;0.2718876004219055;0.04968373477458954;0.025884423404932022;0.08164561539888382;0.028088213875889778;0.07762213051319122;0.2331210821866989;0.05405379831790924
47;1.274098515510559;1.349009394645691;-1.6183595964487312e-41;1.0416018962860107;0.01820160262286663;1.1988757848739624;0.7477561235427856;1.2231158018112183;0.017853830009698868;0.2333926260471344;0.0462493859231472;0.02168002352118492;0.09948791563510895;0.05444931238889694;0.10188087075948715;0.25312870740890503;0.08032362908124924
46;1.2619702816009521;1.3426762819290161;-1.6183595964487312e-41;1.0262339115142822;0.01925184577703476;1.186043381690979;0.7426446676254272;1.2071824073791504;0.018572239205241203;0.23885536193847656;0.04092450439929962;0.02315978892147541;0.09064467996358871;0.052746642380952835;0.10845227539539337;0.2543300688266754;0.08184275031089783
48;1.3451588153839111;1.4260401725769043;-1.6183595964487312e-41;1.0706013441085815;0.014554161578416824;1.255258321762085;0.8040831685066223;1.3115921020507812;0.017489735037088394;0.2599751651287079;0.04488964378833771;0.021260756999254227;0.07279174029827118;0.03199728950858116;0.0736902728676796;0.21572215855121613;0.04929574579000473
45;1.314247727394104;1.4360777139663696;-1.6183595964487312e-41;1.0926424264907837;0.013377147726714611;1.2605509757995605;0.818885862827301;1.272792935371399;0.01868423819541931;0.2667594850063324;0.04860468581318855;0.024471640586853027;0.07926766574382782;0.026850270107388496;0.07587803155183792;0.2283264398574829;0.052164267748594284
48;1.2841318845748901;1.344377875328064;-1.6183595964487312e-41;1.0343763828277588;0.017568854615092278;1.1960667371749878;0.7425206899642944;1.2355356216430664;0.018066100776195526;0.24118643999099731;0.0461965911090374;0.020301101729273796;0.09544970095157623;0.05723867565393448;0.10148739069700241;0.2537890076637268;0.07903747260570526
47;1.274098515510559;1.349009394645691;-1.6183595964487312e-41;1.0416018962860107;0.01820160262286663;1.1988757848739624;0.7477561235427856;1.2231158018112183;0.017853830009698868;0.2333926260471344;0.0462493859231472;0.02168002352118492;0.09948791563510895;0.05444931238889694;0.10188087075948715;0.25312870740890503;0.08032362908124924
49;1.35111665725708;1.4205881357192993;-1.6183595964487312e-41;1.0674587488174438;0.013663475401699543;1.2521592378616333;0.8056570291519165;1.3203691244125366;0.017038075253367424;0.2622101306915283;0.043679192662239075;0.02077285572886467;0.07088814675807953;0.03336227685213089;0.07254885137081146;0.21792490780353546;0.04790996015071869
46;1.3261945247650146;1.433334469795227;-1.6183595964487312e-41;1.085249662399292;0.013650399632751942;1.2598950862884521;0.811285138130188;1.2874470949172974;0.018294835463166237;0.2611672282218933;0.0467694066464901;0.023231012746691704;0.07685528695583344;0.025844739750027657;0.07703971117734909;0.22188541293144226;0.05087454244494438
49;1.2902300357818604;1.3407551050186157;-1.6183595964487312e-41;1.0295193195343018;0.01669340953230858;1.1919171810150146;0.7436895370483398;1.24604332447052;0.01777726039290428;0.2418203055858612;0.04579521715641022;0.020718494430184364;0.09299740940332413;0.057641834020614624;0.09856192767620087;0.24905931949615479;0.07718655467033386
48;1.2841318845748901;1.344377875328064;-1.6183595964487312e-41;1.0343763828277588;0.017568854615092278;1.1960667371749878;0.7425206899642944;1.2355356216430664;0.018066100776195526;0.24118643999099731;0.0461965911090374;0.020301101729273796;0.09544970095157623;0.05723867565393448;0.10148739069700241;0.2537890076637268;0.07903747260570526
50;1.3521676063537598;1.4115952253341675;-1.6183595964487312e-41;1.0640287399291992;0.012455129995942116;1.2487465143203735;0.8037318587303162;1.3232688903808594;0.01688387617468834;0.261883407831192;0.042091917246580124;0.02042815461754799;0.06955455243587494;0.03301291540265083;0.07256700843572617;0.2178545892238617;0.047304343432188034
47;1.3326011896133423;1.4255683422088623;-1.6183595964487312e-41;1.080399513244629;0.014484276063740253;1.2606912851333618;0.811069905757904;1.2968311309814453;0.017892180010676384;0.25737419724464417;0.04495600610971451;0.022206338122487068;0.07484413683414459;0.027778973802924156;0.07552903145551682;0.22002092003822327;0.050437722355127335
50;1.2907183170318604;1.3327339887619019;-1.6183595964487312e-41;1.0257196426391602;0.01603412628173828;1.1889601945877075;0.7421370148658752;1.2483429908752441;0.017388785257935524;0.24032554030418396;0.04381120204925537;0.020107025280594826;0.09041371941566467;0.05514027178287506;0.09555908292531967;0.2486347258090973;0.0744992271065712
49;1.2902300357818604;1.3407551050186157;-1.6183595964487312e-41;1.0295193195343018;0.01669340953230858;1.1919171810150146;0.7436895370483398;1.24604332447052;0.01777726039290428;0.2418203055858612;0.04579521715641022;0.020718494430184364;0.09299740940332413;0.057641834020614624;0.09856192767620087;0.24905931949615479;0.07718655467033386
51;1.3507583141326904;1.4011367559432983;-1.6183595964487312e-41;1.0586462020874023;0.011047265492379665;1.2439576387405396;0.7994925379753113;1.3234691619873047;0.016696587204933167;0.2590324878692627;0.03996685892343521;0.020375093445181847;0.06872452050447464;0.032489877194166183;0.071812205016613;0.21668791770935059;0.046606749296188354
48;1.3451588153839111;1.4260401725769043;-1.6183595964487312e-41;1.0706013441085815;0.014554161578416824;1.255258321762085;0.8040831685066223;1.3115921020507812;0.017489735037088394;0.2599751651287079;0.04488964378833771;0.021260756999254227;0.07279174029827118;0.03199728950858116;0.0736902728676796;0.21572215855121613;0.04929574579000473
51;1.28970468044281;1.3239160776138306;-1.6183595964487312e-41;1.0219591856002808;0.015129056759178638;1.1856499910354614;0.7356910109519958;1.2487308979034424;0.0175633504986763;0.23641882836818695;0.04163447394967079;0.01992528699338436;0.0885859802365303;0.05291164666414261;0.0940735712647438;0.24733175337314606;0.0715024396777153
50;1.2907183170318604;1.3327339887619019;-1.6183595964487312e-41;1.0257196426391602;0.01603412628173828;1.1889601945877075;0.7421370148658752;1.2483429908752441;0.017388785257935524;0.24032554030418396;0.04381120204925537;0.020107025280594826;0.09041371941566467;0.05514027178287506;0.09555908292531967;0.2486347258090973;0.0744992271065712
52;1.3520983457565308;1.394363522529602;-1.6183595964487312e-41;1.050413727760315;0.009939773939549923;1.2380529642105103;0.792704164981842;1.3262706995010376;0.016289396211504936;0.2544122338294983;0.03820953890681267;0.020114745944738388;0.06860101222991943;0.03184523805975914;0.06989932805299759;0.21350276470184326;0.04539117217063904
49;1.35111665725708;1.4205881357192993;-1.6183595964487312e-41;1.0674587488174438;0.013663475401699543;1.2521592378616333;0.8056570291519165;1.3203691244125366;0.017038075253367424;0.2622101306915283;0.043679192662239075;0.02077285572886467;0.07088814675807953;0.03336227685213089;0.07254885137081146;0.21792490780353546;0.04790996015071869
52;1.3101999759674072;1.344942331314087;-1.6183595964487312e-41;0.9985880851745605;0.013567598536610603;1.1737641096115112;0.7180956602096558;1.2695415019989014;0.018424367532134056;0.23699921369552612;0.03974974900484085;0.020588569343090057;0.08789171278476715;0.052458230406045914;0.0906444564461708;0.24791397154331207;0.07071522623300552
51;1.28970468044281;1.3239160776138306;-1.6183595964487312e-41;1.0219591856002808;0.015129056759178638;1.1856499910354614;0.7356910109519958;1.2487308979034424;0.0175633504986763;0.23641882836818695;0.04163447394967079;0.01992528699338436;0.0885859802365303;0.05291164666414261;0.0940735712647438;0.24733175337314606;0.0715024396777153
53;1.3540921211242676;1.3894208669662476;-1.6183595964487312e-41;1.0526514053344727;0.01086391694843769;1.2379735708236694;0.7888588309288025;1.3297834396362305;0.017109068110585213;0.25025174021720886;0.037872642278671265;0.019303856417536736;0.06754811853170395;0.030281303450465202;0.06767918914556503;0.20943666994571686;0.043674107640981674
50;1.3521676063537598;1.4115952253341675;-1.6183595964487312e-41;1.0640287399291992;0.012455129995942116;1.2487465143203735;0.8037318587303162;1.3232688903808594;0.01688387617468834;0.261883407831192;0.042091917246580124;0.02042815461754799;0.06955455243587494;0.03301291540265083;0.07256700843572617;0.2178545892238617;0.047304343432188034
53;1.3137078285217285;1.3421000242233276;-1.6183595964487312e-41;1.0019017457962036;0.012786788865923882;1.17560613155365;0.7203344702720642;1.275128960609436;0.020489465445280075;0.2352394312620163;0.04041215032339096;0.01995575614273548;0.08338522911071777;0.049348264932632446;0.08875440806150436;0.24100066721439362;0.06725727766752243
52;1.3101999759674072;1.344942331314087;-1.6183595964487312e-41;0.9985880851745605;0.013567598536610603;1.1737641096115112;0.7180956602096558;1.2695415019989014;0.018424367532134056;0.23699921369552612;0.03974974900484085;0.020588569343090057;0.08789171278476715;0.052458230406045914;0.0906444564461708;0.24791397154331207;0.07071522623300552
54;1.3555587530136108;1.3840293884277344;-1.6183595964487312e-41;1.0533665418624878;0.011833238415420055;1.2377110719680786;0.7923998236656189;1.3320393562316895;0.01792200282216072;0.24875932931900024;0.03859242796897888;0.018655478954315186;0.06630408763885498;0.028982335701584816;0.0656382143497467;0.20860816538333893;0.0487571582198143
51;1.3507583141326904;1.4011367559432983;-1.6183595964487312e-41;1.0586462020874023;0.011047265492379665;1.2439576387405396;0.7994925379753113;1.3234691619873047;0.016696587204933167;0.2590324878692627;0.03996685892343521;0.020375093445181847;0.06872452050447464;0.032489877194166183;0.071812205016613;0.21668791770935059;0.046606749296188354
54;1.3149651288986206;1.3369916677474976;-1.6183595964487312e-41;1.0024831295013428;0.013974002562463284;1.1754510402679443;0.7228315472602844;1.278343677520752;0.021764487028121948;0.23153160512447357;0.04145953804254532;0.01887611486017704;0.0815744623541832;0.04726269468665123;0.08686180412769318;0.23940648138523102;0.06880167126655579
53;1.3137078285217285;1.3421000242233276;-1.6183595964487312e-41;1.0019017457962036;0.012786788865923882;1.17560613155365;0.7203344702720642;1.275128960609436;0.020489465445280075;0.2352394312620163;0.04041215032339096;0.01995575614273548;0.08338522911071777;0.049348264932632446;0.08875440806150436;0.24100066721439362;0.06725727766752243
55;1.3566011190414429;1.3796762228012085;-1.6183595964487312e-41;1.053165316581726;0.01267918013036251;1.2386748790740967;0.7918379902839661;1.3343051671981812;0.01789192110300064;0.24667410552501678;0.03785768523812294;0.018743237480521202;0.06585894525051117;0.027853282168507576;0.06533430516719818;0.20760449767112732;0.05367613583803177
52;1.3520983457565308;1.394363522529602;-1.6183595964487312e-41;1.050413727760315;0.009939773939549923;1.2380529642105103;0.792704164981842;1.3262706995010376;0.016289396211504936;0.2544122338294983;0.03820953890681267;0.020114745944738388;0.06860101222991943;0.03184523805975914;0.06989932805299759;0.21350276470184326;0.04539117217063904
55;1.3162826299667358;1.3354421854019165;-1.6183595964487312e-41;1.0017880201339722;0.014510320499539375;1.1763460636138916;0.7213011980056763;1.2817410230636597;0.022614657878875732;0.22956201434135437;0.04072338715195656;0.019021805375814438;0.08080056309700012;0.04607557877898216;0.08702308684587479;0.23468275368213654;0.07209138572216034
54;1.3149651288986206;1.3369916677474976;-1.6183595964487312e-41;1.0024831295013428;0.013974002562463284;1.1754510402679443;0.7228315472602844;1.278343677520752;0.021764487028121948;0.23153160512447357;0.04145953804254532;0.01887611486017704;0.0815744623541832;0.04726269468665123;0.08686180412769318;0.23940648138523102;0.06880167126655579
56;1.3581695556640625;1.376029133796692;-1.6183595964487312e-41;1.0478659868240356;0.014714743942022324;1.2403875589370728;0.7887778878211975;1.3368608951568604;0.017538124695420265;0.24357740581035614;0.03716025501489639;0.019020376726984978;0.06467113643884659;0.036634404212236404;0.06536303460597992;0.2067059576511383;0.05630042031407356
53;1.3540921211242676;1.3894208669662476;-1.6183595964487312e-41;1.0526514053344727;0.01086391694843769;1.2379735708236694;0.7888588309288025;1.3297834396362305;0.017109068110585213;0.25025174021720886;0.037872642278671265;0.019303856417536736;0.06754811853170395;0.030281303450465202;0.06767918914556503;0.20943666994571686;0.043674107640981674
56;1.318211317062378;1.3333402872085571;-1.6183595964487312e-41;0.995073676109314;0.014340336434543133;1.177538275718689;0.717201292514801;1.2847521305084229;0.02250000648200512;0.22698445618152618;0.03920517489314079;0.019337501376867294;0.07877791672945023;0.05303023383021355;0.08629418164491653;0.2322034239768982;0.07237403839826584
55;1.3162826299667358;1.3354421854019165;-1.6183595964487312e-41;1.0017880201339722;0.014510320499539375;1.1763460636138916;0.7213011980056763;1.2817410230636597;0.022614657878875732;0.22956201434135437;0.04072338715195656;0.019021805375814438;0.08080056309700012;0.04607557877898216;0.08702308684587479;0.23468275368213654;0.07209138572216034
57;1.356806993484497;1.3704614639282227;-1.6183595964487312e-41;1.0430011749267578;0.014595480635762215;1.2389805316925049;0.7859220504760742;1.3363163471221924;0.017152056097984314;0.2414020597934723;0.03710632398724556;0.018907872959971428;0.06358678638935089;0.03846372291445732;0.0642223209142685;0.20643144845962524;0.057824086397886276
54;1.3555587530136108;1.3840293884277344;-1.6183595964487312e-41;1.0533665418624878;0.011833238415420055;1.2377110719680786;0.7923998236656189;1.3320393562316895;0.01792200282216072;0.24875932931900024;0.03859242796897888;0.018655478954315186;0.06630408763885498;0.028982335701584816;0.0656382143497467;0.20860816538333893;0.0487571582198143
57;1.3165223598480225;1.327566146850586;-1.6183595964487312e-41;0.9877369403839111;0.013571837916970253;1.1746426820755005;0.7140904664993286;1.2840282917022705;0.021819455549120903;0.22484830021858215;0.038804713636636734;0.019182754680514336;0.07566694915294647;0.05351821333169937;0.08450830727815628;0.2321433424949646;0.07262098044157028
56;1.318211317062378;1.3333402872085571;-1.6183595964487312e-41;0.995073676109314;0.014340336434543133;1.177538275718689;0.717201292514801;1.2847521305084229;0.02250000648200512;0.22698445618152618;0.03920517489314079;0.019337501376867294;0.07877791672945023;0.05303023383021355;0.08629418164491653;0.2322034239768982;0.07237403839826584
58;1.3572266101837158;1.3676310777664185;-1.6183595964487312e-41;1.0389410257339478;0.013621791265904903;1.2350833415985107;0.7840472459793091;1.337532639503479;0.017383579164743423;0.24157539010047913;0.03599065542221069;0.01842096447944641;0.06346207112073898;0.038960203528404236;0.06199890747666359;0.20497621595859528;0.11678431183099747
55;1.3566011190414429;1.3796762228012085;-1.6183595964487312e-41;1.053165316581726;0.01267918013036251;1.2386748790740967;0.7918379902839661;1.3343051671981812;0.01789192110300064;0.24667410552501678;0.03785768523812294;0.018743237480521202;0.06585894525051117;0.027853282168507576;0.06533430516719818;0.20760449767112732;0.05367613583803177
58;1.3146859407424927;1.3218132257461548;-1.6183595964487312e-41;0.9876789450645447;0.013077281415462494;1.1739567518234253;0.7184746265411377;1.282888650894165;0.02408558316528797;0.22738511860370636;0.03749574348330498;0.018986189737915993;0.07564857602119446;0.05588638037443161;0.08444764465093613;0.23357577621936798;0.13266611099243164
57;1.3165223598480225;1.327566146850586;-1.6183595964487312e-41;0.9877369403839111;0.013571837916970253;1.1746426820755005;0.7140904664993286;1.2840282917022705;0.021819455549120903;0.22484830021858215;0.038804713636636734;0.019182754680514336;0.07566694915294647;0.05351821333169937;0.08450830727815628;0.2321433424949646;0.07262098044157028
59;1.3553028106689453;1.3625385761260986;-1.6183595964487312e-41;1.0341808795928955;0.012752230279147625;1.2322001457214355;0.7805987000465393;1.3363142013549805;0.01751595176756382;0.24035312235355377;0.0343598835170269;0.018123064190149307;0.06360004842281342;0.04184678941965103;0.061946459114551544;0.20474398136138916;0.1271761655807495
56;1.3581695556640625;1.376029133796692;-1.6183595964487312e-41;1.0478659868240356;0.014714743942022324;1.2403875589370728;0.7887778878211975;1.3368608951568604;0.017538124695420265;0.24357740581035614;0.03716025501489639;0.019020376726984978;0.06467113643884659;0.036634404212236404;0.06536303460597992;0.2067059576511383;0.05630042031407356
59;1.3133176565170288;1.317164421081543;-1.6183595964487312e-41;0.9835138916969299;0.01253353152424097;1.1715073585510254;0.7162697911262512;1.2831529378890991;0.024342410266399384;0.22565321624279022;0.03549371659755707;0.01906551606953144;0.07710959017276764;0.06143210455775261;0.08053066581487656;0.23416364192962646;0.1433645635843277
58;1.3146859407424927;1.3218132257461548;-1.6183595964487312e-41;0.9876789450645447;0.013077281415462494;1.1739567518234253;0.7184746265411377;1.282888650894165;0.02408558316528797;0.22738511860370636;0.03749574348330498;0.018986189737915993;0.07564857602119446;0.05588638037443161;0.08444764465093613;0.23357577621936798;0.13266611099243164
60;1.3558732271194458;1.3603218793869019;-1.6183595964487312e-41;1.0303293466567993;0.014718472957611084;1.2275424003601074;0.7770816683769226;1.337608814239502;0.017190419137477875;0.2370980679988861;0.03342194855213165;0.019314734265208244;0.06281822174787521;0.04323660954833031;0.06052761524915695;0.20191793143749237;0.12932200729846954
57;1.356806993484497;1.3704614639282227;-1.6183595964487312e-41;1.0430011749267578;0.014595480635762215;1.2389805316925049;0.7859220504760742;1.3363163471221924;0.017152056097984314;0.2414020597934723;0.03710632398724556;0.018907872959971428;0.06358678638935089;0.03846372291445732;0.0642223209142685;0.20643144845962524;0.057824086397886276
60;1.3123382329940796;1.3124711513519287;-1.6183595964487312e-41;0.9838787317276001;0.013850743882358074;1.170485019683838;0.7124410271644592;1.28265380859375;0.024063656106591225;0.22458608448505402;0.03394228219985962;0.020553460344672203;0.07585859298706055;0.06220594793558121;0.07987040281295776;0.23432958126068115;0.14449848234653473
59;1.3133176565170288;1.317164421081543;-1.6183595964487312e-41;0.9835138916969299;0.01253353152424097;1.1715073585510254;0.7162697911262512;1.2831529378890991;0.024342410266399384;0.22565321624279022;0.03549371659755707;0.01906551606953144;0.07710959017276764;0.06143210455775261;0.08053066581487656;0.23416364192962646;0.1433645635843277
61;1.3619935512542725;1.3649061918258667;-1.6183595964487312e-41;1.0214126110076904;0.014266964048147202;1.2307137250900269;0.7713912129402161;1.3442715406417847;0.016579708084464073;0.23464354872703552;0.03674517944455147;0.023136889562010765;0.06662476807832718;0.04291967302560806;0.05809779837727547;0.20015192031860352;0.12847115099430084
58;1.3572266101837158;1.3676310777664185;-1.6183595964487312e-41;1.0389410257339478;0.013621791265904903;1.2350833415985107;0.7840472459793091;1.337532639503479;0.017383579164743423;0.24157539010047913;0.03599065542221069;0.01842096447944641;0.06346207112073898;0.038960203528404236;0.06199890747666359;0.20497621595859528;0.11678431183099747
61;1.3160672187805176;1.3134856224060059;-1.6183595964487312e-41;0.9819657206535339;0.013883673585951328;1.1741467714309692;0.7102766633033752;1.2867558002471924;0.02350812405347824;0.22502447664737701;0.03621438145637512;0.025385862216353416;0.07985839247703552;0.06108124554157257;0.07868306338787079;0.23267512023448944;0.14269405603408813
60;1.3123382329940796;1.3124711513519287;-1.6183595964487312e-41;0.9838787317276001;0.013850743882358074;1.170485019683838;0.7124410271644592;1.28265380859375;0.024063656106591225;0.22458608448505402;0.03394228219985962;0.020553460344672203;0.07585859298706055;0.06220594793558121;0.07987040281295776;0.23432958126068115;0.14449848234653473
62;1.3619822263717651;1.3627313375473022;-1.6183595964487312e-41;1.019188404083252;0.013336466625332832;1.2304872274398804;0.770999550819397;1.344635248184204;0.015690330415964127;0.2339438647031784;0.03817667439579964;0.02409202605485916;0.0697905495762825;0.04242968559265137;0.057997554540634155;0.20118515193462372;0.12779296934604645
59;1.3553028106689453;1.3625385761260986;-1.6183595964487312e-41;1.0341808795928955;0.012752230279147625;1.2322001457214355;0.7805987000465393;1.3363142013549805;0.01751595176756382;0.24035312235355377;0.0343598835170269;0.018123064190149307;0.06360004842281342;0.04184678941965103;0.061946459114551544;0.20474398136138916;0.1271761655807495
62;1.3146483898162842;1.3101071119308472;-1.6183595964487312e-41;0.9806216359138489;0.013819192536175251;1.1727075576782227;0.7091626524925232;1.2854197025299072;0.022747861221432686;0.22360223531723022;0.03627272695302963;0.026664331555366516;0.08204158395528793;0.05877290293574333;0.07739949226379395;0.23017863929271698;0.1415327936410904
61;1.3160672187805176;1.3134856224060059;-1.6183595964487312e-41;0.9819657206535339;0.013883673585951328;1.1741467714309692;0.7102766633033752;1.2867558002471924;0.02350812405347824;0.22502447664737701;0.03621438145637512;0.025385862216353416;0.07985839247703552;0.06108124554157257;0.07868306338787079;0.23267512023448944;0.14269405603408813
63;1.3625774383544922;1.3613178730010986;-1.6183595964487312e-41;1.013706922531128;0.01350444182753563;1.2268338203430176;0.7666833400726318;1.3457423448562622;0.01592811942100525;0.23170685768127441;0.03756554797291756;0.024827957153320312;0.06946760416030884;0.041105788201093674;0.0592321939766407;0.19995719194412231;0.12599359452724457
60;1.3558732271194458;1.3603218793869019;-1.6183595964487312e-41;1.0303293466567993;0.014718472957611084;1.2275424003601074;0.7770816683769226;1.337608814239502;0.017190419137477875;0.2370980679988861;0.03342194855213165;0.019314734265208244;0.06281822174787521;0.04323660954833031;0.06052761524915695;0.20191793143749237;0.12932200729846954
63;1.3126230239868164;1.305739164352417;-1.6183595964487312e-41;0.9767326712608337;0.013896332122385502;1.1705503463745117;0.7084340453147888;1.2847464084625244;0.023191826418042183;0.22303421795368195;0.03606858476996422;0.027160538360476494;0.0806364044547081;0.05718328803777695;0.0783502534031868;0.2290681153535843;0.1390754133462906
62;1.3146483898162842;1.3101071119308472;-1.6183595964487312e-41;0.9806216359138489;0.013819192536175251;1.1727075576782227;0.7091626524925232;1.2854197025299072;0.022747861221432686;0.22360223531723022;0.03627272695302963;0.026664331555366516;0.08204158395528793;0.05877290293574333;0.07739949226379395;0.23017863929271698;0.1415327936410904
64;1.361203908920288;1.3587965965270996;-1.6183595964487312e-41;1.0145580768585205;0.012423974461853504;1.2262879610061646;0.7636026740074158;1.3451004028320312;0.017139840871095657;0.22968986630439758;0.03623286634683609;0.024715209379792213;0.06785336881875992;0.03909097611904144;0.05804278701543808;0.19831238687038422;0.12364702671766281
61;1.3619935512542725;1.3649061918258667;-1.6183595964487312e-41;1.0214126110076904;0.014266964048147202;1.2307137250900269;0.7713912129402161;1.3442715406417847;0.016579708084464073;0.23464354872703552;0.03674517944455147;0.023136889562010765;0.06662476807832718;0.04291967302560806;0.05809779837727547;0.20015192031860352;0.12847115099430084
64;1.3171942234039307;1.3111624717712402;-1.6183595964487312e-41;0.9904735684394836;0.013190029188990593;1.1791672706604004;0.7176625728607178;1.2868859767913818;0.02272580750286579;0.21960516273975372;0.03452325984835625;0.026883427053689957;0.08043108135461807;0.054269302636384964;0.07590894401073456;0.22661055624485016;0.13633957505226135
63;1.3126230239868164;1.305739164352417;-1.6183595964487312e-41;0.9767326712608337;0.013896332122385502;1.1705503463745117;0.7084340453147888;1.2847464084625244;0.023191826418042183;0.22303421795368195;0.03606858476996422;0.027160538360476494;0.0806364044547081;0.05718328803777695;0.0783502534031868;0.2290681153535843;0.1390754133462906
65;1.3619818687438965;1.3583534955978394;-1.6183595964487312e-41;1.0127984285354614;0.01135896984487772;1.2237484455108643;0.7616431713104248;1.3462752103805542;0.01752903312444687;0.22798451781272888;0.03472727909684181;0.025072187185287476;0.06649960577487946;0.03715834766626358;0.056780941784381866;0.19617010653018951;0.12174955010414124
62;1.3619822263717651;1.3627313375473022;-1.6183595964487312e-41;1.019188404083252;0.013336466625332832;1.2304872274398804;0.770999550819397;1.344635248184204;0.015690330415964127;0.2339438647031784;0.03817667439579964;0.02409202605485916;0.0697905495762825;0.04242968559265137;0.057997554540634155;0.20118515193462372;0.12779296934604645
65;1.3167197704315186;1.3095327615737915;-1.6183595964487312e-41;0.9913405776023865;0.012837867252528667;1.1790522336959839;0.7210981845855713;1.2871047258377075;0.02115440182387829;0.2209225445985794;0.03394823148846626;0.026352565735578537;0.07803921401500702;0.05212343856692314;0.07417377084493637;0.2260601818561554;0.13391125202178955
64;1.3171942234039307;1.3111624717712402;-1.6183595964487312e-41;0.9904735684394836;0.013190029188990593;1.1791672706604004;0.7176625728607178;1.2868859767913818;0.02272580750286579;0.21960516273975372;0.03452325984835625;0.026883427053689957;0.08043108135461807;0.054269302636384964;0.07590894401073456;0.22661055624485016;0.13633957505226135
66;1.3610005378723145;1.3561601638793945;-1.6183595964487312e-41;1.0103564262390137;0.010625921189785004;1.2230685949325562;0.7604119777679443;1.3457130193710327;0.017459740862250328;0.22793731093406677;0.034165434539318085;0.02536541409790516;0.06514059007167816;0.03559284284710884;0.057063907384872437;0.19603917002677917;0.11986911296844482
63;1.3625774383544922;1.3613178730010986;-1.6183595964487312e-41;1.013706922531128;0.01350444182753563;1.2268338203430176;0.7666833400726318;1.3457423448562622;0.01592811942100525;0.23170685768127441;0.03756554797291756;0.024827957153320312;0.06946760416030884;0.041105788201093674;0.0592321939766407;0.19995719194412231;0.12599359452724457
66;1.3172471523284912;1.3088229894638062;-1.6183595964487312e-41;0.9886159300804138;0.012093211524188519;1.1795272827148438;0.718470573425293;1.2882822751998901;0.020750952884554863;0.22085735201835632;0.03281748667359352;0.026673894375562668;0.07593662291765213;0.04914228245615959;0.07109826058149338;0.22353926301002502;0.13100475072860718
65;1.3167197704315186;1.3095327615737915;-1.6183595964487312e-41;0.9913405776023865;0.012837867252528667;1.1790522336959839;0.7210981845855713;1.2871047258377075;0.02115440182387829;0.2209225445985794;0.03394823148846626;0.026352565735578537;0.07803921401500702;0.05212343856692314;0.07417377084493637;0.2260601818561554;0.13391125202178955
67;1.365673542022705;1.36069655418396;-1.6183595964487312e-41;1.0053303241729736;0.011477509513497353;1.2272343635559082;0.7606212496757507;1.3508377075195312;0.022378990426659584;0.22944757342338562;0.03419540077447891;0.043408844619989395;0.06899397075176239;0.034202538430690765;0.05961526557803154;0.19215089082717896;0.11768267303705215
64;1.361203908920288;1.3587965965270996;-1.6183595964487312e-41;1.0145580768585205;0.012423974461853504;1.2262879610061646;0.7636026740074158;1.3451004028320312;0.017139840871095657;0.22968986630439758;0.03623286634683609;0.024715209379792213;0.06785336881875992;0.03909097611904144;0.05804278701543808;0.19831238687038422;0.12364702671766281
66;1.3172471523284912;1.3088229894638062;-1.6183595964487312e-41;0.9886159300804138;0.012093211524188519;1.1795272827148438;0.718470573425293;1.2882822751998901;0.020750952884554863;0.22085735201835632;0.03281748667359352;0.026673894375562668;0.07593662291765213;0.04914228245615959;0.07109826058149338;0.22353926301002502;0.13100475072860718
67;1.3265881538391113;1.3193830251693726;-1.6183595964487312e-41;0.9866194128990173;0.011201567016541958;1.1867460012435913;0.7206904888153076;1.2981163263320923;0.024477601051330566;0.22102844715118408;0.03214128315448761;0.04476473107933998;0.08102471381425858;0.04689035192131996;0.06832274049520493;0.21210534870624542;0.1277340203523636
68;1.369510531425476;1.3635386228561401;-1.6183595964487312e-41;1.0089709758758545;0.014491451904177666;1.2325183153152466;0.758838415145874;1.3551040887832642;0.025502467527985573;0.2305072844028473;0.03663261607289314;0.049807798117399216;0.0712692067027092;0.03310446813702583;0.06078743562102318;0.19191782176494598;0.11587288975715637
65;1.3619818687438965;1.3583534955978394;-1.6183595964487312e-41;1.0127984285354614;0.01135896984487772;1.2237484455108643;0.7616431713104248;1.3462752103805542;0.01752903312444687;0.22798451781272888;0.03472727909684181;0.025072187185287476;0.06649960577487946;0.03715834766626358;0.056780941784381866;0.19617010653018951;0.12174955010414124
67;1.3265881538391113;1.3193830251693726;-1.6183595964487312e-41;0.9866194128990173;0.011201567016541958;1.1867460012435913;0.7206904888153076;1.2981163263320923;0.024477601051330566;0.22102844715118408;0.03214128315448761;0.04476473107933998;0.08102471381425858;0.04689035192131996;0.06832274049520493;0.21210534870624542;0.1277340203523636
68;1.3305764198303223;1.3228027820587158;-1.6183595964487312e-41;0.9906058311462402;0.014856265857815742;1.1919173002243042;0.7183706760406494;1.3024288415908813;0.02687077969312668;0.22196374833583832;0.03337176516652107;0.05166088044643402;0.08386668562889099;0.04538111761212349;0.06520920991897583;0.20977841317653656;0.1256490796804428
69;1.3717824220657349;1.364833116531372;-1.6183595964487312e-41;1.0135403871536255;0.015163888223469257;1.236440658569336;0.7593305110931396;1.3577977418899536;0.02621847577393055;0.23047493398189545;0.03900497406721115;0.05296681076288223;0.07119600474834442;0.03202172741293907;0.0622369758784771;0.19167159497737885;0.11414190381765366
66;1.3610005378723145;1.3561601638793945;-1.6183595964487312e-41;1.0103564262390137;0.010625921189785004;1.2230685949325562;0.7604119777679443;1.3457130193710327;0.017459740862250328;0.22793731093406677;0.034165434539318085;0.02536541409790516;0.06514059007167816;0.03559284284710884;0.057063907384872437;0.19603917002677917;0.11986911296844482
68;1.3305764198303223;1.3228027820587158;-1.6183595964487312e-41;0.9906058311462402;0.014856265857815742;1.1919173002243042;0.7183706760406494;1.3024288415908813;0.02687077969312668;0.22196374833583832;0.03337176516652107;0.05166088044643402;0.08386668562889099;0.04538111761212349;0.06520920991897583;0.20977841317653656;0.1256490796804428
69;1.3332692384719849;1.3245353698730469;-1.6183595964487312e-41;0.9941567778587341;0.01664705015718937;1.1960548162460327;0.7197476625442505;1.3055622577667236;0.027542509138584137;0.22333218157291412;0.03613905608654022;0.054442085325717926;0.08358615636825562;0.044433001428842545;0.06686785072088242;0.20987094938755035;0.12340240180492401
70;1.3725115060806274;1.3650683164596558;-1.6183595964487312e-41;1.0127685070037842;0.0157549399882555;1.2394260168075562;0.7616181373596191;1.35890531539917;0.0256968904286623;0.2306414544582367;0.0412113331258297;0.05340348929166794;0.07007288932800293;0.03075932152569294;0.06246737763285637;0.18886183202266693;0.1125694289803505
67;1.365673542022705;1.36069655418396;-1.6183595964487312e-41;1.0053303241729736;0.011477509513497353;1.2272343635559082;0.7606212496757507;1.3508377075195312;0.022378990426659584;0.22944757342338562;0.03419540077447891;0.043408844619989395;0.06899397075176239;0.034202538430690765;0.05961526557803154;0.19215089082717896;0.11768267303705215
69;1.3332692384719849;1.3245353698730469;-1.6183595964487312e-41;0.9941567778587341;0.01664705015718937;1.1960548162460327;0.7197476625442505;1.3055622577667236;0.027542509138584137;0.22333218157291412;0.03613905608654022;0.054442085325717926;0.08358615636825562;0.044433001428842545;0.06686785072088242;0.20987094938755035;0.12340240180492401
70;1.335131287574768;1.3262771368026733;-1.6183595964487312e-41;0.996390163898468;0.01710083894431591;1.20059072971344;0.7238129377365112;1.3081814050674438;0.02631240524351597;0.22304941713809967;0.03813471645116806;0.05457155779004097;0.08209669589996338;0.04244622588157654;0.06588547676801682;0.20448443293571472;0.12128021568059921
71;1.3724069595336914;1.3642377853393555;-1.6183595964487312e-41;1.0113343000411987;0.015436082147061825;1.2408920526504517;0.760858952999115;1.359045386314392;0.024950718507170677;0.23191124200820923;0.04338756576180458;0.053089745342731476;0.06886347383260727;0.02946169301867485;0.06210540607571602;0.18718746304512024;0.1122453510761261
68;1.369510531425476;1.3635386228561401;-1.6183595964487312e-41;1.0089709758758545;0.014491451904177666;1.2325183153152466;0.758838415145874;1.3551040887832642;0.025502467527985573;0.2305072844028473;0.03663261607289314;0.049807798117399216;0.0712692067027092;0.03310446813702583;0.06078743562102318;0.19191782176494598;0.11587288975715637
70;1.335131287574768;1.3262771368026733;-1.6183595964487312e-41;0.996390163898468;0.01710083894431591;1.20059072971344;0.7238129377365112;1.3081814050674438;0.02631240524351597;0.22304941713809967;0.03813471645116806;0.05457155779004097;0.08209669589996338;0.04244622588157654;0.06588547676801682;0.20448443293571472;0.12128021568059921
71;1.3380810022354126;1.3283475637435913;-1.6183595964487312e-41;1.0036247968673706;0.016405241563916206;1.2073968648910522;0.7233256697654724;1.3118799924850464;0.025553405284881592;0.22992342710494995;0.04214863106608391;0.05443102493882179;0.0803830623626709;0.04138189181685448;0.06639277189970016;0.20252937078475952;0.1212729886174202
72;1.3729984760284424;1.3643511533737183;-1.6183595964487312e-41;1.0154238939285278;0.017641909420490265;1.2431721687316895;0.7600741386413574;1.3586293458938599;0.02397524006664753;0.23117919266223907;0.04615186154842377;0.05219459906220436;0.06705740094184875;0.027791772037744522;0.06179078668355942;0.1850171536207199;0.11127028614282608
69;1.3717824220657349;1.364833116531372;-1.6183595964487312e-41;1.0135403871536255;0.015163888223469257;1.236440658569336;0.7593305110931396;1.3577977418899536;0.02621847577393055;0.23047493398189545;0.03900497406721115;0.05296681076288223;0.07119600474834442;0.03202172741293907;0.0622369758784771;0.19167159497737885;0.11414190381765366
71;1.3380810022354126;1.3283475637435913;-1.6183595964487312e-41;1.0036247968673706;0.016405241563916206;1.2073968648910522;0.7233256697654724;1.3118799924850464;0.025553405284881592;0.22992342710494995;0.04214863106608391;0.05443102493882179;0.0803830623626709;0.04138189181685448;0.06639277189970016;0.20252937078475952;0.1212729886174202
72;1.3398154973983765;1.3297256231307983;-1.6183595964487312e-41;1.0114730596542358;0.01755855791270733;1.2124381065368652;0.7342312335968018;1.3233145475387573;0.024630054831504822;0.23240220546722412;0.04772955924272537;0.054367974400520325;0.07783406972885132;0.03929542377591133;0.06729818135499954;0.19940662384033203;0.12122760713100433
73;1.3716750144958496;1.362471342086792;-1.6183595964487312e-41;1.013302206993103;0.017073608934879303;1.2416008710861206;0.7562806606292725;1.3573206663131714;0.02294945903122425;0.22957932949066162;0.04661715403199196;0.051355618983507156;0.06568180024623871;0.026367485523223877;0.060317039489746094;0.18537423014640808;0.11041495949029922
70;1.3725115060806274;1.3650683164596558;-1.6183595964487312e-41;1.0127685070037842;0.0157549399882555;1.2394260168075562;0.7616181373596191;1.35890531539917;0.0256968904286623;0.2306414544582367;0.0412113331258297;0.05340348929166794;0.07007288932800293;0.03075932152569294;0.06246737763285637;0.18886183202266693;0.1125694289803505
72;1.3398154973983765;1.3297256231307983;-1.6183595964487312e-41;1.0114730596542358;0.01755855791270733;1.2124381065368652;0.7342312335968018;1.3233145475387573;0.024630054831504822;0.23240220546722412;0.04772955924272537;0.054367974400520325;0.07783406972885132;0.03929542377591133;0.06729818135499954;0.19940662384033203;0.12122760713100433
73;1.337642788887024;1.3270816802978516;-1.6183595964487312e-41;1.011202335357666;0.017282932996749878;1.2120972871780396;0.7335242629051208;1.3211745023727417;0.023894177749753;0.2320062518119812;0.04977036267518997;0.05379980430006981;0.07625161111354828;0.0371265709400177;0.06622815132141113;0.19836488366127014;0.12030835449695587
74;1.369037389755249;1.3594903945922852;-1.6183595964487312e-41;1.0134426355361938;0.01652914099395275;1.2398713827133179;0.7530761361122131;1.3552027940750122;0.023246513679623604;0.22693859040737152;0.044785965234041214;0.05041204020380974;0.06572434306144714;0.025697065517306328;0.05973781272768974;0.1859056055545807;0.10930677503347397
71;1.3724069595336914;1.3642377853393555;-1.6183595964487312e-41;1.0113343000411987;0.015436082147061825;1.2408920526504517;0.760858952999115;1.359045386314392;0.024950718507170677;0.23191124200820923;0.04338756576180458;0.053089745342731476;0.06886347383260727;0.02946169301867485;0.06210540607571602;0.18718746304512024;0.1122453510761261
