batch_number;w0;w1;w2;w3;w4;w5;w6;w7;w8;w9;w10;w11;w12;w13;w14;w15;w16
1;0.5430294275283813;0.022139880806207657;-0.22313567996025085;-0.2916198968887329;-0.35413873195648193;-0.26337724924087524;0.1907821148633957;0.6198990941047668;-0.379260390996933;-0.21959948539733887;0.1971512883901596;-0.3232208788394928;-0.06681953370571136;-0.2564445734024048;0.5173897743225098;-0.3103290796279907;-0.03652871400117874
2;0.6862841844558716;0.00046180601930245757;-0.07921823859214783;-0.14764416217803955;-0.3075452148914337;-0.11942540109157562;0.3197333514690399;0.7630870342254639;-0.3525080680847168;-0.09333377331495285;0.14106138050556183;-0.25920432806015015;0.05427556112408638;-0.1365644484758377;0.6107635498046875;-0.17067037522792816;0.08451521396636963
batch_number;w0;w1;w2;w3;w4;w5;w6;w7;w8;w9;w10;w11;w12;w13;w14;w15;w16
1;0.5430294275283813;0.022139880806207657;-0.22313567996025085;-0.2916198968887329;-0.35413873195648193;-0.26337724924087524;0.1907821148633957;0.6198990941047668;-0.379260390996933;-0.21959948539733887;0.1971512883901596;-0.3232208788394928;-0.06681953370571136;-0.2564445734024048;0.5173897743225098;-0.3103290796279907;-0.03652871400117874
2;0.6862841844558716;0.00046180601930245757;-0.07921823859214783;-0.14764416217803955;-0.3075452148914337;-0.11942540109157562;0.3197333514690399;0.7630870342254639;-0.3525080680847168;-0.09333377331495285;0.14106138050556183;-0.25920432806015015;0.05427556112408638;-0.1365644484758377;0.6107635498046875;-0.17067037522792816;0.08451521396636963
batch_number;w0;w1;w2;w3;w4;w5;w6;w7;w8;w9;w10;w11;w12;w13;w14;w15;w16
1;0.5653656125068665;0.016445070505142212;-0.20085816085338593;-0.27987125515937805;-0.3184613883495331;-0.2565583288669586;0.19240225851535797;0.6422436237335205;-0.33967140316963196;-0.18115603923797607;0.1569119691848755;-0.3855327069759369;-0.14672553539276123;-0.3471839725971222;0.5171757340431213;-0.33734697103500366;-0.0688658058643341
3;0.8004165887832642;9.883527809506631e-07;0.03600918874144554;-0.03231973201036453;-0.2703113853931427;-0.0041409567929804325;0.43114471435546875;0.8771074414253235;-0.3349878191947937;-0.00259850244037807;0.15049462020397186;-0.25311291217803955;0.11438409239053726;-0.08963926136493683;0.670441746711731;-0.07282663881778717;0.15928183495998383
2;0.7311770915985107;0.0002796189219225198;-0.03460138291120529;-0.11589326709508896;-0.29280993342399597;-0.08957984298467636;0.3465268611907959;0.8080133199691772;-0.24637514352798462;-0.058510586619377136;0.21809698641300201;-0.3307085633277893;-0.10915300995111465;-0.31238263845443726;0.5398868322372437;-0.2623491585254669;-0.08259381353855133
batch_number;w0;w1;w2;w3;w4;w5;w6;w7;w8;w9;w10;w11;w12;w13;w14;w15;w16
1;0.5430294275283813;0.022139880806207657;-0.22313567996025085;-0.2916198968887329;-0.35413873195648193;-0.26337724924087524;0.1907821148633957;0.6198990941047668;-0.379260390996933;-0.21959948539733887;0.1971512883901596;-0.3232208788394928;-0.06681953370571136;-0.2564445734024048;0.5173897743225098;-0.3103290796279907;-0.03652871400117874
4;0.918329656124115;-7.899575091285804e-12;0.15540975332260132;0.08611686527729034;-0.20905424654483795;0.10713362693786621;0.54371577501297;0.9934887886047363;-0.30781134963035583;0.07527442276477814;0.2886658310890198;-0.19948768615722656;0.18679939210414886;-0.030648592859506607;0.6768292784690857;-0.010665182024240494;0.2163519561290741
3;0.8583725094795227;4.5364626544142084e-07;0.09350304305553436;0.006318330764770508;-0.24615387618541718;0.03508514165878296;0.4631396234035492;0.9351181983947754;-0.17018358409404755;0.019334916025400162;0.26284632086753845;-0.30718156695365906;-0.07615544646978378;-0.2878803312778473;0.5997539162635803;-0.22001662850379944;-0.03630439192056656
batch_number;w0;w1;w2;w3;w4;w5;w6;w7;w8;w9;w10;w11;w12;w13;w14;w15;w16
1;0.5653656125068665;0.016445070505142212;-0.20085816085338593;-0.27987125515937805;-0.3184613883495331;-0.2565583288669586;0.19240225851535797;0.6422436237335205;-0.33967140316963196;-0.18115603923797607;0.1569119691848755;-0.3855327069759369;-0.14672553539276123;-0.3471839725971222;0.5171757340431213;-0.33734697103500366;-0.0688658058643341
2;0.6862841844558716;0.00046180601930245757;-0.07921823859214783;-0.14764416217803955;-0.3075452148914337;-0.11942540109157562;0.3197333514690399;0.7630870342254639;-0.3525080680847168;-0.09333377331495285;0.14106138050556183;-0.25920432806015015;0.05427556112408638;-0.1365644484758377;0.6107635498046875;-0.17067037522792816;0.08451521396636963
4;0.9782876372337341;-7.899575091285804e-12;0.21458429098129272;0.12948665022850037;-0.2187960147857666;0.15785831212997437;0.5713980793952942;1.0550020933151245;-0.11005334556102753;0.11557108163833618;0.34032395482063293;-0.25430426001548767;-0.03269590809941292;-0.241786390542984;0.6154361963272095;-0.17419780790805817;-0.02778858132660389
5;0.9961867332458496;8.335627411127928e-17;0.23518049716949463;0.16617605090141296;-0.205558642745018;0.18614685535430908;0.6265925168991089;1.0710399150848389;-0.277293860912323;0.11989928036928177;0.32491129636764526;-0.16438302397727966;0.22367900609970093;-0.0005361739895306528;0.702081024646759;0.05829107388854027;0.2478944957256317
2;0.7311770915985107;0.0002796189219225198;-0.03460138291120529;-0.11589326709508896;-0.29280993342399597;-0.08957984298467636;0.3465268611907959;0.8080133199691772;-0.24637514352798462;-0.058510586619377136;0.21809698641300201;-0.3307085633277893;-0.10915300995111465;-0.31238263845443726;0.5398868322372437;-0.2623491585254669;-0.08259381353855133
3;0.8004165887832642;9.883527809506631e-07;0.03600918874144554;-0.03231973201036453;-0.2703113853931427;-0.0041409567929804325;0.43114471435546875;0.8771074414253235;-0.3349878191947937;-0.00259850244037807;0.15049462020397186;-0.25311291217803955;0.11438409239053726;-0.08963926136493683;0.670441746711731;-0.07282663881778717;0.15928183495998383
5;1.0575779676437378;8.335627411127928e-17;0.29580608010292053;0.20939357578754425;-0.20557262003421783;0.23965388536453247;0.6496073007583618;1.1342906951904297;-0.21207372844219208;0.17352214455604553;0.3684782385826111;-0.22156643867492676;0.004340172745287418;-0.2283894568681717;0.6187404990196228;-0.12314548343420029;-0.007008974440395832
6;1.053078055381775;-9.388894963531101e-21;0.29432958364486694;0.22174492478370667;-0.20461134612560272;0.2443224936723709;0.6736052632331848;1.1276347637176514;-0.27084121108055115;0.15324321389198303;0.32924506068229675;-0.15348239243030548;0.2583649754524231;0.0534684881567955;0.707798182964325;0.11060722172260284;0.28948450088500977
3;0.8583725094795227;4.5364626544142084e-07;0.09350304305553436;0.006318330764770508;-0.24615387618541718;0.03508514165878296;0.4631396234035492;0.9351181983947754;-0.17018358409404755;0.019334916025400162;0.26284632086753845;-0.30718156695365906;-0.07615544646978378;-0.2878803312778473;0.5997539162635803;-0.22001662850379944;-0.03630439192056656
4;0.918329656124115;-7.899575091285804e-12;0.15540975332260132;0.08611686527729034;-0.20905424654483795;0.10713362693786621;0.54371577501297;0.9934887886047363;-0.30781134963035583;0.07527442276477814;0.2886658310890198;-0.19948768615722656;0.18679939210414886;-0.030648592859506607;0.6768292784690857;-0.010665182024240494;0.2163519561290741
6;1.1210130453109741;-1.114093054778447e-20;0.3617764115333557;0.27296432852745056;-0.19373191893100739;0.3061080873012543;0.7044110894203186;1.1976245641708374;-0.18707668781280518;0.22007223963737488;0.4040636420249939;-0.20883305370807648;0.011566846631467342;-0.21833299100399017;0.6040627956390381;-0.08837909996509552;0.01952778548002243
7;1.1248128414154053;-2.1197949770356283e-25;0.3685685694217682;0.28225430846214294;-0.1900293231010437;0.3179396390914917;0.7502033710479736;1.198993444442749;-0.25538548827171326;0.20767396688461304;0.3603551983833313;-0.12834495306015015;0.2746458053588867;0.07446352392435074;0.6749813556671143;0.10710620880126953;0.3141413927078247
4;0.9782876372337341;-7.899575091285804e-12;0.21458429098129272;0.12948665022850037;-0.2187960147857666;0.15785831212997437;0.5713980793952942;1.0550020933151245;-0.11005334556102753;0.11557108163833618;0.34032395482063293;-0.25430426001548767;-0.03269590809941292;-0.241786390542984;0.6154361963272095;-0.17419780790805817;-0.02778858132660389
7;1.1884665489196777;2.242136949636026e-25;0.43182942271232605;0.336828351020813;-0.1763646900653839;0.37726423144340515;0.7775193452835083;1.2647477388381958;-0.16715459525585175;0.23775933682918549;0.43473032116889954;-0.16781920194625854;0.013097657822072506;-0.21189023554325104;0.6114434003829956;-0.07747544348239899;0.027901312336325645
5;0.9961867332458496;8.335627411127928e-17;0.23518049716949463;0.16617605090141296;-0.205558642745018;0.18614685535430908;0.6265925168991089;1.0710399150848389;-0.277293860912323;0.11989928036928177;0.32491129636764526;-0.16438302397727966;0.22367900609970093;-0.0005361739895306528;0.702081024646759;0.05829107388854027;0.2478944957256317
8;1.1517223119735718;-1.5991381514236097e-29;0.4002780020236969;0.3087718188762665;-0.18258973956108093;0.3495088815689087;0.7573963403701782;1.224815011024475;-0.2515070140361786;0.22351941466331482;0.40380555391311646;-0.14362920820713043;0.191884845495224;-0.007974918000400066;0.7546161413192749;0.06674167513847351;0.22547991573810577
5;1.0575779676437378;8.335627411127928e-17;0.29580608010292053;0.20939357578754425;-0.20557262003421783;0.23965388536453247;0.6496073007583618;1.1342906951904297;-0.21207372844219208;0.17352214455604553;0.3684782385826111;-0.22156643867492676;0.004340172745287418;-0.2283894568681717;0.6187404990196228;-0.12314548343420029;-0.007008974440395832
8;1.2458434104919434;-8.54340717770855e-30;0.49216875433921814;0.3927258551120758;-0.16834302246570587;0.43857231736183167;0.82659512758255;1.321819543838501;-0.14733050763607025;0.2840118706226349;0.41793397068977356;-0.15036210417747498;0.03630087897181511;-0.179189071059227;0.596871554851532;-0.07077713310718536;0.04754886403679848
6;1.053078055381775;-9.388894963531101e-21;0.29432958364486694;0.22174492478370667;-0.20461134612560272;0.2443224936723709;0.6736052632331848;1.1276347637176514;-0.27084121108055115;0.15324321389198303;0.32924506068229675;-0.15348239243030548;0.2583649754524231;0.0534684881567955;0.707798182964325;0.11060722172260284;0.28948450088500977
9;1.2129032611846924;1.436633520305454e-34;0.46502071619033813;0.34430715441703796;-0.17685937881469727;0.39983195066452026;0.782133162021637;1.2854034900665283;-0.23939093947410583;0.2616032361984253;0.36629819869995117;-0.13193732500076294;0.20326392352581024;0.01610710285604;0.779129683971405;0.12071766704320908;0.23418886959552765
6;1.1210130453109741;-1.114093054778447e-20;0.3617764115333557;0.27296432852745056;-0.19373191893100739;0.3061080873012543;0.7044110894203186;1.1976245641708374;-0.18707668781280518;0.22007223963737488;0.4040636420249939;-0.20883305370807648;0.011566846631467342;-0.21833299100399017;0.6040627956390381;-0.08837909996509552;0.01952778548002243
9;1.2957154512405396;-1.9988064615408906e-34;0.5455538630485535;0.4242191016674042;-0.16081321239471436;0.4855562746524811;0.851794421672821;1.3712276220321655;-0.13279961049556732;0.31851112842559814;0.3714688718318939;-0.1280553638935089;0.043811194598674774;-0.1560828685760498;0.5882492661476135;-0.036585014313459396;0.05088214576244354
7;1.1248128414154053;-2.1197949770356283e-25;0.3685685694217682;0.28225430846214294;-0.1900293231010437;0.3179396390914917;0.7502033710479736;1.198993444442749;-0.25538548827171326;0.20767396688461304;0.3603551983833313;-0.12834495306015015;0.2746458053588867;0.07446352392435074;0.6749813556671143;0.10710620880126953;0.3141413927078247
10;1.2578259706497192;-2.8156864576048923e-39;0.5143215656280518;0.38349059224128723;-0.1713312268257141;0.4397374987602234;0.8174436688423157;1.3297427892684937;-0.22807250916957855;0.2962684631347656;0.3523810803890228;-0.12498096376657486;0.20626045763492584;0.042731333523988724;0.7642817497253418;0.14517109096050262;0.2437022477388382
7;1.1884665489196777;2.242136949636026e-25;0.43182942271232605;0.336828351020813;-0.1763646900653839;0.37726423144340515;0.7775193452835083;1.2647477388381958;-0.16715459525585175;0.23775933682918549;0.43473032116889954;-0.16781920194625854;0.013097657822072506;-0.21189023554325104;0.6114434003829956;-0.07747544348239899;0.027901312336325645
10;1.337782859802246;-6.270925534327631e-39;0.5917874574661255;0.45650219917297363;-0.14964672923088074;0.522430956363678;0.8750930428504944;1.412802815437317;-0.11340956389904022;0.34656962752342224;0.34811460971832275;-0.12149452418088913;0.045629777014255524;-0.14023169875144958;0.5599653124809265;-0.026518937200307846;0.06629915535449982
8;1.1517223119735718;-1.5991381514236097e-29;0.4002780020236969;0.3087718188762665;-0.18258973956108093;0.3495088815689087;0.7573963403701782;1.224815011024475;-0.2515070140361786;0.22351941466331482;0.40380555391311646;-0.14362920820713043;0.191884845495224;-0.007974918000400066;0.7546161413192749;0.06674167513847351;0.22547991573810577
11;1.2933509349822998;-6.729035225687772e-41;0.5547150373458862;0.41725361347198486;-0.1482643485069275;0.4764255881309509;0.8465491533279419;1.3646159172058105;-0.21559427678585052;0.30497774481773376;0.33472082018852234;-0.12167397886514664;0.21232999861240387;0.043307457119226456;0.787675142288208;0.18596325814723969;0.23403607308864594
8;1.2458434104919434;-8.54340717770855e-30;0.49216875433921814;0.3927258551120758;-0.16834302246570587;0.43857231736183167;0.82659512758255;1.321819543838501;-0.14733050763607025;0.2840118706226349;0.41793397068977356;-0.15036210417747498;0.03630087897181511;-0.179189071059227;0.596871554851532;-0.07077713310718536;0.04754886403679848
11;1.3694405555725098;-6.729035225687772e-41;0.6283742785453796;0.485645592212677;-0.1342833936214447;0.5567940473556519;0.8958221077919006;1.4437875747680664;-0.09359972923994064;0.35230326652526855;0.3331187963485718;-0.11403722316026688;0.06590595096349716;-0.13188087940216064;0.5802481174468994;-0.004107700195163488;0.06458432972431183
9;1.2129032611846924;1.436633520305454e-34;0.46502071619033813;0.34430715441703796;-0.17685937881469727;0.39983195066452026;0.782133162021637;1.2854034900665283;-0.23939093947410583;0.2616032361984253;0.36629819869995117;-0.13193732500076294;0.20326392352581024;0.01610710285604;0.779129683971405;0.12071766704320908;0.23418886959552765
12;1.3293609619140625;-6.729035225687772e-41;0.5959376692771912;0.4438306987285614;-0.13791538774967194;0.5129525065422058;0.8696762919425964;1.3999449014663696;-0.1995709091424942;0.32113659381866455;0.3270445168018341;-0.11287537217140198;0.2182561159133911;0.06302356719970703;0.8048699498176575;0.21825429797172546;0.23791581392288208
9;1.2957154512405396;-1.9988064615408906e-34;0.5455538630485535;0.4242191016674042;-0.16081321239471436;0.4855562746524811;0.851794421672821;1.3712276220321655;-0.13279961049556732;0.31851112842559814;0.3714688718318939;-0.1280553638935089;0.043811194598674774;-0.1560828685760498;0.5882492661476135;-0.036585014313459396;0.05088214576244354
10;1.2578259706497192;-2.8156864576048923e-39;0.5143215656280518;0.38349059224128723;-0.1713312268257141;0.4397374987602234;0.8174436688423157;1.3297427892684937;-0.22807250916957855;0.2962684631347656;0.3523810803890228;-0.12498096376657486;0.20626045763492584;0.042731333523988724;0.7642817497253418;0.14517109096050262;0.2437022477388382
12;1.3959952592849731;-6.729035225687772e-41;0.660571277141571;0.5100399851799011;-0.11934250593185425;0.586389422416687;0.9157540202140808;1.469697117805481;-0.07596584409475327;0.37068474292755127;0.310732901096344;-0.10655681043863297;0.06726153194904327;-0.1229667142033577;0.5729430913925171;0.008837922476232052;0.06945818662643433
13;1.390100359916687;-6.729035225687772e-41;0.6620394587516785;0.5060519576072693;-0.11131531000137329;0.5821170210838318;0.9015012383460999;1.4549697637557983;-0.23826268315315247;0.3825276494026184;0.31028032302856445;-0.10159412771463394;0.23305638134479523;0.05611753463745117;0.7863863706588745;0.2406834214925766;0.21224161982536316
10;1.337782859802246;-6.270925534327631e-39;0.5917874574661255;0.45650219917297363;-0.14964672923088074;0.522430956363678;0.8750930428504944;1.412802815437317;-0.11340956389904022;0.34656962752342224;0.34811460971832275;-0.12149452418088913;0.045629777014255524;-0.14023169875144958;0.5599653124809265;-0.026518937200307846;0.06629915535449982
11;1.2933509349822998;-6.729035225687772e-41;0.5547150373458862;0.41725361347198486;-0.1482643485069275;0.4764255881309509;0.8465491533279419;1.3646159172058105;-0.21559427678585052;0.30497774481773376;0.33472082018852234;-0.12167397886514664;0.21232999861240387;0.043307457119226456;0.787675142288208;0.18596325814723969;0.23403607308864594
13;1.4253101348876953;-6.729035225687772e-41;0.6959488987922668;0.5461532473564148;-0.0963367447257042;0.622908890247345;0.9354984164237976;1.4983900785446167;-0.06345891952514648;0.39291319251060486;0.2773191034793854;-0.10120879858732224;0.0627240240573883;-0.1238490492105484;0.5403234958648682;0.00127708469517529;0.06207164749503136
14;1.348779320716858;-6.729035225687772e-41;0.6340904235839844;0.4788033068180084;-0.09088905900716782;0.5510795712471008;0.8490159511566162;1.4096535444259644;-0.23398394882678986;0.3608311712741852;0.28144413232803345;-0.058051012456417084;0.3723680377006531;0.18610963225364685;0.6898084282875061;0.15441755950450897;0.36793139576911926
11;1.3694405555725098;-6.729035225687772e-41;0.6283742785453796;0.485645592212677;-0.1342833936214447;0.5567940473556519;0.8958221077919006;1.4437875747680664;-0.09359972923994064;0.35230326652526855;0.3331187963485718;-0.11403722316026688;0.06590595096349716;-0.13188087940216064;0.5802481174468994;-0.004107700195163488;0.06458432972431183
12;1.3293609619140625;-6.729035225687772e-41;0.5959376692771912;0.4438306987285614;-0.13791538774967194;0.5129525065422058;0.8696762919425964;1.3999449014663696;-0.1995709091424942;0.32113659381866455;0.3270445168018341;-0.11287537217140198;0.2182561159133911;0.06302356719970703;0.8048699498176575;0.21825429797172546;0.23791581392288208
14;1.4495643377304077;-6.729035225687772e-41;0.7271720767021179;0.577151358127594;-0.08313161134719849;0.654897928237915;0.9537709355354309;1.5219494104385376;-0.04881222918629646;0.3967333436012268;0.256714791059494;-0.09477069973945618;0.062289852648973465;-0.10248919576406479;0.5076769590377808;0.018481440842151642;0.058792538940906525
15;1.3707027435302734;-6.729035225687772e-41;0.6650868654251099;0.5059590935707092;-0.07307156175374985;0.5851239562034607;0.8721764087677002;1.4333839416503906;-0.22366374731063843;0.37661588191986084;0.2673476040363312;-0.0570811852812767;0.3684869110584259;0.1808256208896637;0.6540177464485168;0.16793426871299744;0.36315464973449707
12;1.3959952592849731;-6.729035225687772e-41;0.660571277141571;0.5100399851799011;-0.11934250593185425;0.586389422416687;0.9157540202140808;1.469697117805481;-0.07596584409475327;0.37068474292755127;0.310732901096344;-0.10655681043863297;0.06726153194904327;-0.1229667142033577;0.5729430913925171;0.008837922476232052;0.06945818662643433
13;1.390100359916687;-6.729035225687772e-41;0.6620394587516785;0.5060519576072693;-0.11131531000137329;0.5821170210838318;0.9015012383460999;1.4549697637557983;-0.23826268315315247;0.3825276494026184;0.31028032302856445;-0.10159412771463394;0.23305638134479523;0.05611753463745117;0.7863863706588745;0.2406834214925766;0.21224161982536316
15;1.4677716493606567;-6.729035225687772e-41;0.7527921199798584;0.6022465825080872;-0.0648968294262886;0.6812281012535095;0.9758239388465881;1.5391435623168945;-0.03427518159151077;0.3993535041809082;0.22808495163917542;-0.08666737377643585;0.062463752925395966;-0.09391661733388901;0.4747387170791626;0.027897581458091736;0.05606884881854057
16;1.3936423063278198;-6.729035225687772e-41;0.6984493136405945;0.5378912091255188;-0.0641634613275528;0.6186409592628479;0.8932963013648987;1.4603043794631958;-0.16321972012519836;0.3768060505390167;0.2847006022930145;-0.04570557922124863;0.3459625244140625;0.2066645324230194;0.6104229688644409;0.15494848787784576;0.34521472454071045
13;1.4253101348876953;-6.729035225687772e-41;0.6959488987922668;0.5461532473564148;-0.0963367447257042;0.622908890247345;0.9354984164237976;1.4983900785446167;-0.06345891952514648;0.39291319251060486;0.2773191034793854;-0.10120879858732224;0.0627240240573883;-0.1238490492105484;0.5403234958648682;0.00127708469517529;0.06207164749503136
14;1.348779320716858;-6.729035225687772e-41;0.6340904235839844;0.4788033068180084;-0.09088905900716782;0.5510795712471008;0.8490159511566162;1.4096535444259644;-0.23398394882678986;0.3608311712741852;0.28144413232803345;-0.058051012456417084;0.3723680377006531;0.18610963225364685;0.6898084282875061;0.15441755950450897;0.36793139576911926
16;1.4884521961212158;-6.729035225687772e-41;0.7815961241722107;0.6260820627212524;-0.053080324083566666;0.7112228274345398;0.991158127784729;1.559461236000061;-0.022267119958996773;0.4080406725406647;0.2165132611989975;-0.07393412292003632;0.06152147054672241;-0.07642044872045517;0.4506573975086212;0.044998444616794586;0.052907854318618774
17;1.4112807512283325;-6.729035225687772e-41;0.7260579466819763;0.5619584321975708;-0.05388481914997101;0.6439440250396729;0.9048542976379395;1.4781887531280518;-0.129353329539299;0.39646583795547485;0.2720267176628113;-0.034653715789318085;0.33548229932785034;0.21377414464950562;0.5876036882400513;0.17439241707324982;0.3355921506881714
14;1.4495643377304077;-6.729035225687772e-41;0.7271720767021179;0.577151358127594;-0.08313161134719849;0.654897928237915;0.9537709355354309;1.5219494104385376;-0.04881222918629646;0.3967333436012268;0.256714791059494;-0.09477069973945618;0.062289852648973465;-0.10248919576406479;0.5076769590377808;0.018481440842151642;0.058792538940906525
15;1.3707027435302734;-6.729035225687772e-41;0.6650868654251099;0.5059590935707092;-0.07307156175374985;0.5851239562034607;0.8721764087677002;1.4333839416503906;-0.22366374731063843;0.37661588191986084;0.2673476040363312;-0.0570811852812767;0.3684869110584259;0.1808256208896637;0.6540177464485168;0.16793426871299744;0.36315464973449707
17;1.5059579610824585;-6.729035225687772e-41;0.8082215785980225;0.6431874632835388;-0.040813762694597244;0.7355840802192688;1.0010887384414673;1.5760369300842285;-0.0092701967805624;0.41921117901802063;0.19484025239944458;-0.057096827775239944;0.06161627545952797;-0.06752658635377884;0.41781261563301086;0.07523094862699509;0.06367894262075424
18;1.4239097833633423;-6.729035225687772e-41;0.7491458058357239;0.5869191288948059;-0.042251601815223694;0.6701240539550781;0.9082534909248352;1.4902280569076538;-0.10530738532543182;0.39816924929618835;0.24812588095664978;-0.027060022577643394;0.3194848895072937;0.21691389381885529;0.5517572164535522;0.18874050676822662;0.31774425506591797
15;1.4677716493606567;-6.729035225687772e-41;0.7527921199798584;0.6022465825080872;-0.0648968294262886;0.6812281012535095;0.9758239388465881;1.5391435623168945;-0.03427518159151077;0.3993535041809082;0.22808495163917542;-0.08666737377643585;0.062463752925395966;-0.09391661733388901;0.4747387170791626;0.027897581458091736;0.05606884881854057
16;1.3936423063278198;-6.729035225687772e-41;0.6984493136405945;0.5378912091255188;-0.0641634613275528;0.6186409592628479;0.8932963013648987;1.4603043794631958;-0.16321972012519836;0.3768060505390167;0.2847006022930145;-0.04570557922124863;0.3459625244140625;0.2066645324230194;0.6104229688644409;0.15494848787784576;0.34521472454071045
18;1.519077181816101;-6.729035225687772e-41;0.8314936757087708;0.6648635268211365;-0.029659556224942207;0.7595953345298767;1.0085740089416504;1.588106393814087;-0.0011065475409850478;0.4207005202770233;0.16841627657413483;-0.04923524335026741;0.06119455769658089;-0.058716289699077606;0.3812514543533325;0.0911998599767685;0.060610052198171616
19;1.4388110637664795;-6.729035225687772e-41;0.7756943702697754;0.6113108992576599;-0.031861551105976105;0.6934958100318909;0.9156975150108337;1.503941535949707;-0.0928003191947937;0.390071839094162;0.21722906827926636;-0.01931632310152054;0.30473092198371887;0.21323518455028534;0.514290988445282;0.2069677859544754;0.30177634954452515
16;1.4884521961212158;-6.729035225687772e-41;0.7815961241722107;0.6260820627212524;-0.053080324083566666;0.7112228274345398;0.991158127784729;1.559461236000061;-0.022267119958996773;0.4080406725406647;0.2165132611989975;-0.07393412292003632;0.06152147054672241;-0.07642044872045517;0.4506573975086212;0.044998444616794586;0.052907854318618774
17;1.4112807512283325;-6.729035225687772e-41;0.7260579466819763;0.5619584321975708;-0.05388481914997101;0.6439440250396729;0.9048542976379395;1.4781887531280518;-0.129353329539299;0.39646583795547485;0.2720267176628113;-0.034653715789318085;0.33548229932785034;0.21377414464950562;0.5876036882400513;0.17439241707324982;0.3355921506881714
19;1.5287563800811768;-6.729035225687772e-41;0.8522814512252808;0.6830851435661316;-0.019865378737449646;0.7777986526489258;1.0130176544189453;1.5966901779174805;0.0048326957039535046;0.42135411500930786;0.15503688156604767;-0.037807002663612366;0.06903624534606934;-0.04704934358596802;0.3525983989238739;0.10885290056467056;0.06074997037649155
20;1.45270836353302;-6.729035225687772e-41;0.8030338287353516;0.6403488516807556;0.058347683399915695;0.7213411927223206;0.930141031742096;1.5164320468902588;-0.08046535402536392;0.3915328085422516;0.1909056305885315;-0.014584609307348728;0.28588902950286865;0.20288129150867462;0.47665831446647644;0.2036585807800293;0.28229808807373047
17;1.5059579610824585;-6.729035225687772e-41;0.8082215785980225;0.6431874632835388;-0.040813762694597244;0.7355840802192688;1.0010887384414673;1.5760369300842285;-0.0092701967805624;0.41921117901802063;0.19484025239944458;-0.057096827775239944;0.06161627545952797;-0.06752658635377884;0.41781261563301086;0.07523094862699509;0.06367894262075424
18;1.4239097833633423;-6.729035225687772e-41;0.7491458058357239;0.5869191288948059;-0.042251601815223694;0.6701240539550781;0.9082534909248352;1.4902280569076538;-0.10530738532543182;0.39816924929618835;0.24812588095664978;-0.027060022577643394;0.3194848895072937;0.21691389381885529;0.5517572164535522;0.18874050676822662;0.31774425506591797
20;1.5398133993148804;-6.729035225687772e-41;0.8749004602432251;0.7070299983024597;-0.010918835178017616;0.801169753074646;1.0198899507522583;1.6065125465393066;0.009196486324071884;0.41912901401519775;0.15609228610992432;-0.030228057876229286;0.0665629431605339;-0.039080556482076645;0.31740960478782654;0.11064787954092026;0.05328816920518875
21;1.459864616394043;-6.729035225687772e-41;0.8234776258468628;0.6627240777015686;0.0581575371325016;0.7438858151435852;0.9367405772209167;1.522318720817566;-0.06833724677562714;0.3975011706352234;0.17211391031742096;-0.007971543818712234;0.2899869680404663;0.20062220096588135;0.4401385486125946;0.20512689650058746;0.2647830843925476
18;1.519077181816101;-6.729035225687772e-41;0.8314936757087708;0.6648635268211365;-0.029659556224942207;0.7595953345298767;1.0085740089416504;1.588106393814087;-0.0011065475409850478;0.4207005202770233;0.16841627657413483;-0.04923524335026741;0.06119455769658089;-0.058716289699077606;0.3812514543533325;0.0911998599767685;0.060610052198171616
19;1.4388110637664795;-6.729035225687772e-41;0.7756943702697754;0.6113108992576599;-0.031861551105976105;0.6934958100318909;0.9156975150108337;1.503941535949707;-0.0928003191947937;0.390071839094162;0.21722906827926636;-0.01931632310152054;0.30473092198371887;0.21323518455028534;0.514290988445282;0.2069677859544754;0.30177634954452515
21;1.5499509572982788;-6.729035225687772e-41;0.8974642753601074;0.7307838201522827;-0.0040883952751755714;0.8249239325523376;1.024737000465393;1.6153088808059692;0.011844109743833542;0.41990718245506287;0.15058110654354095;-0.023332629352808;0.08965803682804108;-0.024105606600642204;0.2856665551662445;0.12405259162187576;0.04929744452238083
22;1.4664901494979858;-6.729035225687772e-41;0.8452603220939636;0.6776601076126099;0.05637421831488609;0.7651738524436951;0.9336570501327515;1.5273964405059814;-0.05020121857523918;0.39520299434661865;0.13925428688526154;-0.0008171269437298179;0.2761312425136566;0.17782099545001984;0.4183601140975952;0.2106887698173523;0.26883935928344727
19;1.5287563800811768;-6.729035225687772e-41;0.8522814512252808;0.6830851435661316;-0.019865378737449646;0.7777986526489258;1.0130176544189453;1.5966901779174805;0.0048326957039535046;0.42135411500930786;0.15503688156604767;-0.037807002663612366;0.06903624534606934;-0.04704934358596802;0.3525983989238739;0.10885290056467056;0.06074997037649155
20;1.45270836353302;-6.729035225687772e-41;0.8030338287353516;0.6403488516807556;0.058347683399915695;0.7213411927223206;0.930141031742096;1.5164320468902588;-0.08046535402536392;0.3915328085422516;0.1909056305885315;-0.014584609307348728;0.28588902950286865;0.20288129150867462;0.47665831446647644;0.2036585807800293;0.28229808807373047
22;1.5543912649154663;-6.729035225687772e-41;0.9160690307617188;0.7474679350852966;0.005810084752738476;0.8440669178962708;1.0252801179885864;1.6184581518173218;0.017116373404860497;0.4217931926250458;0.13123095035552979;-0.015520088374614716;0.08703456073999405;-0.01638278178870678;0.2636692523956299;0.1283402442932129;0.060800645500421524
23;1.4729048013687134;-6.729035225687772e-41;0.8686519265174866;0.684860348701477;0.05699308589100838;0.7855427265167236;0.9220312237739563;1.5320769548416138;-0.03681584820151329;0.38873714208602905;0.1200384795665741;0.006971846800297499;0.25218236446380615;0.15941943228244781;0.3785969018936157;0.2323036640882492;0.24051021039485931
20;1.5398133993148804;-6.729035225687772e-41;0.8749004602432251;0.7070299983024597;-0.010918835178017616;0.801169753074646;1.0198899507522583;1.6065125465393066;0.009196486324071884;0.41912901401519775;0.15609228610992432;-0.030228057876229286;0.0665629431605339;-0.039080556482076645;0.31740960478782654;0.11064787954092026;0.05328816920518875
21;1.459864616394043;-6.729035225687772e-41;0.8234776258468628;0.6627240777015686;0.0581575371325016;0.7438858151435852;0.9367405772209167;1.522318720817566;-0.06833724677562714;0.3975011706352234;0.17211391031742096;-0.007971543818712234;0.2899869680404663;0.20062220096588135;0.4401385486125946;0.20512689650058746;0.2647830843925476
23;1.5594373941421509;-6.729035225687772e-41;0.9366427659988403;0.7588434815406799;0.010551374405622482;0.8618066310882568;1.0165574550628662;1.6220883131027222;0.019090475514531136;0.4114654064178467;0.11264883726835251;-0.007442197762429714;0.08417542278766632;-0.00860930047929287;0.23229007422924042;0.14472602307796478;0.057840824127197266
24;1.4863885641098022;-6.729035225687772e-41;0.8973971009254456;0.7140869498252869;0.053868453949689865;0.818416953086853;0.9316232204437256;1.5450096130371094;0.0013173527549952269;0.38345494866371155;0.11334363371133804;0.011484898626804352;0.23951128125190735;0.1536528617143631;0.3348125219345093;0.22689642012119293;0.22703537344932556
21;1.5499509572982788;-6.729035225687772e-41;0.8974642753601074;0.7307838201522827;-0.0040883952751755714;0.8249239325523376;1.024737000465393;1.6153088808059692;0.011844109743833542;0.41990718245506287;0.15058110654354095;-0.023332629352808;0.08965803682804108;-0.024105606600642204;0.2856665551662445;0.12405259162187576;0.04929744452238083
22;1.4664901494979858;-6.729035225687772e-41;0.8452603220939636;0.6776601076126099;0.05637421831488609;0.7651738524436951;0.9336570501327515;1.5273964405059814;-0.05020121857523918;0.39520299434661865;0.13925428688526154;-0.0008171269437298179;0.2761312425136566;0.17782099545001984;0.4183601140975952;0.2106887698173523;0.26883935928344727
24;1.5665382146835327;-6.729035225687772e-41;0.9594119191169739;0.7833704948425293;0.013250814750790596;0.8854301571846008;1.0139893293380737;1.6276240348815918;0.03031083010137081;0.3981657922267914;0.09696580469608307;-0.0013225486036390066;0.0788404792547226;-0.0027796863578259945;0.19929911196231842;0.1397753804922104;0.053262535482645035
25;1.485123634338379;-6.729035225687772e-41;0.9156339764595032;0.7286638021469116;0.0518295094370842;0.8330520391464233;0.9235395193099976;1.5418630838394165;0.010519221425056458;0.3784213066101074;0.09906131774187088;0.017014039680361748;0.21575839817523956;0.14469490945339203;0.29529014229774475;0.23372508585453033;0.2077556550502777
23;1.4729048013687134;-6.729035225687772e-41;0.8686519265174866;0.684860348701477;0.05699308589100838;0.7855427265167236;0.9220312237739563;1.5320769548416138;-0.03681584820151329;0.38873714208602905;0.1200384795665741;0.006971846800297499;0.25218236446380615;0.15941943228244781;0.3785969018936157;0.2323036640882492;0.24051021039485931
22;1.5543912649154663;-6.729035225687772e-41;0.9160690307617188;0.7474679350852966;0.005810084752738476;0.8440669178962708;1.0252801179885864;1.6184581518173218;0.017116373404860497;0.4217931926250458;0.13123095035552979;-0.015520088374614716;0.08703456073999405;-0.01638278178870678;0.2636692523956299;0.1283402442932129;0.060800645500421524
25;1.5664665699005127;-6.729035225687772e-41;0.9769914150238037;0.7985612154006958;0.015217998996376991;0.9004042744636536;1.0069822072982788;1.625741958618164;0.030848149210214615;0.39205053448677063;0.08640028536319733;0.005637808702886105;0.07506733387708664;0.005402428563684225;0.18085116147994995;0.14722347259521484;0.05538538843393326
26;1.4835891723632812;-6.729035225687772e-41;0.9338669180870056;0.7483839988708496;0.04727547988295555;0.8518701195716858;0.9313282370567322;1.5384113788604736;0.02069096267223358;0.3681739568710327;0.08686581999063492;0.01824452355504036;0.19138479232788086;0.12827976047992706;0.2558223307132721;0.23216024041175842;0.18353204429149628
24;1.4863885641098022;-6.729035225687772e-41;0.8973971009254456;0.7140869498252869;0.053868453949689865;0.818416953086853;0.9316232204437256;1.5450096130371094;0.0013173527549952269;0.38345494866371155;0.11334363371133804;0.011484898626804352;0.23951128125190735;0.1536528617143631;0.3348125219345093;0.22689642012119293;0.22703537344932556
23;1.5594373941421509;-6.729035225687772e-41;0.9366427659988403;0.7588434815406799;0.010551374405622482;0.8618066310882568;1.0165574550628662;1.6220883131027222;0.019090475514531136;0.4114654064178467;0.11264883726835251;-0.007442197762429714;0.08417542278766632;-0.00860930047929287;0.23229007422924042;0.14472602307796478;0.057840824127197266
26;1.5670883655548096;-6.729035225687772e-41;0.9955602884292603;0.8143795132637024;0.016180839389562607;0.9196601510047913;1.0106011629104614;1.6250509023666382;0.03463305905461311;0.3816913962364197;0.07529488205909729;0.011431921273469925;0.0702405720949173;0.010510674677789211;0.15350091457366943;0.1504053771495819;0.051348473876714706
27;1.479836344718933;-6.729035225687772e-41;0.9517788290977478;0.7562210559844971;0.04234486445784569;0.8690689206123352;0.9175761938095093;1.532591462135315;0.025501176714897156;0.3591507375240326;0.07252633571624756;0.022065600380301476;0.17834480106830597;0.11703769117593765;0.22155481576919556;0.24263453483581543;0.1649860292673111
24;1.5665382146835327;-6.729035225687772e-41;0.9594119191169739;0.7833704948425293;0.013250814750790596;0.8854301571846008;1.0139893293380737;1.6276240348815918;0.03031083010137081;0.3981657922267914;0.09696580469608307;-0.0013225486036390066;0.0788404792547226;-0.0027796863578259945;0.19929911196231842;0.1397753804922104;0.053262535482645035
25;1.485123634338379;-6.729035225687772e-41;0.9156339764595032;0.7286638021469116;0.0518295094370842;0.8330520391464233;0.9235395193099976;1.5418630838394165;0.010519221425056458;0.3784213066101074;0.09906131774187088;0.017014039680361748;0.21575839817523956;0.14469490945339203;0.29529014229774475;0.23372508585453033;0.2077556550502777
27;1.5610020160675049;-6.729035225687772e-41;1.0099971294403076;0.8233845829963684;0.017068246379494667;0.9339717030525208;1.0016146898269653;1.6170341968536377;0.03496529534459114;0.3708003759384155;0.06838838756084442;0.01760149374604225;0.06905309855937958;0.01567867584526539;0.13267256319522858;0.15926271677017212;0.04833284392952919
28;1.4725888967514038;-6.729035225687772e-41;0.9668892621994019;0.7658789157867432;0.03768712282180786;0.884143054485321;0.9125545620918274;1.523231863975525;0.02910495176911354;0.34992823004722595;0.0703725814819336;0.025091711431741714;0.16570407152175903;0.10662103444337845;0.19704283773899078;0.24860310554504395;0.14859381318092346
26;1.4835891723632812;-6.729035225687772e-41;0.9338669180870056;0.7483839988708496;0.04727547988295555;0.8518701195716858;0.9313282370567322;1.5384113788604736;0.02069096267223358;0.3681739568710327;0.08686581999063492;0.01824452355504036;0.19138479232788086;0.12827976047992706;0.2558223307132721;0.23216024041175842;0.18353204429149628
25;1.5664665699005127;-6.729035225687772e-41;0.9769914150238037;0.7985612154006958;0.015217998996376991;0.9004042744636536;1.0069822072982788;1.625741958618164;0.030848149210214615;0.39205053448677063;0.08640028536319733;0.005637808702886105;0.07506733387708664;0.005402428563684225;0.18085116147994995;0.14722347259521484;0.05538538843393326
28;1.5542229413986206;-6.729035225687772e-41;1.0244330167770386;0.8324458599090576;0.017139945179224014;0.9487048387527466;0.9956977963447571;1.6080204248428345;0.034076862037181854;0.362212210893631;0.06918435543775558;0.022565381601452827;0.06648735702037811;0.019697383046150208;0.11498185247182846;0.1689116358757019;0.04508407413959503
29;1.4607868194580078;-6.729035225687772e-41;0.9790677428245544;0.777345597743988;0.035438958555459976;0.8957036733627319;0.9047783017158508;1.5095669031143188;0.03610595688223839;0.33692261576652527;0.06488167494535446;0.032229650765657425;0.15176145732402802;0.1014660969376564;0.17610155045986176;0.2573939263820648;0.13524769246578217
27;1.479836344718933;-6.729035225687772e-41;0.9517788290977478;0.7562210559844971;0.04234486445784569;0.8690689206123352;0.9175761938095093;1.532591462135315;0.025501176714897156;0.3591507375240326;0.07252633571624756;0.022065600380301476;0.17834480106830597;0.11703769117593765;0.22155481576919556;0.24263453483581543;0.1649860292673111
26;1.5670883655548096;-6.729035225687772e-41;0.9955602884292603;0.8143795132637024;0.016180839389562607;0.9196601510047913;1.0106011629104614;1.6250509023666382;0.03463305905461311;0.3816913962364197;0.07529488205909729;0.011431921273469925;0.0702405720949173;0.010510674677789211;0.15350091457366943;0.1504053771495819;0.051348473876714706
29;1.5442744493484497;-6.729035225687772e-41;1.0371999740600586;0.8405099511146545;0.016892442479729652;0.961355984210968;0.9863833785057068;1.5958151817321777;0.03299165889620781;0.35195934772491455;0.06550641357898712;0.03035825490951538;0.0633825957775116;0.02308710105717182;0.10545944422483444;0.17517627775669098;0.04227888584136963
30;1.4528214931488037;-6.729035225687772e-41;0.9964502453804016;0.7899574637413025;0.029910005629062653;0.9111229777336121;0.8974385857582092;1.4992667436599731;0.035917896777391434;0.3221181333065033;0.060280170291662216;0.035566844046115875;0.14224720001220703;0.10249152034521103;0.1496077924966812;0.26020729541778564;0.12873055040836334
28;1.4725888967514038;-6.729035225687772e-41;0.9668892621994019;0.7658789157867432;0.03768712282180786;0.884143054485321;0.9125545620918274;1.523231863975525;0.02910495176911354;0.34992823004722595;0.0703725814819336;0.025091711431741714;0.16570407152175903;0.10662103444337845;0.19704283773899078;0.24860310554504395;0.14859381318092346
27;1.5610020160675049;-6.729035225687772e-41;1.0099971294403076;0.8233845829963684;0.017068246379494667;0.9339717030525208;1.0016146898269653;1.6170341968536377;0.03496529534459114;0.3708003759384155;0.06838838756084442;0.01760149374604225;0.06905309855937958;0.01567867584526539;0.13267256319522858;0.15926271677017212;0.04833284392952919
30;1.5363500118255615;-6.729035225687772e-41;1.0534037351608276;0.8481835126876831;0.01793644391000271;0.9736102223396301;0.9722839593887329;1.5855038166046143;0.03192352131009102;0.3375130891799927;0.06130136922001839;0.033805787563323975;0.06044672802090645;0.03560556471347809;0.09267137944698334;0.1748054027557373;0.042096156626939774
31;1.4454164505004883;-6.729035225687772e-41;1.0126575231552124;0.7974051237106323;0.028608951717615128;0.9267765879631042;0.887613832950592;1.489441990852356;0.03691023215651512;0.3098802864551544;0.06174958869814873;0.038830727338790894;0.14159201085567474;0.09950650483369827;0.13136276602745056;0.26855531334877014;0.13312485814094543
29;1.4607868194580078;-6.729035225687772e-41;0.9790677428245544;0.777345597743988;0.035438958555459976;0.8957036733627319;0.9047783017158508;1.5095669031143188;0.03610595688223839;0.33692261576652527;0.06488167494535446;0.032229650765657425;0.15176145732402802;0.1014660969376564;0.17610155045986176;0.2573939263820648;0.13524769246578217
31;1.5276771783828735;-6.729035225687772e-41;1.0687910318374634;0.855309009552002;0.017351211979985237;0.9889219403266907;0.9628868699073792;1.5741227865219116;0.03031301312148571;0.32512167096138;0.05746590718626976;0.03566931188106537;0.06456615775823593;0.0399690642952919;0.08195707947015762;0.18292827904224396;0.05284054949879646
28;1.5542229413986206;-6.729035225687772e-41;1.0244330167770386;0.8324458599090576;0.017139945179224014;0.9487048387527466;0.9956977963447571;1.6080204248428345;0.034076862037181854;0.362212210893631;0.06918435543775558;0.022565381601452827;0.06648735702037811;0.019697383046150208;0.11498185247182846;0.1689116358757019;0.04508407413959503
32;1.4350273609161377;-6.729035225687772e-41;1.0280814170837402;0.8046084046363831;0.027213988825678825;0.9414920806884766;0.8740220665931702;1.4766298532485962;0.03947320207953453;0.2982803285121918;0.05906786769628525;0.04080474376678467;0.1353604942560196;0.10022780299186707;0.11772516369819641;0.2714293301105499;0.12375758588314056
30;1.4528214931488037;-6.729035225687772e-41;0.9964502453804016;0.7899574637413025;0.029910005629062653;0.9111229777336121;0.8974385857582092;1.4992667436599731;0.035917896777391434;0.3221181333065033;0.060280170291662216;0.035566844046115875;0.14224720001220703;0.10249152034521103;0.1496077924966812;0.26020729541778564;0.12873055040836334
32;1.5168753862380981;-6.729035225687772e-41;1.0836031436920166;0.8635905981063843;0.016774483025074005;1.0036590099334717;0.9484776258468628;1.5608891248703003;0.029021764174103737;0.3143381178379059;0.05487099662423134;0.03723149374127388;0.06330285221338272;0.045446302741765976;0.07602540403604507;0.18974538147449493;0.05186102166771889
29;1.5442744493484497;-6.729035225687772e-41;1.0371999740600586;0.8405099511146545;0.016892442479729652;0.961355984210968;0.9863833785057068;1.5958151817321777;0.03299165889620781;0.35195934772491455;0.06550641357898712;0.03035825490951538;0.0633825957775116;0.02308710105717182;0.10545944422483444;0.17517627775669098;0.04227888584136963
33;1.4518537521362305;-6.729035225687772e-41;1.0274044275283813;0.8356712460517883;0.02394958585500717;0.9670623540878296;0.8712589144706726;1.4915213584899902;0.0219004824757576;0.29462766647338867;0.052289556711912155;0.03785870596766472;0.12140332162380219;0.09860844165086746;0.10060124844312668;0.26932376623153687;0.11811726540327072
31;1.4454164505004883;-6.729035225687772e-41;1.0126575231552124;0.7974051237106323;0.028608951717615128;0.9267765879631042;0.887613832950592;1.489441990852356;0.03691023215651512;0.3098802864551544;0.06174958869814873;0.038830727338790894;0.14159201085567474;0.09950650483369827;0.13136276602745056;0.26855531334877014;0.13312485814094543
33;1.514583945274353;-6.729035225687772e-41;1.0855225324630737;0.8781041502952576;0.016054950654506683;1.019484043121338;0.9381167888641357;1.5563231706619263;0.025762341916561127;0.31642454862594604;0.05306433141231537;0.03720057010650635;0.05891548842191696;0.04982820525765419;0.07090019434690475;0.19843268394470215;0.055862389504909515
30;1.5363500118255615;-6.729035225687772e-41;1.0534037351608276;0.8481835126876831;0.01793644391000271;0.9736102223396301;0.9722839593887329;1.5855038166046143;0.03192352131009102;0.3375130891799927;0.06130136922001839;0.033805787563323975;0.06044672802090645;0.03560556471347809;0.09267137944698334;0.1748054027557373;0.042096156626939774
34;1.4449522495269775;-6.729035225687772e-41;1.041879415512085;0.8432657718658447;0.022311370819807053;0.9822777509689331;0.8593003153800964;1.4819332361221313;0.019337382167577744;0.2909298539161682;0.04814803972840309;0.03741370141506195;0.11231610178947449;0.09431494772434235;0.09944672882556915;0.2742864489555359;0.11005397886037827
32;1.4350273609161377;-6.729035225687772e-41;1.0280814170837402;0.8046084046363831;0.027213988825678825;0.9414920806884766;0.8740220665931702;1.4766298532485962;0.03947320207953453;0.2982803285121918;0.05906786769628525;0.04080474376678467;0.1353604942560196;0.10022780299186707;0.11772516369819641;0.2714293301105499;0.12375758588314056
34;1.505513072013855;-6.729035225687772e-41;1.1009937524795532;0.8846176862716675;0.015346657484769821;1.0324070453643799;0.925976574420929;1.5446672439575195;0.02522878535091877;0.30962637066841125;0.05227387696504593;0.03723282366991043;0.055976398289203644;0.051302190870046616;0.06815063208341599;0.19769081473350525;0.054793138056993484
31;1.5276771783828735;-6.729035225687772e-41;1.0687910318374634;0.855309009552002;0.017351211979985237;0.9889219403266907;0.9628868699073792;1.5741227865219116;0.03031301312148571;0.32512167096138;0.05746590718626976;0.03566931188106537;0.06456615775823593;0.0399690642952919;0.08195707947015762;0.18292827904224396;0.05284054949879646
35;1.4443082809448242;-6.729035225687772e-41;1.0641214847564697;0.8455738425254822;0.020242638885974884;1.005977988243103;0.8437955975532532;1.4786173105239868;0.018135417252779007;0.28312185406684875;0.04620495066046715;0.039072874933481216;0.10695380717515945;0.09784550219774246;0.09998747706413269;0.2934713065624237;0.10615117847919464
33;1.4518537521362305;-6.729035225687772e-41;1.0274044275283813;0.8356712460517883;0.02394958585500717;0.9670623540878296;0.8712589144706726;1.4915213584899902;0.0219004824757576;0.29462766647338867;0.052289556711912155;0.03785870596766472;0.12140332162380219;0.09860844165086746;0.10060124844312668;0.26932376623153687;0.11811726540327072
35;1.497465968132019;-6.729035225687772e-41;1.1186143159866333;0.8865770101547241;0.015255601145327091;1.0506763458251953;0.9072867631912231;1.533912181854248;0.024557622149586678;0.3006369173526764;0.05065149813890457;0.03700653463602066;0.05304998531937599;0.05164357274770737;0.066135473549366;0.20549680292606354;0.05344461277127266
32;1.5168753862380981;-6.729035225687772e-41;1.0836031436920166;0.8635905981063843;0.016774483025074005;1.0036590099334717;0.9484776258468628;1.5608891248703003;0.029021764174103737;0.3143381178379059;0.05487099662423134;0.03723149374127388;0.06330285221338272;0.045446302741765976;0.07602540403604507;0.18974538147449493;0.05186102166771889
36;1.4340838193893433;-6.729035225687772e-41;1.0754671096801758;0.8585167527198792;0.017530979588627815;1.0187236070632935;0.8404020071029663;1.4658606052398682;0.01795092597603798;0.27933937311172485;0.0450192354619503;0.037798795849084854;0.10040057450532913;0.09633062034845352;0.09901885688304901;0.29048219323158264;0.1142091229557991
34;1.4449522495269775;-6.729035225687772e-41;1.041879415512085;0.8432657718658447;0.022311370819807053;0.9822777509689331;0.8593003153800964;1.4819332361221313;0.019337382167577744;0.2909298539161682;0.04814803972840309;0.03741370141506195;0.11231610178947449;0.09431494772434235;0.09944672882556915;0.2742864489555359;0.11005397886037827
36;1.4844156503677368;-6.729035225687772e-41;1.1311616897583008;0.8974784016609192;0.015173972584307194;1.0633876323699951;0.9018608331680298;1.5182987451553345;0.023630784824490547;0.30132362246513367;0.050324246287345886;0.036314886063337326;0.05056392773985863;0.05365176871418953;0.06520902365446091;0.20524470508098602;0.06173476204276085
33;1.514583945274353;-6.729035225687772e-41;1.0855225324630737;0.8781041502952576;0.016054950654506683;1.019484043121338;0.9381167888641357;1.5563231706619263;0.025762341916561127;0.31642454862594604;0.05306433141231537;0.03720057010650635;0.05891548842191696;0.04982820525765419;0.07090019434690475;0.19843268394470215;0.055862389504909515
37;1.4303741455078125;-6.729035225687772e-41;1.0942542552947998;0.8687578439712524;0.018197830766439438;1.0370279550552368;0.8365836143493652;1.4597078561782837;0.016855286434292793;0.2757781445980072;0.0428302027285099;0.0400555245578289;0.09458968043327332;0.09223202615976334;0.09949538856744766;0.27886059880256653;0.11042576283216476
35;1.4443082809448242;-6.729035225687772e-41;1.0641214847564697;0.8455738425254822;0.020242638885974884;1.005977988243103;0.8437955975532532;1.4786173105239868;0.018135417252779007;0.28312185406684875;0.04620495066046715;0.039072874933481216;0.10695380717515945;0.09784550219774246;0.09998747706413269;0.2934713065624237;0.10615117847919464
37;1.473931908607483;-6.729035225687772e-41;1.1462026834487915;0.9035624861717224;0.015022119507193565;1.079119324684143;0.8909314870834351;1.505199670791626;0.022557109594345093;0.2918704152107239;0.0483233667910099;0.03506512567400932;0.04786223918199539;0.053027838468551636;0.06917089223861694;0.2055552750825882;0.06151152402162552
34;1.505513072013855;-6.729035225687772e-41;1.1009937524795532;0.8846176862716675;0.015346657484769821;1.0324070453643799;0.925976574420929;1.5446672439575195;0.02522878535091877;0.30962637066841125;0.05227387696504593;0.03723282366991043;0.055976398289203644;0.051302190870046616;0.06815063208341599;0.19769081473350525;0.054793138056993484
38;1.4219553470611572;-6.729035225687772e-41;1.1081725358963013;0.8814579844474792;0.017410842701792717;1.051160454750061;0.8319891095161438;1.4491243362426758;0.015567479655146599;0.2689298093318939;0.04104737937450409;0.03637460246682167;0.08780529350042343;0.08727023750543594;0.10199035704135895;0.2784478962421417;0.10505346953868866
36;1.4340838193893433;-6.729035225687772e-41;1.0754671096801758;0.8585167527198792;0.017530979588627815;1.0187236070632935;0.8404020071029663;1.4658606052398682;0.01795092597603798;0.27933937311172485;0.0450192354619503;0.037798795849084854;0.10040057450532913;0.09633062034845352;0.09901885688304901;0.29048219323158264;0.1142091229557991
38;1.4649105072021484;-6.729035225687772e-41;1.1616463661193848;0.9164321422576904;0.014434839598834515;1.0954153537750244;0.8847177028656006;1.4933829307556152;0.021344726905226707;0.2840317189693451;0.04661097005009651;0.03381148725748062;0.04510467126965523;0.05251491814851761;0.07031310349702835;0.20942501723766327;0.059930216521024704
35;1.497465968132019;-6.729035225687772e-41;1.1186143159866333;0.8865770101547241;0.015255601145327091;1.0506763458251953;0.9072867631912231;1.533912181854248;0.024557622149586678;0.3006369173526764;0.05065149813890457;0.03700653463602066;0.05304998531937599;0.05164357274770737;0.066135473549366;0.20549680292606354;0.05344461277127266
37;1.4303741455078125;-6.729035225687772e-41;1.0942542552947998;0.8687578439712524;0.018197830766439438;1.0370279550552368;0.8365836143493652;1.4597078561782837;0.016855286434292793;0.2757781445980072;0.0428302027285099;0.0400555245578289;0.09458968043327332;0.09223202615976334;0.09949538856744766;0.27886059880256653;0.11042576283216476
39;1.406085729598999;-6.729035225687772e-41;1.1221861839294434;0.8879810571670532;0.01704629510641098;1.0614982843399048;0.8155320286750793;1.4307081699371338;0.018110167235136032;0.26478585600852966;0.04229694604873657;0.036052241921424866;0.0854000449180603;0.08580964803695679;0.10719913244247437;0.2873491644859314;0.10707075893878937
39;1.4545809030532837;-6.729035225687772e-41;1.1758203506469727;0.9282439351081848;0.013956621289253235;1.110318660736084;0.8706379532814026;1.4807971715927124;0.020538978278636932;0.27848440408706665;0.04624032601714134;0.032671187072992325;0.04314884543418884;0.05176648497581482;0.07253812998533249;0.21562233567237854;0.06293448060750961
36;1.4844156503677368;-6.729035225687772e-41;1.1311616897583008;0.8974784016609192;0.015173972584307194;1.0633876323699951;0.9018608331680298;1.5182987451553345;0.023630784824490547;0.30132362246513367;0.050324246287345886;0.036314886063337326;0.05056392773985863;0.05365176871418953;0.06520902365446091;0.20524470508098602;0.06173476204276085
38;1.4219553470611572;-6.729035225687772e-41;1.1081725358963013;0.8814579844474792;0.017410842701792717;1.051160454750061;0.8319891095161438;1.4491243362426758;0.015567479655146599;0.2689298093318939;0.04104737937450409;0.03637460246682167;0.08780529350042343;0.08727023750543594;0.10199035704135895;0.2784478962421417;0.10505346953868866
40;1.4474812746047974;-6.729035225687772e-41;1.1922885179519653;0.9360973238945007;0.01432717964053154;1.1202852725982666;0.8607628345489502;1.471335768699646;0.019552161917090416;0.28268352150917053;0.04498131200671196;0.03236192837357521;0.04153141379356384;0.050270844250917435;0.07306800037622452;0.21806113421916962;0.06227657198905945
40;1.4028823375701904;-6.729035225687772e-41;1.1405905485153198;0.9007840156555176;0.021558091044425964;1.072182536125183;0.8157382011413574;1.4252082109451294;0.017267625778913498;0.27328240871429443;0.0403175987303257;0.03632873669266701;0.08235279470682144;0.08372581750154495;0.10904349386692047;0.28398990631103516;0.10324353724718094
37;1.473931908607483;-6.729035225687772e-41;1.1462026834487915;0.9035624861717224;0.015022119507193565;1.079119324684143;0.8909314870834351;1.505199670791626;0.022557109594345093;0.2918704152107239;0.0483233667910099;0.03506512567400932;0.04786223918199539;0.053027838468551636;0.06917089223861694;0.2055552750825882;0.06151152402162552
39;1.406085729598999;-6.729035225687772e-41;1.1221861839294434;0.8879810571670532;0.01704629510641098;1.0614982843399048;0.8155320286750793;1.4307081699371338;0.018110167235136032;0.26478585600852966;0.04229694604873657;0.036052241921424866;0.0854000449180603;0.08580964803695679;0.10719913244247437;0.2873491644859314;0.10707075893878937
41;1.437898874282837;-6.729035225687772e-41;1.2054483890533447;0.9445565342903137;0.014270905405282974;1.1325100660324097;0.8495890498161316;1.4594813585281372;0.018851596862077713;0.2812179923057556;0.04376576840877533;0.0315680131316185;0.04108262434601784;0.04909854009747505;0.07385005056858063;0.21737641096115112;0.06130364537239075
41;1.3888075351715088;-6.729035225687772e-41;1.1535784006118774;0.9060851335525513;0.022060057148337364;1.0811314582824707;0.8083314299583435;1.408769965171814;0.018393024802207947;0.2734944522380829;0.03894660249352455;0.03465570881962776;0.07972535490989685;0.08247839659452438;0.11277490109205246;0.2824130356311798;0.10099806636571884
38;1.4649105072021484;-6.729035225687772e-41;1.1616463661193848;0.9164321422576904;0.014434839598834515;1.0954153537750244;0.8847177028656006;1.4933829307556152;0.021344726905226707;0.2840317189693451;0.04661097005009651;0.03381148725748062;0.04510467126965523;0.05251491814851761;0.07031310349702835;0.20942501723766327;0.059930216521024704
40;1.4028823375701904;-6.729035225687772e-41;1.1405905485153198;0.9007840156555176;0.021558091044425964;1.072182536125183;0.8157382011413574;1.4252082109451294;0.017267625778913498;0.27328240871429443;0.0403175987303257;0.03632873669266701;0.08235279470682144;0.08372581750154495;0.10904349386692047;0.28398990631103516;0.10324353724718094
42;1.4309748411178589;-6.729035225687772e-41;1.2189455032348633;0.9550487399101257;0.013664272613823414;1.146998405456543;0.8360127806663513;1.4505032300949097;0.01789713464677334;0.277364581823349;0.04634721949696541;0.02991427108645439;0.052581120282411575;0.04729309305548668;0.07446535676717758;0.21314924955368042;0.05948534235358238
42;1.3841063976287842;-6.729035225687772e-41;1.168191909790039;0.9131544232368469;0.02113623358309269;1.0972981452941895;0.7946541905403137;1.4022003412246704;0.021858561784029007;0.27099236845970154;0.040225353091955185;0.033025775104761124;0.08553124219179153;0.07966602593660355;0.11308398842811584;0.2769850492477417;0.09768079966306686
39;1.4545809030532837;-6.729035225687772e-41;1.1758203506469727;0.9282439351081848;0.013956621289253235;1.110318660736084;0.8706379532814026;1.4807971715927124;0.020538978278636932;0.27848440408706665;0.04624032601714134;0.032671187072992325;0.04314884543418884;0.05176648497581482;0.07253812998533249;0.21562233567237854;0.06293448060750961
41;1.3888075351715088;-6.729035225687772e-41;1.1535784006118774;0.9060851335525513;0.022060057148337364;1.0811314582824707;0.8083314299583435;1.408769965171814;0.018393024802207947;0.2734944522380829;0.03894660249352455;0.03465570881962776;0.07972535490989685;0.08247839659452438;0.11277490109205246;0.2824130356311798;0.10099806636571884
43;1.4233715534210205;-6.729035225687772e-41;1.2310158014297485;0.9663552641868591;0.012917879037559032;1.1595702171325684;0.8303938508033752;1.4409589767456055;0.017498310655355453;0.2730374336242676;0.0462169423699379;0.028490526601672173;0.05286441370844841;0.04572759196162224;0.07443507760763168;0.2129742056131363;0.05777977406978607
40;1.4474812746047974;-6.729035225687772e-41;1.1922885179519653;0.9360973238945007;0.01432717964053154;1.1202852725982666;0.8607628345489502;1.471335768699646;0.019552161917090416;0.28268352150917053;0.04498131200671196;0.03236192837357521;0.04153141379356384;0.050270844250917435;0.07306800037622452;0.21806113421916962;0.06227657198905945
43;1.3775527477264404;-6.729035225687772e-41;1.1797289848327637;0.9222348928451538;0.02005741372704506;1.1093287467956543;0.7909664511680603;1.3939470052719116;0.017347777262330055;0.2647218108177185;0.04042057693004608;0.031105054542422295;0.08380621671676636;0.076409712433815;0.1135045513510704;0.27610573172569275;0.0948476567864418
42;1.3841063976287842;-6.729035225687772e-41;1.168191909790039;0.9131544232368469;0.02113623358309269;1.0972981452941895;0.7946541905403137;1.4022003412246704;0.021858561784029007;0.27099236845970154;0.040225353091955185;0.033025775104761124;0.08553124219179153;0.07966602593660355;0.11308398842811584;0.2769850492477417;0.09768079966306686
44;1.4135651588439941;-6.729035225687772e-41;1.2400038242340088;0.9739229679107666;0.012250254862010479;1.1687289476394653;0.8211683034896851;1.4292505979537964;0.01764397695660591;0.2692832946777344;0.046024709939956665;0.027530651539564133;0.05211668834090233;0.04438702017068863;0.07383803278207779;0.2172468602657318;0.05626140162348747
41;1.437898874282837;-6.729035225687772e-41;1.2054483890533447;0.9445565342903137;0.014270905405282974;1.1325100660324097;0.8495890498161316;1.4594813585281372;0.018851596862077713;0.2812179923057556;0.04376576840877533;0.0315680131316185;0.04108262434601784;0.04909854009747505;0.07385005056858063;0.21737641096115112;0.06130364537239075
44;1.3732768297195435;-6.729035225687772e-41;1.190348505973816;0.9364147186279297;0.018732693046331406;1.1210658550262451;0.7787967920303345;1.388128399848938;0.01689973473548889;0.2631511092185974;0.0421733483672142;0.029388677328824997;0.08375852555036545;0.07403145730495453;0.11114703863859177;0.27508682012557983;0.09191879630088806
43;1.3775527477264404;-6.729035225687772e-41;1.1797289848327637;0.9222348928451538;0.02005741372704506;1.1093287467956543;0.7909664511680603;1.3939470052719116;0.017347777262330055;0.2647218108177185;0.04042057693004608;0.031105054542422295;0.08380621671676636;0.076409712433815;0.1135045513510704;0.27610573172569275;0.0948476567864418
45;1.4080811738967896;-6.729035225687772e-41;1.2513513565063477;0.9821703433990479;0.011488071642816067;1.1766842603683472;0.8108639717102051;1.422234296798706;0.01704038865864277;0.2645006775856018;0.044837359338998795;0.025916321203112602;0.05028976872563362;0.04261726886034012;0.07219886779785156;0.21647553145885468;0.054321952164173126
42;1.4309748411178589;-6.729035225687772e-41;1.2189455032348633;0.9550487399101257;0.013664272613823414;1.146998405456543;0.8360127806663513;1.4505032300949097;0.01789713464677334;0.277364581823349;0.04634721949696541;0.02991427108645439;0.052581120282411575;0.04729309305548668;0.07446535676717758;0.21314924955368042;0.05948534235358238
45;1.3621606826782227;-6.729035225687772e-41;1.2053775787353516;0.9430700540542603;0.0182336512953043;1.1272331476211548;0.7748177647590637;1.3750771284103394;0.017972122877836227;0.2639884650707245;0.04131932929158211;0.02818816341459751;0.08064937591552734;0.07070819288492203;0.11080632358789444;0.27648237347602844;0.08893243968486786
44;1.3732768297195435;-6.729035225687772e-41;1.190348505973816;0.9364147186279297;0.018732693046331406;1.1210658550262451;0.7787967920303345;1.388128399848938;0.01689973473548889;0.2631511092185974;0.0421733483672142;0.029388677328824997;0.08375852555036545;0.07403145730495453;0.11114703863859177;0.27508682012557983;0.09191879630088806
46;1.4053102731704712;-6.729035225687772e-41;1.264014482498169;0.9873347878456116;0.012437744066119194;1.1853141784667969;0.8045100569725037;1.4169522523880005;0.016301700845360756;0.26026150584220886;0.04283429682254791;0.02455069310963154;0.04856688156723976;0.041069816797971725;0.07440207898616791;0.21462590992450714;0.053642306476831436
43;1.4233715534210205;-6.729035225687772e-41;1.2310158014297485;0.9663552641868591;0.012917879037559032;1.1595702171325684;0.8303938508033752;1.4409589767456055;0.017498310655355453;0.2730374336242676;0.0462169423699379;0.028490526601672173;0.05286441370844841;0.04572759196162224;0.07443507760763168;0.2129742056131363;0.05777977406978607
46;1.360368251800537;-6.729035225687772e-41;1.2167643308639526;0.9481696486473083;0.017439022660255432;1.1356334686279297;0.7658722996711731;1.3719111680984497;0.017442774027585983;0.259915828704834;0.03915160149335861;0.026926344260573387;0.07794177532196045;0.06742102652788162;0.11384998261928558;0.27185505628585815;0.08685434609651566
45;1.3621606826782227;-6.729035225687772e-41;1.2053775787353516;0.9430700540542603;0.0182336512953043;1.1272331476211548;0.7748177647590637;1.3750771284103394;0.017972122877836227;0.2639884650707245;0.04131932929158211;0.02818816341459751;0.08064937591552734;0.07070819288492203;0.11080632358789444;0.27648237347602844;0.08893243968486786
47;1.3984191417694092;-6.729035225687772e-41;1.2711106538772583;0.9906264543533325;0.014437533915042877;1.192226767539978;0.8013015985488892;1.4086251258850098;0.015692055225372314;0.25741899013519287;0.04084484279155731;0.02364717423915863;0.047229573130607605;0.04179409518837929;0.07384184002876282;0.2153017669916153;0.05339643359184265
44;1.4135651588439941;-6.729035225687772e-41;1.2400038242340088;0.9739229679107666;0.012250254862010479;1.1687289476394653;0.8211683034896851;1.4292505979537964;0.01764397695660591;0.2692832946777344;0.046024709939956665;0.027530651539564133;0.05211668834090233;0.04438702017068863;0.07383803278207779;0.2172468602657318;0.05626140162348747
47;1.3589946031570435;-6.729035225687772e-41;1.2255631685256958;0.9531404376029968;0.017920756712555885;1.1447668075561523;0.7672632932662964;1.3695778846740723;0.017209447920322418;0.2555828392505646;0.03710312023758888;0.02576482854783535;0.0763397216796875;0.0681379958987236;0.10987888276576996;0.26893487572669983;0.08628464490175247
46;1.360368251800537;-6.729035225687772e-41;1.2167643308639526;0.9481696486473083;0.017439022660255432;1.1356334686279297;0.7658722996711731;1.3719111680984497;0.017442774027585983;0.259915828704834;0.03915160149335861;0.026926344260573387;0.07794177532196045;0.06742102652788162;0.11384998261928558;0.27185505628585815;0.08685434609651566
48;1.3962496519088745;-6.729035225687772e-41;1.281880497932434;0.99034583568573;0.01489221304655075;1.1941200494766235;0.7932393550872803;1.405438780784607;0.015077616088092327;0.2603347897529602;0.040551137179136276;0.02264251373708248;0.04571834206581116;0.04455099627375603;0.07249147444963455;0.21401603519916534;0.05217740312218666
45;1.4080811738967896;-6.729035225687772e-41;1.2513513565063477;0.9821703433990479;0.011488071642816067;1.1766842603683472;0.8108639717102051;1.422234296798706;0.01704038865864277;0.2645006775856018;0.044837359338998795;0.025916321203112602;0.05028976872563362;0.04261726886034012;0.07219886779785156;0.21647553145885468;0.054321952164173126
48;1.3576273918151855;-6.729035225687772e-41;1.235708475112915;0.9539906978607178;0.01748676225543022;1.1489087343215942;0.7575169801712036;1.3666859865188599;0.01687786728143692;0.2623489797115326;0.037084657698869705;0.024240007624030113;0.07414466887712479;0.06916782259941101;0.10689765214920044;0.27086499333381653;0.08433866500854492
47;1.3589946031570435;-6.729035225687772e-41;1.2255631685256958;0.9531404376029968;0.017920756712555885;1.1447668075561523;0.7672632932662964;1.3695778846740723;0.017209447920322418;0.2555828392505646;0.03710312023758888;0.02576482854783535;0.0763397216796875;0.0681379958987236;0.10987888276576996;0.26893487572669983;0.08628464490175247
49;1.3904647827148438;-6.729035225687772e-41;1.2873742580413818;0.992364227771759;0.01416756957769394;1.1952966451644897;0.7906644940376282;1.398590087890625;0.014507019892334938;0.2622838318347931;0.03936110809445381;0.02225358597934246;0.0443926602602005;0.045195791870355606;0.07232437282800674;0.21707110106945038;0.05076201632618904
46;1.4053102731704712;-6.729035225687772e-41;1.264014482498169;0.9873347878456116;0.012437744066119194;1.1853141784667969;0.8045100569725037;1.4169522523880005;0.016301700845360756;0.26026150584220886;0.04283429682254791;0.02455069310963154;0.04856688156723976;0.041069816797971725;0.07440207898616791;0.21462590992450714;0.053642306476831436
49;1.353402853012085;-6.729035225687772e-41;1.2415562868118286;0.9545729160308838;0.01656920649111271;1.1489777565002441;0.7534269094467163;1.3615069389343262;0.016431597992777824;0.2612018585205078;0.03604042902588844;0.024044495075941086;0.07158151268959045;0.06812044978141785;0.10473158210515976;0.2687585651874542;0.08118857443332672
48;1.3576273918151855;-6.729035225687772e-41;1.235708475112915;0.9539906978607178;0.01748676225543022;1.1489087343215942;0.7575169801712036;1.3666859865188599;0.01687786728143692;0.2623489797115326;0.037084657698869705;0.024240007624030113;0.07414466887712479;0.06916782259941101;0.10689765214920044;0.27086499333381653;0.08433866500854492
50;1.3815971612930298;-6.729035225687772e-41;1.2880562543869019;0.9933258295059204;0.012932679615914822;1.1951435804367065;0.7857272028923035;1.3888049125671387;0.01420195959508419;0.26130998134613037;0.037522800266742706;0.022005919367074966;0.04335789754986763;0.0446564219892025;0.07229094207286835;0.21799510717391968;0.050636809319257736
47;1.3984191417694092;-6.729035225687772e-41;1.2711106538772583;0.9906264543533325;0.014437533915042877;1.192226767539978;0.8013015985488892;1.4086251258850098;0.015692055225372314;0.25741899013519287;0.04084484279155731;0.02364717423915863;0.047229573130607605;0.04179409518837929;0.07384184002876282;0.2153017669916153;0.05339643359184265
50;1.3449931144714355;-6.729035225687772e-41;1.2418510913848877;0.9540167450904846;0.015584152191877365;1.147894263267517;0.7466416358947754;1.3524221181869507;0.015835754573345184;0.2591724991798401;0.03419668599963188;0.022312350571155548;0.06913124769926071;0.06595780700445175;0.10233347117900848;0.26947021484375;0.07970809191465378
49;1.353402853012085;-6.729035225687772e-41;1.2415562868118286;0.9545729160308838;0.01656920649111271;1.1489777565002441;0.7534269094467163;1.3615069389343262;0.016431597992777824;0.2612018585205078;0.03604042902588844;0.024044495075941086;0.07158151268959045;0.06812044978141785;0.10473158210515976;0.2687585651874542;0.08118857443332672
51;1.3721448183059692;-6.729035225687772e-41;1.2872755527496338;0.992281973361969;0.011641180142760277;1.1943795680999756;0.77980637550354;1.3784968852996826;0.013925801031291485;0.2581796944141388;0.03535575792193413;0.02177167683839798;0.042425498366355896;0.04372664541006088;0.07097350060939789;0.21747851371765137;0.049877557903528214
48;1.3962496519088745;-6.729035225687772e-41;1.281880497932434;0.99034583568573;0.01489221304655075;1.1941200494766235;0.7932393550872803;1.405438780784607;0.015077616088092327;0.2603347897529602;0.040551137179136276;0.02264251373708248;0.04571834206581116;0.04455099627375603;0.07249147444963455;0.21401603519916534;0.05217740312218666
51;1.3364031314849854;-6.729035225687772e-41;1.2406220436096191;0.9545304179191589;0.01451052911579609;1.146955132484436;0.7381787896156311;1.3431049585342407;0.015889327973127365;0.2557923197746277;0.03175300732254982;0.02146598882973194;0.06673097610473633;0.06318964809179306;0.09996256977319717;0.26740577816963196;0.07667940109968185
50;1.3449931144714355;-6.729035225687772e-41;1.2418510913848877;0.9540167450904846;0.015584152191877365;1.147894263267517;0.7466416358947754;1.3524221181869507;0.015835754573345184;0.2591724991798401;0.03419668599963188;0.022312350571155548;0.06913124769926071;0.06595780700445175;0.10233347117900848;0.26947021484375;0.07970809191465378
52;1.3658279180526733;-6.729035225687772e-41;1.2888150215148926;0.9889915585517883;0.010674656368792057;1.1931253671646118;0.7724332213401794;1.3714021444320679;0.013563760556280613;0.253953218460083;0.03347545862197876;0.021315274760127068;0.042239412665367126;0.04257124289870262;0.06925360858440399;0.21652851998806;0.0486377477645874
49;1.3904647827148438;-6.729035225687772e-41;1.2873742580413818;0.992364227771759;0.01416756957769394;1.1952966451644897;0.7906644940376282;1.398590087890625;0.014507019892334938;0.2622838318347931;0.03936110809445381;0.02225358597934246;0.0443926602602005;0.045195791870355606;0.07232437282800674;0.21707110106945038;0.05076201632618904
52;1.3300914764404297;-6.729035225687772e-41;1.242040991783142;0.9514360427856445;0.013372436165809631;1.1478588581085205;0.7319455742835999;1.3360371589660645;0.015712501481175423;0.2542310655117035;0.030472151935100555;0.02118799090385437;0.06440981477499008;0.06061765179038048;0.09646724164485931;0.2662433087825775;0.0744132474064827
51;1.3364031314849854;-6.729035225687772e-41;1.2406220436096191;0.9545304179191589;0.01451052911579609;1.146955132484436;0.7381787896156311;1.3431049585342407;0.015889327973127365;0.2557923197746277;0.03175300732254982;0.02146598882973194;0.06673097610473633;0.06318964809179306;0.09996256977319717;0.26740577816963196;0.07667940109968185
53;1.3626527786254883;-6.729035225687772e-41;1.2920278310775757;0.9954861998558044;0.010905572213232517;1.196653127670288;0.7641186714172363;1.3676472902297974;0.013960052281618118;0.24973484873771667;0.032762348651885986;0.020308824256062508;0.041502147912979126;0.040950674563646317;0.06691422313451767;0.21173638105392456;0.04691588506102562
50;1.3815971612930298;-6.729035225687772e-41;1.2880562543869019;0.9933258295059204;0.012932679615914822;1.1951435804367065;0.7857272028923035;1.3888049125671387;0.01420195959508419;0.26130998134613037;0.037522800266742706;0.022005919367074966;0.04335789754986763;0.0446564219892025;0.07229094207286835;0.21799510717391968;0.050636809319257736
53;1.330974817276001;-6.729035225687772e-41;1.2483803033828735;0.9620856046676636;0.012496358714997768;1.1551305055618286;0.7317750453948975;1.3363022804260254;0.016398299485445023;0.2515954375267029;0.03033369965851307;0.02003924548625946;0.06196689233183861;0.057674672454595566;0.09288232773542404;0.2538590729236603;0.07358213514089584
52;1.3300914764404297;-6.729035225687772e-41;1.242040991783142;0.9514360427856445;0.013372436165809631;1.1478588581085205;0.7319455742835999;1.3360371589660645;0.015712501481175423;0.2542310655117035;0.030472151935100555;0.02118799090385437;0.06440981477499008;0.06061765179038048;0.09646724164485931;0.2662433087825775;0.0744132474064827
54;1.3592190742492676;-6.729035225687772e-41;1.295003890991211;0.9995272159576416;0.011317085474729538;1.2003328800201416;0.7656181454658508;1.3635858297348022;0.014416533522307873;0.24785391986370087;0.03387358784675598;0.019622275605797768;0.040625449270009995;0.03964340686798096;0.06493200361728668;0.21225668489933014;0.049437016248703
51;1.3721448183059692;-6.729035225687772e-41;1.2872755527496338;0.992281973361969;0.011641180142760277;1.1943795680999756;0.77980637550354;1.3784968852996826;0.013925801031291485;0.2581796944141388;0.03535575792193413;0.02177167683839798;0.042425498366355896;0.04372664541006088;0.07097350060939789;0.21747851371765137;0.049877557903528214
54;1.327267050743103;-6.729035225687772e-41;1.250442624092102;0.966823160648346;0.012476690113544464;1.1587207317352295;0.7302294373512268;1.3320491313934326;0.016500644385814667;0.24659714102745056;0.031044650822877884;0.018565621227025986;0.06024061143398285;0.055183880031108856;0.09013544023036957;0.25162357091903687;0.07444319874048233
53;1.330974817276001;-6.729035225687772e-41;1.2483803033828735;0.9620856046676636;0.012496358714997768;1.1551305055618286;0.7317750453948975;1.3363022804260254;0.016398299485445023;0.2515954375267029;0.03033369965851307;0.02003924548625946;0.06196689233183861;0.057674672454595566;0.09288232773542404;0.2538590729236603;0.07358213514089584
55;1.3553019762039185;-6.729035225687772e-41;1.2964915037155151;1.0014333724975586;0.01245262660086155;1.2025582790374756;0.7629841566085815;1.359182357788086;0.014242907054722309;0.245510071516037;0.03309990465641022;0.01993298903107643;0.03977951407432556;0.03834663704037666;0.06438171863555908;0.2109466791152954;0.05274835601449013
52;1.3658279180526733;-6.729035225687772e-41;1.2888150215148926;0.9889915585517883;0.010674656368792057;1.1931253671646118;0.7724332213401794;1.3714021444320679;0.013563760556280613;0.253953218460083;0.03347545862197876;0.021315274760127068;0.042239412665367126;0.04257124289870262;0.06925360858440399;0.21652851998806;0.0486377477645874
55;1.3240406513214111;-6.729035225687772e-41;1.2554906606674194;0.9698474407196045;0.013612911105155945;1.162005066871643;0.7313047051429749;1.3282365798950195;0.01712864264845848;0.2446001172065735;0.03071005269885063;0.0192165095359087;0.06033767759799957;0.05380658432841301;0.09012337774038315;0.24837011098861694;0.07722871005535126
54;1.327267050743103;-6.729035225687772e-41;1.250442624092102;0.966823160648346;0.012476690113544464;1.1587207317352295;0.7302294373512268;1.3320491313934326;0.016500644385814667;0.24659714102745056;0.031044650822877884;0.018565621227025986;0.06024061143398285;0.055183880031108856;0.09013544023036957;0.25162357091903687;0.07444319874048233
56;1.3545866012573242;-6.729035225687772e-41;1.3008912801742554;0.9990821480751038;0.016598843038082123;1.208728551864624;0.7590171098709106;1.3578860759735107;0.013938233256340027;0.24206601083278656;0.03337569907307625;0.02042878232896328;0.03843905031681061;0.04403721168637276;0.06446819007396698;0.21006955206394196;0.05478551983833313
53;1.3626527786254883;-6.729035225687772e-41;1.2920278310775757;0.9954861998558044;0.010905572213232517;1.196653127670288;0.7641186714172363;1.3676472902297974;0.013960052281618118;0.24973484873771667;0.032762348651885986;0.020308824256062508;0.041502147912979126;0.040950674563646317;0.06691422313451767;0.21173638105392456;0.04691588506102562
56;1.325887680053711;-6.729035225687772e-41;1.2644296884536743;0.9754546284675598;0.016262879595160484;1.1709213256835938;0.7251791954040527;1.328837275505066;0.016983363777399063;0.24354179203510284;0.0338544100522995;0.019908765330910683;0.06053026765584946;0.058247435837984085;0.08948680758476257;0.24947592616081238;0.07812906056642532
55;1.3240406513214111;-6.729035225687772e-41;1.2554906606674194;0.9698474407196045;0.013612911105155945;1.162005066871643;0.7313047051429749;1.3282365798950195;0.01712864264845848;0.2446001172065735;0.03071005269885063;0.0192165095359087;0.06033767759799957;0.05380658432841301;0.09012337774038315;0.24837011098861694;0.07722871005535126
57;1.3511178493499756;-6.729035225687772e-41;1.3014646768569946;0.9966920018196106;0.01742183417081833;1.2102437019348145;0.7564176321029663;1.3540252447128296;0.01372347678989172;0.24029351770877838;0.03389472886919975;0.020583944395184517;0.0376279316842556;0.04478468745946884;0.06386736780405045;0.21028095483779907;0.05600331723690033
54;1.3592190742492676;-6.729035225687772e-41;1.295003890991211;0.9995272159576416;0.011317085474729538;1.2003328800201416;0.7656181454658508;1.3635858297348022;0.014416533522307873;0.24785391986370087;0.03387358784675598;0.019622275605797768;0.040625449270009995;0.03964340686798096;0.06493200361728668;0.21225668489933014;0.049437016248703
57;1.3227331638336182;-6.729035225687772e-41;1.2653210163116455;0.9725440740585327;0.016683213412761688;1.1719738245010376;0.7214745879173279;1.325263500213623;0.016668057069182396;0.24141134321689606;0.034644871950149536;0.019804470241069794;0.05909315124154091;0.05834756791591644;0.08812296390533447;0.2499437779188156;0.07840542495250702
56;1.325887680053711;-6.729035225687772e-41;1.2644296884536743;0.9754546284675598;0.016262879595160484;1.1709213256835938;0.7251791954040527;1.328837275505066;0.016983363777399063;0.24354179203510284;0.0338544100522995;0.019908765330910683;0.06053026765584946;0.058247435837984085;0.08948680758476257;0.24947592616081238;0.07812906056642532
58;1.3484432697296143;-6.729035225687772e-41;1.3026939630508423;0.9948157668113708;0.016688305884599686;1.2088773250579834;0.7541508674621582;1.3510044813156128;0.014644131995737553;0.24006426334381104;0.03288454934954643;0.020142674446105957;0.03656179457902908;0.04407430812716484;0.0625123381614685;0.2112894356250763;0.05558424070477486
55;1.3553019762039185;-6.729035225687772e-41;1.2964915037155151;1.0014333724975586;0.01245262660086155;1.2025582790374756;0.7629841566085815;1.359182357788086;0.014242907054722309;0.245510071516037;0.03309990465641022;0.01993298903107643;0.03977951407432556;0.03834663704037666;0.06438171863555908;0.2109466791152954;0.05274835601449013
58;1.3168740272521973;-6.729035225687772e-41;1.265742540359497;0.9719224572181702;0.015719326213002205;1.1697263717651367;0.722346305847168;1.3189895153045654;0.021236898377537727;0.24237827956676483;0.03356874734163284;0.019680527970194817;0.05736067146062851;0.05732515826821327;0.08782052993774414;0.25330567359924316;0.07750231772661209
57;1.3227331638336182;-6.729035225687772e-41;1.2653210163116455;0.9725440740585327;0.016683213412761688;1.1719738245010376;0.7214745879173279;1.325263500213623;0.016668057069182396;0.24141134321689606;0.034644871950149536;0.019804470241069794;0.05909315124154091;0.05834756791591644;0.08812296390533447;0.2499437779188156;0.07840542495250702
59;1.344719648361206;-6.729035225687772e-41;1.3022730350494385;0.9916486740112305;0.016031542792916298;1.2086817026138306;0.7509772181510925;1.3471171855926514;0.015331588685512543;0.23897631466388702;0.031583886593580246;0.019763825461268425;0.035712916404008865;0.04366998001933098;0.06347274035215378;0.21282193064689636;0.05527138710021973
56;1.3545866012573242;-6.729035225687772e-41;1.3008912801742554;0.9990821480751038;0.016598843038082123;1.208728551864624;0.7590171098709106;1.3578860759735107;0.013938233256340027;0.24206601083278656;0.03337569907307625;0.02042878232896328;0.03843905031681061;0.04403721168637276;0.06446819007396698;0.21006955206394196;0.05478551983833313
59;1.313775658607483;-6.729035225687772e-41;1.2660716772079468;0.9704080820083618;0.01537136361002922;1.1699659824371338;0.7187707424163818;1.3155101537704468;0.022543152794241905;0.24058470129966736;0.0318925715982914;0.01927543804049492;0.05667963996529579;0.05758130922913551;0.08531712740659714;0.2544373571872711;0.07736143469810486
58;1.3168740272521973;-6.729035225687772e-41;1.265742540359497;0.9719224572181702;0.015719326213002205;1.1697263717651367;0.722346305847168;1.3189895153045654;0.021236898377537727;0.24237827956676483;0.03356874734163284;0.019680527970194817;0.05736067146062851;0.05732515826821327;0.08782052993774414;0.25330567359924316;0.07750231772661209
60;1.3427973985671997;-6.729035225687772e-41;1.30339777469635;0.9908269047737122;0.015943534672260284;1.2066619396209717;0.7480453252792358;1.3449093103408813;0.015258452855050564;0.236052006483078;0.03206776827573776;0.021063392981886864;0.03481508046388626;0.04524955898523331;0.06301136314868927;0.21142469346523285;0.0542876310646534
57;1.3511178493499756;-6.729035225687772e-41;1.3014646768569946;0.9966920018196106;0.01742183417081833;1.2102437019348145;0.7564176321029663;1.3540252447128296;0.01372347678989172;0.24029351770877838;0.03389472886919975;0.020583944395184517;0.0376279316842556;0.04478468745946884;0.06386736780405045;0.21028095483779907;0.05600331723690033
60;1.311075210571289;-6.729035225687772e-41;1.2663832902908325;0.9703028202056885;0.016093676909804344;1.1692434549331665;0.7146320939064026;1.3126635551452637;0.022722028195858;0.23849396407604218;0.03229115158319473;0.0205500740557909;0.05529572069644928;0.05807378515601158;0.08554647117853165;0.25488024950027466;0.07636027038097382
59;1.313775658607483;-6.729035225687772e-41;1.2660716772079468;0.9704080820083618;0.01537136361002922;1.1699659824371338;0.7187707424163818;1.3155101537704468;0.022543152794241905;0.24058470129966736;0.0318925715982914;0.01927543804049492;0.05667963996529579;0.05758130922913551;0.08531712740659714;0.2544373571872711;0.07736143469810486
61;1.3457832336425781;-6.729035225687772e-41;1.3092577457427979;0.9915263056755066;0.014768000692129135;1.2101809978485107;0.7480480670928955;1.3475620746612549;0.014810828492045403;0.2346227765083313;0.038861874490976334;0.024378405883908272;0.04550933092832565;0.04467562586069107;0.061372943222522736;0.20733708143234253;0.05270814523100853
58;1.3484432697296143;-6.729035225687772e-41;1.3026939630508423;0.9948157668113708;0.016688305884599686;1.2088773250579834;0.7541508674621582;1.3510044813156128;0.014644131995737553;0.24006426334381104;0.03288454934954643;0.020142674446105957;0.03656179457902908;0.04407430812716484;0.0625123381614685;0.2112894356250763;0.05558424070477486
61;1.3131650686264038;-6.729035225687772e-41;1.2716177701950073;0.9687695503234863;0.01567746140062809;1.1734747886657715;0.7147483229637146;1.3146923780441284;0.02251981757581234;0.23810452222824097;0.037896353751420975;0.025368938222527504;0.0630384162068367;0.05707903578877449;0.08376731723546982;0.2517966032028198;0.07428470253944397
60;1.311075210571289;-6.729035225687772e-41;1.2663832902908325;0.9703028202056885;0.016093676909804344;1.1692434549331665;0.7146320939064026;1.3126635551452637;0.022722028195858;0.23849396407604218;0.03229115158319473;0.0205500740557909;0.05529572069644928;0.05807378515601158;0.08554647117853165;0.25488024950027466;0.07636027038097382
62;1.3428165912628174;-6.729035225687772e-41;1.3084449768066406;0.9913336634635925;0.01631472446024418;1.2095590829849243;0.7488976120948792;1.344415545463562;0.014220928773283958;0.23386463522911072;0.041834507137537;0.02522565983235836;0.051896944642066956;0.0440104603767395;0.062164533883333206;0.20522645115852356;0.052842333912849426
59;1.344719648361206;-6.729035225687772e-41;1.3022730350494385;0.9916486740112305;0.016031542792916298;1.2086817026138306;0.7509772181510925;1.3471171855926514;0.015331588685512543;0.23897631466388702;0.031583886593580246;0.019763825461268425;0.035712916404008865;0.04366998001933098;0.06347274035215378;0.21282193064689636;0.05527138710021973
62;1.311253309249878;-6.729035225687772e-41;1.2717028856277466;0.9696115851402283;0.01698046736419201;1.1742448806762695;0.7133343815803528;1.3125699758529663;0.02196020819246769;0.23701752722263336;0.04073591157793999;0.02683597058057785;0.06895503401756287;0.055496945977211;0.08397998660802841;0.24784649908542633;0.07388518750667572
61;1.3131650686264038;-6.729035225687772e-41;1.2716177701950073;0.9687695503234863;0.01567746140062809;1.1734747886657715;0.7147483229637146;1.3146923780441284;0.02251981757581234;0.23810452222824097;0.037896353751420975;0.025368938222527504;0.0630384162068367;0.05707903578877449;0.08376731723546982;0.2517966032028198;0.07428470253944397
63;1.3410178422927856;-6.729035225687772e-41;1.308663010597229;0.9871442914009094;0.017991920933127403;1.2072292566299438;0.7456568479537964;1.3424077033996582;0.0159524604678154;0.2321222722530365;0.04200665280222893;0.026441354304552078;0.053160496056079865;0.04270664229989052;0.06404212862253189;0.20275649428367615;0.05265317112207413
60;1.3427973985671997;-6.729035225687772e-41;1.30339777469635;0.9908269047737122;0.015943534672260284;1.2066619396209717;0.7480453252792358;1.3449093103408813;0.015258452855050564;0.236052006483078;0.03206776827573776;0.021063392981886864;0.03481508046388626;0.04524955898523331;0.06301136314868927;0.21142469346523285;0.0542876310646534
63;1.3089114427566528;-6.729035225687772e-41;1.2714899778366089;0.9679438471794128;0.018041444942355156;1.1728578805923462;0.7122148275375366;1.3100446462631226;0.023085208609700203;0.2362489402294159;0.04098338633775711;0.027124498039484024;0.06889743357896805;0.054601412266492844;0.08493578433990479;0.2444876879453659;0.07289709895849228
62;1.311253309249878;-6.729035225687772e-41;1.2717028856277466;0.9696115851402283;0.01698046736419201;1.1742448806762695;0.7133343815803528;1.3125699758529663;0.02196020819246769;0.23701752722263336;0.04073591157793999;0.02683597058057785;0.06895503401756287;0.055496945977211;0.08397998660802841;0.24784649908542633;0.07388518750667572
64;1.3393840789794922;-6.729035225687772e-41;1.3093183040618896;0.9895957708358765;0.017462465912103653;1.2083662748336792;0.743170440196991;1.3406785726547241;0.02038157358765602;0.23133420944213867;0.041447002440690994;0.0270547978579998;0.052531614899635315;0.0412290059030056;0.0640551745891571;0.2020818293094635;0.051369789987802505
61;1.3457832336425781;-6.729035225687772e-41;1.3092577457427979;0.9915263056755066;0.014768000692129135;1.2101809978485107;0.7480480670928955;1.3475620746612549;0.014810828492045403;0.2346227765083313;0.038861874490976334;0.024378405883908272;0.04550933092832565;0.04467562586069107;0.061372943222522736;0.20733708143234253;0.05270814523100853
64;1.307367205619812;-6.729035225687772e-41;1.2733793258666992;0.9684565663337708;0.017400773242115974;1.1743940114974976;0.709912121295929;1.3082410097122192;0.024199973791837692;0.23601698875427246;0.04041941463947296;0.027602698653936386;0.0674644336104393;0.05263128876686096;0.08340531587600708;0.2421925812959671;0.07091038674116135
63;1.3089114427566528;-6.729035225687772e-41;1.2714899778366089;0.9679438471794128;0.018041444942355156;1.1728578805923462;0.7122148275375366;1.3100446462631226;0.023085208609700203;0.2362489402294159;0.04098338633775711;0.027124498039484024;0.06889743357896805;0.054601412266492844;0.08493578433990479;0.2444876879453659;0.07289709895849228
65;1.3397644758224487;-6.729035225687772e-41;1.3117878437042236;0.9903056025505066;0.016115937381982803;1.2083598375320435;0.7421656250953674;1.3409392833709717;0.02209216170012951;0.2304285615682602;0.03990011289715767;0.028210440650582314;0.051609717309474945;0.039932314306497574;0.0636160671710968;0.20060783624649048;0.04995754733681679
62;1.3428165912628174;-6.729035225687772e-41;1.3084449768066406;0.9913336634635925;0.01631472446024418;1.2095590829849243;0.7488976120948792;1.344415545463562;0.014220928773283958;0.23386463522911072;0.041834507137537;0.02522565983235836;0.051896944642066956;0.0440104603767395;0.062164533883333206;0.20522645115852356;0.052842333912849426
65;1.3061853647232056;-6.729035225687772e-41;1.2756587266921997;0.9698367118835449;0.016765590757131577;1.1743690967559814;0.7146191000938416;1.3068817853927612;0.023740828037261963;0.23770731687545776;0.03988182544708252;0.028642719611525536;0.06574350595474243;0.052045777440071106;0.08276120573282242;0.24135902523994446;0.06908240914344788
64;1.307367205619812;-6.729035225687772e-41;1.2733793258666992;0.9684565663337708;0.017400773242115974;1.1743940114974976;0.709912121295929;1.3082410097122192;0.024199973791837692;0.23601698875427246;0.04041941463947296;0.027602698653936386;0.0674644336104393;0.05263128876686096;0.08340531587600708;0.2421925812959671;0.07091038674116135
66;1.3382092714309692;-6.729035225687772e-41;1.311811089515686;0.9890932440757751;0.014689630828797817;1.208724021911621;0.7415367364883423;1.3392250537872314;0.022355495020747185;0.23130927979946136;0.03901969641447067;0.029015906155109406;0.050424546003341675;0.03862098604440689;0.06338265538215637;0.2008279263973236;0.04839545860886574
63;1.3410178422927856;-6.729035225687772e-41;1.308663010597229;0.9871442914009094;0.017991920933127403;1.2072292566299438;0.7456568479537964;1.3424077033996582;0.0159524604678154;0.2321222722530365;0.04200665280222893;0.026441354304552078;0.053160496056079865;0.04270664229989052;0.06404212862253189;0.20275649428367615;0.05265317112207413
66;1.3059509992599487;-6.729035225687772e-41;1.2771879434585571;0.9690654277801514;0.015598840080201626;1.1760276556015015;0.7135745286941528;1.3066143989562988;0.02376752905547619;0.2372928112745285;0.03833172842860222;0.029941780492663383;0.06381599605083466;0.04976814240217209;0.08030575513839722;0.24021008610725403;0.06658197194337845
65;1.3061853647232056;-6.729035225687772e-41;1.2756587266921997;0.9698367118835449;0.016765590757131577;1.1743690967559814;0.7146191000938416;1.3068817853927612;0.023740828037261963;0.23770731687545776;0.03988182544708252;0.028642719611525536;0.06574350595474243;0.052045777440071106;0.08276120573282242;0.24135902523994446;0.06908240914344788
67;1.3422110080718994;-6.729035225687772e-41;1.3165165185928345;0.9830003976821899;0.013736740685999393;1.2124210596084595;0.7393504977226257;1.3431320190429688;0.026284486055374146;0.23289790749549866;0.03805207088589668;0.045916277915239334;0.053904782980680466;0.036932021379470825;0.06254599243402481;0.1964172124862671;0.04652749001979828
64;1.3393840789794922;-6.729035225687772e-41;1.3093183040618896;0.9895957708358765;0.017462465912103653;1.2083662748336792;0.743170440196991;1.3406785726547241;0.02038157358765602;0.23133420944213867;0.041447002440690994;0.0270547978579998;0.052531614899635315;0.0412290059030056;0.0640551745891571;0.2020818293094635;0.051369789987802505
66;1.3059509992599487;-6.729035225687772e-41;1.2771879434585571;0.9690654277801514;0.015598840080201626;1.1760276556015015;0.7135745286941528;1.3066143989562988;0.02376752905547619;0.2372928112745285;0.03833172842860222;0.029941780492663383;0.06381599605083466;0.04976814240217209;0.08030575513839722;0.24021008610725403;0.06658197194337845
67;1.319219708442688;-6.729035225687772e-41;1.2911438941955566;0.9656664133071899;0.014085894450545311;1.1899032592773438;0.7172733545303345;1.3197427988052368;0.02666722983121872;0.2362089604139328;0.037143681198358536;0.04537637159228325;0.06847768276929855;0.04852962866425514;0.07722284644842148;0.23892353475093842;0.0649392381310463
68;1.3461390733718872;-6.729035225687772e-41;1.3216031789779663;0.9868711233139038;0.014733634889125824;1.2187038660049438;0.7364768981933594;1.3468962907791138;0.02866797149181366;0.23371486365795135;0.03967645391821861;0.051890645176172256;0.05702756717801094;0.03541546314954758;0.06184891611337662;0.19542869925498962;0.04539965093135834
65;1.3397644758224487;-6.729035225687772e-41;1.3117878437042236;0.9903056025505066;0.016115937381982803;1.2083598375320435;0.7421656250953674;1.3409392833709717;0.02209216170012951;0.2304285615682602;0.03990011289715767;0.028210440650582314;0.051609717309474945;0.039932314306497574;0.0636160671710968;0.20060783624649048;0.04995754733681679
67;1.319219708442688;-6.729035225687772e-41;1.2911438941955566;0.9656664133071899;0.014085894450545311;1.1899032592773438;0.7172733545303345;1.3197427988052368;0.02666722983121872;0.2362089604139328;0.037143681198358536;0.04537637159228325;0.06847768276929855;0.04852962866425514;0.07722284644842148;0.23892353475093842;0.0649392381310463
68;1.3233978748321533;-6.729035225687772e-41;1.2964825630187988;0.9690372943878174;0.013471693731844425;1.1959792375564575;0.7149358987808228;1.3238998651504517;0.028294779360294342;0.23669172823429108;0.03884390741586685;0.05209026858210564;0.07244028896093369;0.04657576233148575;0.07434738427400589;0.2341814488172531;0.06244262680411339
69;1.3491050004959106;-6.729035225687772e-41;1.325896143913269;0.9923427700996399;0.014757788740098476;1.2242931127548218;0.7374154925346375;1.3497360944747925;0.028956042602658272;0.2337474375963211;0.04289200156927109;0.0543859489262104;0.05735582113265991;0.034256577491760254;0.06207791343331337;0.19492283463478088;0.04430336132645607
66;1.3382092714309692;-6.729035225687772e-41;1.311811089515686;0.9890932440757751;0.014689630828797817;1.208724021911621;0.7415367364883423;1.3392250537872314;0.022355495020747185;0.23130927979946136;0.03901969641447067;0.029015906155109406;0.050424546003341675;0.03862098604440689;0.06338265538215637;0.2008279263973236;0.04839545860886574
68;1.3233978748321533;-6.729035225687772e-41;1.2964825630187988;0.9690372943878174;0.013471693731844425;1.1959792375564575;0.7149358987808228;1.3238998651504517;0.028294779360294342;0.23669172823429108;0.03884390741586685;0.05209026858210564;0.07244028896093369;0.04657576233148575;0.07434738427400589;0.2341814488172531;0.06244262680411339
69;1.3268218040466309;-6.729035225687772e-41;1.3013159036636353;0.9725335240364075;0.013143655844032764;1.2020008563995361;0.7182955145835876;1.3272910118103027;0.028456974774599075;0.23789720237255096;0.042766597121953964;0.053783729672431946;0.07260417938232422;0.045823972672224045;0.07400210946798325;0.23337583243846893;0.060934893786907196
70;1.349944829940796;-6.729035225687772e-41;1.3274849653244019;0.9910004734992981;0.018195796757936478;1.2280374765396118;0.7380234599113464;1.3505173921585083;0.028316423296928406;0.23393014073371887;0.04440472647547722;0.054516229778528214;0.05645135045051575;0.032957665622234344;0.06176123395562172;0.19196519255638123;0.04426899924874306
67;1.3422110080718994;-6.729035225687772e-41;1.3165165185928345;0.9830003976821899;0.013736740685999393;1.2124210596084595;0.7393504977226257;1.3431320190429688;0.026284486055374146;0.23289790749549866;0.03805207088589668;0.045916277915239334;0.053904782980680466;0.036932021379470825;0.06254599243402481;0.1964172124862671;0.04652749001979828
69;1.3268218040466309;-6.729035225687772e-41;1.3013159036636353;0.9725335240364075;0.013143655844032764;1.2020008563995361;0.7182955145835876;1.3272910118103027;0.028456974774599075;0.23789720237255096;0.042766597121953964;0.053783729672431946;0.07260417938232422;0.045823972672224045;0.07400210946798325;0.23337583243846893;0.060934893786907196
70;1.328879475593567;-6.729035225687772e-41;1.3038991689682007;0.9748438596725464;0.016293155029416084;1.2067779302597046;0.7208280563354492;1.329305648803711;0.027130482718348503;0.23767028748989105;0.044662054628133774;0.05377358943223953;0.0712629109621048;0.04381773993372917;0.07342477142810822;0.22702856361865997;0.05945085361599922
71;1.3508168458938599;-6.729035225687772e-41;1.3293458223342896;0.9900285005569458;0.02046389877796173;1.2313734292984009;0.7378366589546204;1.3512921333312988;0.027686774730682373;0.23623991012573242;0.046881914138793945;0.05407730117440224;0.05538039281964302;0.03191494941711426;0.06192431598901749;0.19087302684783936;0.047405607998371124
68;1.3461390733718872;-6.729035225687772e-41;1.3216031789779663;0.9868711233139038;0.014733634889125824;1.2187038660049438;0.7364768981933594;1.3468962907791138;0.02866797149181366;0.23371486365795135;0.03967645391821861;0.051890645176172256;0.05702756717801094;0.03541546314954758;0.06184891611337662;0.19542869925498962;0.04539965093135834
70;1.328879475593567;-6.729035225687772e-41;1.3038991689682007;0.9748438596725464;0.016293155029416084;1.2067779302597046;0.7208280563354492;1.329305648803711;0.027130482718348503;0.23767028748989105;0.044662054628133774;0.05377358943223953;0.0712629109621048;0.04381773993372917;0.07342477142810822;0.22702856361865997;0.05945085361599922
71;1.3291337490081787;-6.729035225687772e-41;1.304929494857788;0.9737886786460876;0.018178177997469902;1.2094653844833374;0.720235288143158;1.3295797109603882;0.026898689568042755;0.2382895052433014;0.04790972173213959;0.05339009687304497;0.06998971104621887;0.04246874898672104;0.07383441179990768;0.2256459891796112;0.06184358522295952
72;1.3490818738937378;-6.729035225687772e-41;1.3284536600112915;0.9897338151931763;0.02497698739171028;1.2315754890441895;0.7396283149719238;1.3494831323623657;0.02676355093717575;0.23528729379177094;0.04736587405204773;0.053268056362867355;0.054146658629179;0.030882881954312325;0.062067482620477676;0.18979573249816895;0.04996528849005699
69;1.3491050004959106;-6.729035225687772e-41;1.325896143913269;0.9923427700996399;0.014757788740098476;1.2242931127548218;0.7374154925346375;1.3497360944747925;0.028956042602658272;0.2337474375963211;0.04289200156927109;0.0543859489262104;0.05735582113265991;0.034256577491760254;0.06207791343331337;0.19492283463478088;0.04430336132645607
71;1.3291337490081787;-6.729035225687772e-41;1.304929494857788;0.9737886786460876;0.018178177997469902;1.2094653844833374;0.720235288143158;1.3295797109603882;0.026898689568042755;0.2382895052433014;0.04790972173213959;0.05339009687304497;0.06998971104621887;0.04246874898672104;0.07383441179990768;0.2256459891796112;0.06184358522295952
72;1.3277621269226074;-6.729035225687772e-41;1.30451500415802;0.9748042821884155;0.02197502739727497;1.2100802659988403;0.7216919660568237;1.3279855251312256;0.02588360756635666;0.23608894646167755;0.04861320182681084;0.052806612104177475;0.06812333315610886;0.04046550393104553;0.07482219487428665;0.22322744131088257;0.06296433508396149
73;1.3464254140853882;-6.729035225687772e-41;1.3264119625091553;0.9854587912559509;0.025518976151943207;1.229628562927246;0.7356849908828735;1.3467419147491455;0.025760449469089508;0.23294039070606232;0.046840768307447433;0.052361056208610535;0.052934680134058;0.029951011762022972;0.060816969722509384;0.1923263967037201;0.05294401943683624
70;1.349944829940796;-6.729035225687772e-41;1.3274849653244019;0.9910004734992981;0.018195796757936478;1.2280374765396118;0.7380234599113464;1.3505173921585083;0.028316423296928406;0.23393014073371887;0.04440472647547722;0.054516229778528214;0.05645135045051575;0.032957665622234344;0.06176123395562172;0.19196519255638123;0.04426899924874306
72;1.3277621269226074;-6.729035225687772e-41;1.30451500415802;0.9748042821884155;0.02197502739727497;1.2100802659988403;0.7216919660568237;1.3279855251312256;0.02588360756635666;0.23608894646167755;0.04861320182681084;0.052806612104177475;0.06812333315610886;0.04046550393104553;0.07482219487428665;0.22322744131088257;0.06296433508396149
73;1.3244236707687378;-6.729035225687772e-41;1.301808476448059;0.9700596332550049;0.023022396489977837;1.2078118324279785;0.7182946801185608;1.324652075767517;0.025256112217903137;0.23465624451637268;0.04843737930059433;0.0521874874830246;0.06632816046476364;0.038696445524692535;0.07388854026794434;0.22155329585075378;0.0645756870508194
74;1.3434401750564575;-6.729035225687772e-41;1.3240538835525513;0.985211193561554;0.02413460984826088;1.2280362844467163;0.7333712577819824;1.343848466873169;0.026428086683154106;0.23032799363136292;0.04466931149363518;0.051350463181734085;0.053191233426332474;0.02924174815416336;0.06288750469684601;0.19488249719142914;0.05298711732029915
71;1.3508168458938599;-6.729035225687772e-41;1.3293458223342896;0.9900285005569458;0.02046389877796173;1.2313734292984009;0.7378366589546204;1.3512921333312988;0.027686774730682373;0.23623991012573242;0.046881914138793945;0.05407730117440224;0.05538039281964302;0.03191494941711426;0.06192431598901749;0.19087302684783936;0.047405607998371124
