batch_number;w0;w1;w2;w3;w4;w5;w6;w7;w8;w9;w10;w11;w12
1;7.105754819173562e-20;-9.316552862514982e-09;-3.763544009416364e-05;0.0003216245968360454;-8.175386062569956e-11;-1.2253655663936602e-13;0.008540366776287556;0.0015648193657398224;-5.495053301274311e-06;-0.04004368558526039;0.0009039079304784536;-1.7145752053693286e-06;-0.005978088825941086
batch_number;w0;w1;w2;w3;w4;w5;w6;w7;w8;w9;w10;w11;w12
1;0.28979912400245667;0.20905189216136932;0.12708225846290588;0.7297840118408203;0.22933147847652435;0.5659204125404358;0.865111768245697;0.0015648193657398224;0.15542073547840118;-0.1893562227487564;0.7606239914894104;0.16881629824638367;-0.03186163678765297
2;6.856973775480627e-41;2.402465009860304e-30;-4.720043982366898e-16;4.926803756633014e-12;3.1924628888496036e-34;3.2737793894353995e-37;7.123624641280912e-07;1.941252270043492e-09;6.4563688436912086e-21;-0.00010253745131194592;2.5873020392808144e-10;-2.961386993643299e-23;-2.1400572336460755e-07
batch_number;w0;w1;w2;w3;w4;w5;w6;w7;w8;w9;w10;w11;w12
1;7.105754819173562e-20;-9.316552862514982e-09;-3.763544009416364e-05;0.0003216245968360454;-8.175386062569956e-11;-1.2253655663936602e-13;0.008540366776287556;0.0015648193657398224;-5.495053301274311e-06;-0.04004368558526039;0.0009039079304784536;-1.7145752053693286e-06;-0.005978088825941086
3;6.856973775480627e-41;-2.8838722395804735e-41;-1.228553676394868e-38;-7.209023794553411e-31;-2.2685620838954464e-41;5.6570419004792865e-42;5.230946833459024e-15;1.162237733122e-22;1.501351174677609e-41;-1.2369061330730347e-09;-6.099412122005807e-26;1.2779841994642332e-41;-2.1012166328036137e-16
2;0.38733336329460144;0.31063321232795715;0.23275181651115417;0.8051738739013672;0.32965901494026184;0.6491798162460327;0.9332367181777954;1.941252270043492e-09;0.25962820649147034;-0.06809921562671661;0.8341424465179443;0.2723824381828308;0.0816778838634491
batch_number;w0;w1;w2;w3;w4;w5;w6;w7;w8;w9;w10;w11;w12
1;7.105754819173562e-20;-9.316552862514982e-09;-3.763544009416364e-05;0.0003216245968360454;-8.175386062569956e-11;-1.2253655663936602e-13;0.008540366776287556;0.0015648193657398224;-5.495053301274311e-06;-0.04004368558526039;0.0009039079304784536;-1.7145752053693286e-06;-0.005978088825941086
3;0.4403740465641022;0.3706221580505371;0.29975610971450806;0.8197392225265503;0.3759681284427643;0.6780835390090942;0.9357239603996277;1.162237733122e-22;0.3240956962108612;0.0254855677485466;0.8454263210296631;0.33581745624542236;0.16209881007671356
batch_number;w0;w1;w2;w3;w4;w5;w6;w7;w8;w9;w10;w11;w12
1;7.105754819173562e-20;-9.316552862514982e-09;-3.763544009416364e-05;0.0003216245968360454;-8.175386062569956e-11;-1.2253655663936602e-13;0.008540366776287556;0.0015648193657398224;-5.495053301274311e-06;-0.04004368558526039;0.0009039079304784536;-1.7145752053693286e-06;-0.005978088825941086
2;6.856973775480627e-41;2.402465009860304e-30;-4.720043982366898e-16;4.926803756633014e-12;3.1924628888496036e-34;3.2737793894353995e-37;7.123624641280912e-07;1.941252270043492e-09;6.4563688436912086e-21;-0.00010253745131194592;2.5873020392808144e-10;-2.961386993643299e-23;-2.1400572336460755e-07
batch_number;w0;w1;w2;w3;w4;w5;w6;w7;w8;w9;w10;w11;w12
1;0.28979912400245667;0.20905189216136932;0.12708225846290588;0.7297840118408203;0.22933147847652435;0.5659204125404358;0.865111768245697;0.0015648193657398224;0.15542073547840118;-0.1893562227487564;0.7606239914894104;0.16881629824638367;-0.03186163678765297
4;0.4688076674938202;0.40954893827438354;0.3468536138534546;0.790027916431427;0.41361120343208313;0.670057475566864;0.8880211710929871;-6.852489620394788e-41;0.3697497844696045;0.11509554833173752;0.8108533024787903;0.37962639331817627;0.23181593418121338
3;6.856973775480627e-41;-2.8838722395804735e-41;-1.228553676394868e-38;-7.209023794553411e-31;-2.2685620838954464e-41;5.6570419004792865e-42;5.230946833459024e-15;1.162237733122e-22;1.501351174677609e-41;-1.2369061330730347e-09;-6.099412122005807e-26;1.2779841994642332e-41;-2.1012166328036137e-16
2;6.856973775480627e-41;2.402465009860304e-30;-4.720043982366898e-16;4.926803756633014e-12;3.1924628888496036e-34;3.2737793894353995e-37;7.123624641280912e-07;1.941252270043492e-09;6.4563688436912086e-21;-0.00010253745131194592;2.5873020392808144e-10;-2.961386993643299e-23;-2.1400572336460755e-07
2;0.38733336329460144;0.31063321232795715;0.23275181651115417;0.8051738739013672;0.32965901494026184;0.6491798162460327;0.9332367181777954;1.941252270043492e-09;0.25962820649147034;-0.06809921562671661;0.8341424465179443;0.2723824381828308;0.0816778838634491
4;6.856973775480627e-41;-2.8838722395804735e-41;4.142238260544159e-42;5.821414210344588e-41;-2.2685620838954464e-41;5.6570419004792865e-42;6.5015426233179516e-34;-6.852489620394788e-41;1.501351174677609e-41;-4.703903690974809e-19;-1.5760403828261218e-41;1.2779841994642332e-41;-1.6532796402888497e-36
5;0.537411093711853;0.49204909801483154;0.43643373250961304;0.6893162727355957;0.4826878607273102;0.6828789710998535;0.8558555841445923;-6.852489620394788e-41;0.3048192858695984;0.07763005048036575;0.7018874883651733;0.3150086998939514;0.1813657581806183
3;6.856973775480627e-41;-2.8838722395804735e-41;-1.228553676394868e-38;-7.209023794553411e-31;-2.2685620838954464e-41;5.6570419004792865e-42;5.230946833459024e-15;1.162237733122e-22;1.501351174677609e-41;-1.2369061330730347e-09;-6.099412122005807e-26;1.2779841994642332e-41;-2.1012166328036137e-16
3;0.4403740465641022;0.3706221580505371;0.29975610971450806;0.8197392225265503;0.3759681284427643;0.6780835390090942;0.9357239603996277;1.162237733122e-22;0.3240956962108612;0.0254855677485466;0.8454263210296631;0.33581745624542236;0.16209881007671356
5;6.856973775480627e-41;-2.8838722395804735e-41;4.142238260544159e-42;5.821414210344588e-41;-2.2685620838954464e-41;5.6570419004792865e-42;4.278864860815829e-41;-6.852489620394788e-41;1.501351174677609e-41;-5.3814345185158815e-39;-1.5760403828261218e-41;1.2779841994642332e-41;-3.588865496982289e-41
6;0.5685655474662781;0.5394262075424194;0.4816944897174835;0.6393975615501404;0.4995400607585907;0.6405678391456604;0.7708171606063843;-6.852489620394788e-41;0.32724329829216003;0.14134207367897034;0.6512693762779236;0.33585497736930847;0.22618059813976288
4;0.4688076674938202;0.40954893827438354;0.3468536138534546;0.790027916431427;0.41361120343208313;0.670057475566864;0.8880211710929871;-6.852489620394788e-41;0.3697497844696045;0.11509554833173752;0.8108533024787903;0.37962639331817627;0.23181593418121338
4;6.856973775480627e-41;-2.8838722395804735e-41;4.142238260544159e-42;5.821414210344588e-41;-2.2685620838954464e-41;5.6570419004792865e-42;6.5015426233179516e-34;-6.852489620394788e-41;1.501351174677609e-41;-4.703903690974809e-19;-1.5760403828261218e-41;1.2779841994642332e-41;-1.6532796402888497e-36
6;6.856973775480627e-41;-2.8838722395804735e-41;4.142238260544159e-42;5.821414210344588e-41;-2.2685620838954464e-41;5.6570419004792865e-42;4.278864860815829e-41;-6.852489620394788e-41;1.501351174677609e-41;6.070985466840837e-41;-1.5760403828261218e-41;1.2779841994642332e-41;-3.588865496982289e-41
7;0.5871727466583252;0.5731129050254822;0.5231383442878723;0.5945525765419006;0.5198897123336792;0.6052044630050659;0.6831242442131042;-6.852489620394788e-41;0.34890666604042053;0.2020614892244339;0.6046764850616455;0.3559926152229309;0.2690005898475647
5;0.537411093711853;0.49204909801483154;0.43643373250961304;0.6893162727355957;0.4826878607273102;0.6828789710998535;0.8558555841445923;-6.852489620394788e-41;0.3048192858695984;0.07763005048036575;0.7018874883651733;0.3150086998939514;0.1813657581806183
7;6.856973775480627e-41;-2.8838722395804735e-41;4.142238260544159e-42;5.821414210344588e-41;-2.2685620838954464e-41;5.6570419004792865e-42;4.278864860815829e-41;-6.852489620394788e-41;1.501351174677609e-41;6.070985466840837e-41;-1.5760403828261218e-41;1.2779841994642332e-41;-3.588865496982289e-41
5;6.856973775480627e-41;-2.8838722395804735e-41;4.142238260544159e-42;5.821414210344588e-41;-2.2685620838954464e-41;5.6570419004792865e-42;4.278864860815829e-41;-6.852489620394788e-41;1.501351174677609e-41;-5.3814345185158815e-39;-1.5760403828261218e-41;1.2779841994642332e-41;-3.588865496982289e-41
8;6.856973775480627e-41;-2.8838722395804735e-41;4.142238260544159e-42;5.821414210344588e-41;-2.2685620838954464e-41;5.6570419004792865e-42;4.278864860815829e-41;-6.852489620394788e-41;1.501351174677609e-41;6.070985466840837e-41;-1.5760403828261218e-41;1.2779841994642332e-41;-3.588865496982289e-41
6;0.5685655474662781;0.5394262075424194;0.4816944897174835;0.6393975615501404;0.4995400607585907;0.6405678391456604;0.7708171606063843;-6.852489620394788e-41;0.32724329829216003;0.14134207367897034;0.6512693762779236;0.33585497736930847;0.22618059813976288
8;0.5929293036460876;0.5886109471321106;0.5493407249450684;0.5569890141487122;0.5309401750564575;0.5788460969924927;0.6217085123062134;-6.852489620394788e-41;0.36870938539505005;0.2560761570930481;0.5650634169578552;0.3744942545890808;0.3072487413883209
6;6.856973775480627e-41;-2.8838722395804735e-41;4.142238260544159e-42;5.821414210344588e-41;-2.2685620838954464e-41;5.6570419004792865e-42;4.278864860815829e-41;-6.852489620394788e-41;1.501351174677609e-41;6.070985466840837e-41;-1.5760403828261218e-41;1.2779841994642332e-41;-3.588865496982289e-41
9;6.856973775480627e-41;-2.8838722395804735e-41;4.142238260544159e-42;5.821414210344588e-41;-2.2685620838954464e-41;5.6570419004792865e-42;4.278864860815829e-41;-6.852489620394788e-41;1.501351174677609e-41;6.070985466840837e-41;-1.5760403828261218e-41;1.2779841994642332e-41;-3.588865496982289e-41
7;0.5871727466583252;0.5731129050254822;0.5231383442878723;0.5945525765419006;0.5198897123336792;0.6052044630050659;0.6831242442131042;-6.852489620394788e-41;0.34890666604042053;0.2020614892244339;0.6046764850616455;0.3559926152229309;0.2690005898475647
9;0.5883236527442932;0.5876500010490417;0.5556081533432007;0.5285059213638306;0.529520571231842;0.5654105544090271;0.5926613211631775;-6.852489620394788e-41;0.38691508769989014;0.30282580852508545;0.534182608127594;0.3916873335838318;0.3408157229423523
7;6.856973775480627e-41;-2.8838722395804735e-41;4.142238260544159e-42;5.821414210344588e-41;-2.2685620838954464e-41;5.6570419004792865e-42;4.278864860815829e-41;-6.852489620394788e-41;1.501351174677609e-41;6.070985466840837e-41;-1.5760403828261218e-41;1.2779841994642332e-41;-3.588865496982289e-41
10;6.856973775480627e-41;-2.8838722395804735e-41;4.142238260544159e-42;5.821414210344588e-41;-2.2685620838954464e-41;5.6570419004792865e-42;4.278864860815829e-41;-6.852489620394788e-41;1.501351174677609e-41;6.070985466840837e-41;-1.5760403828261218e-41;1.2779841994642332e-41;-3.588865496982289e-41
8;0.5929293036460876;0.5886109471321106;0.5493407249450684;0.5569890141487122;0.5309401750564575;0.5788460969924927;0.6217085123062134;-6.852489620394788e-41;0.36870938539505005;0.2560761570930481;0.5650634169578552;0.3744942545890808;0.3072487413883209
8;6.856973775480627e-41;-2.8838722395804735e-41;4.142238260544159e-42;5.821414210344588e-41;-2.2685620838954464e-41;5.6570419004792865e-42;4.278864860815829e-41;-6.852489620394788e-41;1.501351174677609e-41;6.070985466840837e-41;-1.5760403828261218e-41;1.2779841994642332e-41;-3.588865496982289e-41
10;0.7761414051055908;0.7761257290840149;0.7324820756912231;0.6914694309234619;0.30853307247161865;0.429590106010437;0.6792831420898438;-6.852489620394788e-41;0.2069309949874878;0.0885966345667839;0.4253821074962616;0.2152007520198822;0.14052905142307281
11;6.856973775480627e-41;-2.8838722395804735e-41;4.142238260544159e-42;5.821414210344588e-41;-2.2685620838954464e-41;5.6570419004792865e-42;4.278864860815829e-41;-6.852489620394788e-41;1.501351174677609e-41;6.070985466840837e-41;-1.5760403828261218e-41;1.2779841994642332e-41;-3.588865496982289e-41
9;0.5883236527442932;0.5876500010490417;0.5556081533432007;0.5285059213638306;0.529520571231842;0.5654105544090271;0.5926613211631775;-6.852489620394788e-41;0.38691508769989014;0.30282580852508545;0.534182608127594;0.3916873335838318;0.3408157229423523
9;6.856973775480627e-41;-2.8838722395804735e-41;4.142238260544159e-42;5.821414210344588e-41;-2.2685620838954464e-41;5.6570419004792865e-42;4.278864860815829e-41;-6.852489620394788e-41;1.501351174677609e-41;6.070985466840837e-41;-1.5760403828261218e-41;1.2779841994642332e-41;-3.588865496982289e-41
11;0.7730828523635864;0.7730813026428223;0.7450149655342102;0.6784250140190125;0.31320855021476746;0.41481003165245056;0.6564627885818481;-6.852489620394788e-41;0.21574831008911133;0.11727305501699448;0.3990848958492279;0.22327184677124023;0.16017574071884155
12;6.856973775480627e-41;-2.8838722395804735e-41;4.142238260544159e-42;5.821414210344588e-41;-2.2685620838954464e-41;5.6570419004792865e-42;4.278864860815829e-41;-6.852489620394788e-41;1.501351174677609e-41;6.070985466840837e-41;-1.5760403828261218e-41;1.2779841994642332e-41;-3.588865496982289e-41
10;0.7761414051055908;0.7761257290840149;0.7324820756912231;0.6914694309234619;0.30853307247161865;0.429590106010437;0.6792831420898438;-6.852489620394788e-41;0.2069309949874878;0.0885966345667839;0.4253821074962616;0.2152007520198822;0.14052905142307281
10;6.856973775480627e-41;-2.8838722395804735e-41;4.142238260544159e-42;5.821414210344588e-41;-2.2685620838954464e-41;5.6570419004792865e-42;4.278864860815829e-41;-6.852489620394788e-41;1.501351174677609e-41;6.070985466840837e-41;-1.5760403828261218e-41;1.2779841994642332e-41;-3.588865496982289e-41
12;0.7691832780838013;0.7691728472709656;0.758196234703064;0.6676813960075378;0.3286992013454437;0.4156799614429474;0.6500024199485779;-6.852489620394788e-41;0.23604236543178558;0.15471281111240387;0.38873356580734253;0.24292655289173126;0.1899212747812271
13;6.856973775480627e-41;-2.8838722395804735e-41;4.142238260544159e-42;5.821414210344588e-41;-2.2685620838954464e-41;5.6570419004792865e-42;4.278864860815829e-41;-6.852489620394788e-41;1.501351174677609e-41;6.070985466840837e-41;-1.5760403828261218e-41;1.2779841994642332e-41;-3.588865496982289e-41
11;0.7730828523635864;0.7730813026428223;0.7450149655342102;0.6784250140190125;0.31320855021476746;0.41481003165245056;0.6564627885818481;-6.852489620394788e-41;0.21574831008911133;0.11727305501699448;0.3990848958492279;0.22327184677124023;0.16017574071884155
11;6.856973775480627e-41;-2.8838722395804735e-41;4.142238260544159e-42;5.821414210344588e-41;-2.2685620838954464e-41;5.6570419004792865e-42;4.278864860815829e-41;-6.852489620394788e-41;1.501351174677609e-41;6.070985466840837e-41;-1.5760403828261218e-41;1.2779841994642332e-41;-3.588865496982289e-41
13;0.8045664429664612;0.8045628666877747;0.7882594466209412;0.6082798838615417;0.2804310619831085;0.36540305614471436;0.6968514919281006;-6.852489620394788e-41;0.19892504811286926;0.24257080256938934;0.3439759910106659;0.20489999651908875;0.1555601805448532
14;6.856973775480627e-41;-2.8838722395804735e-41;4.142238260544159e-42;5.821414210344588e-41;-2.2685620838954464e-41;5.6570419004792865e-42;4.278864860815829e-41;-6.852489620394788e-41;1.501351174677609e-41;6.070985466840837e-41;-1.5760403828261218e-41;1.2779841994642332e-41;-3.588865496982289e-41
12;6.856973775480627e-41;-2.8838722395804735e-41;4.142238260544159e-42;5.821414210344588e-41;-2.2685620838954464e-41;5.6570419004792865e-42;4.278864860815829e-41;-6.852489620394788e-41;1.501351174677609e-41;6.070985466840837e-41;-1.5760403828261218e-41;1.2779841994642332e-41;-3.588865496982289e-41
12;0.7691832780838013;0.7691728472709656;0.758196234703064;0.6676813960075378;0.3286992013454437;0.4156799614429474;0.6500024199485779;-6.852489620394788e-41;0.23604236543178558;0.15471281111240387;0.38873356580734253;0.24292655289173126;0.1899212747812271
15;6.856973775480627e-41;-2.8838722395804735e-41;4.142238260544159e-42;5.821414210344588e-41;-2.2685620838954464e-41;5.6570419004792865e-42;4.278864860815829e-41;-6.852489620394788e-41;1.501351174677609e-41;6.070985466840837e-41;-1.5760403828261218e-41;1.2779841994642332e-41;-3.588865496982289e-41
14;0.7908959984779358;0.7908941507339478;0.7819714546203613;0.60138338804245;0.2975209057331085;0.36881858110427856;0.6885448694229126;-6.852489620394788e-41;0.21758179366588593;0.2708284556865692;0.3394644558429718;0.222942516207695;0.18145503103733063
13;6.856973775480627e-41;-2.8838722395804735e-41;4.142238260544159e-42;5.821414210344588e-41;-2.2685620838954464e-41;5.6570419004792865e-42;4.278864860815829e-41;-6.852489620394788e-41;1.501351174677609e-41;6.070985466840837e-41;-1.5760403828261218e-41;1.2779841994642332e-41;-3.588865496982289e-41
13;0.8045664429664612;0.8045628666877747;0.7882594466209412;0.6082798838615417;0.2804310619831085;0.36540305614471436;0.6968514919281006;-6.852489620394788e-41;0.19892504811286926;0.24257080256938934;0.3439759910106659;0.20489999651908875;0.1555601805448532
16;6.856973775480627e-41;-2.8838722395804735e-41;4.142238260544159e-42;5.821414210344588e-41;-2.2685620838954464e-41;5.6570419004792865e-42;4.278864860815829e-41;-6.852489620394788e-41;1.501351174677609e-41;6.070985466840837e-41;-1.5760403828261218e-41;1.2779841994642332e-41;-3.588865496982289e-41
15;0.7863560318946838;0.786354660987854;0.7571724057197571;0.5973014235496521;0.3086247742176056;0.37420186400413513;0.6826611161231995;-6.852489620394788e-41;0.23631656169891357;0.2966889441013336;0.338489830493927;0.2411797195672989;0.20641110837459564
14;6.856973775480627e-41;-2.8838722395804735e-41;4.142238260544159e-42;5.821414210344588e-41;-2.2685620838954464e-41;5.6570419004792865e-42;4.278864860815829e-41;-6.852489620394788e-41;1.501351174677609e-41;6.070985466840837e-41;-1.5760403828261218e-41;1.2779841994642332e-41;-3.588865496982289e-41
14;0.7908959984779358;0.7908941507339478;0.7819714546203613;0.60138338804245;0.2975209057331085;0.36881858110427856;0.6885448694229126;-6.852489620394788e-41;0.21758179366588593;0.2708284556865692;0.3394644558429718;0.222942516207695;0.18145503103733063
17;6.856973775480627e-41;-2.8838722395804735e-41;4.142238260544159e-42;5.821414210344588e-41;-2.2685620838954464e-41;5.6570419004792865e-42;4.278864860815829e-41;-6.852489620394788e-41;1.501351174677609e-41;6.070985466840837e-41;-1.5760403828261218e-41;1.2779841994642332e-41;-3.588865496982289e-41
16;0.7667399048805237;0.7667397260665894;0.7403333187103271;0.5919734239578247;0.3205305337905884;0.3785666227340698;0.6744379997253418;-6.852489620394788e-41;0.2525293231010437;0.3183061182498932;0.33778104186058044;0.25692710280418396;0.22795552015304565
15;6.856973775480627e-41;-2.8838722395804735e-41;4.142238260544159e-42;5.821414210344588e-41;-2.2685620838954464e-41;5.6570419004792865e-42;4.278864860815829e-41;-6.852489620394788e-41;1.501351174677609e-41;6.070985466840837e-41;-1.5760403828261218e-41;1.2779841994642332e-41;-3.588865496982289e-41
15;0.7863560318946838;0.786354660987854;0.7571724057197571;0.5973014235496521;0.3086247742176056;0.37420186400413513;0.6826611161231995;-6.852489620394788e-41;0.23631656169891357;0.2966889441013336;0.338489830493927;0.2411797195672989;0.20641110837459564
18;6.856973775480627e-41;-2.8838722395804735e-41;4.142238260544159e-42;5.821414210344588e-41;-2.2685620838954464e-41;5.6570419004792865e-42;4.278864860815829e-41;-6.852489620394788e-41;1.501351174677609e-41;6.070985466840837e-41;-1.5760403828261218e-41;1.2779841994642332e-41;-3.588865496982289e-41
16;6.856973775480627e-41;-2.8838722395804735e-41;4.142238260544159e-42;5.821414210344588e-41;-2.2685620838954464e-41;5.6570419004792865e-42;4.278864860815829e-41;-6.852489620394788e-41;1.501351174677609e-41;6.070985466840837e-41;-1.5760403828261218e-41;1.2779841994642332e-41;-3.588865496982289e-41
17;0.766734778881073;0.7667350172996521;0.7427726984024048;0.6196886897087097;0.28762978315353394;0.34304872155189514;0.6972485780715942;-6.852489620394788e-41;0.22388005256652832;0.3745673596858978;0.30333399772644043;0.2288413643836975;0.20130431652069092
16;0.7667399048805237;0.7667397260665894;0.7403333187103271;0.5919734239578247;0.3205305337905884;0.3785666227340698;0.6744379997253418;-6.852489620394788e-41;0.2525293231010437;0.3183061182498932;0.33778104186058044;0.25692710280418396;0.22795552015304565
19;6.856973775480627e-41;-2.8838722395804735e-41;4.142238260544159e-42;5.821414210344588e-41;-2.2685620838954464e-41;5.6570419004792865e-42;4.278864860815829e-41;-6.852489620394788e-41;1.501351174677609e-41;6.070985466840837e-41;-1.5760403828261218e-41;1.2779841994642332e-41;-3.588865496982289e-41
17;6.856973775480627e-41;-2.8838722395804735e-41;4.142238260544159e-42;5.821414210344588e-41;-2.2685620838954464e-41;5.6570419004792865e-42;4.278864860815829e-41;-6.852489620394788e-41;1.501351174677609e-41;6.070985466840837e-41;-1.5760403828261218e-41;1.2779841994642332e-41;-3.588865496982289e-41
18;0.7590169310569763;0.7590169906616211;0.7439501881599426;0.615505039691925;0.2950533330440521;0.34607642889022827;0.6901712417602539;-6.852489620394788e-41;0.23614023625850677;0.389992356300354;0.3026934564113617;0.24081572890281677;0.21754053235054016
17;0.766734778881073;0.7667350172996521;0.7427726984024048;0.6196886897087097;0.28762978315353394;0.34304872155189514;0.6972485780715942;-6.852489620394788e-41;0.22388005256652832;0.3745673596858978;0.30333399772644043;0.2288413643836975;0.20130431652069092
20;6.856973775480627e-41;-2.8838722395804735e-41;4.142238260544159e-42;5.821414210344588e-41;-2.2685620838954464e-41;5.6570419004792865e-42;4.278864860815829e-41;-6.852489620394788e-41;1.501351174677609e-41;6.070985466840837e-41;-1.5760403828261218e-41;1.2779841994642332e-41;-3.588865496982289e-41
18;6.856973775480627e-41;-2.8838722395804735e-41;4.142238260544159e-42;5.821414210344588e-41;-2.2685620838954464e-41;5.6570419004792865e-42;4.278864860815829e-41;-6.852489620394788e-41;1.501351174677609e-41;6.070985466840837e-41;-1.5760403828261218e-41;1.2779841994642332e-41;-3.588865496982289e-41
19;0.7445539236068726;0.7439026832580566;0.7148069143295288;0.6058500409126282;0.289211630821228;0.34452804923057556;0.6826287508010864;-6.852489620394788e-41;0.23867420852184296;0.38013896346092224;0.30702340602874756;0.24286389350891113;0.21939493715763092
21;6.856973775480627e-41;-2.8838722395804735e-41;4.142238260544159e-42;5.821414210344588e-41;-2.2685620838954464e-41;5.6570419004792865e-42;4.278864860815829e-41;-6.852489620394788e-41;1.501351174677609e-41;6.070985466840837e-41;-1.5760403828261218e-41;1.2779841994642332e-41;-3.588865496982289e-41
18;0.7590169310569763;0.7590169906616211;0.7439501881599426;0.615505039691925;0.2950533330440521;0.34607642889022827;0.6901712417602539;-6.852489620394788e-41;0.23614023625850677;0.389992356300354;0.3026934564113617;0.24081572890281677;0.21754053235054016
19;6.856973775480627e-41;-2.8838722395804735e-41;4.142238260544159e-42;5.821414210344588e-41;-2.2685620838954464e-41;5.6570419004792865e-42;4.278864860815829e-41;-6.852489620394788e-41;1.501351174677609e-41;6.070985466840837e-41;-1.5760403828261218e-41;1.2779841994642332e-41;-3.588865496982289e-41
20;0.7212735414505005;0.7208582162857056;0.6938241124153137;0.5891985893249512;0.29034268856048584;0.3409607410430908;0.660412073135376;-6.852489620394788e-41;0.24345175921916962;0.38323405385017395;0.3012208044528961;0.24724899232387543;0.2274232804775238
22;6.856973775480627e-41;-2.8838722395804735e-41;4.142238260544159e-42;5.821414210344588e-41;-2.2685620838954464e-41;5.6570419004792865e-42;4.278864860815829e-41;-6.852489620394788e-41;1.501351174677609e-41;6.070985466840837e-41;-1.5760403828261218e-41;1.2779841994642332e-41;-3.588865496982289e-41
19;0.7445539236068726;0.7439026832580566;0.7148069143295288;0.6058500409126282;0.289211630821228;0.34452804923057556;0.6826287508010864;-6.852489620394788e-41;0.23867420852184296;0.38013896346092224;0.30702340602874756;0.24286389350891113;0.21939493715763092
20;6.856973775480627e-41;-2.8838722395804735e-41;4.142238260544159e-42;5.821414210344588e-41;-2.2685620838954464e-41;5.6570419004792865e-42;4.278864860815829e-41;-6.852489620394788e-41;1.501351174677609e-41;6.070985466840837e-41;-1.5760403828261218e-41;1.2779841994642332e-41;-3.588865496982289e-41
23;6.856973775480627e-41;-2.8838722395804735e-41;4.142238260544159e-42;5.821414210344588e-41;-2.2685620838954464e-41;5.6570419004792865e-42;4.278864860815829e-41;-6.852489620394788e-41;1.501351174677609e-41;6.070985466840837e-41;-1.5760403828261218e-41;1.2779841994642332e-41;-3.588865496982289e-41
20;0.7212735414505005;0.7208582162857056;0.6938241124153137;0.5891985893249512;0.29034268856048584;0.3409607410430908;0.660412073135376;-6.852489620394788e-41;0.24345175921916962;0.38323405385017395;0.3012208044528961;0.24724899232387543;0.2274232804775238
21;0.7366342544555664;0.736372709274292;0.7103011608123779;0.6114506125450134;0.2645631432533264;0.3134268820285797;0.6783818006515503;-6.852489620394788e-41;0.22050966322422028;0.42420363426208496;0.2734781801700592;0.2249564230442047;0.20596906542778015
21;6.856973775480627e-41;-2.8838722395804735e-41;4.142238260544159e-42;5.821414210344588e-41;-2.2685620838954464e-41;5.6570419004792865e-42;4.278864860815829e-41;-6.852489620394788e-41;1.501351174677609e-41;6.070985466840837e-41;-1.5760403828261218e-41;1.2779841994642332e-41;-3.588865496982289e-41
24;6.856973775480627e-41;-2.8838722395804735e-41;4.142238260544159e-42;5.821414210344588e-41;-2.2685620838954464e-41;5.6570419004792865e-42;4.278864860815829e-41;-6.852489620394788e-41;1.501351174677609e-41;6.070985466840837e-41;-1.5760403828261218e-41;1.2779841994642332e-41;-3.588865496982289e-41
21;0.7366342544555664;0.736372709274292;0.7103011608123779;0.6114506125450134;0.2645631432533264;0.3134268820285797;0.6783818006515503;-6.852489620394788e-41;0.22050966322422028;0.42420363426208496;0.2734781801700592;0.2249564230442047;0.20596906542778015
22;0.7564278841018677;0.7562669515609741;0.730684757232666;0.6383855938911438;0.2504179775714874;0.2964021563529968;0.7013866305351257;-6.852489620394788e-41;0.2097078561782837;0.40566056966781616;0.258705735206604;0.21473661065101624;0.1965150088071823
22;6.856973775480627e-41;-2.8838722395804735e-41;4.142238260544159e-42;5.821414210344588e-41;-2.2685620838954464e-41;5.6570419004792865e-42;4.278864860815829e-41;-6.852489620394788e-41;1.501351174677609e-41;6.070985466840837e-41;-1.5760403828261218e-41;1.2779841994642332e-41;-3.588865496982289e-41
25;6.856973775480627e-41;-2.8838722395804735e-41;4.142238260544159e-42;5.821414210344588e-41;-2.2685620838954464e-41;5.6570419004792865e-42;4.278864860815829e-41;-6.852489620394788e-41;1.501351174677609e-41;6.070985466840837e-41;-1.5760403828261218e-41;1.2779841994642332e-41;-3.588865496982289e-41
22;0.7564278841018677;0.7562669515609741;0.730684757232666;0.6383855938911438;0.2504179775714874;0.2964021563529968;0.7013866305351257;-6.852489620394788e-41;0.2097078561782837;0.40566056966781616;0.258705735206604;0.21473661065101624;0.1965150088071823
23;0.749902069568634;0.7498037219047546;0.7258439064025879;0.6353254914283752;0.252348393201828;0.2964247763156891;0.69599848985672;-6.852489620394788e-41;0.21548286080360413;0.40738409757614136;0.25760599970817566;0.22033390402793884;0.20446261763572693
23;6.856973775480627e-41;-2.8838722395804735e-41;4.142238260544159e-42;5.821414210344588e-41;-2.2685620838954464e-41;5.6570419004792865e-42;4.278864860815829e-41;-6.852489620394788e-41;1.501351174677609e-41;6.070985466840837e-41;-1.5760403828261218e-41;1.2779841994642332e-41;-3.588865496982289e-41
26;6.856973775480627e-41;-2.8838722395804735e-41;4.142238260544159e-42;5.821414210344588e-41;-2.2685620838954464e-41;5.6570419004792865e-42;4.278864860815829e-41;-6.852489620394788e-41;1.501351174677609e-41;6.070985466840837e-41;-1.5760403828261218e-41;1.2779841994642332e-41;-3.588865496982289e-41
23;0.749902069568634;0.7498037219047546;0.7258439064025879;0.6353254914283752;0.252348393201828;0.2964247763156891;0.69599848985672;-6.852489620394788e-41;0.21548286080360413;0.40738409757614136;0.25760599970817566;0.22033390402793884;0.20446261763572693
24;6.856973775480627e-41;-2.8838722395804735e-41;4.142238260544159e-42;5.821414210344588e-41;-2.2685620838954464e-41;5.6570419004792865e-42;4.278864860815829e-41;-6.852489620394788e-41;1.501351174677609e-41;6.070985466840837e-41;-1.5760403828261218e-41;1.2779841994642332e-41;-3.588865496982289e-41
24;0.7436993718147278;0.7436398267745972;0.721116840839386;0.632479190826416;0.2629803717136383;0.303691565990448;0.6910199522972107;-6.852489620394788e-41;0.2276143580675125;0.4159914553165436;0.26384469866752625;0.2322532832622528;0.21843861043453217
27;6.856973775480627e-41;-2.8838722395804735e-41;4.142238260544159e-42;5.821414210344588e-41;-2.2685620838954464e-41;5.6570419004792865e-42;4.278864860815829e-41;-6.852489620394788e-41;1.501351174677609e-41;6.070985466840837e-41;-1.5760403828261218e-41;1.2779841994642332e-41;-3.588865496982289e-41
24;0.7436993718147278;0.7436398267745972;0.721116840839386;0.632479190826416;0.2629803717136383;0.303691565990448;0.6910199522972107;-6.852489620394788e-41;0.2276143580675125;0.4159914553165436;0.26384469866752625;0.2322532832622528;0.21843861043453217
25;6.856973775480627e-41;-2.8838722395804735e-41;4.142238260544159e-42;5.821414210344588e-41;-2.2685620838954464e-41;5.6570419004792865e-42;4.278864860815829e-41;-6.852489620394788e-41;1.501351174677609e-41;6.070985466840837e-41;-1.5760403828261218e-41;1.2779841994642332e-41;-3.588865496982289e-41
25;0.71551513671875;0.7151946425437927;0.6913661360740662;0.6115172505378723;0.3302660584449768;0.2915189862251282;0.6685425639152527;-6.852489620394788e-41;0.21918153762817383;0.4000774025917053;0.25638675689697266;0.22332227230072021;0.20969626307487488
28;6.856973775480627e-41;-2.8838722395804735e-41;4.142238260544159e-42;5.821414210344588e-41;-2.2685620838954464e-41;5.6570419004792865e-42;4.278864860815829e-41;-6.852489620394788e-41;1.501351174677609e-41;6.070985466840837e-41;-1.5760403828261218e-41;1.2779841994642332e-41;-3.588865496982289e-41
25;0.71551513671875;0.7151946425437927;0.6913661360740662;0.6115172505378723;0.3302660584449768;0.2915189862251282;0.6685425639152527;-6.852489620394788e-41;0.21918153762817383;0.4000774025917053;0.25638675689697266;0.22332227230072021;0.20969626307487488
26;6.856973775480627e-41;-2.8838722395804735e-41;4.142238260544159e-42;5.821414210344588e-41;-2.2685620838954464e-41;5.6570419004792865e-42;4.278864860815829e-41;-6.852489620394788e-41;1.501351174677609e-41;6.070985466840837e-41;-1.5760403828261218e-41;1.2779841994642332e-41;-3.588865496982289e-41
26;0.7089314460754395;0.7087118625640869;0.6862505674362183;0.6074157357215881;0.3366364538669586;0.29752102494239807;0.662449300289154;-6.852489620394788e-41;0.2292630970478058;0.40657562017440796;0.2614373564720154;0.23322062194347382;0.22133943438529968
29;6.856973775480627e-41;-2.8838722395804735e-41;4.142238260544159e-42;5.821414210344588e-41;-2.2685620838954464e-41;5.6570419004792865e-42;4.278864860815829e-41;-6.852489620394788e-41;1.501351174677609e-41;6.070985466840837e-41;-1.5760403828261218e-41;1.2779841994642332e-41;-3.588865496982289e-41
27;6.856973775480627e-41;-2.8838722395804735e-41;4.142238260544159e-42;5.821414210344588e-41;-2.2685620838954464e-41;5.6570419004792865e-42;4.278864860815829e-41;-6.852489620394788e-41;1.501351174677609e-41;6.070985466840837e-41;-1.5760403828261218e-41;1.2779841994642332e-41;-3.588865496982289e-41
26;0.7089314460754395;0.7087118625640869;0.6862505674362183;0.6074157357215881;0.3366364538669586;0.29752102494239807;0.662449300289154;-6.852489620394788e-41;0.2292630970478058;0.40657562017440796;0.2614373564720154;0.23322062194347382;0.22133943438529968
27;0.7051272392272949;0.7049777507781982;0.6837348341941833;0.605938196182251;0.34434133768081665;0.3050239384174347;0.6592520475387573;-6.852489620394788e-41;0.2403731793165207;0.41373205184936523;0.2678045332431793;0.24413706362247467;0.23378032445907593
30;6.856973775480627e-41;-2.8838722395804735e-41;4.142238260544159e-42;5.821414210344588e-41;-2.2685620838954464e-41;5.6570419004792865e-42;4.278864860815829e-41;-6.852489620394788e-41;1.501351174677609e-41;6.070985466840837e-41;-1.5760403828261218e-41;1.2779841994642332e-41;-3.588865496982289e-41
28;6.856973775480627e-41;-2.8838722395804735e-41;4.142238260544159e-42;5.821414210344588e-41;-2.2685620838954464e-41;5.6570419004792865e-42;4.278864860815829e-41;-6.852489620394788e-41;1.501351174677609e-41;6.070985466840837e-41;-1.5760403828261218e-41;1.2779841994642332e-41;-3.588865496982289e-41
27;0.7051272392272949;0.7049777507781982;0.6837348341941833;0.605938196182251;0.34434133768081665;0.3050239384174347;0.6592520475387573;-6.852489620394788e-41;0.2403731793165207;0.41373205184936523;0.2678045332431793;0.24413706362247467;0.23378032445907593
31;6.856973775480627e-41;-2.8838722395804735e-41;4.142238260544159e-42;5.821414210344588e-41;-2.2685620838954464e-41;5.6570419004792865e-42;4.278864860815829e-41;-6.852489620394788e-41;1.501351174677609e-41;6.070985466840837e-41;-1.5760403828261218e-41;1.2779841994642332e-41;-3.588865496982289e-41
28;0.6803220510482788;0.6799922585487366;0.6564363837242126;0.5869487524032593;0.40370526909828186;0.2936888635158539;0.6384702324867249;-6.852489620394788e-41;0.23218974471092224;0.39979758858680725;0.259544312953949;0.23546946048736572;0.22541268169879913
29;6.856973775480627e-41;-2.8838722395804735e-41;4.142238260544159e-42;5.821414210344588e-41;-2.2685620838954464e-41;5.6570419004792865e-42;4.278864860815829e-41;-6.852489620394788e-41;1.501351174677609e-41;6.070985466840837e-41;-1.5760403828261218e-41;1.2779841994642332e-41;-3.588865496982289e-41
28;0.6803220510482788;0.6799922585487366;0.6564363837242126;0.5869487524032593;0.40370526909828186;0.2936888635158539;0.6384702324867249;-6.852489620394788e-41;0.23218974471092224;0.39979758858680725;0.259544312953949;0.23546946048736572;0.22541268169879913
32;6.856973775480627e-41;-2.8838722395804735e-41;4.142238260544159e-42;5.821414210344588e-41;-2.2685620838954464e-41;5.6570419004792865e-42;4.278864860815829e-41;-6.852489620394788e-41;1.501351174677609e-41;6.070985466840837e-41;-1.5760403828261218e-41;1.2779841994642332e-41;-3.588865496982289e-41
29;0.6776379942893982;0.677399218082428;0.6518428325653076;0.5859451293945312;0.410845011472702;0.3009457588195801;0.636033296585083;-6.852489620394788e-41;0.24256400763988495;0.4069686233997345;0.26625514030456543;0.24567610025405884;0.2368941754102707
30;6.856973775480627e-41;-2.8838722395804735e-41;4.142238260544159e-42;5.821414210344588e-41;-2.2685620838954464e-41;5.6570419004792865e-42;4.278864860815829e-41;-6.852489620394788e-41;1.501351174677609e-41;6.070985466840837e-41;-1.5760403828261218e-41;1.2779841994642332e-41;-3.588865496982289e-41
29;0.6776379942893982;0.677399218082428;0.6518428325653076;0.5859451293945312;0.410845011472702;0.3009457588195801;0.636033296585083;-6.852489620394788e-41;0.24256400763988495;0.4069686233997345;0.26625514030456543;0.24567610025405884;0.2368941754102707
33;6.856973775480627e-41;-2.8838722395804735e-41;4.142238260544159e-42;5.821414210344588e-41;-2.2685620838954464e-41;5.6570419004792865e-42;4.278864860815829e-41;-6.852489620394788e-41;1.501351174677609e-41;6.070985466840837e-41;-1.5760403828261218e-41;1.2779841994642332e-41;-3.588865496982289e-41
30;0.6760103106498718;0.6758418679237366;0.6479153633117676;0.5861225128173828;0.41609987616539;0.309009313583374;0.6347931027412415;-6.852489620394788e-41;0.25329896807670593;0.4144226014614105;0.2738375663757324;0.25631558895111084;0.24854810535907745
31;6.856973775480627e-41;-2.8838722395804735e-41;4.142238260544159e-42;5.821414210344588e-41;-2.2685620838954464e-41;5.6570419004792865e-42;4.278864860815829e-41;-6.852489620394788e-41;1.501351174677609e-41;6.070985466840837e-41;-1.5760403828261218e-41;1.2779841994642332e-41;-3.588865496982289e-41
34;0.33283430337905884;0.32334214448928833;0.2523414194583893;0.3232283592224121;0.1409623622894287;0.08027201145887375;0.3720046281814575;-6.852489620394788e-41;0.0029210669454187155;0.16730768978595734;0.12434733659029007;0.002383791608735919;-0.022941600531339645
30;0.6760103106498718;0.6758418679237366;0.6479153633117676;0.5861225128173828;0.41609987616539;0.309009313583374;0.6347931027412415;-6.852489620394788e-41;0.25329896807670593;0.4144226014614105;0.2738375663757324;0.25631558895111084;0.24854810535907745
31;0.6748903393745422;0.6747689843177795;0.6410366296768188;0.586819052696228;0.42093151807785034;0.31734970211982727;0.6341712474822998;-6.852489620394788e-41;0.2641322612762451;0.42194733023643494;0.2820523977279663;0.2669498920440674;0.26015713810920715
32;6.856973775480627e-41;-2.8838722395804735e-41;4.142238260544159e-42;5.821414210344588e-41;-2.2685620838954464e-41;5.6570419004792865e-42;4.278864860815829e-41;-6.852489620394788e-41;1.501351174677609e-41;6.070985466840837e-41;-1.5760403828261218e-41;1.2779841994642332e-41;-3.588865496982289e-41
35;0.1744823157787323;0.15977969765663147;0.07428667694330215;0.20051905512809753;0.2639899253845215;-0.02877490408718586;0.31538820266723633;-6.852489620394788e-41;-0.11866091191768646;0.06066890433430672;0.01768570952117443;-0.1211123988032341;-0.15606790781021118
31;0.6748903393745422;0.6747689843177795;0.6410366296768188;0.586819052696228;0.42093151807785034;0.31734970211982727;0.6341712474822998;-6.852489620394788e-41;0.2641322612762451;0.42194733023643494;0.2820523977279663;0.2669498920440674;0.26015713810920715
33;6.856973775480627e-41;-2.8838722395804735e-41;4.142238260544159e-42;5.821414210344588e-41;-2.2685620838954464e-41;5.6570419004792865e-42;4.278864860815829e-41;-6.852489620394788e-41;1.501351174677609e-41;6.070985466840837e-41;-1.5760403828261218e-41;1.2779841994642332e-41;-3.588865496982289e-41
32;0.6725547909736633;0.6724711060523987;0.6371694207191467;0.5864113569259644;0.42559656500816345;0.3245077431201935;0.6324051022529602;-6.852489620394788e-41;0.2734456956386566;0.4277467727661133;0.2892496585845947;0.27600643038749695;0.2700938582420349
36;0.15418456494808197;0.1388709545135498;0.031950484961271286;0.1901809722185135;0.23006518185138702;-0.035742778331041336;0.29857736825942993;-6.852489620394788e-41;-0.12853695452213287;0.03295956179499626;0.006026612129062414;-0.13300399482250214;-0.1669907420873642
32;0.6725547909736633;0.6724711060523987;0.6371694207191467;0.5864113569259644;0.42559656500816345;0.3245077431201935;0.6324051022529602;-6.852489620394788e-41;0.2734456956386566;0.4277467727661133;0.2892496585845947;0.27600643038749695;0.2700938582420349
34;0.33283430337905884;0.32334214448928833;0.2523414194583893;0.3232283592224121;0.1409623622894287;0.08027201145887375;0.3720046281814575;-6.852489620394788e-41;0.0029210669454187155;0.16730768978595734;0.12434733659029007;0.002383791608735919;-0.022941600531339645
33;0.5211375951766968;0.5166822671890259;0.45783960819244385;0.47533464431762695;0.34878358244895935;0.2245113104581833;0.5218215584754944;-6.852489620394788e-41;0.16477856040000916;0.2964712381362915;0.21724660694599152;0.16699649393558502;0.14966434240341187
37;0.213337704539299;0.19913211464881897;0.051399607211351395;0.24355685710906982;0.24604825675487518;0.019756190478801727;0.3493410050868988;-6.852489620394788e-41;-0.06885102391242981;0.09719258546829224;0.04874425753951073;-0.0747707188129425;-0.10484431684017181
33;0.5211375951766968;0.5166822671890259;0.45783960819244385;0.47533464431762695;0.34878358244895935;0.2245113104581833;0.5218215584754944;-6.852489620394788e-41;0.16477856040000916;0.2964712381362915;0.21724660694599152;0.16699649393558502;0.14966434240341187
35;0.1744823157787323;0.15977969765663147;0.07428667694330215;0.20051905512809753;0.2639899253845215;-0.02877490408718586;0.31538820266723633;-6.852489620394788e-41;-0.11866091191768646;0.06066890433430672;0.01768570952117443;-0.1211123988032341;-0.15606790781021118
34;0.3865812122821808;0.37684762477874756;0.30082497000694275;0.37991997599601746;0.19204570353031158;0.1474854201078415;0.42902618646621704;-6.852489620394788e-41;0.0761084333062172;0.18218593299388885;0.16942177712917328;0.07634347677230835;0.04990747198462486
38;0.2554410994052887;0.24229606986045837;0.058890264481306076;0.2799968719482422;0.25728562474250793;0.05784750357270241;0.3831726610660553;-6.852489620394788e-41;-0.02608516998589039;0.1435495913028717;0.081417977809906;-0.03341696038842201;-0.059754107147455215
34;0.3865812122821808;0.37684762477874756;0.30082497000694275;0.37991997599601746;0.19204570353031158;0.1474854201078415;0.42902618646621704;-6.852489620394788e-41;0.0761084333062172;0.18218593299388885;0.16942177712917328;0.07634347677230835;0.04990747198462486
36;0.15418456494808197;0.1388709545135498;0.031950484961271286;0.1901809722185135;0.23006518185138702;-0.035742778331041336;0.29857736825942993;-6.852489620394788e-41;-0.12853695452213287;0.03295956179499626;0.006026612129062414;-0.13300399482250214;-0.1669907420873642
35;0.23192404210567474;0.21695558726787567;0.12589554488658905;0.26204198598861694;0.3121565878391266;0.0386686846613884;0.37999770045280457;-6.852489620394788e-41;-0.04478377848863602;0.04244145750999451;0.08185392618179321;-0.045116323977708817;-0.0832214429974556
39;0.2816104590892792;0.26947513222694397;0.09202561527490616;0.30075839161872864;0.2872786521911621;0.0814192146062851;0.40118569135665894;-6.852489620394788e-41;0.0014100981643423438;0.1738072782754898;0.10207952558994293;-0.005723375361412764;-0.02989727444946766
35;0.23192404210567474;0.21695558726787567;0.12589554488658905;0.26204198598861694;0.3121565878391266;0.0386686846613884;0.37999770045280457;-6.852489620394788e-41;-0.04478377848863602;0.04244145750999451;0.08185392618179321;-0.045116323977708817;-0.0832214429974556
37;0.213337704539299;0.19913211464881897;0.051399607211351395;0.24355685710906982;0.24604825675487518;0.019756190478801727;0.3493410050868988;-6.852489620394788e-41;-0.06885102391242981;0.09719258546829224;0.04874425753951073;-0.0747707188129425;-0.10484431684017181
36;0.21119827032089233;0.19561663269996643;0.08257666975259781;0.25028958916664124;0.2784540355205536;0.030021386221051216;0.36269864439964294;-6.852489620394788e-41;-0.05620930343866348;0.027276668697595596;0.07422825694084167;-0.05746470391750336;-0.09597013890743256
40;0.30345699191093445;0.2922746539115906;0.11747585982084274;0.31748148798942566;0.3030463457107544;0.10062696784734726;0.41533705592155457;-6.852489620394788e-41;0.024799710139632225;0.19932743906974792;0.1189495101571083;0.017272796481847763;-0.00434545474126935
36;0.21119827032089233;0.19561663269996643;0.08257666975259781;0.25028958916664124;0.2784540355205536;0.030021386221051216;0.36269864439964294;-6.852489620394788e-41;-0.05620930343866348;0.027276668697595596;0.07422825694084167;-0.05746470391750336;-0.09597013890743256
38;0.2554410994052887;0.24229606986045837;0.058890264481306076;0.2799968719482422;0.25728562474250793;0.05784750357270241;0.3831726610660553;-6.852489620394788e-41;-0.02608516998589039;0.1435495913028717;0.081417977809906;-0.03341696038842201;-0.059754107147455215
37;0.2624710500240326;0.24780218303203583;0.12463933229446411;0.296805202960968;0.28414300084114075;0.08045151829719543;0.40699175000190735;-6.852489620394788e-41;-0.0032136142253875732;0.08590514212846756;0.11823711544275284;-0.004805321805179119;-0.04100533574819565
41;0.3220605254173279;0.31177249550819397;0.14285309612751007;0.3299289643764496;0.3075540363788605;0.11763707548379898;0.42672014236450195;-6.852489620394788e-41;0.0452316515147686;0.22136427462100983;0.1336672008037567;0.03776821494102478;0.01813601143658161
37;0.2624710500240326;0.24780218303203583;0.12463933229446411;0.296805202960968;0.28414300084114075;0.08045151829719543;0.40699175000190735;-6.852489620394788e-41;-0.0032136142253875732;0.08590514212846756;0.11823711544275284;-0.004805321805179119;-0.04100533574819565
39;0.2816104590892792;0.26947513222694397;0.09202561527490616;0.30075839161872864;0.2872786521911621;0.0814192146062851;0.40118569135665894;-6.852489620394788e-41;0.0014100981643423438;0.1738072782754898;0.10207952558994293;-0.005723375361412764;-0.02989727444946766
38;0.3017374575138092;0.28803420066833496;0.12564034759998322;0.33073902130126953;0.2915809452533722;0.11603401601314545;0.4385351836681366;-6.852489620394788e-41;0.03674805536866188;0.1304572969675064;0.15052154660224915;0.0337514728307724;0.0009009104105643928
42;0.33731362223625183;0.32787078619003296;0.16219031810760498;0.3406603932380676;0.32063937187194824;0.12796121835708618;0.4349704086780548;-6.852489620394788e-41;0.06233876943588257;0.23967245221138;0.14524197578430176;0.05489310249686241;0.03719528019428253
38;0.3017374575138092;0.28803420066833496;0.12564034759998322;0.33073902130126953;0.2915809452533722;0.11603401601314545;0.4385351836681366;-6.852489620394788e-41;0.03674805536866188;0.1304572969675064;0.15052154660224915;0.0337514728307724;0.0009009104105643928
40;0.30345699191093445;0.2922746539115906;0.11747585982084274;0.31748148798942566;0.3030463457107544;0.10062696784734726;0.41533705592155457;-6.852489620394788e-41;0.024799710139632225;0.19932743906974792;0.1189495101571083;0.017272796481847763;-0.00434545474126935
39;0.329018771648407;0.3163589537143707;0.15967583656311035;0.3522675037384033;0.3228616416454315;0.13990327715873718;0.4573238790035248;-6.852489620394788e-41;0.06477703154087067;0.1625741571187973;0.17113162577152252;0.06154664605855942;0.031318292021751404
43;0.29628318548202515;0.2859834134578705;0.13332286477088928;0.30617469549179077;0.2626783549785614;0.09838245809078217;0.40085843205451965;-6.852489620394788e-41;0.03124971129000187;0.3202863037586212;0.11531102657318115;0.02177026867866516;0.0036965487524867058
39;0.329018771648407;0.3163589537143707;0.15967583656311035;0.3522675037384033;0.3228616416454315;0.13990327715873718;0.4573238790035248;-6.852489620394788e-41;0.06477703154087067;0.1625741571187973;0.17113162577152252;0.06154664605855942;0.031318292021751404
41;0.3220605254173279;0.31177249550819397;0.14285309612751007;0.3299289643764496;0.3075540363788605;0.11763707548379898;0.42672014236450195;-6.852489620394788e-41;0.0452316515147686;0.22136427462100983;0.1336672008037567;0.03776821494102478;0.01813601143658161
40;0.3485787808895111;0.3367811143398285;0.18121761083602905;0.36717021465301514;0.3365223705768585;0.15777379274368286;0.4697682559490204;-6.852489620394788e-41;0.0859590694308281;0.18728306889533997;0.18562087416648865;0.08185144513845444;0.0545995719730854
44;0.2597105801105499;0.2489410638809204;0.09220509976148605;0.2736304998397827;0.30533459782600403;0.0664854645729065;0.3671300411224365;-6.852489620394788e-41;0.002001627814024687;0.2868764102458954;0.0867173820734024;-0.008398509584367275;-0.02558818832039833
42;0.33731362223625183;0.32787078619003296;0.16219031810760498;0.3406603932380676;0.32063937187194824;0.12796121835708618;0.4349704086780548;-6.852489620394788e-41;0.06233876943588257;0.23967245221138;0.14524197578430176;0.05489310249686241;0.03719528019428253
40;0.3485787808895111;0.3367811143398285;0.18121761083602905;0.36717021465301514;0.3365223705768585;0.15777379274368286;0.4697682559490204;-6.852489620394788e-41;0.0859590694308281;0.18728306889533997;0.18562087416648865;0.08185144513845444;0.0545995719730854
45;0.22319523990154266;0.21182803809642792;0.05081125721335411;0.24193237721920013;0.27778300642967224;0.03770939260721207;0.33509185910224915;-6.852489620394788e-41;-0.026069311425089836;0.24701081216335297;0.0756383165717125;-0.037792474031448364;-0.05467444285750389
41;0.3649050295352936;0.3539125919342041;0.20313885807991028;0.3787257671356201;0.33654654026031494;0.17291270196437836;0.4794652760028839;-6.852489620394788e-41;0.10424395650625229;0.2095053642988205;0.19826309382915497;0.09989425539970398;0.07472530752420425
43;0.29628318548202515;0.2859834134578705;0.13332286477088928;0.30617469549179077;0.2626783549785614;0.09838245809078217;0.40085843205451965;-6.852489620394788e-41;0.03124971129000187;0.3202863037586212;0.11531102657318115;0.02177026867866516;0.0036965487524867058
41;0.3649050295352936;0.3539125919342041;0.20313885807991028;0.3787257671356201;0.33654654026031494;0.17291270196437836;0.4794652760028839;-6.852489620394788e-41;0.10424395650625229;0.2095053642988205;0.19826309382915497;0.09989425539970398;0.07472530752420425
46;0.11926176398992538;0.10749371349811554;0.16448140144348145;0.14141443371772766;0.5520780086517334;0.013648146763443947;0.24747005105018616;-6.852489620394788e-41;-0.04574689641594887;0.11951102316379547;0.06085725873708725;-0.037466101348400116;-0.07391545176506042
42;0.36926737427711487;0.3588228225708008;0.20816563069820404;0.38047322630882263;0.36358562111854553;0.20370815694332123;0.47896039485931396;-6.852489620394788e-41;0.11082573235034943;0.21897625923156738;0.20079578459262848;0.10688444972038269;0.08270944654941559
44;0.2597105801105499;0.2489410638809204;0.09220509976148605;0.2736304998397827;0.30533459782600403;0.0664854645729065;0.3671300411224365;-6.852489620394788e-41;0.002001627814024687;0.2868764102458954;0.0867173820734024;-0.008398509584367275;-0.02558818832039833
42;0.36926737427711487;0.3588228225708008;0.20816563069820404;0.38047322630882263;0.36358562111854553;0.20370815694332123;0.47896039485931396;-6.852489620394788e-41;0.11082573235034943;0.21897625923156738;0.20079578459262848;0.10688444972038269;0.08270944654941559
47;0.15469864010810852;0.1435452699661255;0.11372848600149155;0.17369645833969116;0.567058265209198;0.04781639203429222;0.27760612964630127;-6.852489620394788e-41;-0.010593635961413383;0.1532827615737915;0.0902198776602745;-0.005537076853215694;-0.03783600777387619
43;0.24674637615680695;0.2333102971315384;0.2024933397769928;0.2791295349597931;0.3406469225883484;0.10953367501497269;0.3798316717147827;-6.852489620394788e-41;0.009725591167807579;0.1420455276966095;0.1202218234539032;0.008343739435076714;-0.02450314536690712
45;0.22319523990154266;0.21182803809642792;0.05081125721335411;0.24193237721920013;0.27778300642967224;0.03770939260721207;0.33509185910224915;-6.852489620394788e-41;-0.026069311425089836;0.24701081216335297;0.0756383165717125;-0.037792474031448364;-0.05467444285750389
43;0.24674637615680695;0.2333102971315384;0.2024933397769928;0.2791295349597931;0.3406469225883484;0.10953367501497269;0.3798316717147827;-6.852489620394788e-41;0.009725591167807579;0.1420455276966095;0.1202218234539032;0.008343739435076714;-0.02450314536690712
48;0.2004743218421936;0.1900901049375534;0.1473839432001114;0.215532124042511;0.6030310392379761;0.07852546870708466;0.31717196106910706;-6.852489620394788e-41;0.020463619381189346;0.20209607481956482;0.11848658323287964;0.023699315264821053;-0.005115932784974575
44;0.15428932011127472;0.13905774056911469;0.09326617419719696;0.1990329474210739;0.35338783264160156;0.030746804550290108;0.29976820945739746;-6.852489620394788e-41;-0.07064716517925262;0.08338303118944168;0.05328291282057762;-0.07266618311405182;-0.10836773365736008
46;0.11926176398992538;0.10749371349811554;0.16448140144348145;0.14141443371772766;0.5520780086517334;0.013648146763443947;0.24747005105018616;-6.852489620394788e-41;-0.04574689641594887;0.11951102316379547;0.06085725873708725;-0.037466101348400116;-0.07391545176506042
44;0.15428932011127472;0.13905774056911469;0.09326617419719696;0.1990329474210739;0.35338783264160156;0.030746804550290108;0.29976820945739746;-6.852489620394788e-41;-0.07064716517925262;0.08338303118944168;0.05328291282057762;-0.07266618311405182;-0.10836773365736008
49;0.23326697945594788;0.22361239790916443;0.13863183557987213;0.24425247311592102;0.6351655721664429;0.1099638044834137;0.3438010513782501;-6.852489620394788e-41;0.05291254073381424;0.23653863370418549;0.14667920768260956;0.05503353476524353;0.02900266833603382
47;0.15469864010810852;0.1435452699661255;0.11372848600149155;0.17369645833969116;0.567058265209198;0.04781639203429222;0.27760612964630127;-6.852489620394788e-41;-0.010593635961413383;0.1532827615737915;0.0902198776602745;-0.005537076853215694;-0.03783600777387619
45;0.1150720864534378;0.09934651106595993;0.047882139682769775;0.16376233100891113;0.3276003301143646;-0.003962698858231306;0.2635670602321625;-6.852489620394788e-41;-0.10345583409070969;0.05816640332341194;0.024186693131923676;-0.10536520183086395;-0.142214834690094
45;0.1150720864534378;0.09934651106595993;0.047882139682769775;0.16376233100891113;0.3276003301143646;-0.003962698858231306;0.2635670602321625;-6.852489620394788e-41;-0.10345583409070969;0.05816640332341194;0.024186693131923676;-0.10536520183086395;-0.142214834690094
50;0.2582528293132782;0.24929392337799072;0.1494259387254715;0.26543933153152466;0.654051661491394;0.13373157382011414;0.3629671633243561;-6.852489620394788e-41;0.0784367099404335;0.26307857036590576;0.16628026962280273;0.07978737354278564;0.05605330318212509
48;0.2004743218421936;0.1900901049375534;0.1473839432001114;0.215532124042511;0.6030310392379761;0.07852546870708466;0.31717196106910706;-6.852489620394788e-41;0.020463619381189346;0.20209607481956482;0.11848658323287964;0.023699315264821053;-0.005115932784974575
46;0.08918919414281845;0.07280214130878448;0.026786290109157562;0.14279814064502716;0.2905869781970978;-0.021715953946113586;0.2422516793012619;-6.852489620394788e-41;-0.12186744809150696;0.044982004910707474;0.015574481338262558;-0.12232286483049393;-0.16152559220790863
46;0.08918919414281845;0.07280214130878448;0.026786290109157562;0.14279814064502716;0.2905869781970978;-0.021715953946113586;0.2422516793012619;-6.852489620394788e-41;-0.12186744809150696;0.044982004910707474;0.015574481338262558;-0.12232286483049393;-0.16152559220790863
51;0.2805430293083191;0.27223455905914307;0.14476977288722992;0.2840907573699951;0.6684376001358032;0.15393181145191193;0.37965142726898193;-6.852489620394788e-41;0.10117863118648529;0.28653261065483093;0.18327276408672333;0.10188067704439163;0.08026020228862762
49;0.23326697945594788;0.22361239790916443;0.13863183557987213;0.24425247311592102;0.6351655721664429;0.1099638044834137;0.3438010513782501;-6.852489620394788e-41;0.05291254073381424;0.23653863370418549;0.14667920768260956;0.05503353476524353;0.02900266833603382
47;0.12922194600105286;0.11347989737987518;-0.049348533153533936;0.17926986515522003;0.3095896244049072;0.016065433621406555;0.2768377363681793;-6.852489620394788e-41;-0.08282767981290817;0.08884268254041672;0.04853908717632294;-0.08551616221666336;-0.12147652357816696
47;0.12922194600105286;0.11347989737987518;-0.049348533153533936;0.17926986515522003;0.3095896244049072;0.016065433621406555;0.2768377363681793;-6.852489620394788e-41;-0.08282767981290817;0.08884268254041672;0.04853908717632294;-0.08551616221666336;-0.12147652357816696
52;0.2978806793689728;0.2901948094367981;0.15516045689582825;0.2980119287967682;0.6814883947372437;0.16907532513141632;0.39164429903030396;-6.852489620394788e-41;0.11931547522544861;0.30493560433387756;0.19543518126010895;0.11961337924003601;0.09982930123806
50;0.2582528293132782;0.24929392337799072;0.1494259387254715;0.26543933153152466;0.654051661491394;0.13373157382011414;0.3629671633243561;-6.852489620394788e-41;0.0784367099404335;0.26307857036590576;0.16628026962280273;0.07978737354278564;0.05605330318212509
48;0.18987545371055603;0.17504075169563293;-0.003425409086048603;0.23506693542003632;0.36530500650405884;0.06343767791986465;0.33039742708206177;-6.852489620394788e-41;-0.033565156161785126;0.15283280611038208;0.09103711694478989;-0.03758581355214119;-0.07053316384553909
48;0.18987545371055603;0.17504075169563293;-0.003425409086048603;0.23506693542003632;0.36530500650405884;0.06343767791986465;0.33039742708206177;-6.852489620394788e-41;-0.033565156161785126;0.15283280611038208;0.09103711694478989;-0.03758581355214119;-0.07053316384553909
53;0.312828004360199;0.3057296872138977;0.16578488051891327;0.30921587347984314;0.689491868019104;0.1833025962114334;0.40150076150894165;-6.852489620394788e-41;0.13514462113380432;0.3207220733165741;0.20736706256866455;0.13518279790878296;0.11706863343715668
51;0.2805430293083191;0.27223455905914307;0.14476977288722992;0.2840907573699951;0.6684376001358032;0.15393181145191193;0.37965142726898193;-6.852489620394788e-41;0.10117863118648529;0.28653261065483093;0.18327276408672333;0.10188067704439163;0.08026020228862762
49;0.23320172727108002;0.21924439072608948;-0.013081498444080353;0.2733297646045685;0.4113783836364746;0.10361659526824951;0.3665832281112671;-6.852489620394788e-41;0.008443793281912804;0.1980530470609665;0.12799103558063507;0.003635925240814686;-0.02654818631708622
49;0.23320172727108002;0.21924439072608948;-0.013081498444080353;0.2733297646045685;0.4113783836364746;0.10361659526824951;0.3665832281112671;-6.852489620394788e-41;0.008443793281912804;0.1980530470609665;0.12799103558063507;0.003635925240814686;-0.02654818631708622
54;0.3255480229854584;0.3190021216869354;0.17958813905715942;0.31891772150993347;0.6972293853759766;0.19503989815711975;0.4093591272830963;-6.852489620394788e-41;0.14888525009155273;0.334125280380249;0.21733830869197845;0.14875617623329163;0.13209567964076996
52;0.2978806793689728;0.2901948094367981;0.15516045689582825;0.2980119287967682;0.6814883947372437;0.16907532513141632;0.39164429903030396;-6.852489620394788e-41;0.11931547522544861;0.30493560433387756;0.19543518126010895;0.11961337924003601;0.09982930123806
50;0.2645582854747772;0.25143861770629883;0.0018893422093242407;0.299903929233551;0.4397866725921631;0.13219495117664337;0.39119723439216614;-6.852489620394788e-41;0.039655596017837524;0.23137633502483368;0.15228834748268127;0.034391988068819046;0.006532603874802589
50;0.2645582854747772;0.25143861770629883;0.0018893422093242407;0.299903929233551;0.4397866725921631;0.13219495117664337;0.39119723439216614;-6.852489620394788e-41;0.039655596017837524;0.23137633502483368;0.15228834748268127;0.034391988068819046;0.006532603874802589
55;0.3371671140193939;0.33113881945610046;0.19075408577919006;0.3277163505554199;0.701708197593689;0.2057018131017685;0.41635480523109436;-6.852489620394788e-41;0.16158969700336456;0.34627464413642883;0.22643396258354187;0.16146357357501984;0.14599677920341492
53;0.312828004360199;0.3057296872138977;0.16578488051891327;0.30921587347984314;0.689491868019104;0.1833025962114334;0.40150076150894165;-6.852489620394788e-41;0.13514462113380432;0.3207220733165741;0.20736706256866455;0.13518279790878296;0.11706863343715668
51;0.2911670506000519;0.2788541913032532;-0.0017289817333221436;0.32184645533561707;0.46205416321754456;0.15542444586753845;0.4112235903739929;-6.852489620394788e-41;0.06603829562664032;0.25954771041870117;0.17231611907482147;0.06037298962473869;0.034739017486572266
51;0.2911670506000519;0.2788541913032532;-0.0017289817333221436;0.32184645533561707;0.46205416321754456;0.15542444586753845;0.4112235903739929;-6.852489620394788e-41;0.06603829562664032;0.25954771041870117;0.17231611907482147;0.06037298962473869;0.034739017486572266
56;0.3474048376083374;0.34186509251594543;0.20491425693035126;0.3353269398212433;0.706354022026062;0.2151724100112915;0.42218881845474243;-6.852489620394788e-41;0.17299407720565796;0.3569148778915405;0.23436948657035828;0.17290319502353668;0.15856216847896576
54;0.3255480229854584;0.3190021216869354;0.17958813905715942;0.31891772150993347;0.6972293853759766;0.19503989815711975;0.4093591272830963;-6.852489620394788e-41;0.14888525009155273;0.334125280380249;0.21733830869197845;0.14875617623329163;0.13209567964076996
52;0.3114963471889496;0.29995742440223694;0.01224795263260603;0.3377600312232971;0.48181653022766113;0.1725006252527237;0.42524826526641846;-6.852489620394788e-41;0.0866704136133194;0.2814345955848694;0.18690676987171173;0.08077887445688248;0.0571545846760273
52;0.3114963471889496;0.29995742440223694;0.01224795263260603;0.3377600312232971;0.48181653022766113;0.1725006252527237;0.42524826526641846;-6.852489620394788e-41;0.0866704136133194;0.2814345955848694;0.18690676987171173;0.08077887445688248;0.0571545846760273
57;0.3571281433105469;0.35204723477363586;0.21911437809467316;0.34261012077331543;0.7063094973564148;0.2243422269821167;0.42774882912635803;-6.852489620394788e-41;0.18395155668258667;0.3669229745864868;0.24204178154468536;0.1840192973613739;0.17064595222473145
55;0.3371671140193939;0.33113881945610046;0.19075408577919006;0.3277163505554199;0.701708197593689;0.2057018131017685;0.41635480523109436;-6.852489620394788e-41;0.16158969700336456;0.34627464413642883;0.22643396258354187;0.16146357357501984;0.14599677920341492
53;0.3287757933139801;0.31797751784324646;0.026928860694169998;0.35049453377723694;0.495395690202713;0.1875952035188675;0.43647798895835876;-6.852489620394788e-41;0.10444340109825134;0.30011439323425293;0.19978061318397522;0.0985042080283165;0.07669682800769806
53;0.3287757933139801;0.31797751784324646;0.026928860694169998;0.35049453377723694;0.495395690202713;0.1875952035188675;0.43647798895835876;-6.852489620394788e-41;0.10444340109825134;0.30011439323425293;0.19978061318397522;0.0985042080283165;0.07669682800769806
58;0.3665062487125397;0.3618527054786682;0.23155634105205536;0.3497167229652405;0.704586923122406;0.23314328491687775;0.4331749379634857;-6.852489620394788e-41;0.194583922624588;0.3758276700973511;0.24956165254116058;0.19476617872714996;0.18237216770648956
56;0.3474048376083374;0.34186509251594543;0.20491425693035126;0.3353269398212433;0.706354022026062;0.2151724100112915;0.42218881845474243;-6.852489620394788e-41;0.17299407720565796;0.3569148778915405;0.23436948657035828;0.17290319502353668;0.15856216847896576
54;0.3432796895503998;0.3331884443759918;0.044742632657289505;0.3609781265258789;0.5083941221237183;0.19986601173877716;0.445155531167984;-6.852489620394788e-41;0.11962123215198517;0.31588995456695557;0.21017134189605713;0.11363247781991959;0.09351173043251038
54;0.3432796895503998;0.3331884443759918;0.044742632657289505;0.3609781265258789;0.5083941221237183;0.19986601173877716;0.445155531167984;-6.852489620394788e-41;0.11962123215198517;0.31588995456695557;0.21017134189605713;0.11363247781991959;0.09351173043251038
59;0.3756512701511383;0.37139666080474854;0.24487265944480896;0.35676899552345276;0.6985787749290466;0.24205581843852997;0.43858951330184937;-6.852489620394788e-41;0.2050648331642151;0.3850671350955963;0.25710394978523254;0.20530547201633453;0.19387677311897278
57;0.3571281433105469;0.35204723477363586;0.21911437809467316;0.34261012077331543;0.7063094973564148;0.2243422269821167;0.42774882912635803;-6.852489620394788e-41;0.18395155668258667;0.3669229745864868;0.24204178154468536;0.1840192973613739;0.17064595222473145
55;0.35638102889060974;0.34696224331855774;0.0597626157104969;0.37025368213653564;0.5176185965538025;0.2108108401298523;0.45265981554985046;-6.852489620394788e-41;0.13347545266151428;0.3300964832305908;0.2193850874900818;0.1275765597820282;0.1089174747467041
55;0.35638102889060974;0.34696224331855774;0.0597626157104969;0.37025368213653564;0.5176185965538025;0.2108108401298523;0.45265981554985046;-6.852489620394788e-41;0.13347545266151428;0.3300964832305908;0.2193850874900818;0.1275765597820282;0.1089174747467041
60;0.38329774141311646;0.3794168531894684;0.2564432621002197;0.36245957016944885;0.6975253224372864;0.24957114458084106;0.44266825914382935;-6.852489620394788e-41;0.21398639678955078;0.39263850450515747;0.26321351528167725;0.21434833109378815;0.20374783873558044
58;0.3665062487125397;0.3618527054786682;0.23155634105205536;0.3497167229652405;0.704586923122406;0.23314328491687775;0.4331749379634857;-6.852489620394788e-41;0.194583922624588;0.3758276700973511;0.24956165254116058;0.19476617872714996;0.18237216770648956
56;0.3676978647708893;0.35892218351364136;0.07774462550878525;0.3779459297657013;0.5266494750976562;0.22016674280166626;0.45860400795936584;-6.852489620394788e-41;0.14568743109703064;0.3424086272716522;0.22709961235523224;0.13984344899654388;0.122643381357193
56;0.3676978647708893;0.35892218351364136;0.07774462550878525;0.3779459297657013;0.5266494750976562;0.22016674280166626;0.45860400795936584;-6.852489620394788e-41;0.14568743109703064;0.3424086272716522;0.22709961235523224;0.13984344899654388;0.122643381357193
61;0.3903000056743622;0.386766254901886;0.2671908438205719;0.36765632033348083;0.6975129246711731;0.25640830397605896;0.4462808668613434;-6.852489620394788e-41;0.2222605049610138;0.3994515836238861;0.2684146761894226;0.2226351648569107;0.21285808086395264
59;0.3756512701511383;0.37139666080474854;0.24487265944480896;0.35676899552345276;0.6985787749290466;0.24205581843852997;0.43858951330184937;-6.852489620394788e-41;0.2050648331642151;0.3850671350955963;0.25710394978523254;0.20530547201633453;0.19387677311897278
57;0.3783414959907532;0.3701794147491455;0.09550783783197403;0.38515374064445496;0.5305767059326172;0.2290516048669815;0.46412181854248047;-6.852489620394788e-41;0.15733790397644043;0.35392841696739197;0.23443149030208588;0.15163598954677582;0.13576775789260864
57;0.3783414959907532;0.3701794147491455;0.09550783783197403;0.38515374064445496;0.5305767059326172;0.2290516048669815;0.46412181854248047;-6.852489620394788e-41;0.15733790397644043;0.35392841696739197;0.23443149030208588;0.15163598954677582;0.13576775789260864
62;0.31453806161880493;0.30693572759628296;0.07413868606090546;0.32217326760292053;0.43075186014175415;0.1760942041873932;0.3828616738319397;-6.852489620394788e-41;0.11293405294418335;0.3224649429321289;0.1923791617155075;0.10310172289609909;0.09228551387786865
60;0.38329774141311646;0.3794168531894684;0.2564432621002197;0.36245957016944885;0.6975253224372864;0.24957114458084106;0.44266825914382935;-6.852489620394788e-41;0.21398639678955078;0.39263850450515747;0.26321351528167725;0.21434833109378815;0.20374783873558044
58;0.38183385133743286;0.3741251528263092;0.10234550386667252;0.386251300573349;0.5248700380325317;0.23166494071483612;0.46381664276123047;-6.852489620394788e-41;0.16249868273735046;0.35908880829811096;0.23612259328365326;0.15720541775226593;0.14204907417297363
58;0.38183385133743286;0.3741251528263092;0.10234550386667252;0.386251300573349;0.5248700380325317;0.23166494071483612;0.46381664276123047;-6.852489620394788e-41;0.16249868273735046;0.35908880829811096;0.23612259328365326;0.15720541775226593;0.14204907417297363
61;0.3903000056743622;0.386766254901886;0.2671908438205719;0.36765632033348083;0.6975129246711731;0.25640830397605896;0.4462808668613434;-6.852489620394788e-41;0.2222605049610138;0.3994515836238861;0.2684146761894226;0.2226351648569107;0.21285808086395264
63;0.19133113324642181;0.18211111426353455;-0.07913146167993546;0.2103651762008667;0.3244988024234772;0.07304015755653381;0.28627294301986694;-6.852489620394788e-41;0.0001237525139003992;0.2152937799692154;0.09006045758724213;-0.006788011174649;-0.023354636505246162
59;0.39192894101142883;0.3847693204879761;0.11925053596496582;0.393240362405777;0.5218110084533691;0.24043181538581848;0.4692201614379883;-6.852489620394788e-41;0.1737225204706192;0.3698473274707794;0.2433796375989914;0.16849827766418457;0.15464581549167633
59;0.39192894101142883;0.3847693204879761;0.11925053596496582;0.393240362405777;0.5218110084533691;0.24043181538581848;0.4692201614379883;-6.852489620394788e-41;0.1737225204706192;0.3698473274707794;0.2433796375989914;0.16849827766418457;0.15464581549167633
62;0.31453806161880493;0.30693572759628296;0.07413868606090546;0.32217326760292053;0.43075186014175415;0.1760942041873932;0.3828616738319397;-6.852489620394788e-41;0.11293405294418335;0.3224649429321289;0.1923791617155075;0.10310172289609909;0.09228551387786865
64;0.1273093819618225;0.11757468432188034;-0.1528080701828003;0.15026327967643738;0.272228866815567;0.013660049997270107;0.22610023617744446;-6.852489620394788e-41;-0.05780776962637901;0.14364555478096008;0.039426933974027634;-0.06577794998884201;-0.08273699879646301
60;0.40061062574386597;0.3939804136753082;0.13454344868659973;0.3989740014076233;0.5246263146400452;0.24784287810325623;0.4733700752258301;-6.852489620394788e-41;0.1834915429353714;0.37902435660362244;0.24932774901390076;0.17846748232841492;0.16572044789791107
60;0.40061062574386597;0.3939804136753082;0.13454344868659973;0.3989740014076233;0.5246263146400452;0.24784287810325623;0.4733700752258301;-6.852489620394788e-41;0.1834915429353714;0.37902435660362244;0.24932774901390076;0.17846748232841492;0.16572044789791107
63;0.19133113324642181;0.18211111426353455;-0.07913146167993546;0.2103651762008667;0.3244988024234772;0.07304015755653381;0.28627294301986694;-6.852489620394788e-41;0.0001237525139003992;0.2152937799692154;0.09006045758724213;-0.006788011174649;-0.023354636505246162
65;0.09305039793252945;0.08303797245025635;-0.19321928918361664;0.11832717061042786;0.2316039502620697;-0.016269849613308907;0.19382303953170776;-6.852489620394788e-41;-0.08729580789804459;0.10237757861614227;0.009789606556296349;-0.09651028364896774;-0.11323687434196472
61;0.40848737955093384;0.40235933661460876;0.14884261786937714;0.4040713906288147;0.5284034609794617;0.25447916984558105;0.476907879114151;-6.852489620394788e-41;0.1924777328968048;0.38727378845214844;0.25445112586021423;0.18759840726852417;0.17589247226715088
61;0.40848737955093384;0.40235933661460876;0.14884261786937714;0.4040713906288147;0.5284034609794617;0.25447916984558105;0.476907879114151;-6.852489620394788e-41;0.1924777328968048;0.38727378845214844;0.25445112586021423;0.18759840726852417;0.17589247226715088
64;0.1273093819618225;0.11757468432188034;-0.1528080701828003;0.15026327967643738;0.272228866815567;0.013660049997270107;0.22610023617744446;-6.852489620394788e-41;-0.05780776962637901;0.14364555478096008;0.039426933974027634;-0.06577794998884201;-0.08273699879646301
66;0.05483681336045265;0.04471755400300026;-0.25323718786239624;0.08129800111055374;0.19338922202587128;-0.05191626027226448;0.1561720222234726;-6.852489620394788e-41;-0.12220025062561035;0.05774404853582382;-0.027110066264867783;-0.13165147602558136;-0.14832709729671478
62;0.31716710329055786;0.30945950746536255;0.07086106389760971;0.3247200846672058;0.4433472454547882;0.18026433885097504;0.3997119963169098;-6.852489620394788e-41;0.11476422101259232;0.30730006098747253;0.18484951555728912;0.10872258991003036;0.0946345254778862
62;0.31716710329055786;0.30945950746536255;0.07086106389760971;0.3247200846672058;0.4433472454547882;0.18026433885097504;0.3997119963169098;-6.852489620394788e-41;0.11476422101259232;0.30730006098747253;0.18484951555728912;0.10872258991003036;0.0946345254778862
65;0.09305039793252945;0.08303797245025635;-0.19321928918361664;0.11832717061042786;0.2316039502620697;-0.016269849613308907;0.19382303953170776;-6.852489620394788e-41;-0.08729580789804459;0.10237757861614227;0.009789606556296349;-0.09651028364896774;-0.11323687434196472
67;0.12431110441684723;0.11473248898983002;-0.17701652646064758;0.14794950187206268;0.2621114253997803;0.016315462067723274;0.22136567533016205;-6.852489620394788e-41;-0.05337444692850113;0.12834449112415314;0.036961548030376434;-0.06157092750072479;-0.07777795940637589
63;0.19288654625415802;0.18366193771362305;-0.077723927795887;0.21148690581321716;0.3250586986541748;0.07605071365833282;0.28783923387527466;-6.852489620394788e-41;0.0035026983823627234;0.1921510100364685;0.08546628057956696;-0.0008188921492546797;-0.020003851503133774
63;0.19288654625415802;0.18366193771362305;-0.077723927795887;0.21148690581321716;0.3250586986541748;0.07605071365833282;0.28783923387527466;-6.852489620394788e-41;0.0035026983823627234;0.1921510100364685;0.08546628057956696;-0.0008188921492546797;-0.020003851503133774
66;0.05483681336045265;0.04471755400300026;-0.25323718786239624;0.08129800111055374;0.19338922202587128;-0.05191626027226448;0.1561720222234726;-6.852489620394788e-41;-0.12220025062561035;0.05774404853582382;-0.027110066264867783;-0.13165147602558136;-0.14832709729671478
68;0.18007080256938934;0.17101351916790009;-0.11358251422643661;0.20091970264911652;0.32384824752807617;0.06966768950223923;0.27292343974113464;-6.852489620394788e-41;0.0018783749546855688;0.18489986658096313;0.0875614657998085;-0.0063923196867108345;-0.021199800074100494
64;0.12802720069885254;0.1182938739657402;-0.15199147164821625;0.1506364494562149;0.27225667238235474;0.016280757263302803;0.22680094838142395;-6.852489620394788e-41;-0.055182747542858124;0.12982673943042755;0.033788468688726425;-0.060398027300834656;-0.08008277416229248
64;0.12802720069885254;0.1182938739657402;-0.15199147164821625;0.1506364494562149;0.27225667238235474;0.016280757263302803;0.22680094838142395;-6.852489620394788e-41;-0.055182747542858124;0.12982673943042755;0.033788468688726425;-0.060398027300834656;-0.08008277416229248
67;0.12431110441684723;0.11473248898983002;-0.17701652646064758;0.14794950187206268;0.2621114253997803;0.016315462067723274;0.22136567533016205;-6.852489620394788e-41;-0.05337444692850113;0.12834449112415314;0.036961548030376434;-0.06157092750072479;-0.07777795940637589
69;0.21879246830940247;0.21023663878440857;-0.06798958033323288;0.23685359954833984;0.3665170669555664;0.10607548803091049;0.30755940079689026;-6.852489620394788e-41;0.04024353623390198;0.2241090089082718;0.12338297814130783;0.03223508223891258;0.018403811380267143
65;0.09307322651147842;0.08306381106376648;-0.19290971755981445;0.11806461215019226;0.2312237173318863;-0.014172111637890339;0.19382470846176147;-6.852489620394788e-41;-0.08528370410203934;0.0956069603562355;0.004236930049955845;-0.09154544770717621;-0.11108144372701645
65;0.09307322651147842;0.08306381106376648;-0.19290971755981445;0.11806461215019226;0.2312237173318863;-0.014172111637890339;0.19382470846176147;-6.852489620394788e-41;-0.08528370410203934;0.0956069603562355;0.004236930049955845;-0.09154544770717621;-0.11108144372701645
68;0.18007080256938934;0.17101351916790009;-0.11358251422643661;0.20091970264911652;0.32384824752807617;0.06966768950223923;0.27292343974113464;-6.852489620394788e-41;0.0018783749546855688;0.18489986658096313;0.0875614657998085;-0.0063923196867108345;-0.021199800074100494
70;0.24809999763965607;0.2400268018245697;-0.03237222507596016;0.2634335160255432;0.3939381241798401;0.13423913717269897;0.3329267203807831;-6.852489620394788e-41;0.06938556581735611;0.25372496247291565;0.14840029180049896;0.06202782317996025;0.0488588772714138
66;0.054386209696531296;0.04426945000886917;-0.2532808184623718;0.08059685677289963;0.19283203780651093;-0.05016506835818291;0.15568967163562775;-6.852489620394788e-41;-0.12060591578483582;0.05579959228634834;-0.0323353111743927;-0.12723970413208008;-0.14664161205291748
66;0.054386209696531296;0.04426945000886917;-0.2532808184623718;0.08059685677289963;0.19283203780651093;-0.05016506835818291;0.15568967163562775;-6.852489620394788e-41;-0.12060591578483582;0.05579959228634834;-0.0323353111743927;-0.12723970413208008;-0.14664161205291748
69;0.21879246830940247;0.21023663878440857;-0.06798958033323288;0.23685359954833984;0.3665170669555664;0.10607548803091049;0.30755940079689026;-6.852489620394788e-41;0.04024353623390198;0.2241090089082718;0.12338297814130783;0.03223508223891258;0.018403811380267143
71;0.271040678024292;0.2634308636188507;-0.0035562547855079174;0.2837083041667938;0.417752206325531;0.15583449602127075;0.3520224988460541;-6.852489620394788e-41;0.09223952889442444;0.2768208086490631;0.16685537993907928;0.08525656908750534;0.07289277017116547
67;0.12398362159729004;0.11440785229206085;-0.1769723743200302;0.147271528840065;0.26140034198760986;0.018043704330921173;0.2210090607404709;-6.852489620394788e-41;-0.05175207555294037;0.12651440501213074;0.03186752274632454;-0.057454634457826614;-0.07611509412527084
67;0.12398362159729004;0.11440785229206085;-0.1769723743200302;0.147271528840065;0.26140034198760986;0.018043704330921173;0.2210090607404709;-6.852489620394788e-41;-0.05175207555294037;0.12651440501213074;0.03186752274632454;-0.057454634457826614;-0.07611509412527084
70;0.24809999763965607;0.2400268018245697;-0.03237222507596016;0.2634335160255432;0.3939381241798401;0.13423913717269897;0.3329267203807831;-6.852489620394788e-41;0.06938556581735611;0.25372496247291565;0.14840029180049896;0.06202782317996025;0.0488588772714138
72;0.29044800996780396;0.28328290581703186;0.021387239918112755;0.3005296587944031;0.43450477719306946;0.17368032038211823;0.36772647500038147;-6.852489620394788e-41;0.1116984635591507;0.29627877473831177;0.1800447255373001;0.10514573752880096;0.09347345679998398
68;0.17972664535045624;0.1706714928150177;-0.11355336010456085;0.2001476287841797;0.32288452982902527;0.07133149355649948;0.2725474536418915;-6.852489620394788e-41;0.0033746385015547276;0.18305376172065735;0.0835389643907547;-0.00253088865429163;-0.01968148909509182
68;0.17972664535045624;0.1706714928150177;-0.11355336010456085;0.2001476287841797;0.32288452982902527;0.07133149355649948;0.2725474536418915;-6.852489620394788e-41;0.0033746385015547276;0.18305376172065735;0.0835389643907547;-0.00253088865429163;-0.01968148909509182
71;0.271040678024292;0.2634308636188507;-0.0035562547855079174;0.2837083041667938;0.417752206325531;0.15583449602127075;0.3520224988460541;-6.852489620394788e-41;0.09223952889442444;0.2768208086490631;0.16685537993907928;0.08525656908750534;0.07289277017116547
73;0.30772238969802856;0.3009868264198303;0.043924931436777115;0.31530821323394775;0.44503507018089294;0.18937146663665771;0.3767770826816559;-6.852489620394788e-41;0.12906323373317719;0.31348493695259094;0.1937158852815628;0.12284515798091888;0.11195214837789536
69;0.21851758658885956;0.20996510982513428;-0.06791243702173233;0.23609864711761475;0.36541950702667236;0.10772319883108139;0.30725428462028503;-6.852489620394788e-41;0.041713010519742966;0.22234416007995605;0.11928613483905792;0.035948142409324646;0.019891582429409027
69;0.21851758658885956;0.20996510982513428;-0.06791243702173233;0.23609864711761475;0.36541950702667236;0.10772319883108139;0.30725428462028503;-6.852489620394788e-41;0.041713010519742966;0.22234416007995605;0.11928613483905792;0.035948142409324646;0.019891582429409027
72;0.29044800996780396;0.28328290581703186;0.021387239918112755;0.3005296587944031;0.43450477719306946;0.17368032038211823;0.36772647500038147;-6.852489620394788e-41;0.1116984635591507;0.29627877473831177;0.1800447255373001;0.10514573752880096;0.09347345679998398
74;0.32177436351776123;0.3154473900794983;0.06315881758928299;0.3253623843193054;0.45851555466651917;0.2021307647228241;0.3873903453350067;-6.852489620394788e-41;0.14315585792064667;0.32731321454048157;0.20513871312141418;0.1371244341135025;0.1270645409822464
70;0.24788358807563782;0.23981191217899323;-0.03226805478334427;0.26269659399986267;0.3927924633026123;0.13579639792442322;0.3326837122440338;-6.852489620394788e-41;0.07082182168960571;0.25203996896743774;0.14420923590660095;0.06559117138385773;0.05031725391745567
70;0.24788358807563782;0.23981191217899323;-0.03226805478334427;0.26269659399986267;0.3927924633026123;0.13579639792442322;0.3326837122440338;-6.852489620394788e-41;0.07082182168960571;0.25203996896743774;0.14420923590660095;0.06559117138385773;0.05031725391745567
73;0.30772238969802856;0.3009868264198303;0.043924931436777115;0.31530821323394775;0.44503507018089294;0.18937146663665771;0.3767770826816559;-6.852489620394788e-41;0.12906323373317719;0.31348493695259094;0.1937158852815628;0.12284515798091888;0.11195214837789536
75;0.3345598578453064;0.3286266028881073;0.08093945682048798;0.3358365297317505;0.4660995602607727;0.21367862820625305;0.39693182706832886;-6.852489620394788e-41;0.15617190301418304;0.33986377716064453;0.21552662551403046;0.15029190480709076;0.14100804924964905
71;0.2708507478237152;0.26324141025543213;-0.0034400324802845716;0.28296008706092834;0.4166054129600525;0.15729211270809174;0.3518044650554657;-6.852489620394788e-41;0.09360552579164505;0.27517828345298767;0.1628381609916687;0.0886494591832161;0.07428702712059021
71;0.2708507478237152;0.26324141025543213;-0.0034400324802845716;0.28296008706092834;0.4166054129600525;0.15729211270809174;0.3518044650554657;-6.852489620394788e-41;0.09360552579164505;0.27517828345298767;0.1628381609916687;0.0886494591832161;0.07428702712059021
74;0.32177436351776123;0.3154473900794983;0.06315881758928299;0.3253623843193054;0.45851555466651917;0.2021307647228241;0.3873903453350067;-6.852489620394788e-41;0.14315585792064667;0.32731321454048157;0.20513871312141418;0.1371244341135025;0.1270645409822464
76;0.34598180651664734;0.3404279053211212;0.09721042215824127;0.34505102038383484;0.4727908968925476;0.22400027513504028;0.40521639585494995;-6.852489620394788e-41;0.1678682118654251;0.3509688973426819;0.22464619576931;0.16217392683029175;0.1536494642496109
72;0.29017210006713867;0.28300994634628296;0.02143547497689724;0.2996824383735657;0.4332512319087982;0.17496518790721893;0.36741551756858826;-6.852489620394788e-41;0.11288037151098251;0.2945716679096222;0.1773448884487152;0.10827501118183136;0.094704270362854
72;0.29017210006713867;0.28300994634628296;0.02143547497689724;0.2996824383735657;0.4332512319087982;0.17496518790721893;0.36741551756858826;-6.852489620394788e-41;0.11288037151098251;0.2945716679096222;0.1773448884487152;0.10827501118183136;0.094704270362854
75;0.3345598578453064;0.3286266028881073;0.08093945682048798;0.3358365297317505;0.4660995602607727;0.21367862820625305;0.39693182706832886;-6.852489620394788e-41;0.15617190301418304;0.33986377716064453;0.21552662551403046;0.15029190480709076;0.14100804924964905
77;0.3563801348209381;0.3511834740638733;0.11097032576799393;0.35333138704299927;0.4799788296222687;0.23329517245292664;0.4125642478466034;-6.852489620394788e-41;0.17854447662830353;0.36093515157699585;0.23280496895313263;0.1731209009885788;0.16519111394882202
73;0.307433545589447;0.30069684982299805;0.043953344225883484;0.314424604177475;0.4437218904495239;0.19051414728164673;0.3764587640762329;-6.852489620394788e-41;0.130132257938385;0.3117792010307312;0.19164234399795532;0.1257951855659485;0.11307422816753387
73;0.307433545589447;0.30069684982299805;0.043953344225883484;0.314424604177475;0.4437218904495239;0.19051414728164673;0.3764587640762329;-6.852489620394788e-41;0.130132257938385;0.3117792010307312;0.19164234399795532;0.1257951855659485;0.11307422816753387
76;0.34598180651664734;0.3404279053211212;0.09721042215824127;0.34505102038383484;0.4727908968925476;0.22400027513504028;0.40521639585494995;-6.852489620394788e-41;0.1678682118654251;0.3509688973426819;0.22464619576931;0.16217392683029175;0.1536494642496109
78;0.36558789014816284;0.3607383072376251;0.1247880831360817;0.36052319407463074;0.4875441789627075;0.24139189720153809;0.41882991790771484;-6.852489620394788e-41;0.18807318806648254;0.3696745038032532;0.23988372087478638;0.1827753484249115;0.17554065585136414
74;0.32144248485565186;0.3151180148124695;0.0630837231874466;0.3251914083957672;0.4571213126182556;0.2030785083770752;0.38702940940856934;-6.852489620394788e-41;0.14418262243270874;0.3256364166736603;0.20304323732852936;0.1399410516023636;0.1281447410583496
74;0.32144248485565186;0.3151180148124695;0.0630837231874466;0.3251914083957672;0.4571213126182556;0.2030785083770752;0.38702940940856934;-6.852489620394788e-41;0.14418262243270874;0.3256364166736603;0.20304323732852936;0.1399410516023636;0.1281447410583496
77;0.3563801348209381;0.3511834740638733;0.11097032576799393;0.35333138704299927;0.4799788296222687;0.23329517245292664;0.4125642478466034;-6.852489620394788e-41;0.17854447662830353;0.36093515157699585;0.23280496895313263;0.1731209009885788;0.16519111394882202
79;0.3740682601928711;0.3695477545261383;0.13777659833431244;0.36708274483680725;0.494274765253067;0.24886086583137512;0.42447903752326965;-6.852489620394788e-41;0.19690488278865814;0.3776214122772217;0.24634741246700287;0.19178883731365204;0.18517062067985535
75;0.3342601954936981;0.3283305764198303;0.08088012784719467;0.33570805191993713;0.46475696563720703;0.21457335352897644;0.3966035842895508;-6.852489620394788e-41;0.15714789927005768;0.33824464678764343;0.21341128647327423;0.153004452586174;0.14201965928077698
75;0.3342601954936981;0.3283305764198303;0.08088012784719467;0.33570805191993713;0.46475696563720703;0.21457335352897644;0.3966035842895508;-6.852489620394788e-41;0.15714789927005768;0.33824464678764343;0.21341128647327423;0.153004452586174;0.14201965928077698
78;0.36558789014816284;0.3607383072376251;0.1247880831360817;0.36052319407463074;0.4875441789627075;0.24139189720153809;0.41882991790771484;-6.852489620394788e-41;0.18807318806648254;0.3696745038032532;0.23988372087478638;0.1827753484249115;0.17554065585136414
80;0.3819774389266968;0.3777649998664856;0.15009720623493195;0.37316304445266724;0.5002222657203674;0.255749374628067;0.4296613931655884;-6.852489620394788e-41;0.20519059896469116;0.3849320411682129;0.2523459494113922;0.20024962723255157;0.19420987367630005
76;0.3457169830799103;0.34016066789627075;0.097172811627388;0.3449620306491852;0.4714689254760742;0.22483457624912262;0.40492376685142517;-6.852489620394788e-41;0.16879327595233917;0.34940609335899353;0.22252139449119568;0.1647864729166031;0.15463025867938995
76;0.3457169830799103;0.34016066789627075;0.097172811627388;0.3449620306491852;0.4714689254760742;0.22483457624912262;0.40492376685142517;-6.852489620394788e-41;0.16879327595233917;0.34940609335899353;0.22252139449119568;0.1647864729166031;0.15463025867938995
79;0.3740682601928711;0.3695477545261383;0.13777659833431244;0.36708274483680725;0.494274765253067;0.24886086583137512;0.42447903752326965;-6.852489620394788e-41;0.19690488278865814;0.3776214122772217;0.24634741246700287;0.19178883731365204;0.18517062067985535
81;0.3893662691116333;0.38545262813568115;0.1618138700723648;0.37881603837013245;0.5055266618728638;0.26220980286598206;0.4344325661659241;-6.852489620394788e-41;0.2129860669374466;0.3916739225387573;0.25793761014938354;0.20824916660785675;0.20272359251976013
77;0.35615184903144836;0.35095688700675964;0.11096181720495224;0.35328927636146545;0.4786502718925476;0.23408037424087524;0.41231077909469604;-6.852489620394788e-41;0.17942678928375244;0.3593866527080536;0.2306848019361496;0.1756480485200882;0.16613547503948212
77;0.35615184903144836;0.35095688700675964;0.11096181720495224;0.35328927636146545;0.4786502718925476;0.23408037424087524;0.41231077909469604;-6.852489620394788e-41;0.17942678928375244;0.3593866527080536;0.2306848019361496;0.1756480485200882;0.16613547503948212
80;0.3819774389266968;0.3777649998664856;0.15009720623493195;0.37316304445266724;0.5002222657203674;0.255749374628067;0.4296613931655884;-6.852489620394788e-41;0.20519059896469116;0.3849320411682129;0.2523459494113922;0.20024962723255157;0.19420987367630005
82;0.39648982882499695;0.3928573727607727;0.17319923639297485;0.38399624824523926;0.5091942548751831;0.2684706747531891;0.43904757499694824;-6.852489620394788e-41;0.22053207457065582;0.39809373021125793;0.2632521986961365;0.21594130992889404;0.21094530820846558
78;0.3653993606567383;0.3605479300022125;0.12480388581752777;0.36052483320236206;0.4862264394760132;0.24213188886642456;0.4186156094074249;-6.852489620394788e-41;0.18891538679599762;0.36819177865982056;0.23777686059474945;0.18515345454216003;0.1764499992132187
78;0.3653993606567383;0.3605479300022125;0.12480388581752777;0.36052483320236206;0.4862264394760132;0.24213188886642456;0.4186156094074249;-6.852489620394788e-41;0.18891538679599762;0.36819177865982056;0.23777686059474945;0.18515345454216003;0.1764499992132187
81;0.3893662691116333;0.38545262813568115;0.1618138700723648;0.37881603837013245;0.5055266618728638;0.26220980286598206;0.4344325661659241;-6.852489620394788e-41;0.2129860669374466;0.3916739225387573;0.25793761014938354;0.20824916660785675;0.20272359251976013
83;0.40376344323158264;0.40040063858032227;0.18467320501804352;0.3897063732147217;0.5093436241149902;0.2750245928764343;0.44393426179885864;-6.852489620394788e-41;0.2282959669828415;0.40463438630104065;0.2685127258300781;0.22390116751194;0.21933788061141968
79;0.3739068806171417;0.36938735842704773;0.1378125697374344;0.367117315530777;0.4929618835449219;0.24953998625278473;0.42429235577583313;-6.852489620394788e-41;0.19769935309886932;0.37619543075561523;0.2442471981048584;0.19409364461898804;0.18606677651405334
79;0.3739068806171417;0.36938735842704773;0.1378125697374344;0.367117315530777;0.4929618835449219;0.24953998625278473;0.42429235577583313;-6.852489620394788e-41;0.19769935309886932;0.37619543075561523;0.2442471981048584;0.19409364461898804;0.18606677651405334
82;0.39648982882499695;0.3928573727607727;0.17319923639297485;0.38399624824523926;0.5091942548751831;0.2684706747531891;0.43904757499694824;-6.852489620394788e-41;0.22053207457065582;0.39809373021125793;0.2632521986961365;0.21594130992889404;0.21094530820846558
84;0.4101112186908722;0.4069969952106476;0.19514891505241394;0.394314169883728;0.512588381767273;0.2805611789226532;0.4479607045650482;-6.852489620394788e-41;0.2350561022758484;0.4101341962814331;0.27307868003845215;0.23080579936504364;0.22669996321201324
80;0.38184547424316406;0.3776342272758484;0.15015128254890442;0.37322935461997986;0.49892693758010864;0.256380558013916;0.42950597405433655;-6.852489620394788e-41;0.20594114065170288;0.3835641145706177;0.25026175379753113;0.2024458944797516;0.19508565962314606
80;0.38184547424316406;0.3776342272758484;0.15015128254890442;0.37322935461997986;0.49892693758010864;0.256380558013916;0.42950597405433655;-6.852489620394788e-41;0.20594114065170288;0.3835641145706177;0.25026175379753113;0.2024458944797516;0.19508565962314606
83;0.40376344323158264;0.40040063858032227;0.18467320501804352;0.3897063732147217;0.5093436241149902;0.2750245928764343;0.44393426179885864;-6.852489620394788e-41;0.2282959669828415;0.40463438630104065;0.2685127258300781;0.22390116751194;0.21933788061141968
85;0.4253268241882324;0.42244964838027954;0.21228532493114471;0.3941556215286255;0.5229132175445557;0.277743935585022;0.45133864879608154;-6.852489620394788e-41;0.2332926243543625;0.4060796797275543;0.2696511149406433;0.229789599776268;0.2255736142396927
81;0.38925787806510925;0.3853462040424347;0.16188400983810425;0.37891191244125366;0.5042459964752197;0.2627948522567749;0.43429961800575256;-6.852489620394788e-41;0.21369048953056335;0.39035913348197937;0.2558697462081909;0.21037651598453522;0.20356963574886322
81;0.38925787806510925;0.3853462040424347;0.16188400983810425;0.37891191244125366;0.5042459964752197;0.2627948522567749;0.43429961800575256;-6.852489620394788e-41;0.21369048953056335;0.39035913348197937;0.2558697462081909;0.21037651598453522;0.20356963574886322
84;0.4101112186908722;0.4069969952106476;0.19514891505241394;0.394314169883728;0.512588381767273;0.2805611789226532;0.4479607045650482;-6.852489620394788e-41;0.2350561022758484;0.4101341962814331;0.27307868003845215;0.23080579936504364;0.22669996321201324
82;0.3963923156261444;0.3927585482597351;0.17325374484062195;0.38429170846939087;0.5079739093780518;0.2689865529537201;0.4389241337776184;-6.852489620394788e-41;0.22120195627212524;0.3968091905117035;0.2611188590526581;0.21799802780151367;0.21173250675201416
86;0.43099039793014526;0.42833980917930603;0.2219826579093933;0.39825424551963806;0.5258325338363647;0.2829180061817169;0.45501837134361267;-6.852489620394788e-41;0.23959064483642578;0.4110317528247833;0.2736797630786896;0.23617446422576904;0.2324102371931076
82;0.3963923156261444;0.3927585482597351;0.17325374484062195;0.38429170846939087;0.5079739093780518;0.2689865529537201;0.4389241337776184;-6.852489620394788e-41;0.22120195627212524;0.3968091905117035;0.2611188590526581;0.21799802780151367;0.21173250675201416
85;0.4253268241882324;0.42244964838027954;0.21228532493114471;0.3941556215286255;0.5229132175445557;0.277743935585022;0.45133864879608154;-6.852489620394788e-41;0.2332926243543625;0.4060796797275543;0.2696511149406433;0.229789599776268;0.2255736142396927
83;0.40376409888267517;0.40039604902267456;0.18479259312152863;0.3901037573814392;0.508329451084137;0.2755836844444275;0.4433615505695343;-6.852489620394788e-41;0.2290058583021164;0.4033936560153961;0.26645031571388245;0.2259155958890915;0.22016535699367523
83;0.40376409888267517;0.40039604902267456;0.18479259312152863;0.3901037573814392;0.508329451084137;0.2755836844444275;0.4433615505695343;-6.852489620394788e-41;0.2290058583021164;0.4033936560153961;0.26645031571388245;0.2259155958890915;0.22016535699367523
87;0.43632662296295166;0.43388840556144714;0.23128272593021393;0.4018374979496002;0.5286778807640076;0.28794893622398376;0.4584976136684418;-6.852489620394788e-41;0.24564358592033386;0.4157050848007202;0.27807798981666565;0.24236798286437988;0.2389775812625885
86;0.43099039793014526;0.42833980917930603;0.2219826579093933;0.39825424551963806;0.5258325338363647;0.2829180061817169;0.45501837134361267;-6.852489620394788e-41;0.23959064483642578;0.4110317528247833;0.2736797630786896;0.23617446422576904;0.2324102371931076
84;0.4100511074066162;0.4069385826587677;0.1951594203710556;0.39481523633003235;0.5120022296905518;0.28102532029151917;0.44734781980514526;-6.852489620394788e-41;0.23570483922958374;0.40885287523269653;0.2711844742298126;0.23266199231147766;0.22747066617012024
84;0.4100511074066162;0.4069385826587677;0.1951594203710556;0.39481523633003235;0.5120022296905518;0.28102532029151917;0.44734781980514526;-6.852489620394788e-41;0.23570483922958374;0.40885287523269653;0.2711844742298126;0.23266199231147766;0.22747066617012024
88;0.44164249300956726;0.439403235912323;0.24049650132656097;0.40625637769699097;0.5290327668190002;0.2930672764778137;0.4620687663555145;-6.852489620394788e-41;0.2517735958099365;0.42037898302078247;0.28263935446739197;0.24850672483444214;0.24560262262821198
87;0.43632662296295166;0.43388840556144714;0.23128272593021393;0.4018374979496002;0.5286778807640076;0.28794893622398376;0.4584976136684418;-6.852489620394788e-41;0.24564358592033386;0.4157050848007202;0.27807798981666565;0.24236798286437988;0.2389775812625885
85;0.4253471791744232;0.4224739968776703;0.21242013573646545;0.39293333888053894;0.5224690437316895;0.2780815362930298;0.4513116776943207;-6.852489620394788e-41;0.23379936814308167;0.40545058250427246;0.26811090111732483;0.23084823787212372;0.2260514497756958
85;0.4253471791744232;0.4224739968776703;0.21242013573646545;0.39293333888053894;0.5224690437316895;0.2780815362930298;0.4513116776943207;-6.852489620394788e-41;0.23379936814308167;0.40545058250427246;0.26811090111732483;0.23084823787212372;0.2260514497756958
89;0.4469546377658844;0.44490334391593933;0.24867400527000427;0.41034966707229614;0.5299529433250427;0.297078400850296;0.46570637822151184;-6.852489620394788e-41;0.2578698396682739;0.4249868094921112;0.28724417090415955;0.254665344953537;0.2521585524082184
88;0.44164249300956726;0.439403235912323;0.24049650132656097;0.40625637769699097;0.5290327668190002;0.2930672764778137;0.4620687663555145;-6.852489620394788e-41;0.2517735958099365;0.42037898302078247;0.28263935446739197;0.24850672483444214;0.24560262262821198
86;0.4309482276439667;0.42829790711402893;0.22202938795089722;0.3973296582698822;0.525543212890625;0.283172607421875;0.4549415111541748;-6.852489620394788e-41;0.24004045128822327;0.4103759527206421;0.27254438400268555;0.2370086908340454;0.23282849788665771
86;0.4309482276439667;0.42829790711402893;0.22202938795089722;0.3973296582698822;0.525543212890625;0.283172607421875;0.4549415111541748;-6.852489620394788e-41;0.24004045128822327;0.4103759527206421;0.27254438400268555;0.2370086908340454;0.23282849788665771
90;0.45169326663017273;0.449814110994339;0.2571866512298584;0.41433584690093994;0.5307432413101196;0.30170831084251404;0.46886688470840454;-6.852489620394788e-41;0.26344090700149536;0.4290328919887543;0.2913985550403595;0.2603345215320587;0.2581533193588257
89;0.4469546377658844;0.44490334391593933;0.24867400527000427;0.41034966707229614;0.5299529433250427;0.297078400850296;0.46570637822151184;-6.852489620394788e-41;0.2578698396682739;0.4249868094921112;0.28724417090415955;0.254665344953537;0.2521585524082184
87;0.43625545501708984;0.43381795287132263;0.23127688467502594;0.40148088335990906;0.5283899903297424;0.28813064098358154;0.4584006369113922;-6.852489620394788e-41;0.24606509506702423;0.4150252640247345;0.2769627273082733;0.24304519593715668;0.23938341438770294
87;0.43625545501708984;0.43381795287132263;0.23127688467502594;0.40148088335990906;0.5283899903297424;0.28813064098358154;0.4584006369113922;-6.852489620394788e-41;0.24606509506702423;0.4150252640247345;0.2769627273082733;0.24304519593715668;0.23938341438770294
91;0.45622050762176514;0.4545062482357025;0.26482027769088745;0.41817837953567505;0.5320008993148804;0.3061545491218567;0.4718920588493347;-6.852489620394788e-41;0.2687961161136627;0.4328312575817108;0.295411080121994;0.26580047607421875;0.263909250497818
90;0.45169326663017273;0.449814110994339;0.2571866512298584;0.41433584690093994;0.5307432413101196;0.30170831084251404;0.46886688470840454;-6.852489620394788e-41;0.26344090700149536;0.4290328919887543;0.2913985550403595;0.2603345215320587;0.2581533193588257
88;0.44159889221191406;0.43935850262641907;0.24050727486610413;0.4059269428253174;0.5287865400314331;0.29323267936706543;0.46199971437454224;-6.852489620394788e-41;0.25216928124427795;0.4196488857269287;0.2815488576889038;0.24921496212482452;0.24598994851112366
88;0.44159889221191406;0.43935850262641907;0.24050727486610413;0.4059269428253174;0.5287865400314331;0.29323267936706543;0.46199971437454224;-6.852489620394788e-41;0.25216928124427795;0.4196488857269287;0.2815488576889038;0.24921496212482452;0.24598994851112366
92;0.4613233506679535;0.4597596526145935;0.27358466386795044;0.42265623807907104;0.5276877880096436;0.3112836480140686;0.4755994975566864;-6.852489620394788e-41;0.2748226225376129;0.43722739815711975;0.3000718355178833;0.2719269394874573;0.2703087031841278
91;0.45622050762176514;0.4545062482357025;0.26482027769088745;0.41817837953567505;0.5320008993148804;0.3061545491218567;0.4718920588493347;-6.852489620394788e-41;0.2687961161136627;0.4328312575817108;0.295411080121994;0.26580047607421875;0.263909250497818
89;0.44690707325935364;0.44485369324684143;0.24866129457950592;0.4102734923362732;0.5298085808753967;0.2972056567668915;0.46564534306526184;-6.852489620394788e-41;0.2582511603832245;0.4242039620876312;0.2861899733543396;0.25530508160591125;0.2525252103805542
89;0.44690707325935364;0.44485369324684143;0.24866129457950592;0.4102734923362732;0.5298085808753967;0.2972056567668915;0.46564534306526184;-6.852489620394788e-41;0.2582511603832245;0.4242039620876312;0.2861899733543396;0.25530508160591125;0.2525252103805542
93;0.46154770255088806;0.4600975215435028;0.27646949887275696;0.42253822088241577;0.5214637517929077;0.31181013584136963;0.47481241822242737;-6.852489620394788e-41;0.27620363235473633;0.43719446659088135;0.3003140389919281;0.2733779549598694;0.27196893095970154
92;0.4613233506679535;0.4597596526145935;0.27358466386795044;0.42265623807907104;0.5276877880096436;0.3112836480140686;0.4755994975566864;-6.852489620394788e-41;0.2748226225376129;0.43722739815711975;0.3000718355178833;0.2719269394874573;0.2703087031841278
90;0.45167917013168335;0.44979867339134216;0.257199227809906;0.41429367661476135;0.5306236743927002;0.30182769894599915;0.46883928775787354;-6.852489620394788e-41;0.263805627822876;0.4282008111476898;0.2903764545917511;0.26093173027038574;0.2585170269012451
90;0.45167917013168335;0.44979867339134216;0.257199227809906;0.41429367661476135;0.5306236743927002;0.30182769894599915;0.46883928775787354;-6.852489620394788e-41;0.263805627822876;0.4282008111476898;0.2903764545917511;0.26093173027038574;0.2585170269012451
94;0.45995214581489563;0.45857954025268555;0.27657583355903625;0.42084696888923645;0.5131968259811401;0.3108130097389221;0.4726022779941559;-6.852489620394788e-41;0.27603861689567566;0.4358011484146118;0.30009689927101135;0.27347612380981445;0.2720654308795929
93;0.46154770255088806;0.4600975215435028;0.27646949887275696;0.42253822088241577;0.5214637517929077;0.31181013584136963;0.47481241822242737;-6.852489620394788e-41;0.27620363235473633;0.43719446659088135;0.3003140389919281;0.2733779549598694;0.27196893095970154
