batch_number;w0;w1;w2;w3;w4;w5;w6;w7;w8;w9;w10;w11;w12
1;0.6285877823829651;0.32350975275039673;1.1452746391296387;0.44026872515678406;0.40904372930526733;-0.4219396412372589;1.1310311555862427;-0.07106783986091614;0.23278450965881348;0.7753667235374451;0.025128038600087166;0.45807358622550964;0.6271913647651672
batch_number;w0;w1;w2;w3;w4;w5;w6;w7;w8;w9;w10;w11;w12
1;0.6829266548156738;0.3221836984157562;1.1325654983520508;0.444534569978714;0.23122650384902954;-0.13297021389007568;1.15109384059906;-0.09145504236221313;-0.05596575140953064;0.16666291654109955;0.025128038600087166;0.09149838984012604;0.012725310400128365
2;1.1247037649154663;0.7220855355262756;1.532785415649414;0.856062114238739;0.4479620158672333;0.06732037663459778;1.5220248699188232;0.06803253293037415;0.2013256549835205;0.8842312693595886;2.3917378712212667e-05;0.5689182281494141;0.6589155197143555
batch_number;w0;w1;w2;w3;w4;w5;w6;w7;w8;w9;w10;w11;w12
1;0.6285877823829651;0.32350975275039673;1.1452746391296387;0.44026872515678406;0.40904372930526733;-0.4219396412372589;1.1310311555862427;-0.07106783986091614;0.23278450965881348;0.7753667235374451;0.025128038600087166;0.45807358622550964;0.6271913647651672
3;1.4760551452636719;0.9654915928840637;1.7545276880264282;1.111686110496521;0.42146673798561096;0.1618165671825409;1.7485383749008179;0.10288912802934647;0.18914563953876495;0.931159257888794;3.7322485380020254e-11;0.6597310900688171;0.44536107778549194
2;1.2727882862091064;0.7340678572654724;1.5421721935272217;0.9174530506134033;0.2769516408443451;-0.008737481199204922;1.5906319618225098;-0.008979090489447117;-0.008311199024319649;0.15294480323791504;2.3917378712212667e-05;0.057276610285043716;0.015047616325318813
batch_number;w0;w1;w2;w3;w4;w5;w6;w7;w8;w9;w10;w11;w12
1;0.6285877823829651;0.32350975275039673;1.1452746391296387;0.44026872515678406;0.40904372930526733;-0.4219396412372589;1.1310311555862427;-0.07106783986091614;0.23278450965881348;0.7753667235374451;0.025128038600087166;0.45807358622550964;0.6271913647651672
3;1.731140375137329;0.9964377880096436;1.7825732231140137;1.2313005924224854;0.29898983240127563;0.040460117161273956;1.8642319440841675;0.03301659971475601;0.03303992748260498;0.09476456046104431;3.7322485380020254e-11;0.1336658000946045;0.04629671573638916
batch_number;w0;w1;w2;w3;w4;w5;w6;w7;w8;w9;w10;w11;w12
1;0.6285877823829651;0.32350975275039673;1.1452746391296387;0.44026872515678406;0.40904372930526733;-0.4219396412372589;1.1310311555862427;-0.07106783986091614;0.23278450965881348;0.7753667235374451;0.025128038600087166;0.45807358622550964;0.6271913647651672
2;1.1247037649154663;0.7220855355262756;1.532785415649414;0.856062114238739;0.4479620158672333;0.06732037663459778;1.5220248699188232;0.06803253293037415;0.2013256549835205;0.8842312693595886;2.3917378712212667e-05;0.5689182281494141;0.6589155197143555
batch_number;w0;w1;w2;w3;w4;w5;w6;w7;w8;w9;w10;w11;w12
1;0.6829266548156738;0.3221836984157562;1.1325654983520508;0.444534569978714;0.23122650384902954;-0.13297021389007568;1.15109384059906;-0.09145504236221313;-0.05596575140953064;0.16666291654109955;0.025128038600087166;0.09149838984012604;0.012725310400128365
4;2.2739202976226807;1.2804208993911743;2.0535221099853516;1.5286914110183716;0.42274338006973267;0.06839098036289215;2.11838698387146;0.0653153732419014;0.06606544554233551;0.05327979475259781;8.400622693731799e-23;0.26776713132858276;0.07654237002134323
3;1.4760551452636719;0.9654915928840637;1.7545276880264282;1.111686110496521;0.42146673798561096;0.1618165671825409;1.7485383749008179;0.10288912802934647;0.18914563953876495;0.931159257888794;3.7322485380020254e-11;0.6597310900688171;0.44536107778549194
2;1.1247037649154663;0.7220855355262756;1.532785415649414;0.856062114238739;0.4479620158672333;0.06732037663459778;1.5220248699188232;0.06803253293037415;0.2013256549835205;0.8842312693595886;2.3917378712212667e-05;0.5689182281494141;0.6589155197143555
2;1.2727882862091064;0.7340678572654724;1.5421721935272217;0.9174530506134033;0.2769516408443451;-0.008737481199204922;1.5906319618225098;-0.008979090489447117;-0.008311199024319649;0.15294480323791504;2.3917378712212667e-05;0.057276610285043716;0.015047616325318813
4;1.9817211627960205;1.1996678113937378;1.948488712310791;1.3478962182998657;0.4740319848060608;0.1434701532125473;1.949826955795288;0.07885563373565674;0.08676812052726746;0.7774630784988403;8.400622693731799e-23;0.7879777550697327;0.24977852404117584
5;2.658970594406128;1.4523909091949463;2.1637144088745117;1.7193341255187988;0.3958033621311188;0.043340250849723816;2.258984088897705;0.03838472068309784;0.03857777267694473;0.03768222779035568;-2.3834685579700814e-41;0.19293291866779327;0.043669573962688446
3;1.4760551452636719;0.9654915928840637;1.7545276880264282;1.111686110496521;0.42146673798561096;0.1618165671825409;1.7485383749008179;0.10288912802934647;0.18914563953876495;0.931159257888794;3.7322485380020254e-11;0.6597310900688171;0.44536107778549194
3;1.731140375137329;0.9964377880096436;1.7825732231140137;1.2313005924224854;0.29898983240127563;0.040460117161273956;1.8642319440841675;0.03301659971475601;0.03303992748260498;0.09476456046104431;3.7322485380020254e-11;0.1336658000946045;0.04629671573638916
5;2.3767693042755127;1.3436429500579834;2.07446551322937;1.5184412002563477;0.46422871947288513;0.07187318056821823;2.0477371215820312;0.03159977123141289;0.031265877187252045;0.4925992786884308;-2.3834685579700814e-41;0.8228844404220581;0.1379210352897644
6;3.0391249656677246;1.609045147895813;2.1915929317474365;1.8557071685791016;0.2668105363845825;0.02328159101307392;2.314795732498169;0.021031280979514122;0.02095266990363598;0.03416020795702934;-2.3834685579700814e-41;0.12347207963466644;0.026166928932070732
4;2.2739202976226807;1.2804208993911743;2.0535221099853516;1.5286914110183716;0.42274338006973267;0.06839098036289215;2.11838698387146;0.0653153732419014;0.06606544554233551;0.05327979475259781;8.400622693731799e-23;0.26776713132858276;0.07654237002134323
4;1.9817211627960205;1.1996678113937378;1.948488712310791;1.3478962182998657;0.4740319848060608;0.1434701532125473;1.949826955795288;0.07885563373565674;0.08676812052726746;0.7774630784988403;8.400622693731799e-23;0.7879777550697327;0.24977852404117584
6;2.768092155456543;1.5124797821044922;2.1383583545684814;1.6854865550994873;0.33395418524742126;0.0625963807106018;2.132380962371826;0.011236508376896381;0.011016136035323143;0.25538504123687744;-2.3834685579700814e-41;0.6778247356414795;0.08394668251276016
7;3.3629956245422363;1.6782033443450928;2.116903305053711;1.9305788278579712;0.16452738642692566;0.011723406612873077;2.2779223918914795;0.0054842280223965645;0.005342449061572552;0.027936233207583427;-2.3834685579700814e-41;0.08646948635578156;0.008580894209444523
5;2.658970594406128;1.4523909091949463;2.1637144088745117;1.7193341255187988;0.3958033621311188;0.043340250849723816;2.258984088897705;0.03838472068309784;0.03857777267694473;0.03768222779035568;-2.3834685579700814e-41;0.19293291866779327;0.043669573962688446
7;3.180320978164673;1.6588701009750366;2.1411240100860596;1.8142658472061157;0.2303740233182907;0.05890469625592232;2.162929058074951;0.0011091864435002208;0.0008714631549082696;0.12049509584903717;-2.3834685579700814e-41;0.6533087491989136;0.06177527830004692
5;2.3767693042755127;1.3436429500579834;2.07446551322937;1.5184412002563477;0.46422871947288513;0.07187318056821823;2.0477371215820312;0.03159977123141289;0.031265877187252045;0.4925992786884308;-2.3834685579700814e-41;0.8228844404220581;0.1379210352897644
8;3.4944238662719727;1.7355057001113892;2.1061313152313232;1.9454104900360107;0.17139410972595215;0.052650243043899536;2.140420913696289;-0.0016604403499513865;-0.0018659404013305902;0.0636485368013382;-2.3834685579700814e-41;0.5071049332618713;0.0491207018494606
6;3.0391249656677246;1.609045147895813;2.1915929317474365;1.8557071685791016;0.2668105363845825;0.02328159101307392;2.314795732498169;0.021031280979514122;0.02095266990363598;0.03416020795702934;-2.3834685579700814e-41;0.12347207963466644;0.026166928932070732
8;3.596585273742676;1.6572309732437134;1.9760243892669678;1.9536765813827515;0.11009445041418076;-0.0026160164270550013;2.162830114364624;-0.00744507135823369;-0.007565299514681101;0.014509630389511585;-2.3834685579700814e-41;0.059742093086242676;-0.0035556508228182793
6;2.768092155456543;1.5124797821044922;2.1383583545684814;1.6854865550994873;0.33395418524742126;0.0625963807106018;2.132380962371826;0.011236508376896381;0.011016136035323143;0.25538504123687744;-2.3834685579700814e-41;0.6778247356414795;0.08394668251276016
9;3.6782002449035645;1.7513843774795532;2.0261151790618896;1.9723249673843384;0.13454213738441467;0.0382029265165329;2.0770413875579834;-0.0022889527026563883;-0.0023907499853521585;0.05682716518640518;-2.3834685579700814e-41;0.3565601706504822;0.03703839331865311
7;3.3629956245422363;1.6782033443450928;2.116903305053711;1.9305788278579712;0.16452738642692566;0.011723406612873077;2.2779223918914795;0.0054842280223965645;0.005342449061572552;0.027936233207583427;-2.3834685579700814e-41;0.08646948635578156;0.008580894209444523
9;3.7516300678253174;1.6024627685546875;1.8067704439163208;1.9047664403915405;0.08580800890922546;-0.00966809131205082;2.011401891708374;-0.011810577474534512;-0.011873738840222359;0.00553108798339963;-2.3834685579700814e-41;0.04424448311328888;-0.00942878145724535
7;3.180320978164673;1.6588701009750366;2.1411240100860596;1.8142658472061157;0.2303740233182907;0.05890469625592232;2.162929058074951;0.0011091864435002208;0.0008714631549082696;0.12049509584903717;-2.3834685579700814e-41;0.6533087491989136;0.06177527830004692
10;3.8575804233551025;1.7012461423873901;1.8756864070892334;1.9190996885299683;0.11473030596971512;0.03485414758324623;1.936014175415039;0.009908282198011875;0.011138427071273327;0.08677755296230316;-2.3834685579700814e-41;0.26379382610321045;0.03562237694859505
8;3.596585273742676;1.6572309732437134;1.9760243892669678;1.9536765813827515;0.11009445041418076;-0.0026160164270550013;2.162830114364624;-0.00744507135823369;-0.007565299514681101;0.014509630389511585;-2.3834685579700814e-41;0.059742093086242676;-0.0035556508228182793
8;3.4944238662719727;1.7355057001113892;2.1061313152313232;1.9454104900360107;0.17139410972595215;0.052650243043899536;2.140420913696289;-0.0016604403499513865;-0.0018659404013305902;0.0636485368013382;-2.3834685579700814e-41;0.5071049332618713;0.0491207018494606
10;3.9561960697174072;1.5319769382476807;1.6311719417572021;1.8457955121994019;0.07438313961029053;0.014273528009653091;1.8682317733764648;0.0132902218028903;0.01568819023668766;-0.0010085224639624357;-2.3834685579700814e-41;0.04057396948337555;0.019160347059369087
11;4.027701377868652;1.642462968826294;1.7356609106063843;1.8912086486816406;0.09949707984924316;0.04027587175369263;1.8562889099121094;0.0183289535343647;0.018927713856101036;0.10153520852327347;-2.3834685579700814e-41;0.209228977560997;0.04596959054470062
9;3.7516300678253174;1.6024627685546875;1.8067704439163208;1.9047664403915405;0.08580800890922546;-0.00966809131205082;2.011401891708374;-0.011810577474534512;-0.011873738840222359;0.00553108798339963;-2.3834685579700814e-41;0.04424448311328888;-0.00942878145724535
9;3.6782002449035645;1.7513843774795532;2.0261151790618896;1.9723249673843384;0.13454213738441467;0.0382029265165329;2.0770413875579834;-0.0022889527026563883;-0.0023907499853521585;0.05682716518640518;-2.3834685579700814e-41;0.3565601706504822;0.03703839331865311
11;4.131371974945068;1.4656928777694702;1.4942777156829834;1.80003023147583;0.06575174629688263;0.015471904538571835;1.7576172351837158;0.007761312648653984;0.008615750819444656;0.004263149108737707;-2.3834685579700814e-41;0.033882368355989456;0.015463598072528839
12;4.188535213470459;1.617905616760254;1.6609430313110352;1.8479763269424438;0.08444378525018692;0.040462154895067215;1.7750003337860107;0.01752091571688652;0.017536506056785583;0.10291635245084763;-2.3834685579700814e-41;0.18144702911376953;0.03426153212785721
10;3.9561960697174072;1.5319769382476807;1.6311719417572021;1.8457955121994019;0.07438313961029053;0.014273528009653091;1.8682317733764648;0.0132902218028903;0.01568819023668766;-0.0010085224639624357;-2.3834685579700814e-41;0.04057396948337555;0.019160347059369087
10;3.8575804233551025;1.7012461423873901;1.8756864070892334;1.9190996885299683;0.11473030596971512;0.03485414758324623;1.936014175415039;0.009908282198011875;0.011138427071273327;0.08677755296230316;-2.3834685579700814e-41;0.26379382610321045;0.03562237694859505
12;4.271152496337891;1.4181783199310303;1.4058152437210083;1.7338157892227173;0.054222796112298965;0.0031395277474075556;1.6614785194396973;-0.0021665121894329786;-0.0021538250148296356;0.012887777760624886;-2.3834685579700814e-41;0.030425693839788437;-0.00033952982630580664
13;4.263312339782715;1.506369709968567;1.499974250793457;1.7258132696151733;0.08739946782588959;0.021956801414489746;1.6233371496200562;0.005239092744886875;0.005075507797300816;0.0640857145190239;-2.3834685579700814e-41;0.12236438691616058;0.023021230474114418
11;4.131371974945068;1.4656928777694702;1.4942777156829834;1.80003023147583;0.06575174629688263;0.015471904538571835;1.7576172351837158;0.007761312648653984;0.008615750819444656;0.004263149108737707;-2.3834685579700814e-41;0.033882368355989456;0.015463598072528839
11;4.027701377868652;1.642462968826294;1.7356609106063843;1.8912086486816406;0.09949707984924316;0.04027587175369263;1.8562889099121094;0.0183289535343647;0.018927713856101036;0.10153520852327347;-2.3834685579700814e-41;0.209228977560997;0.04596959054470062
13;4.42658805847168;1.359971284866333;1.3239916563034058;1.6983612775802612;0.046241555362939835;0.001010890118777752;1.597836971282959;-0.004088908433914185;-0.004064464010298252;0.004036293365061283;-2.3834685579700814e-41;0.028385093435645103;0.003153517609462142
14;4.398006916046143;1.4772855043411255;1.4577813148498535;1.7291077375411987;0.07890547811985016;0.023182319477200508;1.6131746768951416;0.0021331142634153366;0.0018653192091733217;0.06352215260267258;-2.3834685579700814e-41;0.11773344874382019;0.01831061765551567
12;4.188535213470459;1.617905616760254;1.6609430313110352;1.8479763269424438;0.08444378525018692;0.040462154895067215;1.7750003337860107;0.01752091571688652;0.017536506056785583;0.10291635245084763;-2.3834685579700814e-41;0.18144702911376953;0.03426153212785721
12;4.271152496337891;1.4181783199310303;1.4058152437210083;1.7338157892227173;0.054222796112298965;0.0031395277474075556;1.6614785194396973;-0.0021665121894329786;-0.0021538250148296356;0.012887777760624886;-2.3834685579700814e-41;0.030425693839788437;-0.00033952982630580664
15;4.452994346618652;1.4832464456558228;1.4406951665878296;1.7206603288650513;0.0675329715013504;0.014460801146924496;1.59736168384552;-0.0016743300948292017;-0.0018193988362327218;0.04729466140270233;-2.3834685579700814e-41;0.10998329520225525;0.011343847960233688
14;4.499469757080078;1.3157219886779785;1.272948145866394;1.6761835813522339;0.03792726993560791;-0.002395720686763525;1.5710947513580322;-0.006666033528745174;-0.006754191126674414;0.022215764969587326;-2.3834685579700814e-41;0.023286813870072365;-0.004433774389326572
13;4.263312339782715;1.506369709968567;1.499974250793457;1.7258132696151733;0.08739946782588959;0.021956801414489746;1.6233371496200562;0.005239092744886875;0.005075507797300816;0.0640857145190239;-2.3834685579700814e-41;0.12236438691616058;0.023021230474114418
13;4.42658805847168;1.359971284866333;1.3239916563034058;1.6983612775802612;0.046241555362939835;0.001010890118777752;1.597836971282959;-0.004088908433914185;-0.004064464010298252;0.004036293365061283;-2.3834685579700814e-41;0.028385093435645103;0.003153517609462142
16;4.534317970275879;1.4822099208831787;1.4376626014709473;1.7020416259765625;0.07504751533269882;0.00871726032346487;1.581346035003662;-0.0037507442757487297;-0.003976695239543915;0.07641222327947617;-2.3834685579700814e-41;0.09459802508354187;0.011892045848071575
15;4.501551628112793;1.3010151386260986;1.2436845302581787;1.642757773399353;0.03179584816098213;-0.007227400783449411;1.539669156074524;-0.009083414450287819;-0.00913161039352417;0.02143140323460102;-2.3834685579700814e-41;0.01686914637684822;-0.007291197311133146
14;4.398006916046143;1.4772855043411255;1.4577813148498535;1.7291077375411987;0.07890547811985016;0.023182319477200508;1.6131746768951416;0.0021331142634153366;0.0018653192091733217;0.06352215260267258;-2.3834685579700814e-41;0.11773344874382019;0.01831061765551567
14;4.499469757080078;1.3157219886779785;1.272948145866394;1.6761835813522339;0.03792726993560791;-0.002395720686763525;1.5710947513580322;-0.006666033528745174;-0.006754191126674414;0.022215764969587326;-2.3834685579700814e-41;0.023286813870072365;-0.004433774389326572
17;4.3307108879089355;1.3050934076309204;1.257073163986206;1.5152995586395264;0.051671285182237625;0.000562206027098;1.4007105827331543;-0.00013594332267530262;-0.00014385944814421237;0.01332179456949234;-2.3834685579700814e-41;0.10690876841545105;0.006200387608259916
16;4.51760721206665;1.2848402261734009;1.2286708354949951;1.6090892553329468;0.030718039721250534;-0.004247955046594143;1.4998705387115479;-0.005534443072974682;-0.005648090038448572;0.02441454865038395;-2.3834685579700814e-41;0.01384242158383131;-0.0016294131055474281
15;4.452994346618652;1.4832464456558228;1.4406951665878296;1.7206603288650513;0.0675329715013504;0.014460801146924496;1.59736168384552;-0.0016743300948292017;-0.0018193988362327218;0.04729466140270233;-2.3834685579700814e-41;0.10998329520225525;0.011343847960233688
15;4.501551628112793;1.3010151386260986;1.2436845302581787;1.642757773399353;0.03179584816098213;-0.007227400783449411;1.539669156074524;-0.009083414450287819;-0.00913161039352417;0.02143140323460102;-2.3834685579700814e-41;0.01686914637684822;-0.007291197311133146
18;4.296111106872559;1.2976434230804443;1.2484591007232666;1.5027904510498047;0.04424270987510681;0.0005549310590140522;1.3936870098114014;-0.0011511162156239152;-0.0011527667520567775;0.007545302156358957;-2.3834685579700814e-41;0.09738929569721222;0.006378187797963619
16;4.534317970275879;1.4822099208831787;1.4376626014709473;1.7020416259765625;0.07504751533269882;0.00871726032346487;1.581346035003662;-0.0037507442757487297;-0.003976695239543915;0.07641222327947617;-2.3834685579700814e-41;0.09459802508354187;0.011892045848071575
17;4.495869159698486;1.2719186544418335;1.216476321220398;1.5982390642166138;0.028507204726338387;0.004475275054574013;1.4929100275039673;0.0034498670138418674;0.003339051501825452;0.01643894799053669;-2.3834685579700814e-41;0.012198657728731632;0.007003267295658588
16;4.51760721206665;1.2848402261734009;1.2286708354949951;1.6090892553329468;0.030718039721250534;-0.004247955046594143;1.4998705387115479;-0.005534443072974682;-0.005648090038448572;0.02441454865038395;-2.3834685579700814e-41;0.01384242158383131;-0.0016294131055474281
19;4.265617847442627;1.2985759973526;1.238891363143921;1.5046294927597046;0.0377541147172451;-9.520964522380382e-05;1.3961145877838135;-0.0014735977165400982;-0.0015696504851803184;0.006262584123760462;-2.3834685579700814e-41;0.08729465305805206;0.004006017930805683
17;4.3307108879089355;1.3050934076309204;1.257073163986206;1.5152995586395264;0.051671285182237625;0.000562206027098;1.4007105827331543;-0.00013594332267530262;-0.00014385944814421237;0.01332179456949234;-2.3834685579700814e-41;0.10690876841545105;0.006200387608259916
18;4.452608108520508;1.2626570463180542;1.2031491994857788;1.5752403736114502;0.025681093335151672;-0.002018378581851721;1.4734712839126587;-0.0032126251608133316;-0.0032175045926123857;0.007108894642442465;-2.3834685579700814e-41;0.009182890877127647;-0.0006411452777683735
17;4.495869159698486;1.2719186544418335;1.216476321220398;1.5982390642166138;0.028507204726338387;0.004475275054574013;1.4929100275039673;0.0034498670138418674;0.003339051501825452;0.01643894799053669;-2.3834685579700814e-41;0.012198657728731632;0.007003267295658588
20;4.216475963592529;1.2740322351455688;1.2114946842193604;1.4805923700332642;0.03299544379115105;0.0022950368002057076;1.3739876747131348;0.004452448338270187;0.004405154846608639;0.019918568432331085;-2.3834685579700814e-41;0.07795123010873795;0.003905979450792074
18;4.296111106872559;1.2976434230804443;1.2484591007232666;1.5027904510498047;0.04424270987510681;0.0005549310590140522;1.3936870098114014;-0.0011511162156239152;-0.0011527667520567775;0.007545302156358957;-2.3834685579700814e-41;0.09738929569721222;0.006378187797963619
19;4.407419681549072;1.2547276020050049;1.1867561340332031;1.561720371246338;0.022832412272691727;-0.00519489124417305;1.4632617235183716;-0.005539203993976116;-0.005568112712353468;0.006004392169415951;-2.3834685579700814e-41;0.0065942672081291676;-0.0052026710473001
21;4.173777103424072;1.2489871978759766;1.1881436109542847;1.4586026668548584;0.04571216553449631;0.007968157529830933;1.3546115159988403;0.01032564602792263;0.010826986283063889;0.012019637040793896;-2.3834685579700814e-41;0.06970477104187012;0.010306151583790779
18;4.452608108520508;1.2626570463180542;1.2031491994857788;1.5752403736114502;0.025681093335151672;-0.002018378581851721;1.4734712839126587;-0.0032126251608133316;-0.0032175045926123857;0.007108894642442465;-2.3834685579700814e-41;0.009182890877127647;-0.0006411452777683735
19;4.265617847442627;1.2985759973526;1.238891363143921;1.5046294927597046;0.0377541147172451;-9.520964522380382e-05;1.3961145877838135;-0.0014735977165400982;-0.0015696504851803184;0.006262584123760462;-2.3834685579700814e-41;0.08729465305805206;0.004006017930805683
20;4.366242408752441;1.2321507930755615;1.1634795665740967;1.5404878854751587;0.02154797501862049;0.00422275997698307;1.4435768127441406;0.005813369061797857;0.005699749104678631;0.007614607457071543;-2.3834685579700814e-41;0.016759568825364113;0.005485782865434885
22;4.153286933898926;1.2317821979522705;1.1730754375457764;1.4427520036697388;0.0417136512696743;0.009794795885682106;1.341867208480835;0.006830497644841671;0.007031782530248165;0.03889138624072075;-2.3834685579700814e-41;0.062387119978666306;0.020338432863354683
19;4.407419681549072;1.2547276020050049;1.1867561340332031;1.561720371246338;0.022832412272691727;-0.00519489124417305;1.4632617235183716;-0.005539203993976116;-0.005568112712353468;0.006004392169415951;-2.3834685579700814e-41;0.0065942672081291676;-0.0052026710473001
20;4.216475963592529;1.2740322351455688;1.2114946842193604;1.4805923700332642;0.03299544379115105;0.0022950368002057076;1.3739876747131348;0.004452448338270187;0.004405154846608639;0.019918568432331085;-2.3834685579700814e-41;0.07795123010873795;0.003905979450792074
23;4.1388115882873535;1.2203582525253296;1.1649113893508911;1.4249171018600464;0.036106958985328674;0.01700342260301113;1.3280609846115112;0.016331931576132774;0.016238611191511154;0.027699606493115425;-2.3834685579700814e-41;0.06623411178588867;0.021077115088701248
20;4.366242408752441;1.2321507930755615;1.1634795665740967;1.5404878854751587;0.02154797501862049;0.00422275997698307;1.4435768127441406;0.005813369061797857;0.005699749104678631;0.007614607457071543;-2.3834685579700814e-41;0.016759568825364113;0.005485782865434885
21;4.341096878051758;1.2199734449386597;1.1542762517929077;1.5261471271514893;0.02563919685781002;0.008940156549215317;1.4335105419158936;0.009532226249575615;0.009680218994617462;0.009471502155065536;-2.3834685579700814e-41;0.038517653942108154;0.014033599756658077
21;4.173777103424072;1.2489871978759766;1.1881436109542847;1.4586026668548584;0.04571216553449631;0.007968157529830933;1.3546115159988403;0.01032564602792263;0.010826986283063889;0.012019637040793896;-2.3834685579700814e-41;0.06970477104187012;0.010306151583790779
24;4.1105055809021;1.201073169708252;1.1459639072418213;1.400213360786438;0.028763465583324432;0.0117676742374897;1.3057949542999268;0.01059781014919281;0.010477621108293533;0.028839683160185814;-2.3834685579700814e-41;0.06039358302950859;0.016600733622908592
21;4.341096878051758;1.2199734449386597;1.1542762517929077;1.5261471271514893;0.02563919685781002;0.008940156549215317;1.4335105419158936;0.009532226249575615;0.009680218994617462;0.009471502155065536;-2.3834685579700814e-41;0.038517653942108154;0.014033599756658077
22;4.321241855621338;1.2112313508987427;1.1490727663040161;1.5130808353424072;0.024735210463404655;0.007539794780313969;1.4237885475158691;0.004504205193370581;0.004822756629437208;0.02615538239479065;-2.3834685579700814e-41;0.036963146179914474;0.00727588776499033
22;4.153286933898926;1.2317821979522705;1.1730754375457764;1.4427520036697388;0.0417136512696743;0.009794795885682106;1.341867208480835;0.006830497644841671;0.007031782530248165;0.03889138624072075;-2.3834685579700814e-41;0.062387119978666306;0.020338432863354683
25;4.095073223114014;1.1899548768997192;1.1366748809814453;1.385797142982483;0.043750517070293427;0.012919790111482143;1.2953542470932007;0.011090874671936035;0.011361450888216496;0.022132646292448044;-2.3834685579700814e-41;0.07271896302700043;0.02063448540866375
22;4.321241855621338;1.2112313508987427;1.1490727663040161;1.5130808353424072;0.024735210463404655;0.007539794780313969;1.4237885475158691;0.004504205193370581;0.004822756629437208;0.02615538239479065;-2.3834685579700814e-41;0.036963146179914474;0.00727588776499033
23;4.297492504119873;1.2064604759216309;1.1474833488464355;1.5003228187561035;0.024544963613152504;0.010117973200976849;1.412690281867981;0.011876202188432217;0.011678989976644516;0.02085168845951557;-2.3834685579700814e-41;0.03644393011927605;0.01210951991379261
23;4.1388115882873535;1.2203582525253296;1.1649113893508911;1.4249171018600464;0.036106958985328674;0.01700342260301113;1.3280609846115112;0.016331931576132774;0.016238611191511154;0.027699606493115425;-2.3834685579700814e-41;0.06623411178588867;0.021077115088701248
26;4.087965965270996;1.1865777969360352;1.1368703842163086;1.372783899307251;0.042142122983932495;0.011346564628183842;1.2877641916275024;0.01091416459530592;0.01100569311529398;0.02711566723883152;-2.3834685579700814e-41;0.06939054280519485;0.017998937517404556
23;4.297492504119873;1.2064604759216309;1.1474833488464355;1.5003228187561035;0.024544963613152504;0.010117973200976849;1.412690281867981;0.011876202188432217;0.011678989976644516;0.02085168845951557;-2.3834685579700814e-41;0.03644393011927605;0.01210951991379261
24;4.1105055809021;1.201073169708252;1.1459639072418213;1.400213360786438;0.028763465583324432;0.0117676742374897;1.3057949542999268;0.01059781014919281;0.010477621108293533;0.028839683160185814;-2.3834685579700814e-41;0.06039358302950859;0.016600733622908592
24;4.26714563369751;1.1864805221557617;1.1304306983947754;1.4813880920410156;0.02253185398876667;0.008057433180510998;1.397477626800537;0.007117706350982189;0.006997854448854923;0.027096517384052277;-2.3834685579700814e-41;0.03313832730054855;0.009496962651610374
27;4.070990085601807;1.1674082279205322;1.1212115287780762;1.3598389625549316;0.03660491853952408;0.0064933947287499905;1.2763346433639526;0.0017273655394092202;0.001934920670464635;0.03197259455919266;-2.3834685579700814e-41;0.05992063507437706;0.007457688916474581
24;4.26714563369751;1.1864805221557617;1.1304306983947754;1.4813880920410156;0.02253185398876667;0.008057433180510998;1.397477626800537;0.007117706350982189;0.006997854448854923;0.027096517384052277;-2.3834685579700814e-41;0.03313832730054855;0.009496962651610374
25;4.095073223114014;1.1899548768997192;1.1366748809814453;1.385797142982483;0.043750517070293427;0.012919790111482143;1.2953542470932007;0.011090874671936035;0.011361450888216496;0.022132646292448044;-2.3834685579700814e-41;0.07271896302700043;0.02063448540866375
25;4.249936580657959;1.174001932144165;1.1193691492080688;1.4711151123046875;0.03322402015328407;0.006661354098469019;1.388758659362793;0.007836168631911278;0.008235068060457706;0.03172636777162552;-2.3834685579700814e-41;0.033955130726099014;0.011347459629178047
28;4.043345928192139;1.1542956829071045;1.1091259717941284;1.3469431400299072;0.030826399102807045;0.0032553360797464848;1.266111969947815;0.0003367360041011125;0.000334427721099928;0.02142002433538437;-2.3834685579700814e-41;0.053805287927389145;0.002950789174064994
25;4.249936580657959;1.174001932144165;1.1193691492080688;1.4711151123046875;0.03322402015328407;0.006661354098469019;1.388758659362793;0.007836168631911278;0.008235068060457706;0.03172636777162552;-2.3834685579700814e-41;0.033955130726099014;0.011347459629178047
26;4.087965965270996;1.1865777969360352;1.1368703842163086;1.372783899307251;0.042142122983932495;0.011346564628183842;1.2877641916275024;0.01091416459530592;0.01100569311529398;0.02711566723883152;-2.3834685579700814e-41;0.06939054280519485;0.017998937517404556
26;4.2297163009643555;1.1677178144454956;1.1156052350997925;1.4546139240264893;0.03217996656894684;0.006558557506650686;1.3751848936080933;0.005335295107215643;0.005190269090235233;0.03920717537403107;-2.3834685579700814e-41;0.032570939511060715;0.00454381899908185
29;4.010986328125;1.1427592039108276;1.0953036546707153;1.3331841230392456;0.03453443571925163;0.0017477424116805196;1.2567163705825806;-0.0022337238769978285;-0.0021890769712626934;0.013246801681816578;-2.3834685579700814e-41;0.049233827739953995;0.0007681797724217176
27;4.070990085601807;1.1674082279205322;1.1212115287780762;1.3598389625549316;0.03660491853952408;0.0064933947287499905;1.2763346433639526;0.0017273655394092202;0.001934920670464635;0.03197259455919266;-2.3834685579700814e-41;0.05992063507437706;0.007457688916474581
26;4.2297163009643555;1.1677178144454956;1.1156052350997925;1.4546139240264893;0.03217996656894684;0.006558557506650686;1.3751848936080933;0.005335295107215643;0.005190269090235233;0.03920717537403107;-2.3834685579700814e-41;0.032570939511060715;0.00454381899908185
27;4.197540283203125;1.1450467109680176;1.0950478315353394;1.438109278678894;0.03187854588031769;0.003686583833768964;1.3636077642440796;0.0011521849082782865;0.0013229453470557928;0.043004587292671204;-2.3834685579700814e-41;0.030873466283082962;0.0007244303706102073
30;3.9904215335845947;1.1403942108154297;1.0995930433273315;1.3438241481781006;0.039102621376514435;-0.0030894442461431026;1.2697911262512207;-0.006551650818437338;-0.0064052254892885685;0.01808663085103035;-2.3834685579700814e-41;0.049594901502132416;-0.004030951764434576
28;4.043345928192139;1.1542956829071045;1.1091259717941284;1.3469431400299072;0.030826399102807045;0.0032553360797464848;1.266111969947815;0.0003367360041011125;0.000334427721099928;0.02142002433538437;-2.3834685579700814e-41;0.053805287927389145;0.002950789174064994
27;4.197540283203125;1.1450467109680176;1.0950478315353394;1.438109278678894;0.03187854588031769;0.003686583833768964;1.3636077642440796;0.0011521849082782865;0.0013229453470557928;0.043004587292671204;-2.3834685579700814e-41;0.030873466283082962;0.0007244303706102073
31;4.002704620361328;1.1747058629989624;1.1269805431365967;1.3805142641067505;0.06770350784063339;0.003378309542313218;1.309671401977539;-0.009288300760090351;-0.009264778345823288;0.03193599358201027;-2.3834685579700814e-41;0.0580202117562294;-0.005157926119863987
28;4.178695201873779;1.1426217555999756;1.0873032808303833;1.4367018938064575;0.02912542223930359;0.016321351751685143;1.3674466609954834;0.01447597797960043;0.014526438899338245;0.02965189330279827;-2.3834685579700814e-41;0.029986510053277016;0.01079639419913292
29;4.010986328125;1.1427592039108276;1.0953036546707153;1.3331841230392456;0.03453443571925163;0.0017477424116805196;1.2567163705825806;-0.0022337238769978285;-0.0021890769712626934;0.013246801681816578;-2.3834685579700814e-41;0.049233827739953995;0.0007681797724217176
28;4.178695201873779;1.1426217555999756;1.0873032808303833;1.4367018938064575;0.02912542223930359;0.016321351751685143;1.3674466609954834;0.01447597797960043;0.014526438899338245;0.02965189330279827;-2.3834685579700814e-41;0.029986510053277016;0.01079639419913292
32;4.053779602050781;1.2214288711547852;1.1655882596969604;1.4379147291183472;0.06547293066978455;-0.00844076182693243;1.3682129383087158;-0.01960287056863308;-0.01958312839269638;0.01974922977387905;-2.3834685579700814e-41;0.058105092495679855;-0.008186654187738895
29;4.174912929534912;1.162256121635437;1.109420657157898;1.4716073274612427;0.05087072774767876;0.020188841968774796;1.3875021934509277;0.010888691991567612;0.010953177697956562;0.034150607883930206;-2.3834685579700814e-41;0.032898832112550735;0.014579672366380692
30;3.9904215335845947;1.1403942108154297;1.0995930433273315;1.3438241481781006;0.039102621376514435;-0.0030894442461431026;1.2697911262512207;-0.006551650818437338;-0.0064052254892885685;0.01808663085103035;-2.3834685579700814e-41;0.049594901502132416;-0.004030951764434576
29;4.174912929534912;1.162256121635437;1.109420657157898;1.4716073274612427;0.05087072774767876;0.020188841968774796;1.3875021934509277;0.010888691991567612;0.010953177697956562;0.034150607883930206;-2.3834685579700814e-41;0.032898832112550735;0.014579672366380692
33;4.0579304695129395;1.2176153659820557;1.155289888381958;1.440068244934082;0.055060964077711105;-0.00570125924423337;1.3701633214950562;-0.01152739580720663;-0.011624905280768871;0.01301600132137537;-2.3834685579700814e-41;0.05392525717616081;-0.006288882344961166
30;4.182724475860596;1.1594505310058594;1.1441824436187744;1.4833687543869019;0.054959267377853394;0.001300770789384842;1.4047577381134033;-0.0041114287450909615;-0.004098895471543074;0.03339856117963791;-2.3834685579700814e-41;0.03427664935588837;-0.0005392018356360495
31;4.002704620361328;1.1747058629989624;1.1269805431365967;1.3805142641067505;0.06770350784063339;0.003378309542313218;1.309671401977539;-0.009288300760090351;-0.009264778345823288;0.03193599358201027;-2.3834685579700814e-41;0.0580202117562294;-0.005157926119863987
34;4.032783508300781;1.1889704465866089;1.1310827732086182;1.433864951133728;0.04599146172404289;-0.0021144056227058172;1.3479832410812378;-0.002761388197541237;-0.004110237117856741;0.012588007375597954;-2.3834685579700814e-41;0.04807133600115776;-0.002270431723445654
30;4.182724475860596;1.1594505310058594;1.1441824436187744;1.4833687543869019;0.054959267377853394;0.001300770789384842;1.4047577381134033;-0.0041114287450909615;-0.004098895471543074;0.03339856117963791;-2.3834685579700814e-41;0.03427664935588837;-0.0005392018356360495
31;4.197993755340576;1.1836508512496948;1.1592251062393188;1.5019949674606323;0.08058492839336395;0.017953380942344666;1.4204212427139282;-0.00852368026971817;-0.008560539223253727;0.042139481753110886;-2.3834685579700814e-41;0.03516130521893501;-0.00487286364659667
32;4.053779602050781;1.2214288711547852;1.1655882596969604;1.4379147291183472;0.06547293066978455;-0.00844076182693243;1.3682129383087158;-0.01960287056863308;-0.01958312839269638;0.01974922977387905;-2.3834685579700814e-41;0.058105092495679855;-0.008186654187738895
35;4.011404991149902;1.1844606399536133;1.1264785528182983;1.442779302597046;0.03845435008406639;-0.0030727649573236704;1.3467743396759033;0.0304091889411211;-0.004805366974323988;0.008975519798696041;-2.3834685579700814e-41;0.042584363371133804;-0.0016908246325328946
31;4.197993755340576;1.1836508512496948;1.1592251062393188;1.5019949674606323;0.08058492839336395;0.017953380942344666;1.4204212427139282;-0.00852368026971817;-0.008560539223253727;0.042139481753110886;-2.3834685579700814e-41;0.03516130521893501;-0.00487286364659667
33;4.0579304695129395;1.2176153659820557;1.155289888381958;1.440068244934082;0.055060964077711105;-0.00570125924423337;1.3701633214950562;-0.01152739580720663;-0.011624905280768871;0.01301600132137537;-2.3834685579700814e-41;0.05392525717616081;-0.006288882344961166
32;4.212520122528076;1.1926974058151245;1.1617958545684814;1.5218862295150757;0.07330412417650223;-0.0033912532962858677;1.4399069547653198;-0.0163566991686821;-0.016452977433800697;0.03150816634297371;-2.3834685579700814e-41;0.029293423518538475;-0.012085284106433392
36;3.9896204471588135;1.183856725692749;1.126421570777893;1.4457499980926514;0.039743196219205856;-0.003013859037309885;1.3399332761764526;0.02542700245976448;-0.004070187918841839;0.00720313610509038;-2.3834685579700814e-41;0.03866099193692207;-0.0017619250575080514
32;4.212520122528076;1.1926974058151245;1.1617958545684814;1.5218862295150757;0.07330412417650223;-0.0033912532962858677;1.4399069547653198;-0.0163566991686821;-0.016452977433800697;0.03150816634297371;-2.3834685579700814e-41;0.029293423518538475;-0.012085284106433392
34;4.032783508300781;1.1889704465866089;1.1310827732086182;1.433864951133728;0.04599146172404289;-0.0021144056227058172;1.3479832410812378;-0.002761388197541237;-0.004110237117856741;0.012588007375597954;-2.3834685579700814e-41;0.04807133600115776;-0.002270431723445654
33;4.2146124839782715;1.198432445526123;1.155551791191101;1.5352635383605957;0.06656064093112946;0.00835761334747076;1.4431250095367432;0.013649927452206612;0.013623303733766079;0.030363649129867554;-2.3834685579700814e-41;0.028151875361800194;0.01399218663573265
37;3.964210033416748;1.1597263813018799;1.1011583805084229;1.417697548866272;0.03600044921040535;-0.00025443098274990916;1.3140182495117188;0.019535427913069725;-0.0010227374732494354;-0.001177850877866149;-2.3834685579700814e-41;0.03535398840904236;0.003300424898043275
33;4.2146124839782715;1.198432445526123;1.155551791191101;1.5352635383605957;0.06656064093112946;0.00835761334747076;1.4431250095367432;0.013649927452206612;0.013623303733766079;0.030363649129867554;-2.3834685579700814e-41;0.028151875361800194;0.01399218663573265
35;4.011404991149902;1.1844606399536133;1.1264785528182983;1.442779302597046;0.03845435008406639;-0.0030727649573236704;1.3467743396759033;0.0304091889411211;-0.004805366974323988;0.008975519798696041;-2.3834685579700814e-41;0.042584363371133804;-0.0016908246325328946
34;4.199961185455322;1.1875368356704712;1.1476646661758423;1.548094630241394;0.060571346431970596;0.009403950534760952;1.4322539567947388;0.014934545382857323;0.00687867496162653;0.03486413136124611;-2.3834685579700814e-41;0.028037922456860542;0.007707203272730112
38;3.961141347885132;1.1511034965515137;1.0734347105026245;1.4275567531585693;0.043598487973213196;0.01592743955552578;1.295557975769043;0.01659155637025833;0.006283646449446678;0.0014834239846095443;-2.3834685579700814e-41;0.03333489969372749;0.007926039397716522
34;4.199961185455322;1.1875368356704712;1.1476646661758423;1.548094630241394;0.060571346431970596;0.009403950534760952;1.4322539567947388;0.014934545382857323;0.00687867496162653;0.03486413136124611;-2.3834685579700814e-41;0.028037922456860542;0.007707203272730112
36;3.9896204471588135;1.183856725692749;1.126421570777893;1.4457499980926514;0.039743196219205856;-0.003013859037309885;1.3399332761764526;0.02542700245976448;-0.004070187918841839;0.00720313610509038;-2.3834685579700814e-41;0.03866099193692207;-0.0017619250575080514
35;4.185995101928711;1.1887233257293701;1.1434290409088135;1.5563184022903442;0.05640745908021927;0.0032840799540281296;1.4359323978424072;0.025912731885910034;-0.0009871840011328459;0.02952507883310318;-2.3834685579700814e-41;0.024855487048625946;0.00011053392518078908
39;3.954906702041626;1.1479713916778564;1.0887240171432495;1.4131853580474854;0.058055635541677475;0.006520992610603571;1.2853319644927979;0.0115407919511199;-0.0012448914349079132;0.012151786126196384;-2.3834685579700814e-41;0.031327612698078156;0.0024228449910879135
35;4.185995101928711;1.1887233257293701;1.1434290409088135;1.5563184022903442;0.05640745908021927;0.0032840799540281296;1.4359323978424072;0.025912731885910034;-0.0009871840011328459;0.02952507883310318;-2.3834685579700814e-41;0.024855487048625946;0.00011053392518078908
37;3.964210033416748;1.1597263813018799;1.1011583805084229;1.417697548866272;0.03600044921040535;-0.00025443098274990916;1.3140182495117188;0.019535427913069725;-0.0010227374732494354;-0.001177850877866149;-2.3834685579700814e-41;0.03535398840904236;0.003300424898043275
36;4.191095352172852;1.1965144872665405;1.1477301120758057;1.5562602281570435;0.0589585155248642;0.01524060033261776;1.4352282285690308;0.023353349417448044;0.027394577860832214;0.01768570765852928;-2.3834685579700814e-41;0.027045486494898796;0.018382515758275986
40;3.961646795272827;1.1533297300338745;1.0987238883972168;1.4353909492492676;0.09390798956155777;0.003275797702372074;1.2891430854797363;0.006897967774420977;-0.006760186981409788;0.027038495987653732;-2.3834685579700814e-41;0.029633833095431328;-0.0016496068565174937
36;4.191095352172852;1.1965144872665405;1.1477301120758057;1.5562602281570435;0.0589585155248642;0.01524060033261776;1.4352282285690308;0.023353349417448044;0.027394577860832214;0.01768570765852928;-2.3834685579700814e-41;0.027045486494898796;0.018382515758275986
38;3.961141347885132;1.1511034965515137;1.0734347105026245;1.4275567531585693;0.043598487973213196;0.01592743955552578;1.295557975769043;0.01659155637025833;0.006283646449446678;0.0014834239846095443;-2.3834685579700814e-41;0.03333489969372749;0.007926039397716522
37;4.201700687408447;1.2293624877929688;1.1713978052139282;1.5686830282211304;0.056493520736694336;0.01964375376701355;1.4558848142623901;0.018380552530288696;0.016478868201375008;0.01431667897850275;-2.3834685579700814e-41;0.03818906471133232;0.034586843103170395
41;3.9659311771392822;1.1733607053756714;1.1201622486114502;1.4518147706985474;0.09028591960668564;-0.0015976795693859458;1.3075287342071533;0.003962327726185322;-0.0054298085160553455;0.025460874661803246;-2.3834685579700814e-41;0.029565541073679924;-0.003787484485656023
37;4.201700687408447;1.2293624877929688;1.1713978052139282;1.5686830282211304;0.056493520736694336;0.01964375376701355;1.4558848142623901;0.018380552530288696;0.016478868201375008;0.01431667897850275;-2.3834685579700814e-41;0.03818906471133232;0.034586843103170395
39;3.954906702041626;1.1479713916778564;1.0887240171432495;1.4131853580474854;0.058055635541677475;0.006520992610603571;1.2853319644927979;0.0115407919511199;-0.0012448914349079132;0.012151786126196384;-2.3834685579700814e-41;0.031327612698078156;0.0024228449910879135
38;4.222082614898682;1.2486666440963745;1.1618194580078125;1.600381851196289;0.06525060534477234;0.03534137085080147;1.4580881595611572;0.01967301219701767;0.019980819895863533;0.023135319352149963;-2.3834685579700814e-41;0.041578393429517746;0.026052072644233704
42;4.026854991912842;1.2173389196395874;1.1478999853134155;1.4900009632110596;0.09154439717531204;-0.010016132146120071;1.3469940423965454;-0.000541795277968049;-0.01673079840838909;0.0251467227935791;-2.3834685579700814e-41;0.060809873044490814;-0.012306390330195427
38;4.222082614898682;1.2486666440963745;1.1618194580078125;1.600381851196289;0.06525060534477234;0.03534137085080147;1.4580881595611572;0.01967301219701767;0.019980819895863533;0.023135319352149963;-2.3834685579700814e-41;0.041578393429517746;0.026052072644233704
40;3.961646795272827;1.1533297300338745;1.0987238883972168;1.4353909492492676;0.09390798956155777;0.003275797702372074;1.2891430854797363;0.006897967774420977;-0.006760186981409788;0.027038495987653732;-2.3834685579700814e-41;0.029633833095431328;-0.0016496068565174937
39;4.222169876098633;1.251603603363037;1.1691439151763916;1.5932050943374634;0.07719699293375015;0.013244875706732273;1.4535441398620605;0.00894383154809475;0.0024142987094819546;0.025639457628130913;-2.3834685579700814e-41;0.03734281286597252;0.010088738054037094
43;4.01900577545166;1.210753083229065;1.131034255027771;1.4840701818466187;0.08193539828062057;-0.0019602770917117596;1.342903971672058;0.005055476911365986;-0.004226863384246826;0.01976018399000168;-2.3834685579700814e-41;0.06976953148841858;-0.0037149814888834953
39;4.222169876098633;1.251603603363037;1.1691439151763916;1.5932050943374634;0.07719699293375015;0.013244875706732273;1.4535441398620605;0.00894383154809475;0.0024142987094819546;0.025639457628130913;-2.3834685579700814e-41;0.03734281286597252;0.010088738054037094
41;3.9659311771392822;1.1733607053756714;1.1201622486114502;1.4518147706985474;0.09028591960668564;-0.0015976795693859458;1.3075287342071533;0.003962327726185322;-0.0054298085160553455;0.025460874661803246;-2.3834685579700814e-41;0.029565541073679924;-0.003787484485656023
40;4.220523357391357;1.2476595640182495;1.1813832521438599;1.5910396575927734;0.09183759242296219;0.0059152403846383095;1.4470003843307495;0.0010592816397547722;-0.0019496706081554294;0.0289374440908432;-2.3834685579700814e-41;0.03265618905425072;-5.769483686890453e-05
44;4.0254058837890625;1.2074768543243408;1.1235994100570679;1.4988813400268555;0.08936187624931335;0.01610487326979637;1.3460988998413086;0.011957071721553802;0.005809699185192585;0.031004391610622406;-2.3834685579700814e-41;0.07161322981119156;0.007439573761075735
42;4.026854991912842;1.2173389196395874;1.1478999853134155;1.4900009632110596;0.09154439717531204;-0.010016132146120071;1.3469940423965454;-0.000541795277968049;-0.01673079840838909;0.0251467227935791;-2.3834685579700814e-41;0.060809873044490814;-0.012306390330195427
40;4.220523357391357;1.2476595640182495;1.1813832521438599;1.5910396575927734;0.09183759242296219;0.0059152403846383095;1.4470003843307495;0.0010592816397547722;-0.0019496706081554294;0.0289374440908432;-2.3834685579700814e-41;0.03265618905425072;-5.769483686890453e-05
45;4.050509929656982;1.2067906856536865;1.144848346710205;1.4904252290725708;0.07723192125558853;0.0037211424205452204;1.3421260118484497;0.005834571551531553;-0.006258904002606869;0.025023803114891052;-2.3834685579700814e-41;0.06825977563858032;-0.0007041622302494943
41;4.204100131988525;1.2423251867294312;1.1789888143539429;1.5818750858306885;0.08216973394155502;-0.0013947212137281895;1.438231110572815;-0.003122992580756545;-0.005043181125074625;0.031263429671525955;-2.3834685579700814e-41;0.028050130233168602;-0.003852065186947584
43;4.01900577545166;1.210753083229065;1.131034255027771;1.4840701818466187;0.08193539828062057;-0.0019602770917117596;1.342903971672058;0.005055476911365986;-0.004226863384246826;0.01976018399000168;-2.3834685579700814e-41;0.06976953148841858;-0.0037149814888834953
41;4.204100131988525;1.2423251867294312;1.1789888143539429;1.5818750858306885;0.08216973394155502;-0.0013947212137281895;1.438231110572815;-0.003122992580756545;-0.005043181125074625;0.031263429671525955;-2.3834685579700814e-41;0.028050130233168602;-0.003852065186947584
46;4.100558280944824;1.2284308671951294;1.1671736240386963;1.530187964439392;0.09036446362733841;0.01097465492784977;1.3545254468917847;0.03023480996489525;-0.010021191090345383;0.032268498092889786;-2.3834685579700814e-41;0.07307378947734833;-0.0048606740310788155
42;4.209685325622559;1.2491005659103394;1.1800482273101807;1.58115553855896;0.07338231801986694;-0.011381248012185097;1.4434494972229004;-0.009954982437193394;-0.01406885590404272;0.02343442104756832;-2.3834685579700814e-41;0.05013240501284599;-0.011197174899280071
44;4.0254058837890625;1.2074768543243408;1.1235994100570679;1.4988813400268555;0.08936187624931335;0.01610487326979637;1.3460988998413086;0.011957071721553802;0.005809699185192585;0.031004391610622406;-2.3834685579700814e-41;0.07161322981119156;0.007439573761075735
42;4.209685325622559;1.2491005659103394;1.1800482273101807;1.58115553855896;0.07338231801986694;-0.011381248012185097;1.4434494972229004;-0.009954982437193394;-0.01406885590404272;0.02343442104756832;-2.3834685579700814e-41;0.05013240501284599;-0.011197174899280071
47;4.1313886642456055;1.237097144126892;1.162319540977478;1.5371474027633667;0.07794895023107529;0.0050847409293055534;1.366917610168457;0.023530390113592148;0.001586532685905695;0.024316441267728806;-2.3834685579700814e-41;0.06863998621702194;0.006811722181737423
43;4.213296413421631;1.2578099966049194;1.1686521768569946;1.585497260093689;0.06752800941467285;0.008576881140470505;1.4503285884857178;0.025144021958112717;0.012367459945380688;0.02054416947066784;-2.3834685579700814e-41;0.05921028554439545;0.010196234099566936
45;4.050509929656982;1.2067906856536865;1.144848346710205;1.4904252290725708;0.07723192125558853;0.0037211424205452204;1.3421260118484497;0.005834571551531553;-0.006258904002606869;0.025023803114891052;-2.3834685579700814e-41;0.06825977563858032;-0.0007041622302494943
43;4.213296413421631;1.2578099966049194;1.1686521768569946;1.585497260093689;0.06752800941467285;0.008576881140470505;1.4503285884857178;0.025144021958112717;0.012367459945380688;0.02054416947066784;-2.3834685579700814e-41;0.05921028554439545;0.010196234099566936
48;4.164238929748535;1.2490483522415161;1.1642348766326904;1.549007773399353;0.07351907342672348;0.0005062313284724951;1.3893730640411377;0.01590697653591633;-0.005672989878803492;0.01251000165939331;-2.3834685579700814e-41;0.08386969566345215;0.0021081245504319668
44;4.223734378814697;1.2456920146942139;1.159663200378418;1.5931161642074585;0.07274191826581955;0.015985742211341858;1.4464447498321533;0.02002841979265213;0.009767024777829647;0.027418673038482666;-2.3834685579700814e-41;0.059073951095342636;0.012616617605090141
46;4.100558280944824;1.2284308671951294;1.1671736240386963;1.530187964439392;0.09036446362733841;0.01097465492784977;1.3545254468917847;0.03023480996489525;-0.010021191090345383;0.032268498092889786;-2.3834685579700814e-41;0.07307378947734833;-0.0048606740310788155
44;4.223734378814697;1.2456920146942139;1.159663200378418;1.5931161642074585;0.07274191826581955;0.015985742211341858;1.4464447498321533;0.02002841979265213;0.009767024777829647;0.027418673038482666;-2.3834685579700814e-41;0.059073951095342636;0.012616617605090141
49;4.2216267585754395;1.2889833450317383;1.1721978187561035;1.5814651250839233;0.06430627405643463;-0.008457758463919163;1.4328985214233398;0.007223031483590603;-0.017535051330924034;0.019509227946400642;-2.3834685579700814e-41;0.08588464558124542;-0.006008187774568796
47;4.1313886642456055;1.237097144126892;1.162319540977478;1.5371474027633667;0.07794895023107529;0.0050847409293055534;1.366917610168457;0.023530390113592148;0.001586532685905695;0.024316441267728806;-2.3834685579700814e-41;0.06863998621702194;0.006811722181737423
45;4.226925849914551;1.235417366027832;1.1718062162399292;1.5816586017608643;0.0693296417593956;0.0010017151944339275;1.4348011016845703;0.007195706013590097;-0.003509273985400796;0.02603144384920597;-2.3834685579700814e-41;0.053086329251527786;0.0019863012712448835
45;4.226925849914551;1.235417366027832;1.1718062162399292;1.5816586017608643;0.0693296417593956;0.0010017151944339275;1.4348011016845703;0.007195706013590097;-0.003509273985400796;0.02603144384920597;-2.3834685579700814e-41;0.053086329251527786;0.0019863012712448835
50;4.2265777587890625;1.2811580896377563;1.1507065296173096;1.573654294013977;0.05942070111632347;0.00012496903946157545;1.4292895793914795;0.005198774393647909;-0.0003068011428695172;0.018466636538505554;-2.3834685579700814e-41;0.08324376493692398;0.002257884945720434
48;4.164238929748535;1.2490483522415161;1.1642348766326904;1.549007773399353;0.07351907342672348;0.0005062313284724951;1.3893730640411377;0.01590697653591633;-0.005672989878803492;0.01251000165939331;-2.3834685579700814e-41;0.08386969566345215;0.0021081245504319668
46;4.230323791503906;1.228416919708252;1.1722991466522217;1.5912055969238281;0.08025192469358444;0.009004514664411545;1.4173434972763062;0.029802408069372177;-0.005407317541539669;0.035796090960502625;-2.3834685579700814e-41;0.049476031213998795;-0.001350780832581222
46;4.230323791503906;1.228416919708252;1.1722991466522217;1.5912055969238281;0.08025192469358444;0.009004514664411545;1.4173434972763062;0.029802408069372177;-0.005407317541539669;0.035796090960502625;-2.3834685579700814e-41;0.049476031213998795;-0.001350780832581222
51;4.256641864776611;1.3037986755371094;1.1465034484863281;1.585107684135437;0.06176929548382759;0.0005596350529231131;1.4484200477600098;0.002899130340665579;-0.002270654309540987;0.023729804903268814;-2.3834685579700814e-41;0.07868829369544983;0.003471013391390443
49;4.2216267585754395;1.2889833450317383;1.1721978187561035;1.5814651250839233;0.06430627405643463;-0.008457758463919163;1.4328985214233398;0.007223031483590603;-0.017535051330924034;0.019509227946400642;-2.3834685579700814e-41;0.08588464558124542;-0.006008187774568796
47;4.3036909103393555;1.2803305387496948;1.1808146238327026;1.634832501411438;0.07804804295301437;0.043071068823337555;1.473655104637146;0.03630281984806061;0.05295516923069954;0.02501487359404564;-2.3834685579700814e-41;0.05395794287323952;0.050700318068265915
47;4.3036909103393555;1.2803305387496948;1.1808146238327026;1.634832501411438;0.07804804295301437;0.043071068823337555;1.473655104637146;0.03630281984806061;0.05295516923069954;0.02501487359404564;-2.3834685579700814e-41;0.05395794287323952;0.050700318068265915
52;4.270378112792969;1.3211580514907837;1.1438242197036743;1.5975362062454224;0.07032159715890884;-0.000307163514662534;1.4645503759384155;4.166440703556873e-05;-0.00648376764729619;0.017925286665558815;-2.3834685579700814e-41;0.07809671014547348;-0.0017353193834424019
50;4.2265777587890625;1.2811580896377563;1.1507065296173096;1.573654294013977;0.05942070111632347;0.00012496903946157545;1.4292895793914795;0.005198774393647909;-0.0003068011428695172;0.018466636538505554;-2.3834685579700814e-41;0.08324376493692398;0.002257884945720434
48;4.361372470855713;1.3242442607879639;1.2179217338562012;1.6662677526474;0.08353600651025772;0.014712749049067497;1.5164673328399658;0.02451266720890999;0.004700870718806982;0.015420002862811089;-2.3834685579700814e-41;0.0754736140370369;0.017651522532105446
48;4.361372470855713;1.3242442607879639;1.2179217338562012;1.6662677526474;0.08353600651025772;0.014712749049067497;1.5164673328399658;0.02451266720890999;0.004700870718806982;0.015420002862811089;-2.3834685579700814e-41;0.0754736140370369;0.017651522532105446
53;4.271478176116943;1.3309201002120972;1.1482588052749634;1.6042535305023193;0.07542537897825241;-0.004302895162254572;1.4767143726348877;-0.0020880033262073994;-0.008365179412066936;0.01748175173997879;-2.3834685579700814e-41;0.07832667231559753;-0.005794759839773178
51;4.256641864776611;1.3037986755371094;1.1465034484863281;1.585107684135437;0.06176929548382759;0.0005596350529231131;1.4484200477600098;0.002899130340665579;-0.002270654309540987;0.023729804903268814;-2.3834685579700814e-41;0.07868829369544983;0.003471013391390443
49;4.395913124084473;1.3499561548233032;1.2117329835891724;1.6828231811523438;0.07205311954021454;-0.00039509887574240565;1.5389460325241089;0.010959022678434849;-0.006104216445237398;0.020258789882063866;-2.3834685579700814e-41;0.07273977249860764;0.006350294221192598
49;4.395913124084473;1.3499561548233032;1.2117329835891724;1.6828231811523438;0.07205311954021454;-0.00039509887574240565;1.5389460325241089;0.010959022678434849;-0.006104216445237398;0.020258789882063866;-2.3834685579700814e-41;0.07273977249860764;0.006350294221192598
54;4.305433750152588;1.3578487634658813;1.169952392578125;1.641222596168518;0.07177329808473587;-0.014638443477451801;1.514406681060791;-0.006447200663387775;-0.02122502215206623;0.01795574277639389;-2.3834685579700814e-41;0.07490945607423782;-0.016299402341246605
52;4.270378112792969;1.3211580514907837;1.1438242197036743;1.5975362062454224;0.07032159715890884;-0.000307163514662534;1.4645503759384155;4.166440703556873e-05;-0.00648376764729619;0.017925286665558815;-2.3834685579700814e-41;0.07809671014547348;-0.0017353193834424019
50;4.4212141036987305;1.3694055080413818;1.2176014184951782;1.6975610256195068;0.07416100054979324;0.025257445871829987;1.561732292175293;0.01858881302177906;0.02376021444797516;0.017867403104901314;-2.3834685579700814e-41;0.07229853421449661;0.02496727742254734
50;4.4212141036987305;1.3694055080413818;1.2176014184951782;1.6975610256195068;0.07416100054979324;0.025257445871829987;1.561732292175293;0.01858881302177906;0.02376021444797516;0.017867403104901314;-2.3834685579700814e-41;0.07229853421449661;0.02496727742254734
55;4.366932392120361;1.3941380977630615;1.207445740699768;1.6763328313827515;0.06317723542451859;-0.023459121584892273;1.5489544868469238;-0.013654711656272411;-0.02755914442241192;0.01907959021627903;-2.3834685579700814e-41;0.07422665506601334;-0.022673919796943665
53;4.271478176116943;1.3309201002120972;1.1482588052749634;1.6042535305023193;0.07542537897825241;-0.004302895162254572;1.4767143726348877;-0.0020880033262073994;-0.008365179412066936;0.01748175173997879;-2.3834685579700814e-41;0.07832667231559753;-0.005794759839773178
51;4.441924095153809;1.3935058116912842;1.2209385633468628;1.7092032432556152;0.08304460346698761;0.018180517479777336;1.5788267850875854;0.016990989446640015;0.01512304786592722;0.020397119224071503;-2.3834685579700814e-41;0.08239782601594925;0.02185807377099991
51;4.441924095153809;1.3935058116912842;1.2209385633468628;1.7092032432556152;0.08304460346698761;0.018180517479777336;1.5788267850875854;0.016990989446640015;0.01512304786592722;0.020397119224071503;-2.3834685579700814e-41;0.08239782601594925;0.02185807377099991
56;4.361886978149414;1.393776774406433;1.2003464698791504;1.670775055885315;0.05561678111553192;-0.012646201997995377;1.5470705032348633;-0.011411299929022789;-0.011250023730099201;0.015278773382306099;-2.3834685579700814e-41;0.07169687747955322;-0.010997358709573746
54;4.305433750152588;1.3578487634658813;1.169952392578125;1.641222596168518;0.07177329808473587;-0.014638443477451801;1.514406681060791;-0.006447200663387775;-0.02122502215206623;0.01795574277639389;-2.3834685579700814e-41;0.07490945607423782;-0.016299402341246605
52;4.444840908050537;1.3995476961135864;1.2131993770599365;1.7129685878753662;0.09684339910745621;0.01103733666241169;1.5847163200378418;0.01080309972167015;0.0022578600328415632;0.014787361025810242;-2.3834685579700814e-41;0.07929235696792603;0.00907257292419672
52;4.444840908050537;1.3995476961135864;1.2131993770599365;1.7129685878753662;0.09684339910745621;0.01103733666241169;1.5847163200378418;0.01080309972167015;0.0022578600328415632;0.014787361025810242;-2.3834685579700814e-41;0.07929235696792603;0.00907257292419672
57;4.381704330444336;1.4040422439575195;1.2145068645477295;1.6713496446609497;0.04533594846725464;-0.012198856100440025;1.5516561269760132;-0.013357880525290966;-0.015990953892469406;0.014576300047338009;-2.3834685579700814e-41;0.06835920363664627;-0.011829757131636143
55;4.366932392120361;1.3941380977630615;1.207445740699768;1.6763328313827515;0.06317723542451859;-0.023459121584892273;1.5489544868469238;-0.013654711656272411;-0.02755914442241192;0.01907959021627903;-2.3834685579700814e-41;0.07422665506601334;-0.022673919796943665
53;4.443500518798828;1.3992955684661865;1.2099381685256958;1.714766025543213;0.09408994764089584;-0.0007587833097204566;1.5883469581604004;0.004305973183363676;-0.0034853490069508553;0.018059683963656425;-2.3834685579700814e-41;0.0781540647149086;-0.00030446593882516026
53;4.443500518798828;1.3992955684661865;1.2099381685256958;1.714766025543213;0.09408994764089584;-0.0007587833097204566;1.5883469581604004;0.004305973183363676;-0.0034853490069508553;0.018059683963656425;-2.3834685579700814e-41;0.0781540647149086;-0.00030446593882516026
58;4.366883754730225;1.384606122970581;1.193013310432434;1.6504268646240234;0.03735263645648956;-0.007763553876429796;1.5323100090026855;-0.010789815336465836;-0.007995013147592545;0.01727733574807644;-2.3834685579700814e-41;0.061688829213380814;-0.007278695236891508
56;4.361886978149414;1.393776774406433;1.2003464698791504;1.670775055885315;0.05561678111553192;-0.012646201997995377;1.5470705032348633;-0.011411299929022789;-0.011250023730099201;0.015278773382306099;-2.3834685579700814e-41;0.07169687747955322;-0.010997358709573746
54;4.444867134094238;1.3954523801803589;1.2055116891860962;1.7162610292434692;0.08091320097446442;-0.01247235108166933;1.590620994567871;-0.004242079798132181;-0.016927339136600494;0.01946626417338848;-2.3834685579700814e-41;0.07130874693393707;-0.012489995919167995
54;4.444867134094238;1.3954523801803589;1.2055116891860962;1.7162610292434692;0.08091320097446442;-0.01247235108166933;1.590620994567871;-0.004242079798132181;-0.016927339136600494;0.01946626417338848;-2.3834685579700814e-41;0.07130874693393707;-0.012489995919167995
59;4.363775730133057;1.3669461011886597;1.181269645690918;1.6463862657546997;0.030107777565717697;-0.007349408697336912;1.516430377960205;-0.009391729719936848;-0.007417943794280291;0.014264918863773346;-2.3834685579700814e-41;0.056844841688871384;-0.00589059479534626
57;4.381704330444336;1.4040422439575195;1.2145068645477295;1.6713496446609497;0.04533594846725464;-0.012198856100440025;1.5516561269760132;-0.013357880525290966;-0.015990953892469406;0.014576300047338009;-2.3834685579700814e-41;0.06835920363664627;-0.011829757131636143
55;4.454836845397949;1.3952962160110474;1.2114073038101196;1.718693733215332;0.06716162711381912;-0.019402408972382545;1.5936458110809326;-0.012891517952084541;-0.021322820335626602;0.0180928073823452;-2.3834685579700814e-41;0.06483390182256699;-0.018659796565771103
55;4.454836845397949;1.3952962160110474;1.2114073038101196;1.718693733215332;0.06716162711381912;-0.019402408972382545;1.5936458110809326;-0.012891517952084541;-0.021322820335626602;0.0180928073823452;-2.3834685579700814e-41;0.06483390182256699;-0.018659796565771103
60;4.365588188171387;1.3514243364334106;1.173598051071167;1.6474031209945679;0.026661843061447144;-0.008715938776731491;1.5062811374664307;-0.009115811437368393;-0.00900646299123764;0.011409698985517025;-2.3834685579700814e-41;0.051891252398490906;0.0033405483700335026
58;4.366883754730225;1.384606122970581;1.193013310432434;1.6504268646240234;0.03735263645648956;-0.007763553876429796;1.5323100090026855;-0.010789815336465836;-0.007995013147592545;0.01727733574807644;-2.3834685579700814e-41;0.061688829213380814;-0.007278695236891508
56;4.445252418518066;1.3907755613327026;1.1972556114196777;1.7088005542755127;0.05652753636240959;-0.010966172441840172;1.58809232711792;-0.012017047964036465;-0.010839533992111683;0.018055422231554985;-2.3834685579700814e-41;0.061872147023677826;-0.00960499793291092
56;4.445252418518066;1.3907755613327026;1.1972556114196777;1.7088005542755127;0.05652753636240959;-0.010966172441840172;1.58809232711792;-0.012017047964036465;-0.010839533992111683;0.018055422231554985;-2.3834685579700814e-41;0.061872147023677826;-0.00960499793291092
61;4.3668413162231445;1.3411617279052734;1.1672250032424927;1.6376214027404785;0.023132963106036186;-0.0035245083272457123;1.4940106868743896;-0.006358354818075895;-0.0025370873045176268;0.010702437721192837;-2.3834685579700814e-41;0.05262555181980133;0.0004311259544920176
59;4.363775730133057;1.3669461011886597;1.181269645690918;1.6463862657546997;0.030107777565717697;-0.007349408697336912;1.516430377960205;-0.009391729719936848;-0.007417943794280291;0.014264918863773346;-2.3834685579700814e-41;0.056844841688871384;-0.00589059479534626
57;4.453853130340576;1.3941712379455566;1.1943180561065674;1.7049874067306519;0.0462881438434124;-0.010994364507496357;1.58510422706604;-0.01329379715025425;-0.015129685401916504;0.016920363530516624;-2.3834685579700814e-41;0.055506061762571335;-0.013142555020749569
57;4.453853130340576;1.3941712379455566;1.1943180561065674;1.7049874067306519;0.0462881438434124;-0.010994364507496357;1.58510422706604;-0.01329379715025425;-0.015129685401916504;0.016920363530516624;-2.3834685579700814e-41;0.055506061762571335;-0.013142555020749569
62;4.333411693572998;1.3025617599487305;1.1287634372711182;1.599961519241333;0.019396955147385597;-0.00027513873646967113;1.4572083950042725;-0.0029941557440906763;0.0002975538372993469;0.00796881690621376;-2.3834685579700814e-41;0.04771634191274643;0.0010990130249410868
60;4.365588188171387;1.3514243364334106;1.173598051071167;1.6474031209945679;0.026661843061447144;-0.008715938776731491;1.5062811374664307;-0.009115811437368393;-0.00900646299123764;0.011409698985517025;-2.3834685579700814e-41;0.051891252398490906;0.0033405483700335026
58;4.473496913909912;1.4004229307174683;1.1977155208587646;1.7163419723510742;0.03673972934484482;-0.01622636429965496;1.5806918144226074;-0.01648097299039364;-0.019581159576773643;0.019001023843884468;-2.3834685579700814e-41;0.04883347451686859;-0.016377612948417664
58;4.473496913909912;1.4004229307174683;1.1977155208587646;1.7163419723510742;0.03673972934484482;-0.01622636429965496;1.5806918144226074;-0.01648097299039364;-0.019581159576773643;0.019001023843884468;-2.3834685579700814e-41;0.04883347451686859;-0.016377612948417664
61;4.3668413162231445;1.3411617279052734;1.1672250032424927;1.6376214027404785;0.023132963106036186;-0.0035245083272457123;1.4940106868743896;-0.006358354818075895;-0.0025370873045176268;0.010702437721192837;-2.3834685579700814e-41;0.05262555181980133;0.0004311259544920176
63;4.313446521759033;1.2827996015548706;1.1103569269180298;1.5776854753494263;0.024771790951490402;-0.0006362992571666837;1.4371002912521362;0.003497225698083639;-0.0034977097529917955;0.006827780045568943;-2.3834685579700814e-41;0.04332549870014191;-0.0003377962566446513
59;4.495468616485596;1.4046882390975952;1.2110384702682495;1.7355912923812866;0.02756682224571705;-0.021808208897709846;1.5820404291152954;-0.020412379875779152;-0.024536771699786186;0.010115561075508595;-2.3834685579700814e-41;0.04227067157626152;-0.022525645792484283
59;4.495468616485596;1.4046882390975952;1.2110384702682495;1.7355912923812866;0.02756682224571705;-0.021808208897709846;1.5820404291152954;-0.020412379875779152;-0.024536771699786186;0.010115561075508595;-2.3834685579700814e-41;0.04227067157626152;-0.022525645792484283
62;4.333411693572998;1.3025617599487305;1.1287634372711182;1.599961519241333;0.019396955147385597;-0.00027513873646967113;1.4572083950042725;-0.0029941557440906763;0.0002975538372993469;0.00796881690621376;-2.3834685579700814e-41;0.04771634191274643;0.0010990130249410868
64;4.298720836639404;1.279541254043579;1.1117908954620361;1.5728157758712769;0.035407423973083496;-0.0003661981609184295;1.433258295059204;0.003140163840726018;-0.0022748527117073536;0.007761984597891569;-2.3834685579700814e-41;0.041765257716178894;-5.118714761920273e-05
60;4.526656150817871;1.4142557382583618;1.226369857788086;1.7534955739974976;0.021307194605469704;-0.02564823068678379;1.5933588743209839;-0.024262603372335434;-0.027605270966887474;0.006989817135035992;-2.3834685579700814e-41;0.03772192448377609;-0.011295320466160774
60;4.526656150817871;1.4142557382583618;1.226369857788086;1.7534955739974976;0.021307194605469704;-0.02564823068678379;1.5933588743209839;-0.024262603372335434;-0.027605270966887474;0.006989817135035992;-2.3834685579700814e-41;0.03772192448377609;-0.011295320466160774
63;4.313446521759033;1.2827996015548706;1.1103569269180298;1.5776854753494263;0.024771790951490402;-0.0006362992571666837;1.4371002912521362;0.003497225698083639;-0.0034977097529917955;0.006827780045568943;-2.3834685579700814e-41;0.04332549870014191;-0.0003377962566446513
65;4.303020000457764;1.306450366973877;1.1386072635650635;1.5900144577026367;0.038659799844026566;-0.0015686131082475185;1.4558149576187134;0.0028495104052126408;-0.0036198075395077467;0.008441816084086895;-2.3834685579700814e-41;0.04029315710067749;-0.0011813770979642868
61;4.542657375335693;1.4216220378875732;1.2363799810409546;1.7556356191635132;0.015417826361954212;-0.017581375315785408;1.588071346282959;-0.022349299862980843;-0.016261160373687744;0.008205074816942215;-2.3834685579700814e-41;0.03826688230037689;-0.015215126797556877
61;4.542657375335693;1.4216220378875732;1.2363799810409546;1.7556356191635132;0.015417826361954212;-0.017581375315785408;1.588071346282959;-0.022349299862980843;-0.016261160373687744;0.008205074816942215;-2.3834685579700814e-41;0.03826688230037689;-0.015215126797556877
64;4.298720836639404;1.279541254043579;1.1117908954620361;1.5728157758712769;0.035407423973083496;-0.0003661981609184295;1.433258295059204;0.003140163840726018;-0.0022748527117073536;0.007761984597891569;-2.3834685579700814e-41;0.041765257716178894;-5.118714761920273e-05
66;4.2921953201293945;1.308919906616211;1.1439577341079712;1.5924121141433716;0.04111875966191292;-0.005483475513756275;1.4578094482421875;-0.001384846749715507;-0.008413584902882576;0.007516578771173954;-2.3834685579700814e-41;0.041667912155389786;-0.0071191368624567986
62;4.518815517425537;1.3980066776275635;1.2090446949005127;1.7316256761550903;0.015785930678248405;0.007482272572815418;1.564110517501831;-0.0044146375730633736;0.011119565926492214;0.007173169869929552;-2.3834685579700814e-41;0.038443051278591156;0.00993809849023819
62;4.518815517425537;1.3980066776275635;1.2090446949005127;1.7316256761550903;0.015785930678248405;0.007482272572815418;1.564110517501831;-0.0044146375730633736;0.011119565926492214;0.007173169869929552;-2.3834685579700814e-41;0.038443051278591156;0.00993809849023819
65;4.303020000457764;1.306450366973877;1.1386072635650635;1.5900144577026367;0.038659799844026566;-0.0015686131082475185;1.4558149576187134;0.0028495104052126408;-0.0036198075395077467;0.008441816084086895;-2.3834685579700814e-41;0.04029315710067749;-0.0011813770979642868
67;4.263603210449219;1.2760534286499023;1.1146581172943115;1.5615408420562744;0.042156413197517395;-0.001409561955370009;1.4259929656982422;-0.001279322663322091;-0.0009955891873687506;0.0047121294774115086;-2.3834685579700814e-41;0.03716683015227318;-0.0013580563245341182
63;4.506113052368164;1.3914368152618408;1.2062551975250244;1.7227998971939087;0.03033018298447132;0.011078190989792347;1.5550591945648193;0.013036736287176609;0.006284373812377453;0.010008567944169044;-2.3834685579700814e-41;0.03622595593333244;0.009458075277507305
63;4.506113052368164;1.3914368152618408;1.2062551975250244;1.7227998971939087;0.03033018298447132;0.011078190989792347;1.5550591945648193;0.013036736287176609;0.006284373812377453;0.010008567944169044;-2.3834685579700814e-41;0.03622595593333244;0.009458075277507305
66;4.2921953201293945;1.308919906616211;1.1439577341079712;1.5924121141433716;0.04111875966191292;-0.005483475513756275;1.4578094482421875;-0.001384846749715507;-0.008413584902882576;0.007516578771173954;-2.3834685579700814e-41;0.041667912155389786;-0.0071191368624567986
68;4.250093460083008;1.25023353099823;1.091634750366211;1.5505404472351074;0.07526122033596039;-0.0022572593297809362;1.416713833808899;-0.0021057433914393187;-0.00416284566745162;0.012372765690088272;-2.3834685579700814e-41;0.03762521222233772;0.002138727344572544
64;4.493155479431152;1.3852227926254272;1.2052912712097168;1.7117465734481812;0.03710812330245972;0.002422827761620283;1.5461945533752441;0.0062024411745369434;-0.0007273838855326176;0.006001295987516642;-2.3834685579700814e-41;0.03371111676096916;0.002315359655767679
64;4.493155479431152;1.3852227926254272;1.2052912712097168;1.7117465734481812;0.03710812330245972;0.002422827761620283;1.5461945533752441;0.0062024411745369434;-0.0007273838855326176;0.006001295987516642;-2.3834685579700814e-41;0.03371111676096916;0.002315359655767679
67;4.263603210449219;1.2760534286499023;1.1146581172943115;1.5615408420562744;0.042156413197517395;-0.001409561955370009;1.4259929656982422;-0.001279322663322091;-0.0009955891873687506;0.0047121294774115086;-2.3834685579700814e-41;0.03716683015227318;-0.0013580563245341182
69;4.247244358062744;1.243483543395996;1.089457392692566;1.5630384683609009;0.08381592482328415;-0.0014181120786815882;1.421816110610962;-0.003312360728159547;-0.005473785102367401;0.0080223074182868;-2.3834685579700814e-41;0.038669437170028687;-0.0011869709705933928
65;4.475769519805908;1.3737194538116455;1.196181058883667;1.696980595588684;0.03029303252696991;-0.0034191319718956947;1.5325318574905396;0.0008517493843100965;-0.004397484939545393;0.0005803285166621208;-2.3834685579700814e-41;0.030033906921744347;-0.0029594521038234234
65;4.475769519805908;1.3737194538116455;1.196181058883667;1.696980595588684;0.03029303252696991;-0.0034191319718956947;1.5325318574905396;0.0008517493843100965;-0.004397484939545393;0.0005803285166621208;-2.3834685579700814e-41;0.030033906921744347;-0.0029594521038234234
68;4.250093460083008;1.25023353099823;1.091634750366211;1.5505404472351074;0.07526122033596039;-0.0022572593297809362;1.416713833808899;-0.0021057433914393187;-0.00416284566745162;0.012372765690088272;-2.3834685579700814e-41;0.03762521222233772;0.002138727344572544
70;4.214346408843994;1.2087196111679077;1.0574564933776855;1.5341618061065674;0.07549465447664261;0.0001343107724096626;1.392006516456604;-0.001786601496860385;-0.0003434787504374981;0.00982382521033287;-2.3834685579700814e-41;0.033985890448093414;8.93531323526986e-05
66;4.456484794616699;1.3539172410964966;1.1766362190246582;1.6838985681533813;0.045557767152786255;-0.005903509445488453;1.5145478248596191;-0.002505461685359478;-0.0060517750680446625;0.005382620729506016;-2.3834685579700814e-41;0.028974037617444992;-0.006379489321261644
66;4.456484794616699;1.3539172410964966;1.1766362190246582;1.6838985681533813;0.045557767152786255;-0.005903509445488453;1.5145478248596191;-0.002505461685359478;-0.0060517750680446625;0.005382620729506016;-2.3834685579700814e-41;0.028974037617444992;-0.006379489321261644
69;4.247244358062744;1.243483543395996;1.089457392692566;1.5630384683609009;0.08381592482328415;-0.0014181120786815882;1.421816110610962;-0.003312360728159547;-0.005473785102367401;0.0080223074182868;-2.3834685579700814e-41;0.038669437170028687;-0.0011869709705933928
71;4.188669204711914;1.1886035203933716;1.0414612293243408;1.5105431079864502;0.06723527610301971;-0.0003772171912714839;1.3689154386520386;-0.00042959058191627264;-0.0006657358026131988;0.011268660426139832;-2.3834685579700814e-41;0.03316819667816162;0.001285815262235701
67;4.448718547821045;1.3498939275741577;1.1740293502807617;1.6812342405319214;0.0751340240240097;0.015445048920810223;1.5017863512039185;0.00834254827350378;0.018696006387472153;0.013872233219444752;-2.3834685579700814e-41;0.029685014858841896;0.015765508636832237
67;4.448718547821045;1.3498939275741577;1.1740293502807617;1.6812342405319214;0.0751340240240097;0.015445048920810223;1.5017863512039185;0.00834254827350378;0.018696006387472153;0.013872233219444752;-2.3834685579700814e-41;0.029685014858841896;0.015765508636832237
70;4.214346408843994;1.2087196111679077;1.0574564933776855;1.5341618061065674;0.07549465447664261;0.0001343107724096626;1.392006516456604;-0.001786601496860385;-0.0003434787504374981;0.00982382521033287;-2.3834685579700814e-41;0.033985890448093414;8.93531323526986e-05
72;4.174369812011719;1.1920192241668701;1.0508896112442017;1.5113027095794678;0.061951398849487305;-0.0036856397055089474;1.3669257164001465;-0.001728219329379499;-0.004589011427015066;0.007179003208875656;-2.3834685579700814e-41;0.03362024575471878;-0.0017938872333616018
68;4.446516036987305;1.3366001844406128;1.165277123451233;1.6852641105651855;0.10656329989433289;0.00915253534913063;1.5072952508926392;0.0081769535318017;0.006722911261022091;0.009935599751770496;-2.3834685579700814e-41;0.03466213122010231;0.014274460263550282
68;4.446516036987305;1.3366001844406128;1.165277123451233;1.6852641105651855;0.10656329989433289;0.00915253534913063;1.5072952508926392;0.0081769535318017;0.006722911261022091;0.009935599751770496;-2.3834685579700814e-41;0.03466213122010231;0.014274460263550282
71;4.188669204711914;1.1886035203933716;1.0414612293243408;1.5105431079864502;0.06723527610301971;-0.0003772171912714839;1.3689154386520386;-0.00042959058191627264;-0.0006657358026131988;0.011268660426139832;-2.3834685579700814e-41;0.03316819667816162;0.001285815262235701
73;4.179424285888672;1.2018377780914307;1.1024266481399536;1.5196446180343628;0.055443935096263885;-0.013265912421047688;1.370147466659546;-0.005806660279631615;-0.012056856416165829;-0.011186225339770317;-2.3834685579700814e-41;0.03244635835289955;-0.00957309827208519
69;4.442063808441162;1.3183727264404297;1.1513612270355225;1.6868655681610107;0.10215117037296295;0.0033045916352421045;1.50398588180542;0.0028197909705340862;-0.002116680145263672;0.011444651521742344;-2.3834685579700814e-41;0.03862260654568672;0.002812876831740141
69;4.442063808441162;1.3183727264404297;1.1513612270355225;1.6868655681610107;0.10215117037296295;0.0033045916352421045;1.50398588180542;0.0028197909705340862;-0.002116680145263672;0.011444651521742344;-2.3834685579700814e-41;0.03862260654568672;0.002812876831740141
72;4.174369812011719;1.1920192241668701;1.0508896112442017;1.5113027095794678;0.061951398849487305;-0.0036856397055089474;1.3669257164001465;-0.001728219329379499;-0.004589011427015066;0.007179003208875656;-2.3834685579700814e-41;0.03362024575471878;-0.0017938872333616018
74;4.200173377990723;1.228298306465149;1.168919563293457;1.5371588468551636;0.05455928295850754;-0.023581916466355324;1.384171962738037;-0.013762292452156544;-0.02114906720817089;-0.03516589105129242;-2.3834685579700814e-41;0.0467575341463089;-0.017963197082281113
70;4.436420440673828;1.3218632936477661;1.1601439714431763;1.690722107887268;0.09507353603839874;0.02699904702603817;1.5062226057052612;0.014913058839738369;0.02710353583097458;0.026231972500681877;-2.3834685579700814e-41;0.037485867738723755;0.022331468760967255
70;4.436420440673828;1.3218632936477661;1.1601439714431763;1.690722107887268;0.09507353603839874;0.02699904702603817;1.5062226057052612;0.014913058839738369;0.02710353583097458;0.026231972500681877;-2.3834685579700814e-41;0.037485867738723755;0.022331468760967255
73;4.179424285888672;1.2018377780914307;1.1024266481399536;1.5196446180343628;0.055443935096263885;-0.013265912421047688;1.370147466659546;-0.005806660279631615;-0.012056856416165829;-0.011186225339770317;-2.3834685579700814e-41;0.03244635835289955;-0.00957309827208519
75;4.218419551849365;1.2512210607528687;1.1932835578918457;1.5550733804702759;0.056203510612249374;-0.020938891917467117;1.4035438299179077;-0.018191581591963768;-0.023278189823031425;-0.02129664644598961;-2.3834685579700814e-41;0.044378768652677536;-0.02029731124639511
71;4.427716255187988;1.3316861391067505;1.174379587173462;1.6891746520996094;0.09089507907629013;0.014969219453632832;1.5064899921417236;0.015185883268713951;0.012247506529092789;0.023819297552108765;-2.3834685579700814e-41;0.041593845933675766;0.016072945669293404
71;4.427716255187988;1.3316861391067505;1.174379587173462;1.6891746520996094;0.09089507907629013;0.014969219453632832;1.5064899921417236;0.015185883268713951;0.012247506529092789;0.023819297552108765;-2.3834685579700814e-41;0.041593845933675766;0.016072945669293404
74;4.200173377990723;1.228298306465149;1.168919563293457;1.5371588468551636;0.05455928295850754;-0.023581916466355324;1.384171962738037;-0.013762292452156544;-0.02114906720817089;-0.03516589105129242;-2.3834685579700814e-41;0.0467575341463089;-0.017963197082281113
76;4.242832183837891;1.277723789215088;1.2175064086914062;1.5742554664611816;0.05101853236556053;-0.016987362876534462;1.4267452955245972;-0.01753610000014305;-0.01759417913854122;-0.01042964868247509;-2.3834685579700814e-41;0.04258517175912857;-0.015717297792434692
72;4.420749187469482;1.3295007944107056;1.1777528524398804;1.6847470998764038;0.08549974113702774;0.00553081464022398;1.503615379333496;0.009473208338022232;0.00434777420014143;0.016272086650133133;-2.3834685579700814e-41;0.039504971355199814;0.00708913616836071
72;4.420749187469482;1.3295007944107056;1.1777528524398804;1.6847470998764038;0.08549974113702774;0.00553081464022398;1.503615379333496;0.009473208338022232;0.00434777420014143;0.016272086650133133;-2.3834685579700814e-41;0.039504971355199814;0.00708913616836071
75;4.218419551849365;1.2512210607528687;1.1932835578918457;1.5550733804702759;0.056203510612249374;-0.020938891917467117;1.4035438299179077;-0.018191581591963768;-0.023278189823031425;-0.02129664644598961;-2.3834685579700814e-41;0.044378768652677536;-0.02029731124639511
77;4.256471157073975;1.3036171197891235;1.2441622018814087;1.5938371419906616;0.04583723843097687;-0.014081200584769249;1.4464707374572754;-0.01605663262307644;-0.013742157258093357;-0.007917337119579315;-2.3834685579700814e-41;0.03983567655086517;-0.006909822579473257
73;4.414834976196289;1.3145638704299927;1.2005794048309326;1.6687185764312744;0.07693485915660858;-0.008921000175178051;1.4841641187667847;0.0010167511645704508;-0.006523916497826576;-0.009811026975512505;-2.3834685579700814e-41;0.035242222249507904;-0.0011642531026154757
73;4.414834976196289;1.3145638704299927;1.2005794048309326;1.6687185764312744;0.07693485915660858;-0.008921000175178051;1.4841641187667847;0.0010167511645704508;-0.006523916497826576;-0.009811026975512505;-2.3834685579700814e-41;0.035242222249507904;-0.0011642531026154757
76;4.242832183837891;1.277723789215088;1.2175064086914062;1.5742554664611816;0.05101853236556053;-0.016987362876534462;1.4267452955245972;-0.01753610000014305;-0.01759417913854122;-0.01042964868247509;-2.3834685579700814e-41;0.04258517175912857;-0.015717297792434692
78;4.254363536834717;1.282684087753296;1.2240328788757324;1.5908410549163818;0.054211802780628204;-0.012324603274464607;1.4391977787017822;-0.01313172746449709;-0.011828465387225151;0.0005754177691414952;-2.3834685579700814e-41;0.03599323704838753;-0.008388080634176731
74;4.411684513092041;1.2951611280441284;1.2230523824691772;1.6530884504318237;0.07503575086593628;-0.018018335103988647;1.4683467149734497;-0.008743409998714924;-0.0150525514036417;-0.03417272865772247;-2.3834685579700814e-41;0.04543023183941841;-0.011174911633133888
74;4.411684513092041;1.2951611280441284;1.2230523824691772;1.6530884504318237;0.07503575086593628;-0.018018335103988647;1.4683467149734497;-0.008743409998714924;-0.0150525514036417;-0.03417272865772247;-2.3834685579700814e-41;0.04543023183941841;-0.011174911633133888
77;4.256471157073975;1.3036171197891235;1.2441622018814087;1.5938371419906616;0.04583723843097687;-0.014081200584769249;1.4464707374572754;-0.01605663262307644;-0.013742157258093357;-0.007917337119579315;-2.3834685579700814e-41;0.03983567655086517;-0.006909822579473257
79;4.253936767578125;1.2695716619491577;1.2157405614852905;1.596127986907959;0.055311474949121475;-0.009338646195828915;1.4318517446517944;-0.01052122376859188;-0.00954985711723566;0.006092287600040436;-2.3834685579700814e-41;0.03218919038772583;-0.0007353613618761301
75;4.4156646728515625;1.2990601062774658;1.2284075021743774;1.6557495594024658;0.07769128680229187;-0.017161479219794273;1.4717686176300049;-0.014206171035766602;-0.01824371889233589;-0.017291635274887085;-2.3834685579700814e-41;0.0409107580780983;-0.015445797704160213
75;4.4156646728515625;1.2990601062774658;1.2284075021743774;1.6557495594024658;0.07769128680229187;-0.017161479219794273;1.4717686176300049;-0.014206171035766602;-0.01824371889233589;-0.017291635274887085;-2.3834685579700814e-41;0.0409107580780983;-0.015445797704160213
78;4.254363536834717;1.282684087753296;1.2240328788757324;1.5908410549163818;0.054211802780628204;-0.012324603274464607;1.4391977787017822;-0.01313172746449709;-0.011828465387225151;0.0005754177691414952;-2.3834685579700814e-41;0.03599323704838753;-0.008388080634176731
80;4.255063056945801;1.2588974237442017;1.205579400062561;1.6082123517990112;0.04890787973999977;-0.008083301596343517;1.4393351078033447;-0.009727470576763153;-0.008733180351555347;0.034524645656347275;-2.3834685579700814e-41;0.028781218454241753;-0.005346381105482578
76;4.408638000488281;1.2972278594970703;1.2269206047058105;1.6494345664978027;0.0700618103146553;-0.01304528210312128;1.4694055318832397;-0.013630742207169533;-0.013717582449316978;-0.004947768524289131;-2.3834685579700814e-41;0.035531580448150635;-0.01216612383723259
76;4.408638000488281;1.2972278594970703;1.2269206047058105;1.6494345664978027;0.0700618103146553;-0.01304528210312128;1.4694055318832397;-0.013630742207169533;-0.013717582449316978;-0.004947768524289131;-2.3834685579700814e-41;0.035531580448150635;-0.01216612383723259
79;4.253936767578125;1.2695716619491577;1.2157405614852905;1.596127986907959;0.055311474949121475;-0.009338646195828915;1.4318517446517944;-0.01052122376859188;-0.00954985711723566;0.006092287600040436;-2.3834685579700814e-41;0.03218919038772583;-0.0007353613618761301
81;4.250172138214111;1.2515736818313599;1.1994355916976929;1.6248230934143066;0.0539061576128006;-0.005294961389154196;1.4370293617248535;-0.006829938851296902;-0.005607687868177891;0.025019807741045952;-2.3834685579700814e-41;0.027909325435757637;-0.004649327602237463
77;4.397007942199707;1.2936325073242188;1.2253048419952393;1.641532063484192;0.06241722032427788;-0.010719168931245804;1.4639525413513184;-0.01320410706102848;-0.010737478733062744;-0.0027195934671908617;-2.3834685579700814e-41;0.030887966975569725;-0.006686212029308081
77;4.397007942199707;1.2936325073242188;1.2253048419952393;1.641532063484192;0.06241722032427788;-0.010719168931245804;1.4639525413513184;-0.01320410706102848;-0.010737478733062744;-0.0027195934671908617;-2.3834685579700814e-41;0.030887966975569725;-0.006686212029308081
80;4.255063056945801;1.2588974237442017;1.205579400062561;1.6082123517990112;0.04890787973999977;-0.008083301596343517;1.4393351078033447;-0.009727470576763153;-0.008733180351555347;0.034524645656347275;-2.3834685579700814e-41;0.028781218454241753;-0.005346381105482578
82;4.25629186630249;1.2383586168289185;1.1883268356323242;1.6340196132659912;0.04975556954741478;0.0043320865370333195;1.4294885396957397;0.00010693485091906041;0.0055566574446856976;0.010557514615356922;-2.3834685579700814e-41;0.03464791923761368;0.00630215322598815
78;4.391976356506348;1.2809773683547974;1.2125968933105469;1.6476459503173828;0.06022828444838524;-0.010500092059373856;1.4597352743148804;-0.010674890130758286;-0.009800734929740429;0.004119307734072208;-2.3834685579700814e-41;0.02831892855465412;-0.006816247012466192
78;4.391976356506348;1.2809773683547974;1.2125968933105469;1.6476459503173828;0.06022828444838524;-0.010500092059373856;1.4597352743148804;-0.010674890130758286;-0.009800734929740429;0.004119307734072208;-2.3834685579700814e-41;0.02831892855465412;-0.006816247012466192
81;4.250172138214111;1.2515736818313599;1.1994355916976929;1.6248230934143066;0.0539061576128006;-0.005294961389154196;1.4370293617248535;-0.006829938851296902;-0.005607687868177891;0.025019807741045952;-2.3834685579700814e-41;0.027909325435757637;-0.004649327602237463
83;4.231168270111084;1.2075755596160889;1.1600379943847656;1.6051769256591797;0.04475822672247887;0.0024498929269611835;1.4018982648849487;0.0015757509972900152;0.0021522012539207935;0.0018297287169843912;-2.3834685579700814e-41;0.03313078358769417;0.0031088627874851227
79;4.383228778839111;1.2700722217559814;1.2042421102523804;1.651412844657898;0.05797693505883217;-0.007711595389991999;1.4494874477386475;-0.00963730737566948;-0.009562929160892963;0.007805268280208111;-2.3834685579700814e-41;0.025886667892336845;-0.0027005155570805073
79;4.383228778839111;1.2700722217559814;1.2042421102523804;1.651412844657898;0.05797693505883217;-0.007711595389991999;1.4494874477386475;-0.00963730737566948;-0.009562929160892963;0.007805268280208111;-2.3834685579700814e-41;0.025886667892336845;-0.0027005155570805073
82;4.25629186630249;1.2383586168289185;1.1883268356323242;1.6340196132659912;0.04975556954741478;0.0043320865370333195;1.4294885396957397;0.00010693485091906041;0.0055566574446856976;0.010557514615356922;-2.3834685579700814e-41;0.03464791923761368;0.00630215322598815
84;4.21923303604126;1.1992480754852295;1.1529614925384521;1.5924222469329834;0.0502629429101944;-0.0011339547345414758;1.3908238410949707;-0.0002900172839872539;-0.0024446812458336353;0.0034867904614657164;-2.3834685579700814e-41;0.03150008246302605;-0.0005304893711581826
80;4.37057638168335;1.2573014497756958;1.1906561851501465;1.6536082029342651;0.050832442939281464;-0.00794239155948162;1.447697401046753;-0.009547551162540913;-0.008776683360338211;0.01626002974808216;-2.3834685579700814e-41;0.02284926176071167;-0.006371582858264446
80;4.37057638168335;1.2573014497756958;1.1906561851501465;1.6536082029342651;0.050832442939281464;-0.00794239155948162;1.447697401046753;-0.009547551162540913;-0.008776683360338211;0.01626002974808216;-2.3834685579700814e-41;0.02284926176071167;-0.006371582858264446
83;4.231168270111084;1.2075755596160889;1.1600379943847656;1.6051769256591797;0.04475822672247887;0.0024498929269611835;1.4018982648849487;0.0015757509972900152;0.0021522012539207935;0.0018297287169843912;-2.3834685579700814e-41;0.03313078358769417;0.0031088627874851227
85;4.224502086639404;1.2173693180084229;1.163468599319458;1.6011351346969604;0.06540407240390778;-0.0037630300503224134;1.397485375404358;-0.0027255064342170954;-0.004990957677364349;0.005525289103388786;-2.3834685579700814e-41;0.030886420980095863;0.002660533180460334
81;4.350643634796143;1.2397595643997192;1.172919750213623;1.6471059322357178;0.05177396908402443;-0.005614785943180323;1.4328099489212036;-0.006980260834097862;-0.005846889689564705;0.01495001558214426;-2.3834685579700814e-41;0.023003127425909042;-0.005212798248976469
81;4.350643634796143;1.2397595643997192;1.172919750213623;1.6471059322357178;0.05177396908402443;-0.005614785943180323;1.4328099489212036;-0.006980260834097862;-0.005846889689564705;0.01495001558214426;-2.3834685579700814e-41;0.023003127425909042;-0.005212798248976469
84;4.21923303604126;1.1992480754852295;1.1529614925384521;1.5924222469329834;0.0502629429101944;-0.0011339547345414758;1.3908238410949707;-0.0002900172839872539;-0.0024446812458336353;0.0034867904614657164;-2.3834685579700814e-41;0.03150008246302605;-0.0005304893711581826
82;4.345008373260498;1.2280068397521973;1.1634085178375244;1.6466915607452393;0.04813820868730545;0.0077053518034517765;1.4234912395477295;0.0025212904438376427;0.010372728109359741;0.004993469454348087;-2.3834685579700814e-41;0.02906029485166073;0.009326518513262272
86;4.254443168640137;1.2737451791763306;1.2166731357574463;1.6430222988128662;0.07739166915416718;-0.0026466764975339174;1.4184598922729492;-0.005127445794641972;-0.007728762924671173;0.007149106822907925;-2.3834685579700814e-41;0.03171524405479431;-0.0024840491823852062
82;4.345008373260498;1.2280068397521973;1.1634085178375244;1.6466915607452393;0.04813820868730545;0.0077053518034517765;1.4234912395477295;0.0025212904438376427;0.010372728109359741;0.004993469454348087;-2.3834685579700814e-41;0.02906029485166073;0.009326518513262272
85;4.224502086639404;1.2173693180084229;1.163468599319458;1.6011351346969604;0.06540407240390778;-0.0037630300503224134;1.397485375404358;-0.0027255064342170954;-0.004990957677364349;0.005525289103388786;-2.3834685579700814e-41;0.030886420980095863;0.002660533180460334
83;4.364580154418945;1.2630252838134766;1.198494553565979;1.6719367504119873;0.05138583853840828;0.050022341310977936;1.449718952178955;0.03627724573016167;0.05559036508202553;0.001635778695344925;-2.3834685579700814e-41;0.0398477166891098;0.04896991699934006
83;4.364580154418945;1.2630252838134766;1.198494553565979;1.6719367504119873;0.05138583853840828;0.050022341310977936;1.449718952178955;0.03627724573016167;0.05559036508202553;0.001635778695344925;-2.3834685579700814e-41;0.0398477166891098;0.04896991699934006
87;4.279914855957031;1.3235714435577393;1.262325406074524;1.6767120361328125;0.0860016942024231;-0.0064126187935471535;1.4514155387878418;-0.006022708956152201;-0.00809459574520588;0.006173874717205763;-2.3834685579700814e-41;0.030912265181541443;-0.00493196165189147
86;4.254443168640137;1.2737451791763306;1.2166731357574463;1.6430222988128662;0.07739166915416718;-0.0026466764975339174;1.4184598922729492;-0.005127445794641972;-0.007728762924671173;0.007149106822907925;-2.3834685579700814e-41;0.03171524405479431;-0.0024840491823852062
84;4.399527072906494;1.3102294206619263;1.2459826469421387;1.7071763277053833;0.0689057856798172;0.027918227016925812;1.4827646017074585;0.030323809012770653;0.027433907613158226;0.0016541178338229656;-2.3834685579700814e-41;0.04753885790705681;0.03419068083167076
84;4.399527072906494;1.3102294206619263;1.2459826469421387;1.7071763277053833;0.0689057856798172;0.027918227016925812;1.4827646017074585;0.030323809012770653;0.027433907613158226;0.0016541178338229656;-2.3834685579700814e-41;0.04753885790705681;0.03419068083167076
88;4.313694477081299;1.3388652801513672;1.2762774229049683;1.709374189376831;0.07867719233036041;-0.014844290912151337;1.484162449836731;-0.014057540334761143;-0.015915093943476677;0.009486420080065727;-2.3834685579700814e-41;0.03104509226977825;-0.012581516057252884
87;4.279914855957031;1.3235714435577393;1.262325406074524;1.6767120361328125;0.0860016942024231;-0.0064126187935471535;1.4514155387878418;-0.006022708956152201;-0.00809459574520588;0.006173874717205763;-2.3834685579700814e-41;0.030912265181541443;-0.00493196165189147
85;4.415897369384766;1.344285011291504;1.270565152168274;1.7227553129196167;0.08787159621715546;0.01412579882889986;1.5013889074325562;0.014923795126378536;0.010265829972922802;0.003935747779905796;-2.3834685579700814e-41;0.04747576266527176;0.02586105838418007
85;4.415897369384766;1.344285011291504;1.270565152168274;1.7227553129196167;0.08787159621715546;0.01412579882889986;1.5013889074325562;0.014923795126378536;0.010265829972922802;0.003935747779905796;-2.3834685579700814e-41;0.04747576266527176;0.02586105838418007
89;4.363182544708252;1.394769549369812;1.3225077390670776;1.7545701265335083;0.09923140704631805;-0.017484132200479507;1.5385082960128784;-0.020378142595291138;-0.020654138177633286;0.0234394334256649;-2.3834685579700814e-41;0.04883416369557381;-0.007834948599338531
88;4.313694477081299;1.3388652801513672;1.2762774229049683;1.709374189376831;0.07867719233036041;-0.014844290912151337;1.484162449836731;-0.014057540334761143;-0.015915093943476677;0.009486420080065727;-2.3834685579700814e-41;0.03104509226977825;-0.012581516057252884
86;4.43610143661499;1.381327509880066;1.309261441230774;1.7510507106781006;0.08735456317663193;0.005164841189980507;1.5120179653167725;0.005137292202562094;0.00048342999070882797;0.003014194779098034;-2.3834685579700814e-41;0.04505814611911774;0.009688060730695724
86;4.43610143661499;1.381327509880066;1.309261441230774;1.7510507106781006;0.08735456317663193;0.005164841189980507;1.5120179653167725;0.005137292202562094;0.00048342999070882797;0.003014194779098034;-2.3834685579700814e-41;0.04505814611911774;0.009688060730695724
90;4.411340236663818;1.444887399673462;1.3746280670166016;1.800641655921936;0.09563463926315308;-0.01275233831256628;1.5879991054534912;-0.015622913837432861;-0.01395932026207447;0.019811352714896202;-2.3834685579700814e-41;0.050296589732170105;-0.010235126130282879
89;4.363182544708252;1.394769549369812;1.3225077390670776;1.7545701265335083;0.09923140704631805;-0.017484132200479507;1.5385082960128784;-0.020378142595291138;-0.020654138177633286;0.0234394334256649;-2.3834685579700814e-41;0.04883416369557381;-0.007834948599338531
87;4.443458557128906;1.3930448293685913;1.3230303525924683;1.758047342300415;0.08666227012872696;0.004589085001498461;1.5219991207122803;-0.000896720215678215;-0.0038644655141979456;0.0013193415943533182;-2.3834685579700814e-41;0.039374515414237976;-0.0002368641726206988
87;4.443458557128906;1.3930448293685913;1.3230303525924683;1.758047342300415;0.08666227012872696;0.004589085001498461;1.5219991207122803;-0.000896720215678215;-0.0038644655141979456;0.0013193415943533182;-2.3834685579700814e-41;0.039374515414237976;-0.0002368641726206988
91;4.4476094245910645;1.4757075309753418;1.4058126211166382;1.8266757726669312;0.09556640684604645;-0.009142149239778519;1.6112016439437866;-0.011434614658355713;-0.010056919418275356;0.015238652937114239;-2.3834685579700814e-41;0.04737943038344383;-0.009023254737257957
90;4.411340236663818;1.444887399673462;1.3746280670166016;1.800641655921936;0.09563463926315308;-0.01275233831256628;1.5879991054534912;-0.015622913837432861;-0.01395932026207447;0.019811352714896202;-2.3834685579700814e-41;0.050296589732170105;-0.010235126130282879
88;4.461830139160156;1.3971854448318481;1.3285448551177979;1.7755898237228394;0.07625334709882736;-0.015475324355065823;1.5419827699661255;-0.015700288116931915;-0.020113078877329826;0.005559880286455154;-2.3834685579700814e-41;0.036271873861551285;-0.01319582387804985
88;4.461830139160156;1.3971854448318481;1.3285448551177979;1.7755898237228394;0.07625334709882736;-0.015475324355065823;1.5419827699661255;-0.015700288116931915;-0.020113078877329826;0.005559880286455154;-2.3834685579700814e-41;0.036271873861551285;-0.01319582387804985
92;4.447782039642334;1.4568549394607544;1.3860540390014648;1.8105785846710205;0.09082391858100891;0.01887958124279976;1.5924690961837769;0.014709612354636192;0.024236654862761497;0.020568164065480232;-2.3834685579700814e-41;0.04429936408996582;0.01891794428229332
91;4.4476094245910645;1.4757075309753418;1.4058126211166382;1.8266757726669312;0.09556640684604645;-0.009142149239778519;1.6112016439437866;-0.011434614658355713;-0.010056919418275356;0.015238652937114239;-2.3834685579700814e-41;0.04737943038344383;-0.009023254737257957
89;4.492828845977783;1.4430615901947021;1.3665779829025269;1.8073902130126953;0.0976024940609932;-0.016756126657128334;1.5830132961273193;-0.020116690546274185;-0.020901044830679893;0.021751705557107925;-2.3834685579700814e-41;0.052227143198251724;-0.008085847832262516
89;4.492828845977783;1.4430615901947021;1.3665779829025269;1.8073902130126953;0.0976024940609932;-0.016756126657128334;1.5830132961273193;-0.020116690546274185;-0.020901044830679893;0.021751705557107925;-2.3834685579700814e-41;0.052227143198251724;-0.008085847832262516
93;4.456536293029785;1.4507564306259155;1.3745790719985962;1.7992935180664062;0.08616426587104797;0.013466798700392246;1.5794793367385864;0.013415985740721226;0.012223073281347752;0.018535882234573364;-2.3834685579700814e-41;0.04406196251511574;0.015450469218194485
92;4.447782039642334;1.4568549394607544;1.3860540390014648;1.8105785846710205;0.09082391858100891;0.01887958124279976;1.5924690961837769;0.014709612354636192;0.024236654862761497;0.020568164065480232;-2.3834685579700814e-41;0.04429936408996582;0.01891794428229332
90;4.5009660720825195;1.4558501243591309;1.381906509399414;1.8181496858596802;0.09392575919628143;-0.012483970262110233;1.5969029664993286;-0.015104319900274277;-0.013660398311913013;0.01799057237803936;-2.3834685579700814e-41;0.04964430257678032;-0.009968195110559464
90;4.5009660720825195;1.4558501243591309;1.381906509399414;1.8181496858596802;0.09392575919628143;-0.012483970262110233;1.5969029664993286;-0.015104319900274277;-0.013660398311913013;0.01799057237803936;-2.3834685579700814e-41;0.04964430257678032;-0.009968195110559464
94;4.4798970222473145;1.4430253505706787;1.36647629737854;1.799368977546692;0.08347628265619278;0.010396817699074745;1.5785272121429443;0.008451689966022968;0.006536754779517651;0.01533129345625639;-2.3834685579700814e-41;0.04508872702717781;0.009647062048316002
93;4.456536293029785;1.4507564306259155;1.3745790719985962;1.7992935180664062;0.08616426587104797;0.013466798700392246;1.5794793367385864;0.013415985740721226;0.012223073281347752;0.018535882234573364;-2.3834685579700814e-41;0.04406196251511574;0.015450469218194485
91;4.501193523406982;1.4585843086242676;1.3856209516525269;1.817298412322998;0.0907704085111618;-0.010049155913293362;1.5945026874542236;-0.012093824334442616;-0.010839301161468029;0.015122170560061932;-2.3834685579700814e-41;0.04305360093712807;-0.009943211451172829
91;4.501193523406982;1.4585843086242676;1.3856209516525269;1.817298412322998;0.0907704085111618;-0.010049155913293362;1.5945026874542236;-0.012093824334442616;-0.010839301161468029;0.015122170560061932;-2.3834685579700814e-41;0.04305360093712807;-0.009943211451172829
