batch_number;w0;w1;w2;w3;w4;w5;w6;w7;w8;w9;w10;w11;w12;w13;w14;w15;w16
1;0.3125734031200409;-0.1480879783630371;0.1764407753944397;0.3838220536708832;0.3123644292354584;-0.3811440169811249;-0.26704344153404236;-0.4708087146282196;0.17280615866184235;0.03795761615037918;-0.1397876888513565;-0.3413541615009308;0.4189695119857788;0.5329627990722656;0.3357839286327362;0.02315700054168701;-0.34040144085884094
2;0.41810527443885803;-0.034147266298532486;0.28443843126296997;0.43824705481529236;0.3452412486076355;-0.2634778618812561;-0.1603715717792511;-0.34566420316696167;0.2312709540128708;0.09960229694843292;-0.09542945772409439;-0.2934548556804657;0.5053803324699402;0.6194727420806885;0.19970953464508057;0.10782993584871292;-0.2492775171995163
3;0.5336752533912659;-0.014145058579742908;0.4007314443588257;0.5250858664512634;0.38127943873405457;-0.14080125093460083;-0.05867842212319374;-0.23501083254814148;0.268173485994339;0.19412368535995483;-0.049910273402929306;-0.20224475860595703;0.5881115794181824;0.7013162970542908;0.094647116959095;0.23467639088630676;-0.16103495657444
4;0.5733659863471985;0.028709247708320618;0.44563576579093933;0.49808719754219055;0.2701183259487152;-0.07427089661359787;-0.1346292495727539;-0.2801626920700073;0.2778473198413849;0.23701158165931702;-0.14796242117881775;-0.22252506017684937;0.5984721779823303;0.7149033546447754;0.03242412582039833;0.31926295161247253;-0.13622792065143585
5;0.5206348299980164;0.05944860354065895;0.4698539972305298;0.5081860423088074;0.29164743423461914;-0.11150091886520386;-0.13021568953990936;-0.24379085004329681;0.28736913204193115;0.28389209508895874;-0.12105162441730499;-0.211225226521492;0.6186617612838745;0.7348569631576538;0.01124842930585146;0.3892723619937897;-0.10778723657131195
6;0.5668017268180847;0.10843133926391602;0.42955029010772705;0.5671850442886353;0.23002944886684418;-0.044838305562734604;-0.13310295343399048;-0.1681680977344513;0.26125383377075195;0.2980242371559143;-0.15418769419193268;-0.22036689519882202;0.6085782647132874;0.7229930758476257;0.00272582215256989;0.4745652973651886;-0.07661719620227814
7;0.6138815879821777;0.15972377359867096;0.4821954667568207;0.6028836965560913;0.2192966639995575;-0.003779651364311576;-0.05018852278590202;-0.08452840149402618;0.2602335512638092;0.31227701902389526;-0.15094618499279022;-0.22007106244564056;0.6538048386573792;0.7648453712463379;0.0005127863842062652;0.5730676651000977;-0.0005701207555830479
8;0.6407726407051086;0.19113077223300934;0.5083168745040894;0.6441453695297241;0.20708388090133667;0.046935535967350006;0.05941943824291229;-0.0459592230618;0.25287196040153503;0.32443222403526306;-0.1529916524887085;-0.17233869433403015;0.6813908219337463;0.7873747944831848;7.348507642745972e-05;0.6789510846138;0.03428283706307411
9;0.7050462365150452;0.23326197266578674;0.5442582964897156;0.7005547881126404;0.16430822014808655;0.08850423991680145;0.09766252338886261;0.002263345057144761;0.22538034617900848;0.32319530844688416;-0.18709617853164673;-0.18118979036808014;0.7353476285934448;0.8401183485984802;5.981497452012263e-06;0.7858455181121826;0.09038165211677551
10;0.6979489922523499;0.23535475134849548;0.5705996751785278;0.7456990480422974;0.13830901682376862;0.12778376042842865;0.09742263704538345;0.0126270093023777;0.20135043561458588;0.3183511793613434;-0.20296601951122284;-0.2002551108598709;0.750715434551239;0.9089534878730774;8.115154628285381e-07;0.8186620473861694;0.11304467916488647
11;0.7214322686195374;0.2678704857826233;0.6353389024734497;0.7663812637329102;0.09949388355016708;0.16455556452274323;0.10082260519266129;0.07007034122943878;0.1747496873140335;0.31530827283859253;-0.23414945602416992;-0.22720550000667572;0.866595983505249;0.9493148326873779;4.4879666205588364e-08;0.8475016355514526;0.1592247039079666
12;0.736424446105957;0.2915714383125305;0.6582688689231873;0.7817825078964233;0.01079790573567152;0.1989288032054901;0.09279175847768784;0.1024145632982254;0.101408451795578;0.32819050550460815;-0.29829058051109314;-0.27934539318084717;0.8749448657035828;1.0528644323349;1.6400371061209285e-09;0.8809739947319031;0.17509624361991882
13;0.700800895690918;0.2556300461292267;0.6346614360809326;0.7661970853805542;-0.06816311925649643;0.202459916472435;0.08668344467878342;0.08677850663661957;0.03974165394902229;0.3077523410320282;-0.38074424862861633;-0.21539266407489777;0.8230212330818176;1.008589506149292;2.1312943077056445e-10;0.8793913722038269;0.13614138960838318
14;0.7008374333381653;0.3102887272834778;0.6436281800270081;0.7685927152633667;-0.0720183253288269;0.24687223136425018;0.12713459134101868;0.10800255835056305;0.025870686396956444;0.3065985143184662;-0.3753126859664917;-0.20703734457492828;0.8014339804649353;0.9967660903930664;2.1827296914356253e-12;0.9427890181541443;0.13104473054409027
15;0.7738510370254517;0.3858475983142853;0.7153294682502747;0.8204094171524048;-0.02650206722319126;0.3116089701652527;0.18156777322292328;0.18121148645877838;0.051560524851083755;0.351912260055542;-0.3187714219093323;-0.18237687647342682;0.8214563131332397;1.0240288972854614;3.1808343665170463e-14;0.9925499558448792;0.15414781868457794
16;0.7949897646903992;0.41580551862716675;0.7407003045082092;0.8427034616470337;-0.021942758932709694;0.3442266285419464;0.21046096086502075;0.21209581196308136;0.05151915177702904;0.3773711621761322;-0.3022545874118805;-0.19071637094020844;0.8143373131752014;1.0185579061508179;2.4907501445869213e-16;1.023423433303833;0.14998897910118103
17;0.6972159743309021;0.33992883563041687;0.7403851747512817;0.7767946720123291;-0.06757591664791107;0.2758437991142273;0.15137113630771637;0.13981355726718903;0.008813193067908287;0.3659333288669586;-0.34533175826072693;-0.2003096491098404;0.8357476592063904;1.0389424562454224;8.698186712028392e-19;1.0565247535705566;0.18169116973876953
18;0.6905227303504944;0.4190298318862915;0.7435855269432068;0.7732502222061157;-0.09544359892606735;0.28324493765830994;0.1458977907896042;0.14737145602703094;-0.017291029915213585;0.3516862392425537;-0.3691936135292053;-0.21738334000110626;0.875445544719696;1.0289231538772583;9.038651626826125e-22;1.0572656393051147;0.18156778812408447
19;0.686564564704895;0.4292672574520111;0.7483607530593872;0.8008781671524048;-0.14411351084709167;0.29478731751441956;0.14302752912044525;0.15996073186397552;-0.059253398329019547;0.3320719301700592;-0.4134540557861328;-0.23360176384449005;0.8698136210441589;1.0179423093795776;-3.421552596862338e-26;1.110607624053955;0.17999497056007385
20;0.6910703778266907;0.4427543580532074;0.7580401301383972;0.7929103970527649;-0.18269029259681702;0.3549186587333679;0.13976134359836578;0.17742617428302765;-0.093839630484581;0.30612531304359436;-0.44482073187828064;-0.260820209980011;0.8750622868537903;1.0221059322357178;1.0495787813859344e-29;1.1892595291137695;0.24503108859062195
21;0.6814749836921692;0.44929739832878113;0.7594754695892334;0.8182103633880615;-0.2365601509809494;0.3663081228733063;0.13998667895793915;0.19116370379924774;-0.1393829882144928;0.28364506363868713;-0.49120333790779114;-0.28433290123939514;0.9038469195365906;1.0491117238998413;-1.8601435867144588e-34;1.224766492843628;0.27896931767463684
22;0.7167120575904846;0.4515365660190582;0.7561729550361633;0.8368504047393799;-0.28931498527526855;0.37465494871139526;0.14265845715999603;0.25029245018959045;-0.14619366824626923;0.31124845147132874;-0.5337088108062744;-0.31019672751426697;0.8933875560760498;1.1039236783981323;7.229199285260764e-39;1.292163610458374;0.2983520030975342
23;0.693962574005127;0.44352638721466064;0.7417579889297485;0.8654382228851318;-0.29624688625335693;0.37025782465934753;0.23334597051143646;0.28398773074150085;-0.17980101704597473;0.3885980248451233;-0.5592073202133179;-0.26872697472572327;0.8845813870429993;1.094077229499817;-5.057146027901832e-41;1.3169186115264893;0.3003378212451935
24;0.6855797171592712;0.44333717226982117;0.7389495372772217;0.8606929183006287;-0.3198595643043518;0.39128220081329346;0.23929491639137268;0.29330307245254517;-0.20392952859401703;0.3796079754829407;-0.5760218501091003;-0.1742699146270752;0.8899466395378113;1.1021887063980103;-5.057146027901832e-41;1.3724385499954224;0.31572285294532776
25;0.6657813191413879;0.49286720156669617;0.722016453742981;0.847366213798523;-0.3411727249622345;0.38323286175727844;0.22790980339050293;0.2802821099758148;-0.22444061934947968;0.3693356513977051;-0.5970342755317688;-0.18318690359592438;0.8979714512825012;1.1112269163131714;-5.057146027901832e-41;1.3841153383255005;0.32741081714630127
26;0.7409149408340454;0.5011357665061951;0.7243136167526245;0.8436681628227234;-0.3353043496608734;0.3921929895877838;0.23406431078910828;0.2919332981109619;-0.2267908900976181;0.36703208088874817;-0.5871227383613586;-0.17745135724544525;0.8976141810417175;1.1131788492202759;-5.057146027901832e-41;1.4190877676010132;0.3366093635559082
27;0.7278971076011658;0.49650776386260986;0.8065606355667114;0.8302196264266968;-0.4049745202064514;0.42897674441337585;0.22965557873249054;0.29089251160621643;-0.29860031604766846;0.3286953270435333;-0.6533679962158203;-0.21365413069725037;0.9411220550537109;1.1101531982421875;-5.057146027901832e-41;1.4710958003997803;0.4203084111213684
28;0.7966287136077881;0.5059642195701599;0.8704115748405457;0.8256208300590515;-0.42114025354385376;0.4476431906223297;0.2378305047750473;0.3029313385486603;-0.3193991482257843;0.3275105953216553;-0.6644482612609863;-0.19428113102912903;0.9470611810684204;1.1116331815719604;-5.057146027901832e-41;1.5182684659957886;0.43574607372283936
29;0.7863178849220276;0.49838799238204956;0.8634501695632935;0.806023895740509;-0.4411311447620392;0.5045421719551086;0.22889567911624908;0.3006085753440857;-0.305574506521225;0.3138602674007416;-0.6755985617637634;-0.19964531064033508;0.9514188170433044;1.1344598531723022;-5.057146027901832e-41;1.6120049953460693;0.45233026146888733
30;0.7807799577713013;0.4977823793888092;0.8620300889015198;0.8002253770828247;-0.4589207172393799;0.5324369072914124;0.22816450893878937;0.302174836397171;-0.30862751603126526;0.3072676658630371;-0.6901466846466064;-0.20939140021800995;0.9482797384262085;1.1654183864593506;-5.057146027901832e-41;1.6461924314498901;0.4549195170402527
31;0.7807799577713013;0.4977823793888092;0.8620300889015198;0.8002253770828247;-0.4589207172393799;0.5324369072914124;0.22816450893878937;0.302174836397171;-0.30862751603126526;0.3072676658630371;-0.6901466846466064;-0.20939140021800995;0.9482797384262085;1.1654183864593506;-5.057146027901832e-41;1.6461924314498901;0.4549195170402527
32;0.7793270945549011;0.4666398763656616;0.8464716076850891;0.7838571071624756;-0.5204038619995117;0.5199881196022034;0.28776389360427856;0.2855234742164612;-0.3666236698627472;0.23987363278865814;-0.6885092258453369;-0.27260565757751465;0.9636911153793335;1.1801060438156128;-5.057146027901832e-41;1.6906764507293701;0.4804174602031708
33;0.7546855211257935;0.44969624280929565;0.8303483724594116;0.7599278092384338;-0.5601427555084229;0.5327219367027283;0.35257405042648315;0.29271572828292847;-0.40554672479629517;0.1953938752412796;-0.7147393822669983;-0.2779337167739868;0.995006263256073;1.2068536281585693;-5.057146027901832e-41;1.7130961418151855;0.5196349620819092
34;0.7590442895889282;0.5328515768051147;0.8442693948745728;0.7469902038574219;-0.5912639498710632;0.5558158159255981;0.35175761580467224;0.30981680750846863;-0.43871545791625977;0.1687479168176651;-0.7423995733261108;-0.2912907302379608;0.9873526096343994;1.19876229763031;-5.057146027901832e-41;1.7326412200927734;0.532333254814148
35;0.7831264734268188;0.569659948348999;0.8729990720748901;0.7320021390914917;-0.6057524085044861;0.5896254181861877;0.35922759771347046;0.34694528579711914;-0.45750516653060913;0.16103915870189667;-0.747789740562439;-0.306877464056015;0.9912170171737671;1.1824045181274414;-5.057146027901832e-41;1.7814363241195679;0.5307639241218567
36;0.7890524864196777;0.5834817886352539;0.9378432035446167;0.7212694883346558;-0.6339246034622192;0.6023798584938049;0.3503044545650482;0.3617832660675049;-0.4838680922985077;0.1388378143310547;-0.7624011635780334;-0.32718250155448914;0.9979908466339111;1.186633825302124;-5.057146027901832e-41;1.7846484184265137;0.5487483739852905
37;0.7537054419517517;0.5547753572463989;0.982502818107605;0.7882797122001648;-0.6544085144996643;0.6227985620498657;0.33228206634521484;0.33160823583602905;-0.5080978870391846;0.0996517762541771;-0.7805285453796387;-0.19416069984436035;0.9587453007698059;1.1502127647399902;-5.057146027901832e-41;1.8055552244186401;0.5220046639442444
38;0.6860727071762085;0.491068959236145;0.9192008376121521;0.7209067344665527;-0.6959984302520752;0.5518702864646912;0.2994607985019684;0.27166375517845154;-0.5513928532600403;0.02806592546403408;-0.7938090562820435;-0.19848884642124176;0.9947412014007568;1.1878612041473389;-5.057146027901832e-41;1.8441731929779053;0.6615681052207947
39;0.6748228073120117;0.5550200939178467;0.9139665961265564;0.7120885848999023;-0.7264224290847778;0.5511685609817505;0.30049028992652893;0.3020479679107666;-0.5829779505729675;0.010759199969470501;-0.8223174214363098;-0.16548997163772583;0.9949944019317627;1.2205920219421387;-5.057146027901832e-41;1.8338412046432495;0.703464686870575
40;0.6622570753097534;0.5503280758857727;0.9637476205825806;0.7023648619651794;-0.7506000399589539;0.549665093421936;0.2992531657218933;0.36664339900016785;-0.6070460677146912;-0.009313090704381466;-0.8431784510612488;-0.17428110539913177;1.0506891012191772;1.2038600444793701;-5.057146027901832e-41;1.8413870334625244;0.6997814774513245
41;0.6764528155326843;0.5522406697273254;0.9662076830863953;0.6973855495452881;-0.7573594450950623;0.60415118932724;0.3042868375778198;0.37440821528434753;-0.6397086977958679;-0.03685333952307701;-0.8708388209342957;-0.1495589315891266;1.09089994430542;1.201409935951233;-5.057146027901832e-41;1.8588224649429321;0.7079957127571106
42;0.6753154397010803;0.5543540120124817;0.9769303202629089;0.6947942972183228;-0.7653371691703796;0.6080323457717896;0.3226958215236664;0.3782389461994171;-0.6497297286987305;-0.041144732385873795;-0.8205153942108154;-0.1619780957698822;1.0761386156082153;1.1829757690429688;-5.057146027901832e-41;1.9085711240768433;0.69917231798172
43;0.6598736047744751;0.5443866848945618;0.9705654382705688;0.6806991100311279;-0.7927926182746887;0.6557794809341431;0.318795382976532;0.3724501430988312;-0.6758753061294556;-0.053564175963401794;-0.8363611102104187;-0.17641252279281616;1.0893033742904663;1.191457986831665;-5.057146027901832e-41;1.9270702600479126;0.7235809564590454
44;0.6389170289039612;0.5318002700805664;1.0134732723236084;0.6793709993362427;-0.8225935101509094;0.6504842042922974;0.30967095494270325;0.3635546863079071;-0.719744086265564;-0.08679082989692688;-0.8666926026344299;-0.18939438462257385;1.0570863485336304;1.1660733222961426;-5.057146027901832e-41;1.9334590435028076;0.9409924149513245
45;0.6287090182304382;0.5459662675857544;1.0116500854492188;0.672615110874176;-0.8236709833145142;0.6541698575019836;0.3104921579360962;0.3671521246433258;-0.7598630785942078;-0.1157182976603508;-0.9016647934913635;-0.2122402787208557;1.0214749574661255;1.1375283002853394;-5.057146027901832e-41;1.9851104021072388;1.1227586269378662
46;0.6241437196731567;0.5478391051292419;1.011233925819397;0.6702277660369873;-0.862014889717102;0.6578184962272644;0.37963148951530457;0.3718387186527252;-0.7634008526802063;-0.05654367431998253;-0.9362761378288269;-0.22842198610305786;0.9940183758735657;1.1101784706115723;-5.057146027901832e-41;2.038417100906372;1.1143569946289062
47;0.615780770778656;0.5452333688735962;1.0083136558532715;0.6626953482627869;-0.8564293384552002;0.6570976376533508;0.4169290363788605;0.3728735148906708;-0.7624172568321228;-0.06650902330875397;-0.928334653377533;-0.20477668941020966;1.0262534618377686;1.1119517087936401;-5.057146027901832e-41;2.079381227493286;1.122929334640503
48;0.6217745542526245;0.5565878748893738;1.005226969718933;0.7424286603927612;-0.9170092344284058;0.6711268424987793;0.43449437618255615;0.4530881941318512;-0.8182312250137329;-0.09450928866863251;-0.9855945706367493;-0.26114046573638916;0.9709710478782654;1.122078776359558;-5.057146027901832e-41;2.073791980743408;1.113607406616211
49;0.6107177734375;0.551551342010498;1.0346794128417969;0.7862735986709595;-0.937613308429718;0.6706445217132568;0.4324156641960144;0.45190033316612244;-0.8364964723587036;-0.10804654657840729;-1.0010234117507935;-0.2694164514541626;0.966334879398346;1.1216191053390503;-5.057146027901832e-41;2.099790334701538;1.1193456649780273
50;0.5972910523414612;0.5419924259185791;1.026374101638794;0.777441143989563;-0.9506796598434448;0.7562446594238281;0.4254564940929413;0.44437742233276367;-0.8086531162261963;-0.11615129560232162;-1.0105446577072144;-0.28108853101730347;0.9615318179130554;1.1154464483261108;-5.057146027901832e-41;2.1030285358428955;1.119093418121338
51;0.5823219418525696;0.5301855206489563;1.014240026473999;0.7658436298370361;-0.9791034460067749;0.7533124685287476;0.44039568305015564;0.4376208186149597;-0.834737241268158;-0.12774229049682617;-1.0364457368850708;-0.29127955436706543;0.9628085494041443;1.1592411994934082;-5.057146027901832e-41;2.1209917068481445;1.1266165971755981
52;0.5812663435935974;0.5346359610557556;1.0149015188217163;0.7608866095542908;-0.9731671214103699;0.758987307548523;0.4416525363922119;0.44992899894714355;-0.8104557991027832;-0.13390839099884033;-1.0292396545410156;-0.29393893480300903;0.9632301926612854;1.1608757972717285;-5.057146027901832e-41;2.1193461418151855;1.1323509216308594
53;0.5885329842567444;0.5491269826889038;1.0215425491333008;0.7424556016921997;-0.9716007113456726;0.7693064212799072;0.45005562901496887;0.46247541904449463;-0.8118053674697876;-0.12565156817436218;-1.024360179901123;-0.2810768187046051;0.95600825548172;1.1551119089126587;-5.057146027901832e-41;2.1429879665374756;1.1329641342163086
54;0.5690539479255676;0.5487774610519409;1.0058172941207886;0.7458806037902832;-0.9899392127990723;0.7592172622680664;0.4584510028362274;0.4565199613571167;-0.825518786907196;-0.13558420538902283;-1.0239441394805908;-0.29003575444221497;0.9512388706207275;1.170936942100525;-5.057146027901832e-41;2.189054012298584;1.1393574476242065
55;0.5676632523536682;0.5539931058883667;1.0041286945343018;0.7286628484725952;-1.0233714580535889;0.808195173740387;0.5138750672340393;0.4873947501182556;-0.8594520092010498;-0.163470059633255;-1.0531612634658813;-0.3164270222187042;0.9229808449745178;1.1758837699890137;-5.057146027901832e-41;2.231018304824829;1.123129963874817
56;0.5929509997367859;0.5534530878067017;1.0005327463150024;0.7048182487487793;-1.0393623113632202;0.8130395412445068;0.5305397510528564;0.4968399703502655;-0.8810190558433533;-0.18190105259418488;-1.0692074298858643;-0.2920021712779999;0.9084183573722839;1.164177656173706;-5.057146027901832e-41;2.2901968955993652;1.1390138864517212
57;0.5898543000221252;0.5829776525497437;0.9982759356498718;0.6947421431541443;-1.0599560737609863;0.8184536099433899;0.5291484594345093;0.5454970002174377;-0.9035483598709106;-0.20341196656227112;-1.0793704986572266;-0.31400632858276367;0.8671003580093384;1.1497178077697754;-5.057146027901832e-41;2.3282182216644287;1.1637176275253296
58;0.587911069393158;0.5856804251670837;0.9974696040153503;0.7311429381370544;-1.0913821458816528;0.8232566714286804;0.5709394216537476;0.551554799079895;-0.9346954226493835;-0.2297435849905014;-1.0647673606872559;-0.3336527943611145;0.8480567932128906;1.1311969757080078;-5.057146027901832e-41;2.3457694053649902;1.1540031433105469
59;0.5830492377281189;0.5852062702178955;0.994665801525116;0.7300398349761963;-1.0904343128204346;0.8251017928123474;0.5756386518478394;0.554624617099762;-0.9316640496253967;-0.23297564685344696;-1.0611573457717896;-0.34164661169052124;0.8595471382141113;1.1217955350875854;-5.057146027901832e-41;2.3664543628692627;1.1511048078536987
60;0.5817422270774841;0.5847874283790588;0.9937750101089478;0.740594208240509;-1.0880651473999023;0.8242461681365967;0.5940198302268982;0.555035412311554;-0.9304869174957275;-0.23635774850845337;-1.0578837394714355;-0.316770076751709;0.8550581336021423;1.1169310808181763;-5.057146027901832e-41;2.370425224304199;1.148329257965088
61;0.5912443399429321;0.5942431688308716;1.0000828504562378;0.7484229803085327;-1.0679864883422852;0.8305748105049133;0.6327661275863647;0.565326452255249;-0.9144706130027771;-0.23421865701675415;-1.0378408432006836;-0.31797298789024353;0.8483876585960388;1.1083061695098877;-5.057146027901832e-41;2.3577141761779785;1.1449973583221436
62;0.5904422402381897;0.5948647260665894;0.9996767044067383;0.7486447691917419;-1.069984793663025;0.8323265314102173;0.6342628002166748;0.5674828886985779;-0.9185923933982849;-0.23418498039245605;-1.0395581722259521;-0.3255690932273865;0.8418782353401184;1.1005948781967163;-5.057146027901832e-41;2.37520694732666;1.1408724784851074
63;0.6189778447151184;0.5906923413276672;0.9947983622550964;0.7417229413986206;-1.0706403255462646;0.8303439021110535;0.6348822116851807;0.5661318898200989;-0.9233339428901672;-0.2461194097995758;-1.0336071252822876;-0.3320462107658386;0.850632905960083;1.1077899932861328;-5.057146027901832e-41;2.4116578102111816;1.183953881263733
64;0.6423371434211731;0.5866820812225342;0.9891633987426758;0.7338606119155884;-1.0780919790267944;0.828158438205719;0.6639359593391418;0.564887523651123;-0.9251908659934998;-0.2581508159637451;-1.039206862449646;-0.2974340319633484;0.8691667914390564;1.1011615991592407;-5.057146027901832e-41;2.4443986415863037;1.1814541816711426
65;0.6827532052993774;0.5912085175514221;0.9952772259712219;0.7371255159378052;-1.11212158203125;0.8378907442092896;0.6768520474433899;0.5755178332328796;-0.9574193954467773;-0.23493699729442596;-1.0525645017623901;-0.32837560772895813;0.8785507678985596;1.0733897686004639;-5.057146027901832e-41;2.4273881912231445;1.1618831157684326
66;0.7105669379234314;0.6345522999763489;1.0196967124938965;0.779187798500061;-1.153667688369751;0.829064130783081;0.6697593331336975;0.5659716725349426;-0.9962800741195679;-0.2386459857225418;-0.9465364217758179;-0.3593793213367462;0.8555688261985779;1.1122710704803467;-5.057146027901832e-41;2.391322135925293;1.1452302932739258
67;0.7102292776107788;0.6357963681221008;1.0189334154129028;0.776811957359314;-1.1533840894699097;0.8245417475700378;0.667203426361084;0.5856431722640991;-0.9972520470619202;-0.23773540556430817;-0.9442155361175537;-0.3596895933151245;0.8583816885948181;1.1159018278121948;-5.057146027901832e-41;2.397207736968994;1.1488001346588135
68;0.7037252187728882;0.6327394247055054;1.0134304761886597;0.7662315964698792;-1.1598247289657593;0.8345969319343567;0.6728904843330383;0.5840693116188049;-1.0060226917266846;-0.2414935976266861;-0.9420308470726013;-0.3637262284755707;0.8741628527641296;1.1331583261489868;-5.057146027901832e-41;2.424966812133789;1.1560297012329102
69;0.6947639584541321;0.62766033411026;1.0061368942260742;0.7531154155731201;-1.180548071861267;0.8686831593513489;0.6980555653572083;0.5841642618179321;-1.0301378965377808;-0.2502889037132263;-0.9620767831802368;-0.376391738653183;0.8679887652397156;1.1277308464050293;-5.057146027901832e-41;2.4731242656707764;1.153721570968628
70;0.6682630181312561;0.6062556505203247;0.9836006760597229;0.7565282583236694;-1.2079862356185913;0.8502476811408997;0.6796085834503174;0.5812833905220032;-0.8392554521560669;-0.2631758451461792;-0.9816910624504089;-0.3773009777069092;0.893338143825531;1.097338080406189;-5.057146027901832e-41;2.455310106277466;1.1279889345169067
71;0.7714200019836426;0.590783417224884;0.9647412896156311;0.7405579686164856;-1.2099133729934692;0.8351852893829346;0.6668148636817932;0.5681845545768738;-0.8247859477996826;-0.2753100097179413;-0.9869932532310486;-0.3689044713973999;0.8739020228385925;1.1282364130020142;-5.057146027901832e-41;2.447608709335327;1.111960530281067
72;0.7691049575805664;0.6052363514900208;0.9608014225959778;0.7362203598022461;-1.2148916721343994;0.8473530411720276;0.6682509183883667;0.573005735874176;-0.8305966258049011;-0.28317928314208984;-0.9833069443702698;-0.35475170612335205;0.8750808238983154;1.1304857730865479;-5.057146027901832e-41;2.4492757320404053;1.1152194738388062
73;0.7731605768203735;0.6039381623268127;0.9597136378288269;0.7360966801643372;-1.205029010772705;0.8476070165634155;0.6671273112297058;0.5741711854934692;-0.8272824883460999;-0.28192880749702454;-0.9751652479171753;-0.3607481122016907;0.8744562864303589;1.1295828819274902;-5.057146027901832e-41;2.448516368865967;1.1175204515457153
74;0.7684561014175415;0.6012481451034546;0.9504573345184326;0.7277141213417053;-1.212575912475586;0.8426002264022827;0.6601198315620422;0.5689486861228943;-0.8391632437705994;-0.2808326780796051;-0.9826816320419312;-0.35429513454437256;0.878983736038208;1.1252800226211548;-5.057146027901832e-41;2.4718940258026123;1.1154882907867432
75;0.7644246816635132;0.5991039872169495;0.9459127187728882;0.7237614989280701;-1.2087689638137817;0.8407549262046814;0.6597991585731506;0.5668581128120422;-0.8407241702079773;-0.2815680503845215;-0.981830894947052;-0.35458722710609436;0.9111047983169556;1.1120736598968506;-5.057146027901832e-41;2.485727548599243;1.1032798290252686
76;0.790812075138092;0.6497789025306702;0.9360331296920776;0.7538047432899475;-1.2121206521987915;0.8569270372390747;0.6640158891677856;0.5633083581924438;-0.8487217426300049;-0.29162171483039856;-0.9879685640335083;-0.36367321014404297;0.9151403903961182;1.1110990047454834;-5.057146027901832e-41;2.476194143295288;1.1075626611709595
77;0.785203218460083;0.6738861799240112;0.9612650871276855;0.7504872679710388;-1.2153661251068115;0.85536789894104;0.6563327312469482;0.56341952085495;-0.8573715090751648;-0.3059041500091553;-0.9932175874710083;-0.36787810921669006;0.9142726063728333;1.1081517934799194;-5.057146027901832e-41;2.4728891849517822;1.1402740478515625
78;0.7796193957328796;0.7175198197364807;0.9537955522537231;0.7976078987121582;-1.2291826009750366;0.8497832417488098;0.6478316783905029;0.5577651262283325;-0.8500070571899414;-0.31620675325393677;-1.0077918767929077;-0.40266096591949463;0.9015195965766907;1.0944499969482422;-5.057146027901832e-41;2.4728238582611084;1.1314271688461304
79;0.7871055006980896;0.7121317982673645;0.9439207911491394;0.7887699604034424;-1.2318897247314453;0.8418287038803101;0.6459677815437317;0.5498968958854675;-0.8565168976783752;-0.28045642375946045;-1.0116145610809326;-0.41121000051498413;0.9065198302268982;1.0949699878692627;-5.057146027901832e-41;2.4927449226379395;1.1302452087402344
80;0.7999503016471863;0.7090275883674622;0.9384682774543762;0.7825230360031128;-1.2421499490737915;0.8393939733505249;0.6799074411392212;0.5486816763877869;-0.8724178075790405;-0.29187825322151184;-1.022290587425232;-0.41819319128990173;0.8954493999481201;1.0845671892166138;-5.057146027901832e-41;2.532208204269409;1.1305371522903442
81;0.8033757209777832;0.7123376727104187;0.9357793927192688;0.7374203205108643;-1.2551627159118652;0.8540089130401611;0.6338656544685364;0.5655195713043213;-0.8888237476348877;-0.3473212420940399;-1.020036220550537;-0.44858092069625854;0.8883429765701294;1.1201132535934448;-5.057146027901832e-41;2.523167371749878;1.1236450672149658
82;0.7948213219642639;0.7072533369064331;0.9288103580474854;0.7210131287574768;-1.2608352899551392;0.8581529855728149;0.620805561542511;0.5638958215713501;-0.849004864692688;-0.3622443377971649;-1.0262874364852905;-0.45603474974632263;0.8868672251701355;1.1282999515533447;-5.057146027901832e-41;2.5373177528381348;1.1254843473434448
83;0.7862653732299805;0.7020626664161682;0.9222304224967957;0.7298359274864197;-1.255536437034607;0.8550964593887329;0.6135210394859314;0.564655065536499;-0.8496631979942322;-0.3681413233280182;-1.0216954946517944;-0.4566763639450073;0.8836714625358582;1.1259604692459106;-5.057146027901832e-41;2.565138101577759;1.1261307001113892
84;0.7696806192398071;0.6835501194000244;0.907760739326477;0.7148453593254089;-1.2621997594833374;0.8383445143699646;0.5945828557014465;0.544796884059906;-0.857591986656189;-0.35995709896087646;-1.0314621925354004;-0.4711781144142151;0.8890870213508606;1.1309312582015991;-5.057146027901832e-41;2.55523419380188;1.1333720684051514
85;0.7493200302124023;0.6629889607429504;0.8936302065849304;0.6957952976226807;-1.266295313835144;0.8183608651161194;0.5739974975585938;0.5223807096481323;-0.8646600246429443;-0.3497563898563385;-1.037908673286438;-0.47028714418411255;0.8977214097976685;1.1180734634399414;-5.057146027901832e-41;2.546218156814575;1.1381677389144897
86;0.7845678329467773;0.6661010980606079;0.8951188325881958;0.6994438171386719;-1.2797414064407349;0.8220381736755371;0.5554305911064148;0.5264464616775513;-0.8785642981529236;-0.3538634479045868;-1.0533391237258911;-0.4859393537044525;0.8822728395462036;1.102580189704895;-5.057146027901832e-41;2.53732967376709;1.1246168613433838
87;0.7785323858261108;0.6609556674957275;0.8867549896240234;0.6941941976547241;-1.3113895654678345;0.8176841735839844;0.5201721787452698;0.5828101634979248;-0.9096794724464417;-0.28468063473701477;-1.085754632949829;-0.46781793236732483;0.8702043890953064;1.0691336393356323;-5.057146027901832e-41;2.5319416522979736;1.0934573411941528
88;0.7765266299247742;0.6579942107200623;0.8828532695770264;0.6903892159461975;-1.3101567029953003;0.8135877847671509;0.5127399563789368;0.5833414196968079;-0.8673301935195923;-0.2740725874900818;-1.0874253511428833;-0.47022026777267456;0.866982638835907;1.0631963014602661;-5.057146027901832e-41;2.5239577293395996;1.0892958641052246
89;0.7640201449394226;0.6421683430671692;0.8646584153175354;0.6751372218132019;-1.3086735010147095;0.7990304231643677;0.4981435537338257;0.6193157434463501;-0.8720780611038208;-0.2768305838108063;-1.0937516689300537;-0.48868057131767273;0.8637298941612244;1.0596013069152832;-5.057146027901832e-41;2.5328941345214844;1.0871649980545044
90;0.7595289945602417;0.6362276673316956;0.857276976108551;0.6687764525413513;-1.3151017427444458;0.7935306429862976;0.49154403805732727;0.6142702102661133;-0.8788459300994873;-0.2815217077732086;-1.1010862588882446;-0.4904438555240631;0.8731438517570496;1.0790588855743408;-5.057146027901832e-41;2.530243158340454;1.0943593978881836
91;0.7646805047988892;0.6483439803123474;0.8639582395553589;0.6670420169830322;-1.3064355850219727;0.8025212287902832;0.4947819113731384;0.6285579204559326;-0.8765830397605896;-0.27613574266433716;-1.093770980834961;-0.48471543192863464;0.8692352771759033;1.074599266052246;-5.057146027901832e-41;2.5223371982574463;1.0929383039474487
92;0.7460964322090149;0.6269067525863647;0.8462855219841003;0.6508004069328308;-1.3003320693969727;0.7811790108680725;0.561336874961853;0.6469400525093079;-0.8757531642913818;-0.2848450839519501;-1.0874063968658447;-0.47825923562049866;0.8686325550079346;1.0753949880599976;-5.057146027901832e-41;2.516390562057495;1.093451976776123
93;0.737841784954071;0.6707509160041809;0.8412808775901794;0.6399067044258118;-1.2940062284469604;0.7860199809074402;0.5610904097557068;0.6463472247123718;-0.8740149736404419;-0.2936933636665344;-1.0875188112258911;-0.48155879974365234;0.8617072105407715;1.0688070058822632;-5.057146027901832e-41;2.533449649810791;1.0976033210754395
94;0.800081193447113;0.7200943231582642;0.8930423259735107;0.6441118121147156;-1.3256512880325317;0.7886148691177368;0.5726901888847351;0.6485214829444885;-0.9041469693183899;-0.31745389103889465;-1.1001490354537964;-0.5166100263595581;0.8666704297065735;1.0421887636184692;-5.057146027901832e-41;2.5149364471435547;1.0773899555206299
95;0.8096321225166321;0.7317357659339905;0.935745894908905;0.6524666547775269;-1.3516201972961426;0.7982711791992188;0.6376227736473083;0.6586512327194214;-0.9286191463470459;-0.33570238947868347;-1.1073603630065918;-0.5326877236366272;0.8402608036994934;1.0143834352493286;-5.057146027901832e-41;2.4978690147399902;1.05242919921875
96;0.8113059401512146;0.7340153455734253;0.9382261633872986;0.652817964553833;-1.3510453701019287;0.7989826798439026;0.6387759447097778;0.6597121953964233;-0.9272207617759705;-0.3356530964374542;-1.1063926219940186;-0.5316711068153381;0.8376256823539734;1.0114542245864868;-5.057146027901832e-41;2.4955227375030518;1.0505039691925049
97;0.8014922142028809;0.8007555603981018;0.9298284649848938;0.647953450679779;-1.3527593612670898;0.7867942452430725;0.6341179609298706;0.6482135653495789;-0.9267370700836182;-0.34622228145599365;-1.107779860496521;-0.537234365940094;0.8408075571060181;1.0144765377044678;-5.057146027901832e-41;2.491158962249756;1.0549057722091675
98;0.8022324442863464;0.8060709834098816;0.9319013357162476;0.6507537961006165;-1.3483949899673462;0.7885076403617859;0.6322184205055237;0.650887131690979;-0.9277995824813843;-0.3477601706981659;-1.1046165227890015;-0.5282334089279175;0.8357007503509521;1.0090093612670898;-5.057146027901832e-41;2.4917399883270264;1.0519298315048218
99;0.7971760034561157;0.8545800447463989;0.9290540814399719;0.6476936936378479;-1.3408305644989014;0.7852134108543396;0.6308701038360596;0.6483528017997742;-0.9253420829772949;-0.35122373700141907;-1.0989326238632202;-0.5268939137458801;0.8352617025375366;1.0071537494659424;-5.057146027901832e-41;2.4927499294281006;1.0508824586868286
100;0.7992765307426453;0.8590031266212463;0.9279232621192932;0.6502460837364197;-1.3551710844039917;0.7887572050094604;0.6359163522720337;0.6530323028564453;-0.9415444731712341;-0.3536568880081177;-1.1169273853302002;-0.5423027873039246;0.8075379729270935;1.0281411409378052;-5.057146027901832e-41;2.4912500381469727;1.0231060981750488
batch_number;w0;w1;w2;w3;w4;w5;w6;w7;w8;w9;w10;w11;w12;w13;w14;w15;w16
1;0.2370280623435974;-0.14596490561962128;0.10138145089149475;0.30826714634895325;0.31109634041786194;-0.37874704599380493;-0.1989404559135437;-0.46844011545181274;0.17192289233207703;0.03786852955818176;-0.06365986168384552;-0.2637110948562622;0.4969737231731415;0.610687792301178;0.3357839286327362;0.03421274945139885;-0.2629505395889282
2;0.3643167316913605;-0.09496547281742096;0.2270074486732483;0.46121740341186523;0.40584230422973633;-0.3261934220790863;-0.1573522537946701;-0.41515830159187317;0.27878299355506897;0.16039080917835236;-0.00433253264054656;-0.16581974923610687;0.6163498163223267;0.7299256324768066;0.19970953464508057;0.16372637450695038;-0.1406729817390442
3;0.547965943813324;0.036294300109148026;0.4124743342399597;0.5495844483375549;0.42744264006614685;-0.1333937644958496;0.028276151046156883;-0.2238444983959198;0.29874131083488464;0.18760818243026733;0.019669458270072937;-0.15455274283885956;0.656923770904541;0.769737720489502;0.094647116959095;0.32727333903312683;-0.0931541845202446
batch_number;w0;w1;w2;w3;w4;w5;w6;w7;w8;w9;w10;w11;w12;w13;w14;w15;w16
1;0.2370280623435974;-0.14596490561962128;0.10138145089149475;0.30826714634895325;0.31109634041786194;-0.37874704599380493;-0.1989404559135437;-0.46844011545181274;0.17192289233207703;0.03786852955818176;-0.06365986168384552;-0.2637110948562622;0.4969737231731415;0.610687792301178;0.3357839286327362;0.03421274945139885;-0.2629505395889282
4;0.5767651200294495;0.0656687319278717;0.4502854347229004;0.5612910985946655;0.4002526104450226;-0.0662793293595314;0.09055054932832718;-0.28297701478004456;0.3421883285045624;0.22997847199440002;0.0345931202173233;-0.07207930088043213;0.8161859512329102;0.93076092004776;0.03242412582039833;0.48487988114356995;0.06651168316602707
batch_number;w0;w1;w2;w3;w4;w5;w6;w7;w8;w9;w10;w11;w12;w13;w14;w15;w16
1;0.3125734031200409;-0.1480879783630371;0.1764407753944397;0.3838220536708832;0.3123644292354584;-0.3811440169811249;-0.26704344153404236;-0.4708087146282196;0.17280615866184235;0.03795761615037918;-0.1397876888513565;-0.3413541615009308;0.4189695119857788;0.5329627990722656;0.3357839286327362;0.02315700054168701;-0.34040144085884094
2;0.3643167316913605;-0.09496547281742096;0.2270074486732483;0.46121740341186523;0.40584230422973633;-0.3261934220790863;-0.1573522537946701;-0.41515830159187317;0.27878299355506897;0.16039080917835236;-0.00433253264054656;-0.16581974923610687;0.6163498163223267;0.7299256324768066;0.19970953464508057;0.16372637450695038;-0.1406729817390442
5;0.5533063411712646;0.13551051914691925;0.4750003218650818;0.6203881502151489;0.48661598563194275;-0.12513233721256256;0.11859211325645447;-0.21549925208091736;0.35195255279541016;0.27113988995552063;0.04744971543550491;-0.046078890562057495;0.8872973918914795;1.0000479221343994;0.01124842930585146;0.6089680194854736;0.14281821250915527
2;0.41810527443885803;-0.034147266298532486;0.28443843126296997;0.43824705481529236;0.3452412486076355;-0.2634778618812561;-0.1603715717792511;-0.34566420316696167;0.2312709540128708;0.09960229694843292;-0.09542945772409439;-0.2934548556804657;0.5053803324699402;0.6194727420806885;0.19970953464508057;0.10782993584871292;-0.2492775171995163
3;0.547965943813324;0.036294300109148026;0.4124743342399597;0.5495844483375549;0.42744264006614685;-0.1333937644958496;0.028276151046156883;-0.2238444983959198;0.29874131083488464;0.18760818243026733;0.019669458270072937;-0.15455274283885956;0.656923770904541;0.769737720489502;0.094647116959095;0.32727333903312683;-0.0931541845202446
6;0.5583217740058899;0.15936437249183655;0.42412975430488586;0.6205175518989563;0.43560248613357544;-0.09093129634857178;0.1823972761631012;-0.19790776073932648;0.34753450751304626;0.281588613986969;0.0758296549320221;-0.0826462134718895;0.8660393953323364;0.9709655046463013;0.00272582215256989;0.7412136197090149;0.16021904349327087
3;0.5336752533912659;-0.014145058579742908;0.4007314443588257;0.5250858664512634;0.38127943873405457;-0.14080125093460083;-0.05867842212319374;-0.23501083254814148;0.268173485994339;0.19412368535995483;-0.049910273402929306;-0.20224475860595703;0.5881115794181824;0.7013162970542908;0.094647116959095;0.23467639088630676;-0.16103495657444
4;0.5767651200294495;0.0656687319278717;0.4502854347229004;0.5612910985946655;0.4002526104450226;-0.0662793293595314;0.09055054932832718;-0.28297701478004456;0.3421883285045624;0.22997847199440002;0.0345931202173233;-0.07207930088043213;0.8161859512329102;0.93076092004776;0.03242412582039833;0.48487988114356995;0.06651168316602707
7;0.593651533126831;0.17587126791477203;0.46077585220336914;0.6615856885910034;0.41563400626182556;-0.034612055867910385;0.09456320106983185;-0.10311790555715561;0.3414527475833893;0.30600979924201965;0.10203111916780472;-0.07469106465578079;0.7773362994194031;0.8880600929260254;0.0005127863842062652;0.8678085803985596;0.10891179740428925
4;0.5733659863471985;0.028709247708320618;0.44563576579093933;0.49808719754219055;0.2701183259487152;-0.07427089661359787;-0.1346292495727539;-0.2801626920700073;0.2778473198413849;0.23701158165931702;-0.14796242117881775;-0.22252506017684937;0.5984721779823303;0.7149033546447754;0.03242412582039833;0.31926295161247253;-0.13622792065143585
5;0.5533063411712646;0.13551051914691925;0.4750003218650818;0.6203881502151489;0.48661598563194275;-0.12513233721256256;0.11859211325645447;-0.21549925208091736;0.35195255279541016;0.27113988995552063;0.04744971543550491;-0.046078890562057495;0.8872973918914795;1.0000479221343994;0.01124842930585146;0.6089680194854736;0.14281821250915527
8;0.6789803504943848;0.27687934041023254;0.6058756113052368;0.7491858005523682;0.40413638949394226;0.04270246997475624;0.19227416813373566;0.03187644109129906;0.3422924280166626;0.37031081318855286;0.11525508016347885;-0.05324342101812363;0.7364342212677002;0.8450472950935364;7.348507642745972e-05;1.0050855875015259;0.10162394493818283
5;0.5206348299980164;0.05944860354065895;0.4698539972305298;0.5081860423088074;0.29164743423461914;-0.11150091886520386;-0.13021568953990936;-0.24379085004329681;0.28736913204193115;0.28389209508895874;-0.12105162441730499;-0.211225226521492;0.6186617612838745;0.7348569631576538;0.01124842930585146;0.3892723619937897;-0.10778723657131195
6;0.5583217740058899;0.15936437249183655;0.42412975430488586;0.6205175518989563;0.43560248613357544;-0.09093129634857178;0.1823972761631012;-0.19790776073932648;0.34753450751304626;0.281588613986969;0.0758296549320221;-0.0826462134718895;0.8660393953323364;0.9709655046463013;0.00272582215256989;0.7412136197090149;0.16021904349327087
9;0.6855024099349976;0.2678781747817993;0.5375122427940369;0.7491365671157837;0.31730780005455017;0.04248829185962677;0.20758216083049774;-0.002908847061917186;0.3401177227497101;0.3592226207256317;0.11003225296735764;-0.03972134366631508;0.7353487014770508;0.8415092825889587;5.981497452012263e-06;1.1773037910461426;0.1268872618675232
6;0.5668017268180847;0.10843133926391602;0.42955029010772705;0.5671850442886353;0.23002944886684418;-0.044838305562734604;-0.13310295343399048;-0.1681680977344513;0.26125383377075195;0.2980242371559143;-0.15418769419193268;-0.22036689519882202;0.6085782647132874;0.7229930758476257;0.00272582215256989;0.4745652973651886;-0.07661719620227814
7;0.593651533126831;0.17587126791477203;0.46077585220336914;0.6615856885910034;0.41563400626182556;-0.034612055867910385;0.09456320106983185;-0.10311790555715561;0.3414527475833893;0.30600979924201965;0.10203111916780472;-0.07469106465578079;0.7773362994194031;0.8880600929260254;0.0005127863842062652;0.8678085803985596;0.10891179740428925
10;0.7048850059509277;0.31495022773742676;0.5802793502807617;0.8080059289932251;0.4122508466243744;0.12279647588729858;0.23360292613506317;0.04294900223612785;0.39000794291496277;0.37789106369018555;0.163497194647789;-0.04080721363425255;0.7374423742294312;0.8910996913909912;8.115154628285381e-07;1.2640736103057861;0.13332976400852203
7;0.6138815879821777;0.15972377359867096;0.4821954667568207;0.6028836965560913;0.2192966639995575;-0.003779651364311576;-0.05018852278590202;-0.08452840149402618;0.2602335512638092;0.31227701902389526;-0.15094618499279022;-0.22007106244564056;0.6538048386573792;0.7648453712463379;0.0005127863842062652;0.5730676651000977;-0.0005701207555830479
8;0.6789803504943848;0.27687934041023254;0.6058756113052368;0.7491858005523682;0.40413638949394226;0.04270246997475624;0.19227416813373566;0.03187644109129906;0.3422924280166626;0.37031081318855286;0.11525508016347885;-0.05324342101812363;0.7364342212677002;0.8450472950935364;7.348507642745972e-05;1.0050855875015259;0.10162394493818283
11;0.7602338790893555;0.37592849135398865;0.6676873564720154;0.8577547073364258;0.3821716606616974;0.19011226296424866;0.2850562632083893;0.11115796118974686;0.3843798041343689;0.4345361292362213;0.24666792154312134;-0.03242146968841553;0.8832263350486755;0.9319588541984558;4.4879666205588364e-08;1.3670881986618042;0.17748402059078217
8;0.6407726407051086;0.19113077223300934;0.5083168745040894;0.6441453695297241;0.20708388090133667;0.046935535967350006;0.05941943824291229;-0.0459592230618;0.25287196040153503;0.32443222403526306;-0.1529916524887085;-0.17233869433403015;0.6813908219337463;0.7873747944831848;7.348507642745972e-05;0.6789510846138;0.03428283706307411
9;0.6855024099349976;0.2678781747817993;0.5375122427940369;0.7491365671157837;0.31730780005455017;0.04248829185962677;0.20758216083049774;-0.002908847061917186;0.3401177227497101;0.3592226207256317;0.11003225296735764;-0.03972134366631508;0.7353487014770508;0.8415092825889587;5.981497452012263e-06;1.1773037910461426;0.1268872618675232
12;0.7956773042678833;0.4153558015823364;0.7040717601776123;0.890922486782074;0.3980545401573181;0.22424685955047607;0.3222716450691223;0.1524847447872162;0.3903212249279022;0.5090020298957825;0.2806970179080963;-0.02385449968278408;0.8753685355186462;0.9887507557868958;1.6400371061209285e-09;1.476139783859253;0.1781284362077713
9;0.7050462365150452;0.23326197266578674;0.5442582964897156;0.7005547881126404;0.16430822014808655;0.08850423991680145;0.09766252338886261;0.002263345057144761;0.22538034617900848;0.32319530844688416;-0.18709617853164673;-0.18118979036808014;0.7353476285934448;0.8401183485984802;5.981497452012263e-06;0.7858455181121826;0.09038165211677551
10;0.7048850059509277;0.31495022773742676;0.5802793502807617;0.8080059289932251;0.4122508466243744;0.12279647588729858;0.23360292613506317;0.04294900223612785;0.39000794291496277;0.37789106369018555;0.163497194647789;-0.04080721363425255;0.7374423742294312;0.8910996913909912;8.115154628285381e-07;1.2640736103057861;0.13332976400852203
13;0.8996431231498718;0.5356776118278503;0.8147505521774292;0.9840041995048523;0.45596182346343994;0.3291919231414795;0.4129306375980377;0.2581643760204315;0.39948752522468567;0.5971649289131165;0.28948184847831726;0.03780031204223633;0.9023557901382446;1.0189824104309082;2.1312943077056445e-10;1.535096287727356;0.20066069066524506
10;0.6979489922523499;0.23535475134849548;0.5705996751785278;0.7456990480422974;0.13830901682376862;0.12778376042842865;0.09742263704538345;0.0126270093023777;0.20135043561458588;0.3183511793613434;-0.20296601951122284;-0.2002551108598709;0.750715434551239;0.9089534878730774;8.115154628285381e-07;0.8186620473861694;0.11304467916488647
11;0.7602338790893555;0.37592849135398865;0.6676873564720154;0.8577547073364258;0.3821716606616974;0.19011226296424866;0.2850562632083893;0.11115796118974686;0.3843798041343689;0.4345361292362213;0.24666792154312134;-0.03242146968841553;0.8832263350486755;0.9319588541984558;4.4879666205588364e-08;1.3670881986618042;0.17748402059078217
14;0.8833600878715515;0.500148594379425;0.7918633222579956;0.9771418571472168;0.43511930108070374;0.3234748840332031;0.4304998219013214;0.25525468587875366;0.36523398756980896;0.5947524905204773;0.2456815540790558;0.021994493901729584;0.8634122610092163;1.0213130712509155;2.1827296914356253e-12;1.6831215620040894;0.2049534171819687
11;0.7214322686195374;0.2678704857826233;0.6353389024734497;0.7663812637329102;0.09949388355016708;0.16455556452274323;0.10082260519266129;0.07007034122943878;0.1747496873140335;0.31530827283859253;-0.23414945602416992;-0.22720550000667572;0.866595983505249;0.9493148326873779;4.4879666205588364e-08;0.8475016355514526;0.1592247039079666
12;0.7956773042678833;0.4153558015823364;0.7040717601776123;0.890922486782074;0.3980545401573181;0.22424685955047607;0.3222716450691223;0.1524847447872162;0.3903212249279022;0.5090020298957825;0.2806970179080963;-0.02385449968278408;0.8753685355186462;0.9887507557868958;1.6400371061209285e-09;1.476139783859253;0.1781284362077713
15;0.8417571783065796;0.4583441913127899;0.7528409361839294;0.9714316725730896;0.25789904594421387;0.30762001872062683;0.4231654107570648;0.2147960215806961;0.26989513635635376;0.6000785827636719;0.14993658661842346;-0.05821947753429413;0.7949630618095398;1.015120506286621;3.1808343665170463e-14;1.7470732927322388;0.15325094759464264
12;0.736424446105957;0.2915714383125305;0.6582688689231873;0.7817825078964233;0.01079790573567152;0.1989288032054901;0.09279175847768784;0.1024145632982254;0.101408451795578;0.32819050550460815;-0.29829058051109314;-0.27934539318084717;0.8749448657035828;1.0528644323349;1.6400371061209285e-09;0.8809739947319031;0.17509624361991882
13;0.8996431231498718;0.5356776118278503;0.8147505521774292;0.9840041995048523;0.45596182346343994;0.3291919231414795;0.4129306375980377;0.2581643760204315;0.39948752522468567;0.5971649289131165;0.28948184847831726;0.03780031204223633;0.9023557901382446;1.0189824104309082;2.1312943077056445e-10;1.535096287727356;0.20066069066524506
16;0.8615052700042725;0.4888804256916046;0.7738637328147888;0.9908872842788696;0.14759156107902527;0.3500456213951111;0.4553782045841217;0.23933598399162292;0.1974358856678009;0.6260016560554504;0.0449431948363781;-0.10195701569318771;0.7656718492507935;0.9944903254508972;2.4907501445869213e-16;1.8463480472564697;0.13247664272785187
13;0.700800895690918;0.2556300461292267;0.6346614360809326;0.7661970853805542;-0.06816311925649643;0.202459916472435;0.08668344467878342;0.08677850663661957;0.03974165394902229;0.3077523410320282;-0.38074424862861633;-0.21539266407489777;0.8230212330818176;1.008589506149292;2.1312943077056445e-10;0.8793913722038269;0.13614138960838318
14;0.8833600878715515;0.500148594379425;0.7918633222579956;0.9771418571472168;0.43511930108070374;0.3234748840332031;0.4304998219013214;0.25525468587875366;0.36523398756980896;0.5947524905204773;0.2456815540790558;0.021994493901729584;0.8634122610092163;1.0213130712509155;2.1827296914356253e-12;1.6831215620040894;0.2049534171819687
17;0.7936461567878723;0.4294484853744507;0.7931650876998901;0.9336011409759521;0.05940326303243637;0.30448564887046814;0.3904260993003845;0.17620301246643066;0.16535885632038116;0.614193856716156;0.011413912288844585;-0.12819358706474304;0.7680784463882446;1.0120872259140015;8.698186712028392e-19;1.9309953451156616;0.15027004480361938
14;0.7008374333381653;0.3102887272834778;0.6436281800270081;0.7685927152633667;-0.0720183253288269;0.24687223136425018;0.12713459134101868;0.10800255835056305;0.025870686396956444;0.3065985143184662;-0.3753126859664917;-0.20703734457492828;0.8014339804649353;0.9967660903930664;2.1827296914356253e-12;0.9427890181541443;0.13104473054409027
15;0.8417571783065796;0.4583441913127899;0.7528409361839294;0.9714316725730896;0.25789904594421387;0.30762001872062683;0.4231654107570648;0.2147960215806961;0.26989513635635376;0.6000785827636719;0.14993658661842346;-0.05821947753429413;0.7949630618095398;1.015120506286621;3.1808343665170463e-14;1.7470732927322388;0.15325094759464264
18;0.7930882573127747;0.5162014961242676;0.7977880835533142;0.9282793402671814;0.03733936324715614;0.3151574730873108;0.3695332109928131;0.18428948521614075;0.15186572074890137;0.5919110774993896;-0.02433505468070507;-0.139240562915802;0.7855303883552551;0.9664028882980347;9.038651626826125e-22;2.0070133209228516;0.12245780229568481
15;0.7738510370254517;0.3858475983142853;0.7153294682502747;0.8204094171524048;-0.02650206722319126;0.3116089701652527;0.18156777322292328;0.18121148645877838;0.051560524851083755;0.351912260055542;-0.3187714219093323;-0.18237687647342682;0.8214563131332397;1.0240288972854614;3.1808343665170463e-14;0.9925499558448792;0.15414781868457794
16;0.8615052700042725;0.4888804256916046;0.7738637328147888;0.9908872842788696;0.14759156107902527;0.3500456213951111;0.4553782045841217;0.23933598399162292;0.1974358856678009;0.6260016560554504;0.0449431948363781;-0.10195701569318771;0.7656718492507935;0.9944903254508972;2.4907501445869213e-16;1.8463480472564697;0.13247664272785187
19;0.795895516872406;0.5247235298156738;0.8223931789398193;0.9574213624000549;0.009364308789372444;0.32838594913482666;0.37419965863227844;0.20195087790489197;0.13598419725894928;0.5902364253997803;-0.0323978029191494;-0.13195264339447021;0.8208938837051392;0.989891767501831;-3.421552596862338e-26;2.113558292388916;0.16147130727767944
16;0.7949897646903992;0.41580551862716675;0.7407003045082092;0.8427034616470337;-0.021942758932709694;0.3442266285419464;0.21046096086502075;0.21209581196308136;0.05151915177702904;0.3773711621761322;-0.3022545874118805;-0.19071637094020844;0.8143373131752014;1.0185579061508179;2.4907501445869213e-16;1.023423433303833;0.14998897910118103
17;0.7936461567878723;0.4294484853744507;0.7931650876998901;0.9336011409759521;0.05940326303243637;0.30448564887046814;0.3904260993003845;0.17620301246643066;0.16535885632038116;0.614193856716156;0.011413912288844585;-0.12819358706474304;0.7680784463882446;1.0120872259140015;8.698186712028392e-19;1.9309953451156616;0.15027004480361938
20;0.8149922490119934;0.5500256419181824;0.8445253372192383;0.9564521312713623;-0.020957879722118378;0.37757882475852966;0.3513611853122711;0.22873160243034363;0.06655273586511612;0.5568258762359619;-0.04414968192577362;-0.1457742154598236;0.828319787979126;1.0014119148254395;1.0495787813859344e-29;2.2072408199310303;0.25385987758636475
17;0.6972159743309021;0.33992883563041687;0.7403851747512817;0.7767946720123291;-0.06757591664791107;0.2758437991142273;0.15137113630771637;0.13981355726718903;0.008813193067908287;0.3659333288669586;-0.34533175826072693;-0.2003096491098404;0.8357476592063904;1.0389424562454224;8.698186712028392e-19;1.0565247535705566;0.18169116973876953
18;0.7930882573127747;0.5162014961242676;0.7977880835533142;0.9282793402671814;0.03733936324715614;0.3151574730873108;0.3695332109928131;0.18428948521614075;0.15186572074890137;0.5919110774993896;-0.02433505468070507;-0.139240562915802;0.7855303883552551;0.9664028882980347;9.038651626826125e-22;2.0070133209228516;0.12245780229568481
21;0.8153092265129089;0.559684157371521;0.8488191366195679;0.9762217402458191;-0.06715691834688187;0.3859526515007019;0.33448177576065063;0.23931926488876343;0.03246279060840607;0.5694935321807861;-0.07633242756128311;-0.16401860117912292;0.8443863987922668;1.0138828754425049;-1.8601435867144588e-34;2.309166193008423;0.27759605646133423
18;0.6905227303504944;0.4190298318862915;0.7435855269432068;0.7732502222061157;-0.09544359892606735;0.28324493765830994;0.1458977907896042;0.14737145602703094;-0.017291029915213585;0.3516862392425537;-0.3691936135292053;-0.21738334000110626;0.875445544719696;1.0289231538772583;9.038651626826125e-22;1.0572656393051147;0.18156778812408447
19;0.795895516872406;0.5247235298156738;0.8223931789398193;0.9574213624000549;0.009364308789372444;0.32838594913482666;0.37419965863227844;0.20195087790489197;0.13598419725894928;0.5902364253997803;-0.0323978029191494;-0.13195264339447021;0.8208938837051392;0.989891767501831;-3.421552596862338e-26;2.113558292388916;0.16147130727767944
22;0.6111895442008972;0.3920569121837616;0.6609034538269043;0.8005301356315613;-0.00749519607052207;0.22170023620128632;0.20581835508346558;0.11190492659807205;0.09926599264144897;0.44884467124938965;-0.08337841928005219;-0.012571204453706741;1.487324833869934;1.6816078424453735;-6.85262975024122e-41;1.899492859840393;0.9002088904380798
19;0.686564564704895;0.4292672574520111;0.7483607530593872;0.8008781671524048;-0.14411351084709167;0.29478731751441956;0.14302752912044525;0.15996073186397552;-0.059253398329019547;0.3320719301700592;-0.4134540557861328;-0.23360176384449005;0.8698136210441589;1.0179423093795776;-3.421552596862338e-26;1.110607624053955;0.17999497056007385
20;0.8149922490119934;0.5500256419181824;0.8445253372192383;0.9564521312713623;-0.020957879722118378;0.37757882475852966;0.3513611853122711;0.22873160243034363;0.06655273586511612;0.5568258762359619;-0.04414968192577362;-0.1457742154598236;0.828319787979126;1.0014119148254395;1.0495787813859344e-29;2.2072408199310303;0.25385987758636475
23;0.564141571521759;0.39660730957984924;0.6178553700447083;0.7777700424194336;-0.16208210587501526;0.19362665712833405;0.32789716124534607;0.1099865585565567;-0.038216110318899155;0.43889668583869934;-0.23753908276557922;0.02524643950164318;1.4637634754180908;1.6500589847564697;-5.057146027901832e-41;1.9655554294586182;0.8906154632568359
20;0.6910703778266907;0.4427543580532074;0.7580401301383972;0.7929103970527649;-0.18269029259681702;0.3549186587333679;0.13976134359836578;0.17742617428302765;-0.093839630484581;0.30612531304359436;-0.44482073187828064;-0.260820209980011;0.8750622868537903;1.0221059322357178;1.0495787813859344e-29;1.1892595291137695;0.24503108859062195
21;0.8153092265129089;0.559684157371521;0.8488191366195679;0.9762217402458191;-0.06715691834688187;0.3859526515007019;0.33448177576065063;0.23931926488876343;0.03246279060840607;0.5694935321807861;-0.07633242756128311;-0.16401860117912292;0.8443863987922668;1.0138828754425049;-1.8601435867144588e-34;2.309166193008423;0.27759605646133423
24;0.5289433598518372;0.3545933961868286;0.5927489995956421;0.7652825713157654;-0.16239571571350098;0.16875432431697845;0.27321192622184753;0.08086863905191422;-0.057023823261260986;0.41675591468811035;-0.24853557348251343;0.08932890743017197;1.4891103506088257;1.6766839027404785;-5.057146027901832e-41;2.014655828475952;0.9346546530723572
21;0.6814749836921692;0.44929739832878113;0.7594754695892334;0.8182103633880615;-0.2365601509809494;0.3663081228733063;0.13998667895793915;0.19116370379924774;-0.1393829882144928;0.28364506363868713;-0.49120333790779114;-0.28433290123939514;0.9038469195365906;1.0491117238998413;-1.8601435867144588e-34;1.224766492843628;0.27896931767463684
22;0.6111895442008972;0.3920569121837616;0.6609034538269043;0.8005301356315613;-0.00749519607052207;0.22170023620128632;0.20581835508346558;0.11190492659807205;0.09926599264144897;0.44884467124938965;-0.08337841928005219;-0.012571204453706741;1.487324833869934;1.6816078424453735;-6.85262975024122e-41;1.899492859840393;0.9002088904380798
25;0.5505095720291138;0.40056338906288147;0.6189137101173401;0.7720446586608887;-0.13504834473133087;0.1999071091413498;0.29483750462532043;0.10710550099611282;-0.04018036276102066;0.46293389797210693;-0.2186339646577835;0.12469254434108734;1.5000360012054443;1.667747139930725;-5.057146027901832e-41;2.034996747970581;0.93503737449646
22;0.7167120575904846;0.4515365660190582;0.7561729550361633;0.8368504047393799;-0.28931498527526855;0.37465494871139526;0.14265845715999603;0.25029245018959045;-0.14619366824626923;0.31124845147132874;-0.5337088108062744;-0.31019672751426697;0.8933875560760498;1.1039236783981323;7.229199285260764e-39;1.292163610458374;0.2983520030975342
23;0.564141571521759;0.39660730957984924;0.6178553700447083;0.7777700424194336;-0.16208210587501526;0.19362665712833405;0.32789716124534607;0.1099865585565567;-0.038216110318899155;0.43889668583869934;-0.23753908276557922;0.02524643950164318;1.4637634754180908;1.6500589847564697;-5.057146027901832e-41;1.9655554294586182;0.8906154632568359
26;0.5869994163513184;0.3727535605430603;0.6119455099105835;0.7548020482063293;-0.22512514889240265;0.1768600046634674;0.2708125710487366;0.1321338415145874;-0.1147601306438446;0.37479496002197266;-0.3026063144207001;0.059151384979486465;1.420398235321045;1.606148362159729;-5.057146027901832e-41;2.0627713203430176;0.8864288926124573
23;0.693962574005127;0.44352638721466064;0.7417579889297485;0.8654382228851318;-0.29624688625335693;0.37025782465934753;0.23334597051143646;0.28398773074150085;-0.17980101704597473;0.3885980248451233;-0.5592073202133179;-0.26872697472572327;0.8845813870429993;1.094077229499817;-5.057146027901832e-41;1.3169186115264893;0.3003378212451935
24;0.5289433598518372;0.3545933961868286;0.5927489995956421;0.7652825713157654;-0.16239571571350098;0.16875432431697845;0.27321192622184753;0.08086863905191422;-0.057023823261260986;0.41675591468811035;-0.24853557348251343;0.08932890743017197;1.4891103506088257;1.6766839027404785;-5.057146027901832e-41;2.014655828475952;0.9346546530723572
27;0.6093624234199524;0.3954280614852905;0.69093257188797;0.7424194812774658;-0.2799779176712036;0.25803568959236145;0.2726026177406311;0.1596817523241043;-0.15679773688316345;0.3945581912994385;-0.3154248297214508;0.048546597361564636;1.505983591079712;1.6600322723388672;-5.057146027901832e-41;2.060924768447876;0.9621471166610718
24;0.6855797171592712;0.44333717226982117;0.7389495372772217;0.8606929183006287;-0.3198595643043518;0.39128220081329346;0.23929491639137268;0.29330307245254517;-0.20392952859401703;0.3796079754829407;-0.5760218501091003;-0.1742699146270752;0.8899466395378113;1.1021887063980103;-5.057146027901832e-41;1.3724385499954224;0.31572285294532776
25;0.5505095720291138;0.40056338906288147;0.6189137101173401;0.7720446586608887;-0.13504834473133087;0.1999071091413498;0.29483750462532043;0.10710550099611282;-0.04018036276102066;0.46293389797210693;-0.2186339646577835;0.12469254434108734;1.5000360012054443;1.667747139930725;-5.057146027901832e-41;2.034996747970581;0.93503737449646
28;0.5955071449279785;0.3735192120075226;0.7316484451293945;0.73717200756073;-0.366195946931839;0.23867356777191162;0.26955053210258484;0.14591233432292938;-0.20594820380210876;0.3592800199985504;-0.39674291014671326;0.027236469089984894;1.4436718225479126;1.603602409362793;-5.057146027901832e-41;2.086656093597412;0.9502230286598206
25;0.6657813191413879;0.49286720156669617;0.722016453742981;0.847366213798523;-0.3411727249622345;0.38323286175727844;0.22790980339050293;0.2802821099758148;-0.22444061934947968;0.3693356513977051;-0.5970342755317688;-0.18318690359592438;0.8979714512825012;1.1112269163131714;-5.057146027901832e-41;1.3841153383255005;0.32741081714630127
26;0.5869994163513184;0.3727535605430603;0.6119455099105835;0.7548020482063293;-0.22512514889240265;0.1768600046634674;0.2708125710487366;0.1321338415145874;-0.1147601306438446;0.37479496002197266;-0.3026063144207001;0.059151384979486465;1.420398235321045;1.606148362159729;-5.057146027901832e-41;2.0627713203430176;0.8864288926124573
29;0.593635082244873;0.3936364948749542;0.7366573214530945;0.7149301767349243;-0.33813777565956116;0.2738671898841858;0.2539210915565491;0.166569784283638;-0.15292960405349731;0.3300520181655884;-0.3708422780036926;0.05219340696930885;1.4502674341201782;1.6226000785827637;-5.057146027901832e-41;2.150677442550659;0.9594630002975464
26;0.7409149408340454;0.5011357665061951;0.7243136167526245;0.8436681628227234;-0.3353043496608734;0.3921929895877838;0.23406431078910828;0.2919332981109619;-0.2267908900976181;0.36703208088874817;-0.5871227383613586;-0.17745135724544525;0.8976141810417175;1.1131788492202759;-5.057146027901832e-41;1.4190877676010132;0.3366093635559082
27;0.6093624234199524;0.3954280614852905;0.69093257188797;0.7424194812774658;-0.2799779176712036;0.25803568959236145;0.2726026177406311;0.1596817523241043;-0.15679773688316345;0.3945581912994385;-0.3154248297214508;0.048546597361564636;1.505983591079712;1.6600322723388672;-5.057146027901832e-41;2.060924768447876;0.9621471166610718
30;0.6023699045181274;0.3885488212108612;0.7397812008857727;0.6937955617904663;-0.3414745032787323;0.29450535774230957;0.25538015365600586;0.16495569050312042;-0.151936337351799;0.33148595690727234;-0.36635643243789673;0.05955963581800461;1.4461190700531006;1.6354483366012573;-5.057146027901832e-41;2.1905531883239746;0.9684686660766602
27;0.7278971076011658;0.49650776386260986;0.8065606355667114;0.8302196264266968;-0.4049745202064514;0.42897674441337585;0.22965557873249054;0.29089251160621643;-0.29860031604766846;0.3286953270435333;-0.6533679962158203;-0.21365413069725037;0.9411220550537109;1.1101531982421875;-5.057146027901832e-41;1.4710958003997803;0.4203084111213684
28;0.5955071449279785;0.3735192120075226;0.7316484451293945;0.73717200756073;-0.366195946931839;0.23867356777191162;0.26955053210258484;0.14591233432292938;-0.20594820380210876;0.3592800199985504;-0.39674291014671326;0.027236469089984894;1.4436718225479126;1.603602409362793;-5.057146027901832e-41;2.086656093597412;0.9502230286598206
31;0.6054224371910095;0.3923867344856262;0.7415881752967834;0.692358136177063;-0.33491432666778564;0.297752320766449;0.25544413924217224;0.16628290712833405;-0.13921745121479034;0.334142804145813;-0.3550204336643219;0.07198166847229004;1.4566222429275513;1.6460214853286743;-5.057146027901832e-41;2.1951427459716797;0.9867600202560425
28;0.7966287136077881;0.5059642195701599;0.8704115748405457;0.8256208300590515;-0.42114025354385376;0.4476431906223297;0.2378305047750473;0.3029313385486603;-0.3193991482257843;0.3275105953216553;-0.6644482612609863;-0.19428113102912903;0.9470611810684204;1.1116331815719604;-5.057146027901832e-41;1.5182684659957886;0.43574607372283936
29;0.593635082244873;0.3936364948749542;0.7366573214530945;0.7149301767349243;-0.33813777565956116;0.2738671898841858;0.2539210915565491;0.166569784283638;-0.15292960405349731;0.3300520181655884;-0.3708422780036926;0.05219340696930885;1.4502674341201782;1.6226000785827637;-5.057146027901832e-41;2.150677442550659;0.9594630002975464
32;0.561206042766571;0.3551640808582306;0.7190160155296326;0.6802980303764343;-0.43537628650665283;0.25349658727645874;0.2267274409532547;0.12228868156671524;-0.21567483246326447;0.2620713710784912;-0.24642755091190338;0.008365037851035595;1.404820442199707;1.5851902961730957;-5.057146027901832e-41;2.2961387634277344;0.9475868344306946
29;0.7863178849220276;0.49838799238204956;0.8634501695632935;0.806023895740509;-0.4411311447620392;0.5045421719551086;0.22889567911624908;0.3006085753440857;-0.305574506521225;0.3138602674007416;-0.6755985617637634;-0.19964531064033508;0.9514188170433044;1.1344598531723022;-5.057146027901832e-41;1.6120049953460693;0.45233026146888733
30;0.6023699045181274;0.3885488212108612;0.7397812008857727;0.6937955617904663;-0.3414745032787323;0.29450535774230957;0.25538015365600586;0.16495569050312042;-0.151936337351799;0.33148595690727234;-0.36635643243789673;0.05955963581800461;1.4461190700531006;1.6354483366012573;-5.057146027901832e-41;2.1905531883239746;0.9684686660766602
33;0.5125359892845154;0.30529627203941345;0.6630768775939941;0.6157366037368774;-0.4354705214500427;0.24719057977199554;0.26475003361701965;0.10734905302524567;-0.24158866703510284;0.26702532172203064;-0.23126500844955444;0.009507987648248672;1.3750815391540527;1.5438671112060547;-5.057146027901832e-41;2.3678038120269775;0.9089551568031311
30;0.7807799577713013;0.4977823793888092;0.8620300889015198;0.8002253770828247;-0.4589207172393799;0.5324369072914124;0.22816450893878937;0.302174836397171;-0.30862751603126526;0.3072676658630371;-0.6901466846466064;-0.20939140021800995;0.9482797384262085;1.1654183864593506;-5.057146027901832e-41;1.6461924314498901;0.4549195170402527
31;0.6054224371910095;0.3923867344856262;0.7415881752967834;0.692358136177063;-0.33491432666778564;0.297752320766449;0.25544413924217224;0.16628290712833405;-0.13921745121479034;0.334142804145813;-0.3550204336643219;0.07198166847229004;1.4566222429275513;1.6460214853286743;-5.057146027901832e-41;2.1951427459716797;0.9867600202560425
34;0.5598899126052856;0.36647695302963257;0.7135735154151917;0.6090921759605408;-0.47983261942863464;0.2828686833381653;0.25788232684135437;0.1631234586238861;-0.29493197798728943;0.2541607916355133;-0.27569854259490967;-0.03890669718384743;1.33110773563385;1.5028462409973145;-5.057146027901832e-41;2.3859496116638184;0.9180454015731812
31;0.7807799577713013;0.4977823793888092;0.8620300889015198;0.8002253770828247;-0.4589207172393799;0.5324369072914124;0.22816450893878937;0.302174836397171;-0.30862751603126526;0.3072676658630371;-0.6901466846466064;-0.20939140021800995;0.9482797384262085;1.1654183864593506;-5.057146027901832e-41;1.6461924314498901;0.4549195170402527
32;0.561206042766571;0.3551640808582306;0.7190160155296326;0.6802980303764343;-0.43537628650665283;0.25349658727645874;0.2267274409532547;0.12228868156671524;-0.21567483246326447;0.2620713710784912;-0.24642755091190338;0.008365037851035595;1.404820442199707;1.5851902961730957;-5.057146027901832e-41;2.2961387634277344;0.9475868344306946
35;0.5852944850921631;0.40444526076316833;0.7343725562095642;0.5551599860191345;-0.4993612468242645;0.3600286543369293;0.2310476154088974;0.2001403123140335;-0.2999489903450012;0.19814816117286682;-0.3224389851093292;-0.06938785314559937;1.2984670400619507;1.4686510562896729;-5.057146027901832e-41;2.4162774085998535;0.9243914484977722
32;0.7793270945549011;0.4666398763656616;0.8464716076850891;0.7838571071624756;-0.5204038619995117;0.5199881196022034;0.28776389360427856;0.2855234742164612;-0.3666236698627472;0.23987363278865814;-0.6885092258453369;-0.27260565757751465;0.9636911153793335;1.1801060438156128;-5.057146027901832e-41;1.6906764507293701;0.4804174602031708
33;0.5125359892845154;0.30529627203941345;0.6630768775939941;0.6157366037368774;-0.4354705214500427;0.24719057977199554;0.26475003361701965;0.10734905302524567;-0.24158866703510284;0.26702532172203064;-0.23126500844955444;0.009507987648248672;1.3750815391540527;1.5438671112060547;-5.057146027901832e-41;2.3678038120269775;0.9089551568031311
36;0.5607255101203918;0.3717878758907318;0.7688201665878296;0.5799615383148193;-0.5585994720458984;0.3418121039867401;0.21207979321479797;0.1688186526298523;-0.3866450786590576;0.1616128832101822;-0.35640352964401245;-0.11958925426006317;1.2848103046417236;1.454054355621338;-5.057146027901832e-41;2.4282326698303223;0.9108628034591675
33;0.7546855211257935;0.44969624280929565;0.8303483724594116;0.7599278092384338;-0.5601427555084229;0.5327219367027283;0.35257405042648315;0.29271572828292847;-0.40554672479629517;0.1953938752412796;-0.7147393822669983;-0.2779337167739868;0.995006263256073;1.2068536281585693;-5.057146027901832e-41;1.7130961418151855;0.5196349620819092
34;0.5598899126052856;0.36647695302963257;0.7135735154151917;0.6090921759605408;-0.47983261942863464;0.2828686833381653;0.25788232684135437;0.1631234586238861;-0.29493197798728943;0.2541607916355133;-0.27569854259490967;-0.03890669718384743;1.33110773563385;1.5028462409973145;-5.057146027901832e-41;2.3859496116638184;0.9180454015731812
37;0.5457684397697449;0.3483770489692688;0.7736557126045227;0.5813247561454773;-0.6071102023124695;0.42565590143203735;0.19246502220630646;0.1541658490896225;-0.3932158350944519;0.12787410616874695;-0.40660810470581055;-0.04133958742022514;1.2415719032287598;1.4027364253997803;-5.057146027901832e-41;2.4268760681152344;0.8764781355857849
34;0.7590442895889282;0.5328515768051147;0.8442693948745728;0.7469902038574219;-0.5912639498710632;0.5558158159255981;0.35175761580467224;0.30981680750846863;-0.43871545791625977;0.1687479168176651;-0.7423995733261108;-0.2912907302379608;0.9873526096343994;1.19876229763031;-5.057146027901832e-41;1.7326412200927734;0.532333254814148
35;0.5852944850921631;0.40444526076316833;0.7343725562095642;0.5551599860191345;-0.4993612468242645;0.3600286543369293;0.2310476154088974;0.2001403123140335;-0.2999489903450012;0.19814816117286682;-0.3224389851093292;-0.06938785314559937;1.2984670400619507;1.4686510562896729;-5.057146027901832e-41;2.4162774085998535;0.9243914484977722
38;0.4852583110332489;0.3851531147956848;0.7331595420837402;0.5322684645652771;-0.642740786075592;0.34910690784454346;0.15206469595432281;0.11807015538215637;-0.4050622880458832;0.1019386425614357;-0.44260022044181824;-0.05649283155798912;1.3192241191864014;1.464310646057129;-5.057146027901832e-41;2.4410881996154785;1.0083205699920654
35;0.7831264734268188;0.569659948348999;0.8729990720748901;0.7320021390914917;-0.6057524085044861;0.5896254181861877;0.35922759771347046;0.34694528579711914;-0.45750516653060913;0.16103915870189667;-0.747789740562439;-0.306877464056015;0.9912170171737671;1.1824045181274414;-5.057146027901832e-41;1.7814363241195679;0.5307639241218567
36;0.5607255101203918;0.3717878758907318;0.7688201665878296;0.5799615383148193;-0.5585994720458984;0.3418121039867401;0.21207979321479797;0.1688186526298523;-0.3866450786590576;0.1616128832101822;-0.35640352964401245;-0.11958925426006317;1.2848103046417236;1.454054355621338;-5.057146027901832e-41;2.4282326698303223;0.9108628034591675
36;0.7890524864196777;0.5834817886352539;0.9378432035446167;0.7212694883346558;-0.6339246034622192;0.6023798584938049;0.3503044545650482;0.3617832660675049;-0.4838680922985077;0.1388378143310547;-0.7624011635780334;-0.32718250155448914;0.9979908466339111;1.186633825302124;-5.057146027901832e-41;1.7846484184265137;0.5487483739852905
39;0.45266425609588623;0.42512238025665283;0.7071533203125;0.5015006065368652;-0.6677255630493164;0.3203209340572357;0.12367667257785797;0.1243044063448906;-0.4462217092514038;0.02963576279580593;-0.48575249314308167;0.03443299978971481;1.3541958332061768;1.5380083322525024;-5.057146027901832e-41;2.43404221534729;1.0910364389419556
37;0.5457684397697449;0.3483770489692688;0.7736557126045227;0.5813247561454773;-0.6071102023124695;0.42565590143203735;0.19246502220630646;0.1541658490896225;-0.3932158350944519;0.12787410616874695;-0.40660810470581055;-0.04133958742022514;1.2415719032287598;1.4027364253997803;-5.057146027901832e-41;2.4268760681152344;0.8764781355857849
37;0.7537054419517517;0.5547753572463989;0.982502818107605;0.7882797122001648;-0.6544085144996643;0.6227985620498657;0.33228206634521484;0.33160823583602905;-0.5080978870391846;0.0996517762541771;-0.7805285453796387;-0.19416069984436035;0.9587453007698059;1.1502127647399902;-5.057146027901832e-41;1.8055552244186401;0.5220046639442444
40;0.4709165692329407;0.43221521377563477;0.7403351068496704;0.5067561268806458;-0.6891288161277771;0.3323907256126404;0.15382257103919983;0.18945622444152832;-0.4868837893009186;0.015890339389443398;-0.5076412558555603;0.024944745004177094;1.3492692708969116;1.5026618242263794;-5.057146027901832e-41;2.446906089782715;1.0552189350128174
38;0.4852583110332489;0.3851531147956848;0.7331595420837402;0.5322684645652771;-0.642740786075592;0.34910690784454346;0.15206469595432281;0.11807015538215637;-0.4050622880458832;0.1019386425614357;-0.44260022044181824;-0.05649283155798912;1.3192241191864014;1.464310646057129;-5.057146027901832e-41;2.4410881996154785;1.0083205699920654
38;0.6860727071762085;0.491068959236145;0.9192008376121521;0.7209067344665527;-0.6959984302520752;0.5518702864646912;0.2994607985019684;0.27166375517845154;-0.5513928532600403;0.02806592546403408;-0.7938090562820435;-0.19848884642124176;0.9947412014007568;1.1878612041473389;-5.057146027901832e-41;1.8441731929779053;0.6615681052207947
41;0.49496692419052124;0.4221437871456146;0.7449132800102234;0.4879131615161896;-0.6620063781738281;0.3740558624267578;0.11425729840993881;0.19334439933300018;-0.5004960298538208;-0.043884966522455215;-0.5178258419036865;-0.029854731634259224;1.3741402626037598;1.501939058303833;-5.057146027901832e-41;2.42177414894104;1.0493748188018799
39;0.45266425609588623;0.42512238025665283;0.7071533203125;0.5015006065368652;-0.6677255630493164;0.3203209340572357;0.12367667257785797;0.1243044063448906;-0.4462217092514038;0.02963576279580593;-0.48575249314308167;0.03443299978971481;1.3541958332061768;1.5380083322525024;-5.057146027901832e-41;2.43404221534729;1.0910364389419556
39;0.6748228073120117;0.5550200939178467;0.9139665961265564;0.7120885848999023;-0.7264224290847778;0.5511685609817505;0.30049028992652893;0.3020479679107666;-0.5829779505729675;0.010759199969470501;-0.8223174214363098;-0.16548997163772583;0.9949944019317627;1.2205920219421387;-5.057146027901832e-41;1.8338412046432495;0.703464686870575
42;0.49691784381866455;0.44218698143959045;0.8077910542488098;0.5119844675064087;-0.6793712377548218;0.38693541288375854;0.15442094206809998;0.23319360613822937;-0.5604070425033569;0.008932555094361305;-0.5194781422615051;-0.057487569749355316;1.2696274518966675;1.4025254249572754;-5.057146027901832e-41;2.443225383758545;0.9550244808197021
40;0.4709165692329407;0.43221521377563477;0.7403351068496704;0.5067561268806458;-0.6891288161277771;0.3323907256126404;0.15382257103919983;0.18945622444152832;-0.4868837893009186;0.015890339389443398;-0.5076412558555603;0.024944745004177094;1.3492692708969116;1.5026618242263794;-5.057146027901832e-41;2.446906089782715;1.0552189350128174
40;0.6622570753097534;0.5503280758857727;0.9637476205825806;0.7023648619651794;-0.7506000399589539;0.549665093421936;0.2992531657218933;0.36664339900016785;-0.6070460677146912;-0.009313090704381466;-0.8431784510612488;-0.17428110539913177;1.0506891012191772;1.2038600444793701;-5.057146027901832e-41;1.8413870334625244;0.6997814774513245
43;0.4802355468273163;0.4433274269104004;0.8045734167098999;0.5013286471366882;-0.6786567568778992;0.4319339990615845;0.14689189195632935;0.2319279909133911;-0.5602157115936279;0.0068411268293857574;-0.5263156890869141;-0.053439296782016754;1.2925450801849365;1.4283980131149292;-5.057146027901832e-41;2.4618077278137207;0.9937399625778198
41;0.49496692419052124;0.4221437871456146;0.7449132800102234;0.4879131615161896;-0.6620063781738281;0.3740558624267578;0.11425729840993881;0.19334439933300018;-0.5004960298538208;-0.043884966522455215;-0.5178258419036865;-0.029854731634259224;1.3741402626037598;1.501939058303833;-5.057146027901832e-41;2.42177414894104;1.0493748188018799
41;0.6764528155326843;0.5522406697273254;0.9662076830863953;0.6973855495452881;-0.7573594450950623;0.60415118932724;0.3042868375778198;0.37440821528434753;-0.6397086977958679;-0.03685333952307701;-0.8708388209342957;-0.1495589315891266;1.09089994430542;1.201409935951233;-5.057146027901832e-41;1.8588224649429321;0.7079957127571106
44;0.4422587454319;0.4033462405204773;0.8754953742027283;0.47968482971191406;-0.7223802804946899;0.4281752407550812;0.11804375052452087;0.19862666726112366;-0.6127115488052368;-0.033888109028339386;-0.5774381756782532;-0.07644789665937424;1.212946891784668;1.3726950883865356;-5.057146027901832e-41;2.49849796295166;1.1289137601852417
42;0.49691784381866455;0.44218698143959045;0.8077910542488098;0.5119844675064087;-0.6793712377548218;0.38693541288375854;0.15442094206809998;0.23319360613822937;-0.5604070425033569;0.008932555094361305;-0.5194781422615051;-0.057487569749355316;1.2696274518966675;1.4025254249572754;-5.057146027901832e-41;2.443225383758545;0.9550244808197021
42;0.6753154397010803;0.5543540120124817;0.9769303202629089;0.6947942972183228;-0.7653371691703796;0.6080323457717896;0.3226958215236664;0.3782389461994171;-0.6497297286987305;-0.041144732385873795;-0.8205153942108154;-0.1619780957698822;1.0761386156082153;1.1829757690429688;-5.057146027901832e-41;1.9085711240768433;0.69917231798172
45;0.4640202224254608;0.45115551352500916;0.8944306373596191;0.4810411334037781;-0.7088167071342468;0.4382454454898834;0.1350368857383728;0.22068317234516144;-0.6565170288085938;-0.040054239332675934;-0.5816832184791565;-0.08391351997852325;1.1917927265167236;1.358741044998169;-5.057146027901832e-41;2.4987621307373047;1.30120050907135
43;0.4802355468273163;0.4433274269104004;0.8045734167098999;0.5013286471366882;-0.6786567568778992;0.4319339990615845;0.14689189195632935;0.2319279909133911;-0.5602157115936279;0.0068411268293857574;-0.5263156890869141;-0.053439296782016754;1.2925450801849365;1.4283980131149292;-5.057146027901832e-41;2.4618077278137207;0.9937399625778198
43;0.6598736047744751;0.5443866848945618;0.9705654382705688;0.6806991100311279;-0.7927926182746887;0.6557794809341431;0.318795382976532;0.3724501430988312;-0.6758753061294556;-0.053564175963401794;-0.8363611102104187;-0.17641252279281616;1.0893033742904663;1.191457986831665;-5.057146027901832e-41;1.9270702600479126;0.7235809564590454
46;0.4468451142311096;0.4511076509952545;0.8922861218452454;0.48737412691116333;-0.743741512298584;0.44041872024536133;0.19386926293373108;0.22698195278644562;-0.5928061604499817;-0.026048053056001663;-0.5931108593940735;-0.06899463385343552;1.165322184562683;1.3309308290481567;-5.057146027901832e-41;2.5458388328552246;1.2829113006591797
44;0.4422587454319;0.4033462405204773;0.8754953742027283;0.47968482971191406;-0.7223802804946899;0.4281752407550812;0.11804375052452087;0.19862666726112366;-0.6127115488052368;-0.033888109028339386;-0.5774381756782532;-0.07644789665937424;1.212946891784668;1.3726950883865356;-5.057146027901832e-41;2.49849796295166;1.1289137601852417
44;0.6389170289039612;0.5318002700805664;1.0134732723236084;0.6793709993362427;-0.8225935101509094;0.6504842042922974;0.30967095494270325;0.3635546863079071;-0.719744086265564;-0.08679082989692688;-0.8666926026344299;-0.18939438462257385;1.0570863485336304;1.1660733222961426;-5.057146027901832e-41;1.9334590435028076;0.9409924149513245
47;0.4567345380783081;0.4478718340396881;0.9025743007659912;0.49198296666145325;-0.7762419581413269;0.4405701756477356;0.2519553005695343;0.23290376365184784;-0.599396288394928;0.012216359376907349;-0.6255137324333191;-0.17597085237503052;1.150177001953125;1.3074544668197632;-5.057146027901832e-41;2.56258487701416;1.262304663658142
45;0.4640202224254608;0.45115551352500916;0.8944306373596191;0.4810411334037781;-0.7088167071342468;0.4382454454898834;0.1350368857383728;0.22068317234516144;-0.6565170288085938;-0.040054239332675934;-0.5816832184791565;-0.08391351997852325;1.1917927265167236;1.358741044998169;-5.057146027901832e-41;2.4987621307373047;1.30120050907135
45;0.6287090182304382;0.5459662675857544;1.0116500854492188;0.672615110874176;-0.8236709833145142;0.6541698575019836;0.3104921579360962;0.3671521246433258;-0.7598630785942078;-0.1157182976603508;-0.9016647934913635;-0.2122402787208557;1.0214749574661255;1.1375283002853394;-5.057146027901832e-41;1.9851104021072388;1.1227586269378662
48;0.43797537684440613;0.4237339496612549;0.8806190490722656;0.5535892248153687;-0.8022362589836121;0.4327595829963684;0.2331644743680954;0.299575537443161;-0.6102623343467712;-0.0087257269769907;-0.6469641327857971;-0.1795692890882492;1.1615841388702393;1.3683110475540161;-5.057146027901832e-41;2.581285238265991;1.312654733657837
46;0.4468451142311096;0.4511076509952545;0.8922861218452454;0.48737412691116333;-0.743741512298584;0.44041872024536133;0.19386926293373108;0.22698195278644562;-0.5928061604499817;-0.026048053056001663;-0.5931108593940735;-0.06899463385343552;1.165322184562683;1.3309308290481567;-5.057146027901832e-41;2.5458388328552246;1.2829113006591797
46;0.6241437196731567;0.5478391051292419;1.011233925819397;0.6702277660369873;-0.862014889717102;0.6578184962272644;0.37963148951530457;0.3718387186527252;-0.7634008526802063;-0.05654367431998253;-0.9362761378288269;-0.22842198610305786;0.9940183758735657;1.1101784706115723;-5.057146027901832e-41;2.038417100906372;1.1143569946289062
47;0.4567345380783081;0.4478718340396881;0.9025743007659912;0.49198296666145325;-0.7762419581413269;0.4405701756477356;0.2519553005695343;0.23290376365184784;-0.599396288394928;0.012216359376907349;-0.6255137324333191;-0.17597085237503052;1.150177001953125;1.3074544668197632;-5.057146027901832e-41;2.56258487701416;1.262304663658142
49;0.41820284724235535;0.4401686489582062;0.9106515645980835;0.6044740676879883;-0.8130420446395874;0.4538675844669342;0.24793779850006104;0.32669392228126526;-0.64384526014328;-0.012915528379380703;-0.6612507104873657;-0.1797010749578476;1.0950101613998413;1.3071404695510864;-5.057146027901832e-41;2.6472837924957275;1.2627427577972412
47;0.615780770778656;0.5452333688735962;1.0083136558532715;0.6626953482627869;-0.8564293384552002;0.6570976376533508;0.4169290363788605;0.3728735148906708;-0.7624172568321228;-0.06650902330875397;-0.928334653377533;-0.20477668941020966;1.0262534618377686;1.1119517087936401;-5.057146027901832e-41;2.079381227493286;1.122929334640503
48;0.43797537684440613;0.4237339496612549;0.8806190490722656;0.5535892248153687;-0.8022362589836121;0.4327595829963684;0.2331644743680954;0.299575537443161;-0.6102623343467712;-0.0087257269769907;-0.6469641327857971;-0.1795692890882492;1.1615841388702393;1.3683110475540161;-5.057146027901832e-41;2.581285238265991;1.312654733657837
50;0.4178537130355835;0.4383624494075775;0.9166964888572693;0.5970271229743958;-0.8109102249145508;0.5481622815132141;0.2555983364582062;0.3208180069923401;-0.5698419213294983;-0.006989584304392338;-0.6519306898117065;-0.1683063507080078;1.1648775339126587;1.3589810132980347;-5.057146027901832e-41;2.5792276859283447;1.3169994354248047
48;0.6217745542526245;0.5565878748893738;1.005226969718933;0.7424286603927612;-0.9170092344284058;0.6711268424987793;0.43449437618255615;0.4530881941318512;-0.8182312250137329;-0.09450928866863251;-0.9855945706367493;-0.26114046573638916;0.9709710478782654;1.122078776359558;-5.057146027901832e-41;2.073791980743408;1.113607406616211
49;0.41820284724235535;0.4401686489582062;0.9106515645980835;0.6044740676879883;-0.8130420446395874;0.4538675844669342;0.24793779850006104;0.32669392228126526;-0.64384526014328;-0.012915528379380703;-0.6612507104873657;-0.1797010749578476;1.0950101613998413;1.3071404695510864;-5.057146027901832e-41;2.6472837924957275;1.2627427577972412
51;0.39795374870300293;0.4251115024089813;0.8992352485656738;0.5887631773948669;-0.8333079814910889;0.5939765572547913;0.26816749572753906;0.3072594404220581;-0.580464243888855;-0.03389005362987518;-0.6634511947631836;-0.17830438911914825;1.1542731523513794;1.3590818643569946;-5.057146027901832e-41;2.5949251651763916;1.3042718172073364
49;0.6107177734375;0.551551342010498;1.0346794128417969;0.7862735986709595;-0.937613308429718;0.6706445217132568;0.4324156641960144;0.45190033316612244;-0.8364964723587036;-0.10804654657840729;-1.0010234117507935;-0.2694164514541626;0.966334879398346;1.1216191053390503;-5.057146027901832e-41;2.099790334701538;1.1193456649780273
50;0.4178537130355835;0.4383624494075775;0.9166964888572693;0.5970271229743958;-0.8109102249145508;0.5481622815132141;0.2555983364582062;0.3208180069923401;-0.5698419213294983;-0.006989584304392338;-0.6519306898117065;-0.1683063507080078;1.1648775339126587;1.3589810132980347;-5.057146027901832e-41;2.5792276859283447;1.3169994354248047
52;0.40934857726097107;0.4284107983112335;0.9067665338516235;0.59323650598526;-0.8682116866111755;0.6103758811950684;0.27654099464416504;0.3158104419708252;-0.6075527667999268;-0.03734278678894043;-0.7183635234832764;-0.21350876986980438;1.0970821380615234;1.3140599727630615;-5.057146027901832e-41;2.608475923538208;1.2791639566421509
50;0.5972910523414612;0.5419924259185791;1.026374101638794;0.777441143989563;-0.9506796598434448;0.7562446594238281;0.4254564940929413;0.44437742233276367;-0.8086531162261963;-0.11615129560232162;-1.0105446577072144;-0.28108853101730347;0.9615318179130554;1.1154464483261108;-5.057146027901832e-41;2.1030285358428955;1.119093418121338
51;0.39795374870300293;0.4251115024089813;0.8992352485656738;0.5887631773948669;-0.8333079814910889;0.5939765572547913;0.26816749572753906;0.3072594404220581;-0.580464243888855;-0.03389005362987518;-0.6634511947631836;-0.17830438911914825;1.1542731523513794;1.3590818643569946;-5.057146027901832e-41;2.5949251651763916;1.3042718172073364
53;0.4137997031211853;0.422918438911438;0.90534907579422;0.591277003288269;-0.8791866898536682;0.6116966009140015;0.30815404653549194;0.32330307364463806;-0.6249725818634033;-0.05108502879738808;-0.7226892709732056;-0.21653695404529572;1.1041326522827148;1.3075876235961914;-5.057146027901832e-41;2.588261842727661;1.2868486642837524
51;0.5823219418525696;0.5301855206489563;1.014240026473999;0.7658436298370361;-0.9791034460067749;0.7533124685287476;0.44039568305015564;0.4376208186149597;-0.834737241268158;-0.12774229049682617;-1.0364457368850708;-0.29127955436706543;0.9628085494041443;1.1592411994934082;-5.057146027901832e-41;2.1209917068481445;1.1266165971755981
52;0.40934857726097107;0.4284107983112335;0.9067665338516235;0.59323650598526;-0.8682116866111755;0.6103758811950684;0.27654099464416504;0.3158104419708252;-0.6075527667999268;-0.03734278678894043;-0.7183635234832764;-0.21350876986980438;1.0970821380615234;1.3140599727630615;-5.057146027901832e-41;2.608475923538208;1.2791639566421509
54;0.39236924052238464;0.4362509846687317;0.8928476572036743;0.5732132196426392;-0.8960007429122925;0.605513870716095;0.2950512170791626;0.32500648498535156;-0.6328515410423279;-0.049063656479120255;-0.6979632377624512;-0.21766740083694458;1.097074270248413;1.3204398155212402;-5.057146027901832e-41;2.6349120140075684;1.2940175533294678
52;0.5812663435935974;0.5346359610557556;1.0149015188217163;0.7608866095542908;-0.9731671214103699;0.758987307548523;0.4416525363922119;0.44992899894714355;-0.8104557991027832;-0.13390839099884033;-1.0292396545410156;-0.29393893480300903;0.9632301926612854;1.1608757972717285;-5.057146027901832e-41;2.1193461418151855;1.1323509216308594
53;0.4137997031211853;0.422918438911438;0.90534907579422;0.591277003288269;-0.8791866898536682;0.6116966009140015;0.30815404653549194;0.32330307364463806;-0.6249725818634033;-0.05108502879738808;-0.7226892709732056;-0.21653695404529572;1.1041326522827148;1.3075876235961914;-5.057146027901832e-41;2.588261842727661;1.2868486642837524
55;0.41637086868286133;0.45202475786209106;0.9208397269248962;0.5520021915435791;-0.9093276262283325;0.6860378980636597;0.374213308095932;0.3817720115184784;-0.6519988775253296;-0.07517889142036438;-0.7066544890403748;-0.21577861905097961;1.0854583978652954;1.3220278024673462;-5.057146027901832e-41;2.646996259689331;1.295487880706787
53;0.5885329842567444;0.5491269826889038;1.0215425491333008;0.7424556016921997;-0.9716007113456726;0.7693064212799072;0.45005562901496887;0.46247541904449463;-0.8118053674697876;-0.12565156817436218;-1.024360179901123;-0.2810768187046051;0.95600825548172;1.1551119089126587;-5.057146027901832e-41;2.1429879665374756;1.1329641342163086
54;0.39236924052238464;0.4362509846687317;0.8928476572036743;0.5732132196426392;-0.8960007429122925;0.605513870716095;0.2950512170791626;0.32500648498535156;-0.6328515410423279;-0.049063656479120255;-0.6979632377624512;-0.21766740083694458;1.097074270248413;1.3204398155212402;-5.057146027901832e-41;2.6349120140075684;1.2940175533294678
56;0.435596227645874;0.4448823630809784;0.9064199924468994;0.5310459136962891;-0.9058039784431458;0.6942660212516785;0.3618413209915161;0.3857177197933197;-0.6558657288551331;-0.07936453819274902;-0.7011194825172424;-0.18414956331253052;1.0941519737243652;1.3336191177368164;-5.057146027901832e-41;2.692812204360962;1.3251245021820068
54;0.5690539479255676;0.5487774610519409;1.0058172941207886;0.7458806037902832;-0.9899392127990723;0.7592172622680664;0.4584510028362274;0.4565199613571167;-0.825518786907196;-0.13558420538902283;-1.0239441394805908;-0.29003575444221497;0.9512388706207275;1.170936942100525;-5.057146027901832e-41;2.189054012298584;1.1393574476242065
55;0.41637086868286133;0.45202475786209106;0.9208397269248962;0.5520021915435791;-0.9093276262283325;0.6860378980636597;0.374213308095932;0.3817720115184784;-0.6519988775253296;-0.07517889142036438;-0.7066544890403748;-0.21577861905097961;1.0854583978652954;1.3220278024673462;-5.057146027901832e-41;2.646996259689331;1.295487880706787
57;0.4448844790458679;0.49261215329170227;0.9158313274383545;0.5540132522583008;-0.8970391154289246;0.7061233520507812;0.4137488603591919;0.4375721514225006;-0.6600192189216614;-0.0765206590294838;-0.7760747075080872;-0.1813683807849884;1.0183219909667969;1.2863882780075073;-5.057146027901832e-41;2.6906089782714844;1.3040485382080078
55;0.5676632523536682;0.5539931058883667;1.0041286945343018;0.7286628484725952;-1.0233714580535889;0.808195173740387;0.5138750672340393;0.4873947501182556;-0.8594520092010498;-0.163470059633255;-1.0531612634658813;-0.3164270222187042;0.9229808449745178;1.1758837699890137;-5.057146027901832e-41;2.231018304824829;1.123129963874817
56;0.435596227645874;0.4448823630809784;0.9064199924468994;0.5310459136962891;-0.9058039784431458;0.6942660212516785;0.3618413209915161;0.3857177197933197;-0.6558657288551331;-0.07936453819274902;-0.7011194825172424;-0.18414956331253052;1.0941519737243652;1.3336191177368164;-5.057146027901832e-41;2.692812204360962;1.3251245021820068
58;0.44196391105651855;0.4858798086643219;0.910088300704956;0.562390148639679;-0.9088797569274902;0.7109964489936829;0.4310387670993805;0.4306914806365967;-0.6652670502662659;-0.09329968690872192;-0.7839117646217346;-0.19386741518974304;1.035291075706482;1.303633451461792;-5.057146027901832e-41;2.710066318511963;1.3165931701660156
56;0.5929509997367859;0.5534530878067017;1.0005327463150024;0.7048182487487793;-1.0393623113632202;0.8130395412445068;0.5305397510528564;0.4968399703502655;-0.8810190558433533;-0.18190105259418488;-1.0692074298858643;-0.2920021712779999;0.9084183573722839;1.164177656173706;-5.057146027901832e-41;2.2901968955993652;1.1390138864517212
57;0.4448844790458679;0.49261215329170227;0.9158313274383545;0.5540132522583008;-0.8970391154289246;0.7061233520507812;0.4137488603591919;0.4375721514225006;-0.6600192189216614;-0.0765206590294838;-0.7760747075080872;-0.1813683807849884;1.0183219909667969;1.2863882780075073;-5.057146027901832e-41;2.6906089782714844;1.3040485382080078
59;0.43667736649513245;0.48562291264533997;0.9146760702133179;0.5691278576850891;-0.9151332378387451;0.7168171405792236;0.4212462306022644;0.4424039423465729;-0.6580802202224731;-0.08936048299074173;-0.8189200162887573;-0.18954190611839294;1.0303401947021484;1.2878600358963013;-5.057146027901832e-41;2.7321419715881348;1.312159538269043
57;0.5898543000221252;0.5829776525497437;0.9982759356498718;0.6947421431541443;-1.0599560737609863;0.8184536099433899;0.5291484594345093;0.5454970002174377;-0.9035483598709106;-0.20341196656227112;-1.0793704986572266;-0.31400632858276367;0.8671003580093384;1.1497178077697754;-5.057146027901832e-41;2.3282182216644287;1.1637176275253296
58;0.44196391105651855;0.4858798086643219;0.910088300704956;0.562390148639679;-0.9088797569274902;0.7109964489936829;0.4310387670993805;0.4306914806365967;-0.6652670502662659;-0.09329968690872192;-0.7839117646217346;-0.19386741518974304;1.035291075706482;1.303633451461792;-5.057146027901832e-41;2.710066318511963;1.3165931701660156
60;0.4349093735218048;0.49016737937927246;0.9258925914764404;0.5906764268875122;-0.9073439240455627;0.7077290415763855;0.4416317939758301;0.4476799964904785;-0.6484767198562622;-0.08995912969112396;-0.8039372563362122;-0.16556955873966217;1.021569848060608;1.2766320705413818;-5.057146027901832e-41;2.707749605178833;1.3094686269760132
58;0.587911069393158;0.5856804251670837;0.9974696040153503;0.7311429381370544;-1.0913821458816528;0.8232566714286804;0.5709394216537476;0.551554799079895;-0.9346954226493835;-0.2297435849905014;-1.0647673606872559;-0.3336527943611145;0.8480567932128906;1.1311969757080078;-5.057146027901832e-41;2.3457694053649902;1.1540031433105469
59;0.43667736649513245;0.48562291264533997;0.9146760702133179;0.5691278576850891;-0.9151332378387451;0.7168171405792236;0.4212462306022644;0.4424039423465729;-0.6580802202224731;-0.08936048299074173;-0.8189200162887573;-0.18954190611839294;1.0303401947021484;1.2878600358963013;-5.057146027901832e-41;2.7321419715881348;1.312159538269043
61;0.4206930696964264;0.48095205426216125;0.9073737859725952;0.6627945899963379;-0.946967363357544;0.6892078518867493;0.43343284726142883;0.43528345227241516;-0.6927576661109924;-0.14320094883441925;-0.8480767607688904;-0.19978132843971252;0.9730660319328308;1.2407423257827759;-5.057146027901832e-41;2.73449444770813;1.2675061225891113
59;0.5830492377281189;0.5852062702178955;0.994665801525116;0.7300398349761963;-1.0904343128204346;0.8251017928123474;0.5756386518478394;0.554624617099762;-0.9316640496253967;-0.23297564685344696;-1.0611573457717896;-0.34164661169052124;0.8595471382141113;1.1217955350875854;-5.057146027901832e-41;2.3664543628692627;1.1511048078536987
60;0.4349093735218048;0.49016737937927246;0.9258925914764404;0.5906764268875122;-0.9073439240455627;0.7077290415763855;0.4416317939758301;0.4476799964904785;-0.6484767198562622;-0.08995912969112396;-0.8039372563362122;-0.16556955873966217;1.021569848060608;1.2766320705413818;-5.057146027901832e-41;2.707749605178833;1.3094686269760132
62;0.4232928454875946;0.4806646406650543;0.902049720287323;0.6526342630386353;-0.9280844926834106;0.6902910470962524;0.43079841136932373;0.4327652156352997;-0.6848852038383484;-0.12693554162979126;-0.8370180130004883;-0.1946600377559662;1.0125664472579956;1.2695225477218628;-5.057146027901832e-41;2.7178142070770264;1.2921925783157349
60;0.5817422270774841;0.5847874283790588;0.9937750101089478;0.740594208240509;-1.0880651473999023;0.8242461681365967;0.5940198302268982;0.555035412311554;-0.9304869174957275;-0.23635774850845337;-1.0578837394714355;-0.316770076751709;0.8550581336021423;1.1169310808181763;-5.057146027901832e-41;2.370425224304199;1.148329257965088
61;0.4206930696964264;0.48095205426216125;0.9073737859725952;0.6627945899963379;-0.946967363357544;0.6892078518867493;0.43343284726142883;0.43528345227241516;-0.6927576661109924;-0.14320094883441925;-0.8480767607688904;-0.19978132843971252;0.9730660319328308;1.2407423257827759;-5.057146027901832e-41;2.73449444770813;1.2675061225891113
63;0.42948073148727417;0.4544457495212555;0.8903235197067261;0.6450560092926025;-0.9342188835144043;0.6919039487838745;0.43797653913497925;0.4306492209434509;-0.7088996767997742;-0.16910821199417114;-0.8431318402290344;-0.1827550232410431;1.0273231267929077;1.2723662853240967;-5.057146027901832e-41;2.735110282897949;1.3254804611206055
61;0.5912443399429321;0.5942431688308716;1.0000828504562378;0.7484229803085327;-1.0679864883422852;0.8305748105049133;0.6327661275863647;0.565326452255249;-0.9144706130027771;-0.23421865701675415;-1.0378408432006836;-0.31797298789024353;0.8483876585960388;1.1083061695098877;-5.057146027901832e-41;2.3577141761779785;1.1449973583221436
62;0.4232928454875946;0.4806646406650543;0.902049720287323;0.6526342630386353;-0.9280844926834106;0.6902910470962524;0.43079841136932373;0.4327652156352997;-0.6848852038383484;-0.12693554162979126;-0.8370180130004883;-0.1946600377559662;1.0125664472579956;1.2695225477218628;-5.057146027901832e-41;2.7178142070770264;1.2921925783157349
64;0.457874059677124;0.46346449851989746;0.8913719654083252;0.6499661207199097;-0.9306557774543762;0.6937795281410217;0.47968846559524536;0.4342949688434601;-0.669296145439148;-0.17431308329105377;-0.8402467966079712;-0.14039140939712524;1.014643669128418;1.254564881324768;-5.057146027901832e-41;2.7500672340393066;1.3103201389312744
62;0.5904422402381897;0.5948647260665894;0.9996767044067383;0.7486447691917419;-1.069984793663025;0.8323265314102173;0.6342628002166748;0.5674828886985779;-0.9185923933982849;-0.23418498039245605;-1.0395581722259521;-0.3255690932273865;0.8418782353401184;1.1005948781967163;-5.057146027901832e-41;2.37520694732666;1.1408724784851074
63;0.42948073148727417;0.4544457495212555;0.8903235197067261;0.6450560092926025;-0.9342188835144043;0.6919039487838745;0.43797653913497925;0.4306492209434509;-0.7088996767997742;-0.16910821199417114;-0.8431318402290344;-0.1827550232410431;1.0273231267929077;1.2723662853240967;-5.057146027901832e-41;2.735110282897949;1.3254804611206055
65;0.5302645564079285;0.47541704773902893;0.8708965182304382;0.6623702049255371;-0.9471441507339478;0.7058114409446716;0.5037156343460083;0.4414399564266205;-0.702269971370697;-0.13960081338882446;-0.8366159200668335;-0.14148935675621033;1.0437968969345093;1.2562413215637207;-5.057146027901832e-41;2.759852409362793;1.3261743783950806
63;0.6189778447151184;0.5906923413276672;0.9947983622550964;0.7417229413986206;-1.0706403255462646;0.8303439021110535;0.6348822116851807;0.5661318898200989;-0.9233339428901672;-0.2461194097995758;-1.0336071252822876;-0.3320462107658386;0.850632905960083;1.1077899932861328;-5.057146027901832e-41;2.4116578102111816;1.183953881263733
64;0.457874059677124;0.46346449851989746;0.8913719654083252;0.6499661207199097;-0.9306557774543762;0.6937795281410217;0.47968846559524536;0.4342949688434601;-0.669296145439148;-0.17431308329105377;-0.8402467966079712;-0.14039140939712524;1.014643669128418;1.254564881324768;-5.057146027901832e-41;2.7500672340393066;1.3103201389312744
66;0.5400135517120361;0.5372072458267212;0.8833572268486023;0.7101194858551025;-0.985103189945221;0.6967229843139648;0.4967009127140045;0.43505164980888367;-0.7419520616531372;-0.14377202093601227;-0.7147031426429749;-0.16604994237422943;1.0128365755081177;1.2746989727020264;-5.057146027901832e-41;2.7532601356506348;1.2966703176498413
64;0.6423371434211731;0.5866820812225342;0.9891633987426758;0.7338606119155884;-1.0780919790267944;0.828158438205719;0.6639359593391418;0.564887523651123;-0.9251908659934998;-0.2581508159637451;-1.039206862449646;-0.2974340319633484;0.8691667914390564;1.1011615991592407;-5.057146027901832e-41;2.4443986415863037;1.1814541816711426
65;0.5302645564079285;0.47541704773902893;0.8708965182304382;0.6623702049255371;-0.9471441507339478;0.7058114409446716;0.5037156343460083;0.4414399564266205;-0.702269971370697;-0.13960081338882446;-0.8366159200668335;-0.14148935675621033;1.0437968969345093;1.2562413215637207;-5.057146027901832e-41;2.759852409362793;1.3261743783950806
67;0.5517346262931824;0.5442442297935486;0.881079375743866;0.6981371641159058;-0.983015775680542;0.6771794557571411;0.4738655388355255;0.4729097783565521;-0.7330398559570312;-0.1580904871225357;-0.7083545923233032;-0.15824592113494873;1.0204702615737915;1.2765318155288696;-5.057146027901832e-41;2.738314628601074;1.2986592054367065
