batch_number;w0;w1;w2;w3;w4;w5;w6;w7;w8;w9;w10;w11;w12;w13;w14;w15;w16
1;-0.2940003275871277;-0.03357511758804321;-0.2611377239227295;-0.3685859739780426;0.28282979130744934;0.002673055976629257;-0.0535459890961647;0.03952502831816673;0.0008972898358479142;-0.24321748316287994;0.6699602007865906;-0.08923577517271042;0.5011189579963684;0.0878925696015358;-0.4684452414512634;0.08373527973890305;0.10490177571773529
2;-0.10862766951322556;0.15171486139297485;-0.07577819377183914;-0.18586662411689758;0.4447828531265259;0.18407930433750153;0.07854937016963959;0.22476738691329956;0.1645624190568924;-0.11924947798252106;0.8417240381240845;0.07359909266233444;0.6595615744590759;0.19672535359859467;-0.3187037706375122;0.1977144181728363;0.26360639929771423
3;0.018350014463067055;0.27873605489730835;0.05121184140443802;-0.07819496095180511;0.5577208995819092;0.31476858258247375;0.2017277479171753;0.3515534996986389;0.2778915762901306;-0.058514680713415146;0.9536443948745728;0.13124045729637146;0.7712997198104858;0.2927820682525635;-0.21331413090229034;0.3089408874511719;0.3767813742160797
4;0.13394542038440704;0.39372795820236206;0.16679032146930695;0.017086053267121315;0.6548229455947876;0.4334840774536133;0.31307825446128845;0.4667346179485321;0.273742139339447;-0.022177308797836304;1.0501079559326172;0.23012234270572662;0.86404949426651;0.3847922086715698;-0.10416305065155029;0.4112265110015869;0.4754441976547241
5;0.22515302896499634;0.48444220423698425;0.25794273614883423;0.10216423124074936;0.7028967142105103;0.5253180861473083;0.362956166267395;0.5573838949203491;0.32124069333076477;-0.006940072868019342;1.109159231185913;0.2805282175540924;0.9132140278816223;0.4396277070045471;-0.06867671012878418;0.45509061217308044;0.5290145874023438
6;0.2937755882740021;0.5524096488952637;0.3264676332473755;0.17022214829921722;0.7298471927642822;0.5926189422607422;0.4165491461753845;0.6253008842468262;0.356006920337677;-0.0015036753611639142;1.140282392501831;0.31485655903816223;0.9295750856399536;0.47217196226119995;-0.015031617134809494;0.4853542149066925;0.4570613503456116
7;0.34545132517814636;0.6032519936561584;0.3780246675014496;0.22210988402366638;0.7442340850830078;0.6430178880691528;0.4650425314903259;0.6760207414627075;0.380397766828537;-0.00024872759240679443;1.1533238887786865;0.34690502285957336;0.9346816539764404;0.5030884146690369;-0.007253017742186785;0.5185077786445618;0.44598761200904846
8;0.3905426263809204;0.6473468542098999;0.4229835569858551;0.26802873611450195;0.7151569724082947;0.6867613196372986;0.5112617611885071;0.7199079990386963;0.368928462266922;-3.06208421534393e-05;1.108636736869812;0.3348792791366577;0.903174102306366;0.49673327803611755;-0.0016601659590378404;0.5332300662994385;0.44031453132629395
9;0.43044865131378174;0.6861119866371155;0.46273836493492126;0.3089504539966583;0.6713151335716248;0.7250760197639465;0.5533049702644348;0.7584258317947388;0.35417062044143677;-2.715734808589332e-06;1.0542182922363281;0.31555840373039246;0.8499348759651184;0.4742657542228699;0.0006169865373522043;0.5596252083778381;0.4242846667766571
10;0.4647270739078522;0.7190678119659424;0.49682191014289856;0.3447941243648529;0.6788783669471741;0.7579789161682129;0.5769442319869995;0.7910588979721069;0.3646160662174225;-1.6654145440497814e-07;1.0486018657684326;0.3405032455921173;0.8039750456809998;0.4685179591178894;0.011250149458646774;0.5795236229896545;0.4467087984085083
11;0.4942663609981537;0.7470731139183044;0.5261562466621399;0.37572869658470154;0.6848300099372864;0.7860593795776367;0.5878530740737915;0.81867516040802;0.38554638624191284;-6.706107669174344e-09;1.062922477722168;0.36283349990844727;0.7994241714477539;0.4903362989425659;0.03309420496225357;0.5830127596855164;0.4694529175758362
12;0.5219794511795044;0.773058295249939;0.5536178946495056;0.4046594798564911;0.6815845370292664;0.8118831515312195;0.5999341607093811;0.8442004323005676;0.3909308612346649;-1.659675175069708e-10;1.0707521438598633;0.36362990736961365;0.7831318378448486;0.4826643466949463;0.05395674332976341;0.5872828960418701;0.4676239788532257
13;0.5648930668830872;0.8144079446792603;0.5963387489318848;0.4512946605682373;0.5766992568969727;0.8534901142120361;0.6575609445571899;0.8850963115692139;0.3220524489879608;-2.3143338374193023e-12;0.9899719953536987;0.2820916175842285;0.703081488609314;0.4218592047691345;0.06072340905666351;0.563709557056427;0.3930845260620117
14;0.5975205898284912;0.8451225757598877;0.6287268996238708;0.4854198396205902;0.49535682797431946;0.8837783336639404;0.695477306842804;0.9152856469154358;0.2692826986312866;-1.613021273895541e-14;0.9221073389053345;0.22957377135753632;0.631186842918396;0.37247270345687866;0.048099711537361145;0.5512152910232544;0.33868643641471863
15;0.5537675619125366;0.7997634410858154;0.5871471166610718;0.42386728525161743;0.30654528737068176;0.8435961008071899;0.6019724607467651;0.8697676062583923;0.08628130704164505;-4.698418304781209e-17;0.7764183282852173;0.0796983614563942;0.483243852853775;0.17366009950637817;-0.12921741604804993;0.5118445158004761;0.1843099445104599
16;0.49592024087905884;0.7410025000572205;0.5322912335395813;0.3403492867946625;0.11790347099304199;0.7510523200035095;0.4724225401878357;0.8110242486000061;-0.09423479437828064;-9.048579773271001e-20;0.642306923866272;-0.11035910993814468;0.3043892979621887;0.0339009054005146;-0.3109888434410095;0.43974360823631287;0.012402240186929703
17;0.46697697043418884;0.7111342549324036;0.49660366773605347;0.2906617820262909;-0.013640751130878925;0.6938832998275757;0.3858107030391693;0.7809784412384033;-0.21597197651863098;-3.980625575447607e-23;0.5492569208145142;-0.252450168132782;0.16463321447372437;-0.08230959624052048;-0.4113582670688629;0.3248215615749359;-0.11394275724887848
18;0.4714803993701935;0.7138163447380066;0.5007706880569458;0.29428955912590027;-0.03537712246179581;0.6939961910247803;0.3936237692832947;0.7832058668136597;-0.2334344983100891;8.16518799966368e-28;0.5166507959365845;-0.27210572361946106;0.13916531205177307;-0.10480441898107529;-0.4382428526878357;0.2934838533401489;-0.13750071823596954
19;0.4784429967403412;0.7187806963920593;0.5074025392532349;0.2994830310344696;-0.04876972362399101;0.6962130665779114;0.39829832315444946;0.7876864075660706;-0.24585488438606262;-9.08802159801161e-33;0.4883285462856293;-0.28381258249282837;0.11112038046121597;-0.11991249024868011;-0.4318641424179077;0.2889968156814575;-0.15148769319057465
20;0.491989403963089;0.7305174469947815;0.520820677280426;0.29413729906082153;-0.0434994176030159;0.7077121138572693;0.38806992769241333;0.7987469434738159;-0.1960098147392273;-3.247869044518402e-37;0.4540756940841675;-0.2152816653251648;0.13917885720729828;-0.11879822611808777;-0.4522184133529663;0.3161679208278656;-0.1268300861120224
21;0.5139814019203186;0.7508437633514404;0.5428127646446228;0.28830060362815857;-0.01891021430492401;0.727637529373169;0.3686791956424713;0.8182275891304016;-0.17711572349071503;-1.1492048705927825e-41;0.42171305418014526;-0.1901032030582428;0.15031246840953827;-0.0998929962515831;-0.4492385983467102;0.33331671357154846;-0.09607182443141937
22;0.5311477780342102;0.7656269073486328;0.5592173933982849;0.28436562418937683;-0.007840348407626152;0.7416912317276001;0.35547131299972534;0.8329264521598816;-0.1416308879852295;-1.1492048705927825e-41;0.3929675817489624;-0.18459869921207428;0.1461409032344818;-0.054998211562633514;-0.4206555485725403;0.348606139421463;-0.07722469419240952
23;0.5513481497764587;0.783481240272522;0.57907634973526;0.3061428964138031;-0.04941408708691597;0.7586063742637634;0.37267157435417175;0.8505959510803223;-0.17243728041648865;-1.1492048705927825e-41;0.34045517444610596;-0.17363251745700836;0.1009974554181099;-0.08902468532323837;-0.426095187664032;0.32192954421043396;-0.11247764527797699
24;0.566237211227417;0.7959288358688354;0.5936079025268555;0.3212291896343231;-0.08178447932004929;0.7702659368515015;0.39249834418296814;0.862435519695282;-0.19567933678627014;-1.1492048705927825e-41;0.29660964012145996;-0.15454253554344177;0.06443184614181519;-0.11634004861116409;-0.4375753104686737;0.3071270287036896;-0.13756725192070007
25;0.5869418978691101;0.8148574829101562;0.6136306524276733;0.3460939824581146;-0.12819328904151917;0.7882900834083557;0.43100374937057495;0.8609564900398254;-0.2306499183177948;-1.1492048705927825e-41;0.239437535405159;-0.19011695683002472;0.015546546317636967;-0.155345156788826;-0.4590490162372589;0.28701239824295044;-0.08950480073690414
26;0.5997075438499451;0.8252834677696228;0.6258281469345093;0.35845181345939636;-0.1623929888010025;0.797059953212738;0.4448535442352295;0.8723769783973694;-0.2538498342037201;-1.1492048705927825e-41;0.1958952099084854;-0.20194114744663239;-0.02127336710691452;-0.15902471542358398;-0.4479656219482422;0.2775355279445648;-0.11571302264928818
27;0.611151397228241;0.8345426917076111;0.6373217701911926;0.36964017152786255;-0.1944543719291687;0.8049764037132263;0.4571288526058197;0.8828964233398438;-0.27406519651412964;-1.1492048705927825e-41;0.15435823798179626;-0.22518964111804962;-0.031235400587320328;-0.18406334519386292;-0.4602936804294586;0.2714967429637909;-0.1296715885400772
28;0.6200478672981262;0.8409674763679504;0.6458442211151123;0.37659719586372375;-0.21456429362297058;0.8095289468765259;0.4617520868778229;0.8886215090751648;-0.2860528230667114;-1.1492048705927825e-41;0.12473220378160477;-0.22513747215270996;-0.05492202565073967;-0.20062002539634705;-0.4683719873428345;0.27032312750816345;-0.14549945294857025
29;0.6269897222518921;0.8453519940376282;0.6524049043655396;0.3816271126270294;-0.2285948395729065;0.811958909034729;0.4635743796825409;0.8922512531280518;-0.29363781213760376;-1.1492048705927825e-41;0.09974128007888794;-0.233941450715065;-0.07447395473718643;-0.20433951914310455;-0.47344449162483215;0.2797551453113556;-0.15710684657096863
30;0.646458625793457;0.8624579906463623;0.6715250015258789;0.37697282433509827;-0.2157289683818817;0.7966258525848389;0.45369476079940796;0.908525824546814;-0.28234532475471497;-1.1492048705927825e-41;0.08290687948465347;-0.22472010552883148;-0.07635661214590073;-0.19059082865715027;-0.48795443773269653;0.2621764838695526;-0.14875473082065582
31;0.6743428707122803;0.8880687952041626;0.6990630030632019;0.36739611625671387;-0.18853995203971863;0.7721119523048401;0.4372049570083618;0.9332412481307983;-0.26105526089668274;-1.1492048705927825e-41;0.07187918573617935;-0.20337842404842377;-0.05995483323931694;-0.17278562486171722;-0.5095435380935669;0.22441436350345612;-0.12433386594057083
32;0.6841685175895691;0.8952601552009583;0.7084620594978333;0.3718617558479309;-0.18725533783435822;0.7716116905212402;0.43930989503860474;0.9395639300346375;-0.25585177540779114;-1.1492048705927825e-41;0.061332885175943375;-0.19405630230903625;-0.058243006467819214;-0.1692786067724228;-0.5090808868408203;0.21238921582698822;-0.1166500374674797
33;0.6903406977653503;0.8987730741500854;0.7141967415809631;0.3759753108024597;-0.18856897950172424;0.7725091576576233;0.4403512179851532;0.9422702789306641;-0.25234729051589966;-1.1492048705927825e-41;0.04939527064561844;-0.19145630300045013;-0.06418069452047348;-0.17059427499771118;-0.5013360977172852;0.20931681990623474;-0.11797982454299927
34;0.704708456993103;0.9112117290496826;0.7284445762634277;0.3511410057544708;-0.18623921275138855;0.7899429202079773;0.4168981611728668;0.9533323645591736;-0.24754950404167175;-1.1492048705927825e-41;0.040450382977724075;-0.1865103542804718;-0.06418995559215546;-0.16917848587036133;-0.46745195984840393;0.24720153212547302;-0.10194580256938934
35;0.7228209376335144;0.9265213012695312;0.7459405660629272;0.31861063838005066;-0.18786445260047913;0.8104877471923828;0.3889724612236023;0.9681689739227295;-0.2463444322347641;-1.1492048705927825e-41;0.02677835151553154;-0.1813332885503769;-0.049240726977586746;-0.15761712193489075;-0.44778725504875183;0.2908136248588562;-0.08910895884037018
36;0.7406418919563293;0.9418628215789795;0.7633966207504272;0.3128350079059601;-0.19148732721805573;0.8265997767448425;0.3548935055732727;0.9827319979667664;-0.24634814262390137;-1.1492048705927825e-41;0.011829450726509094;-0.187015563249588;-0.06089116260409355;-0.16618788242340088;-0.43207770586013794;0.29528000950813293;-0.09600163996219635
37;0.7517896294593811;0.9500815868377686;0.7739794254302979;0.3304549753665924;-0.191389262676239;0.8356537818908691;0.3367410898208618;0.990272581577301;-0.24214862287044525;-1.1492048705927825e-41;0.0028411310631781816;-0.16491693258285522;-0.06595069915056229;-0.16885969042778015;-0.4237205386161804;0.2912828028202057;-0.09971340000629425
38;0.7608845829963684;0.9566163420677185;0.7826997637748718;0.3454439640045166;-0.19113117456436157;0.842826783657074;0.3217393755912781;0.9960567951202393;-0.2381277233362198;-1.1492048705927825e-41;-0.002834758721292019;-0.15885862708091736;-0.06679830700159073;-0.16598016023635864;-0.41639572381973267;0.2897660434246063;-0.08213760703802109
39;0.7677741050720215;0.9607908129692078;0.7891979813575745;0.35103586316108704;-0.1987176090478897;0.8458024859428406;0.32497796416282654;0.9995290637016296;-0.242202028632164;-1.1492048705927825e-41;-0.019414963200688362;-0.1607242077589035;-0.0785728245973587;-0.16513411700725555;-0.41981130838394165;0.27959132194519043;-0.08504129946231842
40;0.7728169560432434;0.9631340503692627;0.7938639521598816;0.35800406336784363;-0.196299746632576;0.8476554751396179;0.3325464725494385;1.0011751651763916;-0.23842933773994446;-1.1492048705927825e-41;-0.03201485797762871;-0.15836988389492035;-0.07611081749200821;-0.1651880145072937;-0.41381797194480896;0.2729538381099701;-0.08346199989318848
41;0.7773011922836304;0.9648403525352478;0.7979586124420166;0.3618517220020294;-0.19561533629894257;0.8481630086898804;0.3338994085788727;1.0020785331726074;-0.23496007919311523;-1.1492048705927825e-41;-0.04296070709824562;-0.15438590943813324;-0.07522379606962204;-0.16597217321395874;-0.4104651212692261;0.26710087060928345;-0.08237970620393753
42;0.7821980118751526;0.9670364856719971;0.8024850487709045;0.3684684932231903;-0.198915496468544;0.8497759103775024;0.34129491448402405;1.0036343336105347;-0.2294224500656128;-1.1492048705927825e-41;-0.05521875619888306;-0.15608172118663788;-0.08185475319623947;-0.16948935389518738;-0.4070098400115967;0.26309603452682495;-0.08555007725954056
43;0.7874516844749451;0.9695490002632141;0.807361900806427;0.37315633893013;-0.2023889720439911;0.8511950969696045;0.3443771302700043;1.005462884902954;-0.22949865460395813;-1.1492048705927825e-41;-0.06925137341022491;-0.15789823234081268;-0.09045951068401337;-0.1746305674314499;-0.40644845366477966;0.2557632029056549;-0.08920231461524963
44;0.7905550599098206;0.9698005318641663;0.8100911974906921;0.37841302156448364;-0.1579328328371048;0.8515838384628296;0.3491007089614868;1.0050193071365356;-0.23204219341278076;-1.1492048705927825e-41;-0.08117808401584625;-0.16136561334133148;-0.09959041327238083;-0.17485900223255157;-0.39988255500793457;0.24315552413463593;-0.04381781816482544
45;0.7936675548553467;0.9701734781265259;0.8128163814544678;0.38150903582572937;-0.13272561132907867;0.8510532975196838;0.34942394495010376;1.0045040845870972;-0.22895140945911407;-1.1492048705927825e-41;-0.08669658750295639;-0.15869782865047455;-0.10258974879980087;-0.17315565049648285;-0.39422544836997986;0.24032576382160187;-0.023651208728551865
46;0.8001684546470642;0.9740322232246399;0.8190280795097351;0.39419057965278625;-0.13326120376586914;0.8549972176551819;0.3274116516113281;1.0075985193252563;-0.21758656203746796;-1.1492048705927825e-41;-0.09201569110155106;-0.15920916199684143;-0.10901690274477005;-0.17560774087905884;-0.383705198764801;0.2500690221786499;-0.013910754583775997
47;0.8062813878059387;0.9774749279022217;0.8248173594474792;0.40513983368873596;-0.13318227231502533;0.858455240726471;0.3151814341545105;1.0103296041488647;-0.2155044823884964;-1.1492048705927825e-41;-0.09480121731758118;-0.15689204633235931;-0.10483364760875702;-0.17563411593437195;-0.3782401382923126;0.2583945393562317;-0.014495784416794777
48;0.81074059009552;0.9792125225067139;0.8289088010787964;0.41084110736846924;-0.1326882243156433;0.859821081161499;0.32012906670570374;1.0113965272903442;-0.21232251822948456;-1.1492048705927825e-41;-0.09745518863201141;-0.1558232307434082;-0.10805168002843857;-0.17179010808467865;-0.3711729645729065;0.25083985924720764;-0.01508240308612585
49;0.8143020272254944;0.9800425171852112;0.8321017026901245;0.41541025042533875;-0.13198088109493256;0.8600562214851379;0.3237362802028656;1.0115351676940918;-0.20943066477775574;-1.1492048705927825e-41;-0.1001475602388382;-0.15387345850467682;-0.1111535131931305;-0.17149338126182556;-0.36735159158706665;0.24869732558727264;-0.015673086047172546
50;0.8171924948692322;0.9805454015731812;0.8346724510192871;0.42252621054649353;-0.127033993601799;0.861232340335846;0.3332231044769287;1.0114742517471313;-0.18867474794387817;-1.1492048705927825e-41;-0.10277020931243896;-0.14784188568592072;-0.09828317910432816;-0.16756272315979004;-0.3683188557624817;0.24666497111320496;-0.012637666426599026
51;0.8205357789993286;0.9811611771583557;0.8376474380493164;0.42758700251579285;-0.12357248365879059;0.8613948822021484;0.33753642439842224;1.011378288269043;-0.18262121081352234;-1.1492048705927825e-41;-0.10650680214166641;-0.13830068707466125;-0.0971137210726738;-0.1621152013540268;-0.358614444732666;0.24605108797550201;-0.010258533991873264
52;0.8263133764266968;0.9842435121536255;0.8430637121200562;0.4297720491886139;-0.1214333176612854;0.8645551204681396;0.3398834466934204;1.0140115022659302;-0.17971810698509216;-1.1492048705927825e-41;-0.11140509694814682;-0.13707098364830017;-0.09961894899606705;-0.16367004811763763;-0.35372692346572876;0.24828368425369263;-0.01218557357788086
53;0.8379005193710327;0.9931342005729675;0.8542979955673218;0.41682031750679016;-0.12869881093502045;0.8739082217216492;0.3283713459968567;1.0222420692443848;-0.18525637686252594;-1.1492048705927825e-41;-0.12152077257633209;-0.14430512487888336;-0.1104147806763649;-0.17293494939804077;-0.35476285219192505;0.24658644199371338;-0.020469820126891136
54;0.8465971350669861;0.9991998672485352;0.8626273274421692;0.40656161308288574;-0.13442909717559814;0.8797171711921692;0.3178887665271759;1.0274583101272583;-0.18990479409694672;-1.1492048705927825e-41;-0.129221573472023;-0.14870350062847137;-0.11845235526561737;-0.17497675120830536;-0.35249707102775574;0.25248295068740845;-0.02650887332856655
55;0.8522946834564209;1.002217173576355;0.8679637312889099;0.3987315893173218;-0.1313224881887436;0.8827333450317383;0.310926616191864;1.0296977758407593;-0.18548710644245148;-1.1492048705927825e-41;-0.1319192498922348;-0.14412054419517517;-0.11784837394952774;-0.1672888696193695;-0.34515753388404846;0.257183313369751;-0.02468884550035
56;0.8574300408363342;1.004665732383728;0.8727326989173889;0.3918773829936981;-0.127363383769989;0.8850682377815247;0.3030945956707001;1.03136146068573;-0.18003904819488525;-1.1492048705927825e-41;-0.13304342329502106;-0.1365944743156433;-0.11593493819236755;-0.16383640468120575;-0.3359432816505432;0.2623811960220337;-0.01952112838625908
57;0.8616319894790649;1.0062450170516968;0.876586377620697;0.3902558982372284;-0.12607336044311523;0.8867701292037964;0.30123379826545715;1.0328558683395386;-0.17692150175571442;-1.1492048705927825e-41;-0.13569781184196472;-0.13425980508327484;-0.11646980792284012;-0.15899816155433655;-0.3318289816379547;0.26067185401916504;-0.012528862804174423
58;0.864163339138031;1.0064347982406616;0.8788089752197266;0.39428022503852844;-0.1264972686767578;0.8866934776306152;0.3045802116394043;1.0334527492523193;-0.17561697959899902;-1.1492048705927825e-41;-0.1369660347700119;-0.13354597985744476;-0.11825484037399292;-0.1596846729516983;-0.32769712805747986;0.2578018307685852;-0.013306640088558197
59;0.8666221499443054;1.0063103437423706;0.8809258341789246;0.3988405168056488;-0.1268978714942932;0.8863047361373901;0.30859649181365967;1.0338274240493774;-0.17421185970306396;-1.1492048705927825e-41;-0.13643823564052582;-0.13365179300308228;-0.11976516991853714;-0.161179319024086;-0.3195316195487976;0.25444576144218445;-0.015087221749126911
60;0.8699228763580322;1.007026195526123;0.8838812708854675;0.404541939496994;-0.12728513777256012;0.8868488669395447;0.3009432554244995;1.0339620113372803;-0.1731257140636444;-1.1492048705927825e-41;-0.13925166428089142;-0.1279400736093521;-0.12115493416786194;-0.1613617092370987;-0.3151603639125824;0.24916666746139526;-0.016004232689738274
61;0.8741898536682129;1.008784532546997;0.8878201246261597;0.4126865267753601;-0.1279820203781128;0.8888771533966064;0.29226821660995483;1.0351054668426514;-0.17236730456352234;-1.1492048705927825e-41;-0.1426391303539276;-0.12722928822040558;-0.123761847615242;-0.16281208395957947;-0.3138526678085327;0.24178308248519897;-0.017906224355101585
62;0.8763633966445923;1.0083898305892944;0.889654278755188;0.41667941212654114;-0.12679153680801392;0.888115406036377;0.28808239102363586;1.0340306758880615;-0.16988272964954376;-1.1492048705927825e-41;-0.14322450757026672;-0.12573251128196716;-0.12445618212223053;-0.1606900990009308;-0.30879658460617065;0.24095658957958221;-0.018150923773646355
63;0.877948522567749;1.0074654817581177;0.8909100890159607;0.4213111102581024;-0.12448336184024811;0.8870769143104553;0.29258421063423157;1.0324897766113281;-0.16638058423995972;-1.1492048705927825e-41;-0.14153020083904266;-0.12334218621253967;-0.12389542907476425;-0.1592835783958435;-0.30350038409233093;0.2449961006641388;-0.016731183975934982
64;0.879227876663208;1.006237268447876;0.8918607831001282;0.42518362402915955;-0.12216407805681229;0.8855670094490051;0.2956809997558594;1.0306226015090942;-0.16279368102550507;-1.1492048705927825e-41;-0.13986800611019135;-0.11742264777421951;-0.12218539416790009;-0.15721726417541504;-0.29671064019203186;0.251657098531723;-0.015958745032548904
65;0.8824627995491028;1.0071158409118652;0.8947953581809998;0.43202826380729675;-0.1274040788412094;0.886831521987915;0.3048548400402069;1.031031847000122;-0.16641183197498322;-1.1492048705927825e-41;-0.13919346034526825;-0.12228818237781525;-0.12676961719989777;-0.1630060225725174;-0.29035070538520813;0.24166551232337952;-0.01475190743803978
66;0.8854244351387024;1.0076792240142822;0.8974438905715942;0.43767794966697693;-0.13091768324375153;0.8875550031661987;0.31129398941993713;1.0310540199279785;-0.1685674637556076;-1.1492048705927825e-41;-0.1372578889131546;-0.12564653158187866;-0.13126836717128754;-0.15579967200756073;-0.28173214197158813;0.2330068200826645;-0.01906687207520008
67;0.897528886795044;1.01749587059021;0.9092432856559753;0.43032824993133545;-0.13689368963241577;0.8772455453872681;0.30399924516677856;1.0402470827102661;-0.17372964322566986;-1.1492048705927825e-41;-0.14106617867946625;-0.1314348578453064;-0.1380758434534073;-0.1625947207212448;-0.28362035751342773;0.23496907949447632;-0.0259903185069561
68;0.920749843120575;1.0385774374008179;0.9321612119674683;0.4059435725212097;-0.15137377381324768;0.8556837439537048;0.2812443673610687;1.0605775117874146;-0.1877920925617218;-1.1492048705927825e-41;-0.15533731877803802;-0.14220817387104034;-0.12794898450374603;-0.16563384234905243;-0.2807418704032898;0.2505759596824646;-0.033496689051389694
69;0.9401758909225464;1.0557762384414673;0.9512936472892761;0.3867039382457733;-0.1601279377937317;0.8380581140518188;0.2622963786125183;1.0770666599273682;-0.19628280401229858;-1.1492048705927825e-41;-0.16562071442604065;-0.1522047519683838;-0.13962408900260925;-0.17696891725063324;-0.2670693099498749;0.269492506980896;-0.044676899909973145
70;0.9438781142234802;1.05717933177948;0.954692542552948;0.39365842938423157;-0.15804030001163483;0.8366028070449829;0.266701877117157;1.0779190063476562;-0.18937811255455017;-1.1492048705927825e-41;-0.15389493107795715;-0.14816850423812866;-0.12995047867298126;-0.17528940737247467;-0.2636496126651764;0.26811808347702026;-0.044168196618556976
71;0.9460857510566711;1.0570653676986694;0.9565964937210083;0.3977254629135132;-0.15497440099716187;0.8364831209182739;0.2700316905975342;1.0772203207015991;-0.18558332324028015;-1.1492048705927825e-41;-0.1451708972454071;-0.14491692185401917;-0.12748555839061737;-0.1696944385766983;-0.2603878378868103;0.2646082639694214;-0.04250828176736832
72;0.9476596117019653;1.056356430053711;0.9578745365142822;0.4022653102874756;-0.15210558474063873;0.8362616896629333;0.27455100417137146;1.075960636138916;-0.18210263550281525;-1.1492048705927825e-41;-0.13764043152332306;-0.13462050259113312;-0.12376794964075089;-0.16677998006343842;-0.25656330585479736;0.2608506679534912;-0.041969817131757736
73;0.9492099285125732;1.0556635856628418;0.959136426448822;0.4070468544960022;-0.14921550452709198;0.8362919688224792;0.2793026864528656;1.0747240781784058;-0.17843127250671387;-1.1492048705927825e-41;-0.13465511798858643;-0.13163164258003235;-0.12131112068891525;-0.16457001864910126;-0.25374889373779297;0.25724905729293823;-0.035605303943157196
74;0.9500072598457336;1.0542289018630981;0.9596492648124695;0.41182100772857666;-0.1459781676530838;0.8356357216835022;0.28422316908836365;1.0727695226669312;-0.17465685307979584;-1.1492048705927825e-41;-0.13182830810546875;-0.1281351000070572;-0.1172872856259346;-0.161745086312294;-0.24858514964580536;0.26095929741859436;-0.033980194479227066
75;0.9533400535583496;1.055590271949768;0.962805986404419;0.4228760600090027;-0.1419164538383484;0.8393428921699524;0.27732375264167786;1.0737003087997437;-0.16950780153274536;-1.1492048705927825e-41;-0.13209208846092224;-0.12603460252285004;-0.11202386021614075;-0.16020245850086212;-0.2432612180709839;0.2561313807964325;-0.03330788016319275
76;0.9566563367843628;1.0567020177841187;0.9657854437828064;0.43231457471847534;-0.1383030116558075;0.8422585129737854;0.2717081904411316;1.0742921829223633;-0.16482919454574585;-1.1492048705927825e-41;-0.1327824592590332;-0.12215296179056168;-0.10871096700429916;-0.1569993793964386;-0.23694869875907898;0.2530140280723572;-0.032192010432481766
77;0.9589905738830566;1.0569965839385986;0.9679512977600098;0.44007182121276855;-0.13578952848911285;0.8438366055488586;0.2692655920982361;1.0740338563919067;-0.1607256382703781;-1.1492048705927825e-41;-0.13237251341342926;-0.116810142993927;-0.10331189632415771;-0.15248778462409973;-0.23149728775024414;0.253508061170578;-0.025075262412428856
78;0.9602553248405457;1.0562430620193481;0.9689648747444153;0.44449424743652344;-0.1324160248041153;0.8437409996986389;0.27317506074905396;1.0727100372314453;-0.15636786818504333;-1.1492048705927825e-41;-0.12951306998729706;-0.1126188114285469;-0.09919598698616028;-0.14829309284687042;-0.22611010074615479;0.2524245083332062;-0.02237631194293499
79;0.9612730741500854;1.0551475286483765;0.9697068929672241;0.448508083820343;-0.12953393161296844;0.8433996438980103;0.27717724442481995;1.0711379051208496;-0.1453128457069397;-1.1492048705927825e-41;-0.12672382593154907;-0.10947830229997635;-0.09669458121061325;-0.14530563354492188;-0.22239984571933746;0.24972935020923615;-0.01923028565943241
80;0.9616721272468567;1.0534614324569702;0.9698513746261597;0.4512064456939697;-0.12621639668941498;0.8422183990478516;0.2788202166557312;1.0689488649368286;-0.1412910521030426;-1.1492048705927825e-41;-0.12376978248357773;-0.10637633502483368;-0.09440393000841141;-0.1422603875398636;-0.21735748648643494;0.25091317296028137;-0.016800828278064728
81;0.9620538949966431;1.0518078804016113;0.9699847102165222;0.4538869261741638;-0.12375310808420181;0.8411593437194824;0.28075674176216125;1.0667954683303833;-0.1381661742925644;-1.1492048705927825e-41;-0.12149360775947571;-0.10434424132108688;-0.09308132529258728;-0.1391196846961975;-0.21194007992744446;0.24878691136837006;-0.01597408391535282
82;0.9622550010681152;1.0499933958053589;0.9699321985244751;0.45693477988243103;-0.12160129845142365;0.8400457501411438;0.28348156809806824;1.0644965171813965;-0.13349349796772003;-1.1492048705927825e-41;-0.11963196843862534;-0.10221600532531738;-0.0916031077504158;-0.13515803217887878;-0.20781418681144714;0.24940240383148193;-0.015543198212981224
83;0.9623510241508484;1.0481058359146118;0.9697636961936951;0.46105101704597473;-0.11829099804162979;0.8390436768531799;0.2882041335105896;1.0621522665023804;-0.1296902596950531;-1.1492048705927825e-41;-0.11709193885326385;-0.0986684039235115;-0.08888497203588486;-0.13174588978290558;-0.2038460373878479;0.2555371820926666;-0.012233155779540539
84;0.9635905623435974;1.0474525690078735;0.9707034826278687;0.4673428237438202;-0.11261460185050964;0.8397318124771118;0.29687944054603577;1.0611066818237305;-0.12416528165340424;-1.1492048705927825e-41;-0.11441955715417862;-0.09339021146297455;-0.08439230918884277;-0.12640182673931122;-0.20215730369091034;0.25438493490219116;-0.0080101378262043
85;0.9647890329360962;1.0467677116394043;0.971736490726471;0.4731374680995941;-0.10757360607385635;0.8402562737464905;0.30450439453125;1.0600247383117676;-0.11755625158548355;-1.1492048705927825e-41;-0.11209385097026825;-0.08956017345190048;-0.07996826618909836;-0.1232684999704361;-0.19678904116153717;0.25331223011016846;-0.004319550935178995
86;0.9683222770690918;1.048406720161438;0.975386381149292;0.48716121912002563;-0.09863808751106262;0.8446685075759888;0.3005301356315613;1.0616250038146973;-0.10934317857027054;-1.1492048705927825e-41;-0.10847976803779602;-0.07588010281324387;-0.07385163754224777;-0.11646686494350433;-0.1895909160375595;0.2524113655090332;0.0014919671230018139
87;0.9717300534248352;1.0503113269805908;0.9785940051078796;0.4978119432926178;-0.09167908877134323;0.8484711647033691;0.2948920428752899;1.0632246732711792;-0.10301106423139572;-1.1492048705927825e-41;-0.10493165999650955;-0.06794311106204987;-0.06722485274076462;-0.11098271608352661;-0.17732632160186768;0.2557026147842407;0.006940088234841824
88;0.9751711487770081;1.0522708892822266;0.981837272644043;0.507530152797699;-0.08518066257238388;0.8522512316703796;0.2915767431259155;1.0646048784255981;-0.09561613947153091;-1.1492048705927825e-41;-0.101486437022686;-0.06307826191186905;-0.0629139170050621;-0.10691908001899719;-0.1735423505306244;0.256352037191391;0.010530293919146061
89;0.9772269129753113;1.0525363683700562;0.983663022518158;0.5128644108772278;-0.08305058628320694;0.8536236882209778;0.2971728444099426;1.0644830465316772;-0.09341434389352798;-1.1492048705927825e-41;-0.10024916380643845;-0.06143602356314659;-0.06177474185824394;-0.10561463236808777;-0.1711656004190445;0.2536224126815796;0.010981104336678982
90;0.9787133932113647;1.0522822141647339;0.984923779964447;0.5182629227638245;-0.08201678842306137;0.8547112941741943;0.3042745590209961;1.0638917684555054;-0.092156320810318;-1.1492048705927825e-41;-0.0997842326760292;-0.061275552958250046;-0.06175893172621727;-0.10489163547754288;-0.17023202776908875;0.24891920387744904;0.010191377252340317
91;0.9796382784843445;1.051465630531311;0.9856264591217041;0.5223912596702576;-0.08099447190761566;0.8548023700714111;0.3092843294143677;1.0626702308654785;-0.08992847800254822;-1.1492048705927825e-41;-0.09852228313684464;-0.05649881064891815;-0.056118957698345184;-0.09894681721925735;-0.16570106148719788;0.2468697875738144;0.013822446577250957
92;0.9801724553108215;1.0502699613571167;0.9859427213668823;0.5255217552185059;-0.07900053262710571;0.8543805480003357;0.31258493661880493;1.0610705614089966;-0.08755384385585785;-1.1492048705927825e-41;-0.09610596299171448;-0.054556045681238174;-0.05425494536757469;-0.09560555219650269;-0.16127359867095947;0.24654069542884827;0.014667525887489319
93;0.9800773859024048;1.0484691858291626;0.9856310486793518;0.5286720991134644;-0.07667898386716843;0.8534178733825684;0.3162710964679718;1.058882474899292;-0.08502030372619629;-1.1492048705927825e-41;-0.09380373358726501;-0.0521974079310894;-0.05212888494133949;-0.09291654825210571;-0.15667538344860077;0.25185009837150574;0.016890663653612137
94;0.9804691672325134;1.0472179651260376;0.9858162999153137;0.5323933959007263;-0.07392589747905731;0.8531115055084229;0.3213544487953186;1.0572552680969238;-0.0823463425040245;-1.1492048705927825e-41;-0.08533930033445358;-0.049768347293138504;-0.04900773987174034;-0.09006481617689133;-0.14929457008838654;0.2495691478252411;0.01857028715312481
95;0.981010377407074;1.0461262464523315;0.986151397228241;0.5358017683029175;-0.070866160094738;0.8528850674629211;0.325642466545105;1.0557973384857178;-0.07831630110740662;-1.1492048705927825e-41;-0.07730919122695923;-0.04730157554149628;-0.04656405374407768;-0.08728969097137451;-0.14422763884067535;0.2468131184577942;0.02041301690042019
96;0.982526421546936;1.046067714691162;0.9874680042266846;0.5418281555175781;-0.06730282306671143;0.8543276190757751;0.32576024532318115;1.0553942918777466;-0.07305058091878891;-1.1492048705927825e-41;-0.07048691809177399;-0.04462302103638649;-0.04477226361632347;-0.08542396873235703;-0.14223213493824005;0.2407287210226059;0.02135578729212284
97;0.9844306707382202;1.046402931213379;0.9891745448112488;0.5477789044380188;-0.06489748507738113;0.8560498356819153;0.32303446531295776;1.0553779602050781;-0.06962523609399796;-1.1492048705927825e-41;-0.06742428243160248;-0.042968541383743286;-0.043233223259449005;-0.08361116051673889;-0.1392533779144287;0.23720990121364594;0.022006377577781677
98;0.9853298664093018;1.045750617980957;0.9898790121078491;0.5520506501197815;-0.0632268637418747;0.8564987778663635;0.3204442858695984;1.054355502128601;-0.06651165336370468;-1.1492048705927825e-41;-0.06547678261995316;-0.040432143956422806;-0.041632506996393204;-0.0814037099480629;-0.13615603744983673;0.2367907464504242;0.02241017296910286
99;0.9858021140098572;1.044715404510498;0.9901618957519531;0.5561017990112305;-0.060223281383514404;0.8565921783447266;0.3258858919143677;1.0530083179473877;-0.0634906068444252;-1.1492048705927825e-41;-0.06378908455371857;-0.037724316120147705;-0.03926202654838562;-0.07839597016572952;-0.134602889418602;0.2354174107313156;0.02411508746445179
100;0.9860623478889465;1.0434744358062744;0.9902342557907104;0.5587181448936462;-0.05781735107302666;0.8561227917671204;0.32874199748039246;1.0514267683029175;-0.06109530106186867;-1.1492048705927825e-41;-0.062054309993982315;-0.03574053570628166;-0.0373607873916626;-0.07516005635261536;-0.12888221442699432;0.2346762865781784;0.02543587237596512
batch_number;w0;w1;w2;w3;w4;w5;w6;w7;w8;w9;w10;w11;w12;w13;w14;w15;w16
1;-0.30912265181541443;-0.04875670000910759;-0.27627280354499817;-0.37570586800575256;0.1954544186592102;-0.0014362242072820663;-0.13455063104629517;0.024328436702489853;-0.0856902077794075;-0.24321748316287994;0.5780323147773743;-0.09656313061714172;0.495408296585083;0.14328381419181824;-0.4752969443798065;0.0915171355009079;0.09885293990373611
2;-0.18029607832431793;0.0797891616821289;-0.14748120307922363;-0.24680709838867188;0.14476025104522705;0.1270582675933838;-0.1566917598247528;0.15279503166675568;-0.1100660040974617;-0.11924947798252106;0.5189486742019653;0.032034263014793396;0.6233596205711365;0.2716211676597595;-0.34035682678222656;0.24475449323654175;0.2272384911775589
3;-0.10294735431671143;0.156497061252594;-0.07018233835697174;-0.16935737431049347;0.3887937068939209;0.20393700897693634;0.10903989523649216;0.2292548567056656;0.11145412921905518;-0.058514680713415146;0.7713533639907837;0.11190078407526016;0.6902238130569458;0.33908239006996155;-0.2820838391780853;0.31494349241256714;0.2947748303413391
batch_number;w0;w1;w2;w3;w4;w5;w6;w7;w8;w9;w10;w11;w12;w13;w14;w15;w16
1;-0.30912265181541443;-0.04875670000910759;-0.27627280354499817;-0.37570586800575256;0.1954544186592102;-0.0014362242072820663;-0.13455063104629517;0.024328436702489853;-0.0856902077794075;-0.24321748316287994;0.5780323147773743;-0.09656313061714172;0.495408296585083;0.14328381419181824;-0.4752969443798065;0.0915171355009079;0.09885293990373611
4;-0.020595533773303032;0.2381950318813324;0.012099593877792358;-0.08686517179012299;0.3388615846633911;0.2856343984603882;0.09577478468418121;0.31096118688583374;0.07014287263154984;-0.022177308797836304;0.7193006277084351;0.12568317353725433;0.6980266571044922;0.3714420199394226;-0.1791389137506485;0.4024362862110138;0.3122907876968384
batch_number;w0;w1;w2;w3;w4;w5;w6;w7;w8;w9;w10;w11;w12;w13;w14;w15;w16
1;-0.2940003275871277;-0.03357511758804321;-0.2611377239227295;-0.3685859739780426;0.28282979130744934;0.002673055976629257;-0.0535459890961647;0.03952502831816673;0.0008972898358479142;-0.24321748316287994;0.6699602007865906;-0.08923577517271042;0.5011189579963684;0.0878925696015358;-0.4684452414512634;0.08373527973890305;0.10490177571773529
2;-0.18029607832431793;0.0797891616821289;-0.14748120307922363;-0.24680709838867188;0.14476025104522705;0.1270582675933838;-0.1566917598247528;0.15279503166675568;-0.1100660040974617;-0.11924947798252106;0.5189486742019653;0.032034263014793396;0.6233596205711365;0.2716211676597595;-0.34035682678222656;0.24475449323654175;0.2272384911775589
5;0.0482599213719368;0.30633631348609924;0.08087624609470367;-0.017850885167717934;0.40668660402297974;0.35374853014945984;0.19942604005336761;0.3788638710975647;0.132074773311615;-0.006940072868019342;0.785818874835968;0.1511145979166031;0.7314519882202148;0.3963329493999481;-0.14008915424346924;0.44480758905410767;0.3397482633590698
2;-0.10862766951322556;0.15171486139297485;-0.07577819377183914;-0.18586662411689758;0.4447828531265259;0.18407930433750153;0.07854937016963959;0.22476738691329956;0.1645624190568924;-0.11924947798252106;0.8417240381240845;0.07359909266233444;0.6595615744590759;0.19672535359859467;-0.3187037706375122;0.1977144181728363;0.26360639929771423
3;-0.10294735431671143;0.156497061252594;-0.07018233835697174;-0.16935737431049347;0.3887937068939209;0.20393700897693634;0.10903989523649216;0.2292548567056656;0.11145412921905518;-0.058514680713415146;0.7713533639907837;0.11190078407526016;0.6902238130569458;0.33908239006996155;-0.2820838391780853;0.31494349241256714;0.2947748303413391
6;0.09914017468690872;0.35651588439941406;0.13165825605392456;0.03322850540280342;0.47272762656211853;0.4037058353424072;0.2608969509601593;0.4288255274295807;0.19787584245204926;-0.0015036753611639142;0.8506479263305664;0.21166835725307465;0.7894639372825623;0.45430782437324524;-0.10866018384695053;0.4777795076370239;0.40191027522087097
3;0.018350014463067055;0.27873605489730835;0.05121184140443802;-0.07819496095180511;0.5577208995819092;0.31476858258247375;0.2017277479171753;0.3515534996986389;0.2778915762901306;-0.058514680713415146;0.9536443948745728;0.13124045729637146;0.7712997198104858;0.2927820682525635;-0.21331413090229034;0.3089408874511719;0.3767813742160797
4;-0.020595533773303032;0.2381950318813324;0.012099593877792358;-0.08686517179012299;0.3388615846633911;0.2856343984603882;0.09577478468418121;0.31096118688583374;0.07014287263154984;-0.022177308797836304;0.7193006277084351;0.12568317353725433;0.6980266571044922;0.3714420199394226;-0.1791389137506485;0.4024362862110138;0.3122907876968384
7;0.16551469266414642;0.4221465289592743;0.19793063402175903;0.09980916231870651;0.4676174819469452;0.4691208302974701;0.30788835883140564;0.49415719509124756;0.19408512115478516;-0.00024872759240679443;0.8431229591369629;0.18899613618850708;0.7658588290214539;0.44125765562057495;-0.08346176147460938;0.5236688256263733;0.4031356871128082
4;0.13394542038440704;0.39372795820236206;0.16679032146930695;0.017086053267121315;0.6548229455947876;0.4334840774536133;0.31307825446128845;0.4667346179485321;0.273742139339447;-0.022177308797836304;1.0501079559326172;0.23012234270572662;0.86404949426651;0.3847922086715698;-0.10416305065155029;0.4112265110015869;0.4754441976547241
5;0.0482599213719368;0.30633631348609924;0.08087624609470367;-0.017850885167717934;0.40668660402297974;0.35374853014945984;0.19942604005336761;0.3788638710975647;0.132074773311615;-0.006940072868019342;0.785818874835968;0.1511145979166031;0.7314519882202148;0.3963329493999481;-0.14008915424346924;0.44480758905410767;0.3397482633590698
8;0.2631906270980835;0.5180234909057617;0.29539355635643005;0.19791671633720398;0.3591318130493164;0.5647861361503601;0.4290409982204437;0.5892976522445679;0.09388134628534317;-1.2110529496567324e-05;0.7310865521430969;0.08679301291704178;0.6205242872238159;0.3219316899776459;-0.0796351507306099;0.5688223838806152;0.25612398982048035
5;0.22515302896499634;0.48444220423698425;0.25794273614883423;0.10216423124074936;0.7028967142105103;0.5253180861473083;0.362956166267395;0.5573838949203491;0.32124069333076477;-0.006940072868019342;1.109159231185913;0.2805282175540924;0.9132140278816223;0.4396277070045471;-0.06867671012878418;0.45509061217308044;0.5290145874023438
6;0.09914017468690872;0.35651588439941406;0.13165825605392456;0.03322850540280342;0.47272762656211853;0.4037058353424072;0.2608969509601593;0.4288255274295807;0.19787584245204926;-0.0015036753611639142;0.8506479263305664;0.21166835725307465;0.7894639372825623;0.45430782437324524;-0.10866018384695053;0.4777795076370239;0.40191027522087097
9;0.3130017817020416;0.5663531422615051;0.34503084421157837;0.24807985126972198;0.3457503020763397;0.612953782081604;0.4891832768917084;0.6372830867767334;0.09361927956342697;-9.317710691902903e-07;0.7150753736495972;0.053090862929821014;0.5670948028564453;0.2783359885215759;-0.07169422507286072;0.6286037564277649;0.2200459986925125
6;0.2937755882740021;0.5524096488952637;0.3264676332473755;0.17022214829921722;0.7298471927642822;0.5926189422607422;0.4165491461753845;0.6253008842468262;0.356006920337677;-0.0015036753611639142;1.140282392501831;0.31485655903816223;0.9295750856399536;0.47217196226119995;-0.015031617134809494;0.4853542149066925;0.4570613503456116
7;0.16551469266414642;0.4221465289592743;0.19793063402175903;0.09980916231870651;0.4676174819469452;0.4691208302974701;0.30788835883140564;0.49415719509124756;0.19408512115478516;-0.00024872759240679443;0.8431229591369629;0.18899613618850708;0.7658588290214539;0.44125765562057495;-0.08346176147460938;0.5236688256263733;0.4031356871128082
10;0.34434381127357483;0.5958558917045593;0.3761521577835083;0.2798672616481781;0.3338296711444855;0.6422163248062134;0.5001805424690247;0.666359007358551;0.10459145903587341;-4.8626027648879244e-08;0.7847258448600769;0.05491815507411957;0.5886816382408142;0.29644739627838135;-0.07696051150560379;0.6347683668136597;0.22779396176338196
7;0.34545132517814636;0.6032519936561584;0.3780246675014496;0.22210988402366638;0.7442340850830078;0.6430178880691528;0.4650425314903259;0.6760207414627075;0.380397766828537;-0.00024872759240679443;1.1533238887786865;0.34690502285957336;0.9346816539764404;0.5030884146690369;-0.007253017742186785;0.5185077786445618;0.44598761200904846
8;0.2631906270980835;0.5180234909057617;0.29539355635643005;0.19791671633720398;0.3591318130493164;0.5647861361503601;0.4290409982204437;0.5892976522445679;0.09388134628534317;-1.2110529496567324e-05;0.7310865521430969;0.08679301291704178;0.6205242872238159;0.3219316899776459;-0.0796351507306099;0.5688223838806152;0.25612398982048035
11;0.3712707459926605;0.620830774307251;0.40282511711120605;0.307307630777359;0.33500468730926514;0.6667492985725403;0.5278818607330322;0.6906226873397827;0.11532467603683472;-1.6260363056019855e-09;0.8470998406410217;0.025834491476416588;0.5645747184753418;0.26835641264915466;-0.07125122100114822;0.6373404860496521;0.20389686524868011
8;0.3905426263809204;0.6473468542098999;0.4229835569858551;0.26802873611450195;0.7151569724082947;0.6867613196372986;0.5112617611885071;0.7199079990386963;0.368928462266922;-3.06208421534393e-05;1.108636736869812;0.3348792791366577;0.903174102306366;0.49673327803611755;-0.0016601659590378404;0.5332300662994385;0.44031453132629395
9;0.3130017817020416;0.5663531422615051;0.34503084421157837;0.24807985126972198;0.3457503020763397;0.612953782081604;0.4891832768917084;0.6372830867767334;0.09361927956342697;-9.317710691902903e-07;0.7150753736495972;0.053090862929821014;0.5670948028564453;0.2783359885215759;-0.07169422507286072;0.6286037564277649;0.2200459986925125
12;0.39264142513275146;0.639988124370575;0.4238679111003876;0.32923653721809387;0.38156506419181824;0.6855148077011108;0.5617262125015259;0.7091286778450012;0.14495106041431427;-3.237400972300186e-11;0.8988730311393738;0.09665711969137192;0.5948053002357483;0.31805819272994995;-0.05459117144346237;0.664414644241333;0.2512163519859314
9;0.43044865131378174;0.6861119866371155;0.46273836493492126;0.3089504539966583;0.6713151335716248;0.7250760197639465;0.5533049702644348;0.7584258317947388;0.35417062044143677;-2.715734808589332e-06;1.0542182922363281;0.31555840373039246;0.8499348759651184;0.4742657542228699;0.0006169865373522043;0.5596252083778381;0.4242846667766571
10;0.34434381127357483;0.5958558917045593;0.3761521577835083;0.2798672616481781;0.3338296711444855;0.6422163248062134;0.5001805424690247;0.666359007358551;0.10459145903587341;-4.8626027648879244e-08;0.7847258448600769;0.05491815507411957;0.5886816382408142;0.29644739627838135;-0.07696051150560379;0.6347683668136597;0.22779396176338196
13;0.4366803467273712;0.6823217868804932;0.4676944613456726;0.37372079491615295;0.3276224136352539;0.7274832725524902;0.6165106296539307;0.7510958313941956;0.10828658938407898;-3.478912579020499e-13;0.8599804043769836;0.10003329813480377;0.5804187655448914;0.2977868914604187;-0.0072343964129686356;0.6569439768791199;0.23214542865753174
10;0.4647270739078522;0.7190678119659424;0.49682191014289856;0.3447941243648529;0.6788783669471741;0.7579789161682129;0.5769442319869995;0.7910588979721069;0.3646160662174225;-1.6654145440497814e-07;1.0486018657684326;0.3405032455921173;0.8039750456809998;0.4685179591178894;0.011250149458646774;0.5795236229896545;0.4467087984085083
11;0.3712707459926605;0.620830774307251;0.40282511711120605;0.307307630777359;0.33500468730926514;0.6667492985725403;0.5278818607330322;0.6906226873397827;0.11532467603683472;-1.6260363056019855e-09;0.8470998406410217;0.025834491476416588;0.5645747184753418;0.26835641264915466;-0.07125122100114822;0.6373404860496521;0.20389686524868011
14;0.4666745960712433;0.7101297378540039;0.4974132776260376;0.40426546335220337;0.332604318857193;0.7549047470092773;0.6511585712432861;0.7783244848251343;0.12813501060009003;-1.7560058140512818e-15;0.8573905229568481;0.08749410510063171;0.5590112209320068;0.29290521144866943;0.009794285520911217;0.690126359462738;0.2325633019208908
11;0.4942663609981537;0.7470731139183044;0.5261562466621399;0.37572869658470154;0.6848300099372864;0.7860593795776367;0.5878530740737915;0.81867516040802;0.38554638624191284;-6.706107669174344e-09;1.062922477722168;0.36283349990844727;0.7994241714477539;0.4903362989425659;0.03309420496225357;0.5830127596855164;0.4694529175758362
12;0.39264142513275146;0.639988124370575;0.4238679111003876;0.32923653721809387;0.38156506419181824;0.6855148077011108;0.5617262125015259;0.7091286778450012;0.14495106041431427;-3.237400972300186e-11;0.8988730311393738;0.09665711969137192;0.5948053002357483;0.31805819272994995;-0.05459117144346237;0.664414644241333;0.2512163519859314
15;0.4879748821258545;0.7289528250694275;0.5183972120285034;0.4262048602104187;0.3834511935710907;0.7732270956039429;0.6696387529373169;0.7966241836547852;0.17120416462421417;-3.348494328039426e-18;0.8302591443061829;0.1537221521139145;0.5655893087387085;0.32707759737968445;0.06894657015800476;0.6539232730865479;0.270402193069458
12;0.5219794511795044;0.773058295249939;0.5536178946495056;0.4046594798564911;0.6815845370292664;0.8118831515312195;0.5999341607093811;0.8442004323005676;0.3909308612346649;-1.659675175069708e-10;1.0707521438598633;0.36362990736961365;0.7831318378448486;0.4826643466949463;0.05395674332976341;0.5872828960418701;0.4676239788532257
13;0.4366803467273712;0.6823217868804932;0.4676944613456726;0.37372079491615295;0.3276224136352539;0.7274832725524902;0.6165106296539307;0.7510958313941956;0.10828658938407898;-3.478912579020499e-13;0.8599804043769836;0.10003329813480377;0.5804187655448914;0.2977868914604187;-0.0072343964129686356;0.6569439768791199;0.23214542865753174
16;0.5179125070571899;0.7558143138885498;0.5479475259780884;0.45692580938339233;0.40397921204566956;0.7875604629516602;0.7004101872444153;0.8226882815361023;0.20118704438209534;-1.5805861454562194e-21;0.8147420883178711;0.1819976568222046;0.5624176263809204;0.3426365256309509;0.09761404991149902;0.6217570304870605;0.284394770860672
13;0.5648930668830872;0.8144079446792603;0.5963387489318848;0.4512946605682373;0.5766992568969727;0.8534901142120361;0.6575609445571899;0.8850963115692139;0.3220524489879608;-2.3143338374193023e-12;0.9899719953536987;0.2820916175842285;0.703081488609314;0.4218592047691345;0.06072340905666351;0.563709557056427;0.3930845260620117
14;0.4666745960712433;0.7101297378540039;0.4974132776260376;0.40426546335220337;0.332604318857193;0.7549047470092773;0.6511585712432861;0.7783244848251343;0.12813501060009003;-1.7560058140512818e-15;0.8573905229568481;0.08749410510063171;0.5590112209320068;0.29290521144866943;0.009794285520911217;0.690126359462738;0.2325633019208908
17;0.5488872528076172;0.7840608358383179;0.5780460834503174;0.48859643936157227;0.40282511711120605;0.8253552913665771;0.7343984842300415;0.8501445651054382;0.20488788187503815;-1.2790640021060062e-25;0.8032068014144897;0.16716209053993225;0.5300100445747375;0.33107978105545044;0.1040457934141159;0.6480530500411987;0.2762237787246704
14;0.5975205898284912;0.8451225757598877;0.6287268996238708;0.4854198396205902;0.49535682797431946;0.8837783336639404;0.695477306842804;0.9152856469154358;0.2692826986312866;-1.613021273895541e-14;0.9221073389053345;0.22957377135753632;0.631186842918396;0.37247270345687866;0.048099711537361145;0.5512152910232544;0.33868643641471863
15;0.4879748821258545;0.7289528250694275;0.5183972120285034;0.4262048602104187;0.3834511935710907;0.7732270956039429;0.6696387529373169;0.7966241836547852;0.17120416462421417;-3.348494328039426e-18;0.8302591443061829;0.1537221521139145;0.5655893087387085;0.32707759737968445;0.06894657015800476;0.6539232730865479;0.270402193069458
18;0.5727245807647705;0.8045220375061035;0.6013849973678589;0.5132893323898315;0.352015882730484;0.8453422784805298;0.7574028968811035;0.8696393966674805;0.16750188171863556;-6.978170809984124e-31;0.7589176893234253;0.13347551226615906;0.4916309416294098;0.2928200960159302;0.09985821694135666;0.6342911124229431;0.2311856895685196
15;0.5537675619125366;0.7997634410858154;0.5871471166610718;0.42386728525161743;0.30654528737068176;0.8435961008071899;0.6019724607467651;0.8697676062583923;0.08628130704164505;-4.698418304781209e-17;0.7764183282852173;0.0796983614563942;0.483243852853775;0.17366009950637817;-0.12921741604804993;0.5118445158004761;0.1843099445104599
16;0.5179125070571899;0.7558143138885498;0.5479475259780884;0.45692580938339233;0.40397921204566956;0.7875604629516602;0.7004101872444153;0.8226882815361023;0.20118704438209534;-1.5805861454562194e-21;0.8147420883178711;0.1819976568222046;0.5624176263809204;0.3426365256309509;0.09761404991149902;0.6217570304870605;0.284394770860672
19;0.5883417129516602;0.8162462115287781;0.6165211796760559;0.5299001336097717;0.3236551284790039;0.8562819957733154;0.7668063640594482;0.8802586793899536;0.14350305497646332;6.927072841053692e-35;0.7389286160469055;0.10961159318685532;0.46535298228263855;0.277639240026474;0.10227495431900024;0.624762773513794;0.21511180698871613
16;0.49592024087905884;0.7410025000572205;0.5322912335395813;0.3403492867946625;0.11790347099304199;0.7510523200035095;0.4724225401878357;0.8110242486000061;-0.09423479437828064;-9.048579773271001e-20;0.642306923866272;-0.11035910993814468;0.3043892979621887;0.0339009054005146;-0.3109888434410095;0.43974360823631287;0.012402240186929703
17;0.5488872528076172;0.7840608358383179;0.5780460834503174;0.48859643936157227;0.40282511711120605;0.8253552913665771;0.7343984842300415;0.8501445651054382;0.20488788187503815;-1.2790640021060062e-25;0.8032068014144897;0.16716209053993225;0.5300100445747375;0.33107978105545044;0.1040457934141159;0.6480530500411987;0.2762237787246704
20;0.6050488948822021;0.8286818265914917;0.6326894760131836;0.5476894378662109;0.300927996635437;0.8678092360496521;0.7881836891174316;0.891530454158783;0.15236543118953705;7.575209303370312e-40;0.6860738396644592;0.10716976225376129;0.4240652322769165;0.24678944051265717;0.09230639040470123;0.6416123509407043;0.1923684924840927
17;0.46697697043418884;0.7111342549324036;0.49660366773605347;0.2906617820262909;-0.013640751130878925;0.6938832998275757;0.3858107030391693;0.7809784412384033;-0.21597197651863098;-3.980625575447607e-23;0.5492569208145142;-0.252450168132782;0.16463321447372437;-0.08230959624052048;-0.4113582670688629;0.3248215615749359;-0.11394275724887848
18;0.5727245807647705;0.8045220375061035;0.6013849973678589;0.5132893323898315;0.352015882730484;0.8453422784805298;0.7574028968811035;0.8696393966674805;0.16750188171863556;-6.978170809984124e-31;0.7589176893234253;0.13347551226615906;0.4916309416294098;0.2928200960159302;0.09985821694135666;0.6342911124229431;0.2311856895685196
21;0.6193849444389343;0.8382823467254639;0.6464182734489441;0.5632240772247314;0.2945655286312103;0.8764404654502869;0.7835702300071716;0.8997607827186584;0.15815456211566925;-1.1492048705927825e-41;0.6439120769500732;0.10779062658548355;0.3890455365180969;0.23262181878089905;0.11286980658769608;0.642836332321167;0.181148499250412
18;0.4714803993701935;0.7138163447380066;0.5007706880569458;0.29428955912590027;-0.03537712246179581;0.6939961910247803;0.3936237692832947;0.7832058668136597;-0.2334344983100891;8.16518799966368e-28;0.5166507959365845;-0.27210572361946106;0.13916531205177307;-0.10480441898107529;-0.4382428526878357;0.2934838533401489;-0.13750071823596954
19;0.5883417129516602;0.8162462115287781;0.6165211796760559;0.5299001336097717;0.3236551284790039;0.8562819957733154;0.7668063640594482;0.8802586793899536;0.14350305497646332;6.927072841053692e-35;0.7389286160469055;0.10961159318685532;0.46535298228263855;0.277639240026474;0.10227495431900024;0.624762773513794;0.21511180698871613
22;0.6401136517524719;0.8551973104476929;0.6667904853820801;0.5872277617454529;0.29678425192832947;0.8924875259399414;0.8057377338409424;0.9154690504074097;0.1869145780801773;-1.1492048705927825e-41;0.6004615426063538;0.13713699579238892;0.38295578956604004;0.2541121542453766;0.11519284546375275;0.6651737093925476;0.20810671150684357
19;0.4784429967403412;0.7187806963920593;0.5074025392532349;0.2994830310344696;-0.04876972362399101;0.6962130665779114;0.39829832315444946;0.7876864075660706;-0.24585488438606262;-9.08802159801161e-33;0.4883285462856293;-0.28381258249282837;0.11112038046121597;-0.11991249024868011;-0.4318641424179077;0.2889968156814575;-0.15148769319057465
20;0.6050488948822021;0.8286818265914917;0.6326894760131836;0.5476894378662109;0.300927996635437;0.8678092360496521;0.7881836891174316;0.891530454158783;0.15236543118953705;7.575209303370312e-40;0.6860738396644592;0.10716976225376129;0.4240652322769165;0.24678944051265717;0.09230639040470123;0.6416123509407043;0.1923684924840927
23;0.661496102809906;0.8713827133178711;0.6875314116477966;0.6096189022064209;0.2602709233760834;0.9077349901199341;0.8183438181877136;0.9298802614212036;0.1697477251291275;-1.1492048705927825e-41;0.5574470162391663;0.16008545458316803;0.34716251492500305;0.23246042430400848;0.12930646538734436;0.6319307684898376;0.1932174563407898
20;0.491989403963089;0.7305174469947815;0.520820677280426;0.29413729906082153;-0.0434994176030159;0.7077121138572693;0.38806992769241333;0.7987469434738159;-0.1960098147392273;-3.247869044518402e-37;0.4540756940841675;-0.2152816653251648;0.13917885720729828;-0.11879822611808777;-0.4522184133529663;0.3161679208278656;-0.1268300861120224
21;0.6193849444389343;0.8382823467254639;0.6464182734489441;0.5632240772247314;0.2945655286312103;0.8764404654502869;0.7835702300071716;0.8997607827186584;0.15815456211566925;-1.1492048705927825e-41;0.6439120769500732;0.10779062658548355;0.3890455365180969;0.23262181878089905;0.11286980658769608;0.642836332321167;0.181148499250412
24;0.6826537847518921;0.8869633674621582;0.708014190196991;0.6322288513183594;0.23208026587963104;0.922059953212738;0.8300278186798096;0.9439013004302979;0.16079337894916534;-1.1492048705927825e-41;0.5122002959251404;0.16621734201908112;0.30681711435317993;0.2129361927509308;0.12228894233703613;0.6185026168823242;0.1750085949897766
21;0.5139814019203186;0.7508437633514404;0.5428127646446228;0.28830060362815857;-0.01891021430492401;0.727637529373169;0.3686791956424713;0.8182275891304016;-0.17711572349071503;-1.1492048705927825e-41;0.42171305418014526;-0.1901032030582428;0.15031246840953827;-0.0998929962515831;-0.4492385983467102;0.33331671357154846;-0.09607182443141937
22;0.6401136517524719;0.8551973104476929;0.6667904853820801;0.5872277617454529;0.29678425192832947;0.8924875259399414;0.8057377338409424;0.9154690504074097;0.1869145780801773;-1.1492048705927825e-41;0.6004615426063538;0.13713699579238892;0.38295578956604004;0.2541121542453766;0.11519284546375275;0.6651737093925476;0.20810671150684357
25;0.7031862139701843;0.9027446508407593;0.7280879616737366;0.65411776304245;0.21646298468112946;0.9367044568061829;0.8489698767662048;0.9645205140113831;0.1638183742761612;-1.1492048705927825e-41;0.48954492807388306;0.16946983337402344;0.282383531332016;0.20438453555107117;0.11407552659511566;0.6024094820022583;0.20920076966285706
22;0.5311477780342102;0.7656269073486328;0.5592173933982849;0.28436562418937683;-0.007840348407626152;0.7416912317276001;0.35547131299972534;0.8329264521598816;-0.1416308879852295;-1.1492048705927825e-41;0.3929675817489624;-0.18459869921207428;0.1461409032344818;-0.054998211562633514;-0.4206555485725403;0.348606139421463;-0.07722469419240952
23;0.661496102809906;0.8713827133178711;0.6875314116477966;0.6096189022064209;0.2602709233760834;0.9077349901199341;0.8183438181877136;0.9298802614212036;0.1697477251291275;-1.1492048705927825e-41;0.5574470162391663;0.16008545458316803;0.34716251492500305;0.23246042430400848;0.12930646538734436;0.6319307684898376;0.1932174563407898
26;0.719898521900177;0.9125239849090576;0.7439112067222595;0.6725053787231445;0.19176599383354187;0.9452196359634399;0.8589932918548584;0.952637791633606;0.15818297863006592;-1.1492048705927825e-41;0.44770047068595886;0.16837231814861298;0.24523194134235382;0.1897629350423813;0.12382949143648148;0.590012788772583;0.18107499182224274
23;0.5513481497764587;0.783481240272522;0.57907634973526;0.3061428964138031;-0.04941408708691597;0.7586063742637634;0.37267157435417175;0.8505959510803223;-0.17243728041648865;-1.1492048705927825e-41;0.34045517444610596;-0.17363251745700836;0.1009974554181099;-0.08902468532323837;-0.426095187664032;0.32192954421043396;-0.11247764527797699
24;0.6826537847518921;0.8869633674621582;0.708014190196991;0.6322288513183594;0.23208026587963104;0.922059953212738;0.8300278186798096;0.9439013004302979;0.16079337894916534;-1.1492048705927825e-41;0.5122002959251404;0.16621734201908112;0.30681711435317993;0.2129361927509308;0.12228894233703613;0.6185026168823242;0.1750085949897766
27;0.7316548824310303;0.9173277616500854;0.7546126246452332;0.6858205795288086;0.167108416557312;0.9487631320953369;0.8636493682861328;0.956985354423523;0.15050776302814484;-1.1492048705927825e-41;0.4078470766544342;0.16090919077396393;0.224204421043396;0.1732051521539688;0.12785956263542175;0.5746662616729736;0.1698979139328003
24;0.566237211227417;0.7959288358688354;0.5936079025268555;0.3212291896343231;-0.08178447932004929;0.7702659368515015;0.39249834418296814;0.862435519695282;-0.19567933678627014;-1.1492048705927825e-41;0.29660964012145996;-0.15454253554344177;0.06443184614181519;-0.11634004861116409;-0.4375753104686737;0.3071270287036896;-0.13756725192070007
25;0.7031862139701843;0.9027446508407593;0.7280879616737366;0.65411776304245;0.21646298468112946;0.9367044568061829;0.8489698767662048;0.9645205140113831;0.1638183742761612;-1.1492048705927825e-41;0.48954492807388306;0.16946983337402344;0.282383531332016;0.20438453555107117;0.11407552659511566;0.6024094820022583;0.20920076966285706
28;0.7429654002189636;0.9213429093360901;0.7649940848350525;0.6989439129829407;0.14413252472877502;0.9514579176902771;0.867841899394989;0.9587249159812927;0.14227120578289032;-1.1492048705927825e-41;0.3695586621761322;0.15566493570804596;0.1986716091632843;0.16120100021362305;0.13118143379688263;0.5600435137748718;0.15846295654773712
25;0.5869418978691101;0.8148574829101562;0.6136306524276733;0.3460939824581146;-0.12819328904151917;0.7882900834083557;0.43100374937057495;0.8609564900398254;-0.2306499183177948;-1.1492048705927825e-41;0.239437535405159;-0.19011695683002472;0.015546546317636967;-0.155345156788826;-0.4590490162372589;0.28701239824295044;-0.08950480073690414
26;0.719898521900177;0.9125239849090576;0.7439112067222595;0.6725053787231445;0.19176599383354187;0.9452196359634399;0.8589932918548584;0.952637791633606;0.15818297863006592;-1.1492048705927825e-41;0.44770047068595886;0.16837231814861298;0.24523194134235382;0.1897629350423813;0.12382949143648148;0.590012788772583;0.18107499182224274
29;0.7517268061637878;0.9223276972770691;0.7727867364883423;0.7096441388130188;0.12862344086170197;0.9509430527687073;0.868552565574646;0.9574323892593384;0.1378595381975174;-1.1492048705927825e-41;0.33197271823883057;0.14651598036289215;0.17408296465873718;0.15243904292583466;0.13997922837734222;0.5568364262580872;0.14888668060302734
26;0.5997075438499451;0.8252834677696228;0.6258281469345093;0.35845181345939636;-0.1623929888010025;0.797059953212738;0.4448535442352295;0.8723769783973694;-0.2538498342037201;-1.1492048705927825e-41;0.1958952099084854;-0.20194114744663239;-0.02127336710691452;-0.15902471542358398;-0.4479656219482422;0.2775355279445648;-0.11571302264928818
27;0.7316548824310303;0.9173277616500854;0.7546126246452332;0.6858205795288086;0.167108416557312;0.9487631320953369;0.8636493682861328;0.956985354423523;0.15050776302814484;-1.1492048705927825e-41;0.4078470766544342;0.16090919077396393;0.224204421043396;0.1732051521539688;0.12785956263542175;0.5746662616729736;0.1698979139328003
30;0.7565075755119324;0.9206157922744751;0.7767271399497986;0.7156596183776855;0.11851327121257782;0.9479559659957886;0.8689575791358948;0.9537369608879089;0.1283511072397232;-1.1492048705927825e-41;0.29801619052886963;0.1384623795747757;0.15754863619804382;0.14706428349018097;0.14718319475650787;0.5555080771446228;0.14112810790538788
27;0.611151397228241;0.8345426917076111;0.6373217701911926;0.36964017152786255;-0.1944543719291687;0.8049764037132263;0.4571288526058197;0.8828964233398438;-0.27406519651412964;-1.1492048705927825e-41;0.15435823798179626;-0.22518964111804962;-0.031235400587320328;-0.18406334519386292;-0.4602936804294586;0.2714967429637909;-0.1296715885400772
28;0.7429654002189636;0.9213429093360901;0.7649940848350525;0.6989439129829407;0.14413252472877502;0.9514579176902771;0.867841899394989;0.9587249159812927;0.14227120578289032;-1.1492048705927825e-41;0.3695586621761322;0.15566493570804596;0.1986716091632843;0.16120100021362305;0.13118143379688263;0.5600435137748718;0.15846295654773712
31;0.7669071555137634;0.9225863814353943;0.7860590815544128;0.727648138999939;0.11145210266113281;0.9483591914176941;0.8643859624862671;0.9532660841941833;0.12195738404989243;-1.1492048705927825e-41;0.26110684871673584;0.13432878255844116;0.141703262925148;0.1379895657300949;0.14636920392513275;0.529935896396637;0.13351094722747803
28;0.6200478672981262;0.8409674763679504;0.6458442211151123;0.37659719586372375;-0.21456429362297058;0.8095289468765259;0.4617520868778229;0.8886215090751648;-0.2860528230667114;-1.1492048705927825e-41;0.12473220378160477;-0.22513747215270996;-0.05492202565073967;-0.20062002539634705;-0.4683719873428345;0.27032312750816345;-0.14549945294857025
29;0.7517268061637878;0.9223276972770691;0.7727867364883423;0.7096441388130188;0.12862344086170197;0.9509430527687073;0.868552565574646;0.9574323892593384;0.1378595381975174;-1.1492048705927825e-41;0.33197271823883057;0.14651598036289215;0.17408296465873718;0.15243904292583466;0.13997922837734222;0.5568364262580872;0.14888668060302734
32;0.7698996663093567;0.9190529584884644;0.7884165644645691;0.7321142554283142;0.10799495130777359;0.9428938627243042;0.8581733107566833;0.9475947022438049;0.12197750806808472;-1.1492048705927825e-41;0.2502594590187073;0.14316411316394806;0.14628249406814575;0.14129887521266937;0.15417659282684326;0.5254152417182922;0.1410178393125534
29;0.6269897222518921;0.8453519940376282;0.6524049043655396;0.3816271126270294;-0.2285948395729065;0.811958909034729;0.4635743796825409;0.8922512531280518;-0.29363781213760376;-1.1492048705927825e-41;0.09974128007888794;-0.233941450715065;-0.07447395473718643;-0.20433951914310455;-0.47344449162483215;0.2797551453113556;-0.15710684657096863
30;0.7565075755119324;0.9206157922744751;0.7767271399497986;0.7156596183776855;0.11851327121257782;0.9479559659957886;0.8689575791358948;0.9537369608879089;0.1283511072397232;-1.1492048705927825e-41;0.29801619052886963;0.1384623795747757;0.15754863619804382;0.14706428349018097;0.14718319475650787;0.5555080771446228;0.14112810790538788
33;0.7764586806297302;0.9161345958709717;0.7938347458839417;0.7410643696784973;0.10318908840417862;0.9381229877471924;0.853089451789856;0.941861629486084;0.11972760409116745;-1.1492048705927825e-41;0.22618474066257477;0.13754825294017792;0.13563497364521027;0.13468961417675018;0.15847106277942657;0.5078525543212891;0.1337636560201645
30;0.646458625793457;0.8624579906463623;0.6715250015258789;0.37697282433509827;-0.2157289683818817;0.7966258525848389;0.45369476079940796;0.908525824546814;-0.28234532475471497;-1.1492048705927825e-41;0.08290687948465347;-0.22472010552883148;-0.07635661214590073;-0.19059082865715027;-0.48795443773269653;0.2621764838695526;-0.14875473082065582
31;0.7669071555137634;0.9225863814353943;0.7860590815544128;0.727648138999939;0.11145210266113281;0.9483591914176941;0.8643859624862671;0.9532660841941833;0.12195738404989243;-1.1492048705927825e-41;0.26110684871673584;0.13432878255844116;0.141703262925148;0.1379895657300949;0.14636920392513275;0.529935896396637;0.13351094722747803
34;0.820838451385498;0.9545387625694275;0.8372684121131897;0.6923390626907349;0.1067139059305191;0.9845638275146484;0.7960819005966187;0.9795055389404297;0.12355897575616837;-1.1492048705927825e-41;0.21371448040008545;0.14531059563159943;0.13662685453891754;0.13837307691574097;0.17897482216358185;0.5586901307106018;0.1476638913154602
31;0.6743428707122803;0.8880687952041626;0.6990630030632019;0.36739611625671387;-0.18853995203971863;0.7721119523048401;0.4372049570083618;0.9332412481307983;-0.26105526089668274;-1.1492048705927825e-41;0.07187918573617935;-0.20337842404842377;-0.05995483323931694;-0.17278562486171722;-0.5095435380935669;0.22441436350345612;-0.12433386594057083
32;0.7698996663093567;0.9190529584884644;0.7884165644645691;0.7321142554283142;0.10799495130777359;0.9428938627243042;0.8581733107566833;0.9475947022438049;0.12197750806808472;-1.1492048705927825e-41;0.2502594590187073;0.14316411316394806;0.14628249406814575;0.14129887521266937;0.15417659282684326;0.5254152417182922;0.1410178393125534
35;0.8554548621177673;0.9814698696136475;0.8711013793945312;0.6719357967376709;0.11003583669662476;1.0068788528442383;0.7636947631835938;1.0045397281646729;0.12627233564853668;-1.1492048705927825e-41;0.19713976979255676;0.14039111137390137;0.13885262608528137;0.13889287412166595;0.18960405886173248;0.5628258585929871;0.14383672177791595
32;0.6841685175895691;0.8952601552009583;0.7084620594978333;0.3718617558479309;-0.18725533783435822;0.7716116905212402;0.43930989503860474;0.9395639300346375;-0.25585177540779114;-1.1492048705927825e-41;0.061332885175943375;-0.19405630230903625;-0.058243006467819214;-0.1692786067724228;-0.5090808868408203;0.21238921582698822;-0.1166500374674797
33;0.7764586806297302;0.9161345958709717;0.7938347458839417;0.7410643696784973;0.10318908840417862;0.9381229877471924;0.853089451789856;0.941861629486084;0.11972760409116745;-1.1492048705927825e-41;0.22618474066257477;0.13754825294017792;0.13563497364521027;0.13468961417675018;0.15847106277942657;0.5078525543212891;0.1337636560201645
36;0.8810874223709106;0.999545693397522;0.8958094120025635;0.6644593477249146;0.1015399768948555;1.023978352546692;0.7385005950927734;1.020861029624939;0.11835747957229614;-1.1492048705927825e-41;0.1788461059331894;0.1317359060049057;0.1297854483127594;0.13072218000888824;0.19169892370700836;0.5625521540641785;0.13604280352592468
33;0.6903406977653503;0.8987730741500854;0.7141967415809631;0.3759753108024597;-0.18856897950172424;0.7725091576576233;0.4403512179851532;0.9422702789306641;-0.25234729051589966;-1.1492048705927825e-41;0.04939527064561844;-0.19145630300045013;-0.06418069452047348;-0.17059427499771118;-0.5013360977172852;0.20931681990623474;-0.11797982454299927
34;0.820838451385498;0.9545387625694275;0.8372684121131897;0.6923390626907349;0.1067139059305191;0.9845638275146484;0.7960819005966187;0.9795055389404297;0.12355897575616837;-1.1492048705927825e-41;0.21371448040008545;0.14531059563159943;0.13662685453891754;0.13837307691574097;0.17897482216358185;0.5586901307106018;0.1476638913154602
37;0.8923451900482178;1.0003128051757812;0.9056165814399719;0.671104907989502;0.10050763934850693;1.0229144096374512;0.7307935953140259;1.0187397003173828;0.11643736064434052;-1.1492048705927825e-41;0.1684093326330185;0.13069120049476624;0.12826840579509735;0.12751804292201996;0.19453656673431396;0.5335909724235535;0.13242381811141968
34;0.704708456993103;0.9112117290496826;0.7284445762634277;0.3511410057544708;-0.18623921275138855;0.7899429202079773;0.4168981611728668;0.9533323645591736;-0.24754950404167175;-1.1492048705927825e-41;0.040450382977724075;-0.1865103542804718;-0.06418995559215546;-0.16917848587036133;-0.46745195984840393;0.24720153212547302;-0.10194580256938934
35;0.8554548621177673;0.9814698696136475;0.8711013793945312;0.6719357967376709;0.11003583669662476;1.0068788528442383;0.7636947631835938;1.0045397281646729;0.12627233564853668;-1.1492048705927825e-41;0.19713976979255676;0.14039111137390137;0.13885262608528137;0.13889287412166595;0.18960405886173248;0.5628258585929871;0.14383672177791595
38;0.8975303769111633;0.9960110187530518;0.909674346446991;0.6743608117103577;0.10126098990440369;1.0170382261276245;0.7211695313453674;1.0117353200912476;0.11699940264225006;-1.1492048705927825e-41;0.16074025630950928;0.1308182328939438;0.12891629338264465;0.12737244367599487;0.18901565670967102;0.518635630607605;0.13126018643379211
35;0.7228209376335144;0.9265213012695312;0.7459405660629272;0.31861063838005066;-0.18786445260047913;0.8104877471923828;0.3889724612236023;0.9681689739227295;-0.2463444322347641;-1.1492048705927825e-41;0.02677835151553154;-0.1813332885503769;-0.049240726977586746;-0.15761712193489075;-0.44778725504875183;0.2908136248588562;-0.08910895884037018
36;0.8810874223709106;0.999545693397522;0.8958094120025635;0.6644593477249146;0.1015399768948555;1.023978352546692;0.7385005950927734;1.020861029624939;0.11835747957229614;-1.1492048705927825e-41;0.1788461059331894;0.1317359060049057;0.1297854483127594;0.13072218000888824;0.19169892370700836;0.5625521540641785;0.13604280352592468
36;0.7406418919563293;0.9418628215789795;0.7633966207504272;0.3128350079059601;-0.19148732721805573;0.8265997767448425;0.3548935055732727;0.9827319979667664;-0.24634814262390137;-1.1492048705927825e-41;0.011829450726509094;-0.187015563249588;-0.06089116260409355;-0.16618788242340088;-0.43207770586013794;0.29528000950813293;-0.09600163996219635
39;0.9065521955490112;0.9965006709098816;0.9175671339035034;0.6833852529525757;0.0965338796377182;1.0158032178878784;0.7203313708305359;1.0093955993652344;0.11255770176649094;-1.1492048705927825e-41;0.14902761578559875;0.12817183136940002;0.1243237555027008;0.1253441721200943;0.18150392174720764;0.4960334002971649;0.12958410382270813
37;0.8923451900482178;1.0003128051757812;0.9056165814399719;0.671104907989502;0.10050763934850693;1.0229144096374512;0.7307935953140259;1.0187397003173828;0.11643736064434052;-1.1492048705927825e-41;0.1684093326330185;0.13069120049476624;0.12826840579509735;0.12751804292201996;0.19453656673431396;0.5335909724235535;0.13242381811141968
37;0.7517896294593811;0.9500815868377686;0.7739794254302979;0.3304549753665924;-0.191389262676239;0.8356537818908691;0.3367410898208618;0.990272581577301;-0.24214862287044525;-1.1492048705927825e-41;0.0028411310631781816;-0.16491693258285522;-0.06595069915056229;-0.16885969042778015;-0.4237205386161804;0.2912828028202057;-0.09971340000629425
40;0.9186096787452698;0.997270941734314;0.9283982515335083;0.696260929107666;0.09282620251178741;1.0147602558135986;0.7014118432998657;1.0071243047714233;0.10715427249670029;-1.1492048705927825e-41;0.1360837072134018;0.12221115827560425;0.11976780742406845;0.11918658763170242;0.173191636800766;0.45963791012763977;0.12429109960794449
38;0.8975303769111633;0.9960110187530518;0.909674346446991;0.6743608117103577;0.10126098990440369;1.0170382261276245;0.7211695313453674;1.0117353200912476;0.11699940264225006;-1.1492048705927825e-41;0.16074025630950928;0.1308182328939438;0.12891629338264465;0.12737244367599487;0.18901565670967102;0.518635630607605;0.13126018643379211
38;0.7608845829963684;0.9566163420677185;0.7826997637748718;0.3454439640045166;-0.19113117456436157;0.842826783657074;0.3217393755912781;0.9960567951202393;-0.2381277233362198;-1.1492048705927825e-41;-0.002834758721292019;-0.15885862708091736;-0.06679830700159073;-0.16598016023635864;-0.41639572381973267;0.2897660434246063;-0.08213760703802109
41;0.9224534034729004;0.9926862120628357;0.931159496307373;0.6990447044372559;0.08843369036912918;1.0089279413223267;0.6950899362564087;1.00040602684021;0.1031489446759224;-1.1492048705927825e-41;0.1290043592453003;0.11866410821676254;0.11752703040838242;0.1154405027627945;0.1688864529132843;0.44651976227760315;0.12081991881132126
39;0.9065521955490112;0.9965006709098816;0.9175671339035034;0.6833852529525757;0.0965338796377182;1.0158032178878784;0.7203313708305359;1.0093955993652344;0.11255770176649094;-1.1492048705927825e-41;0.14902761578559875;0.12817183136940002;0.1243237555027008;0.1253441721200943;0.18150392174720764;0.4960334002971649;0.12958410382270813
39;0.7677741050720215;0.9607908129692078;0.7891979813575745;0.35103586316108704;-0.1987176090478897;0.8458024859428406;0.32497796416282654;0.9995290637016296;-0.242202028632164;-1.1492048705927825e-41;-0.019414963200688362;-0.1607242077589035;-0.0785728245973587;-0.16513411700725555;-0.41981130838394165;0.27959132194519043;-0.08504129946231842
42;0.9269155859947205;0.9892243146896362;0.9347230792045593;0.7062441110610962;0.08528884500265121;1.0042192935943604;0.6946970820426941;0.9951004385948181;0.10050071030855179;-1.1492048705927825e-41;0.11615165323019028;0.11681642383337021;0.1178092211484909;0.11529117077589035;0.1676686555147171;0.4275693893432617;0.11967501044273376
40;0.9186096787452698;0.997270941734314;0.9283982515335083;0.696260929107666;0.09282620251178741;1.0147602558135986;0.7014118432998657;1.0071243047714233;0.10715427249670029;-1.1492048705927825e-41;0.1360837072134018;0.12221115827560425;0.11976780742406845;0.11918658763170242;0.173191636800766;0.45963791012763977;0.12429109960794449
40;0.7728169560432434;0.9631340503692627;0.7938639521598816;0.35800406336784363;-0.196299746632576;0.8476554751396179;0.3325464725494385;1.0011751651763916;-0.23842933773994446;-1.1492048705927825e-41;-0.03201485797762871;-0.15836988389492035;-0.07611081749200821;-0.1651880145072937;-0.41381797194480896;0.2729538381099701;-0.08346199989318848
43;0.9304496049880981;0.9851627349853516;0.9372758865356445;0.7111671566963196;0.08009187877178192;0.9989526867866516;0.6918400526046753;0.9891825914382935;0.09573724120855331;-1.1492048705927825e-41;0.1129966452717781;0.11129981279373169;0.11153405904769897;0.10956820100545883;0.165327250957489;0.4166448414325714;0.11346399784088135
41;0.9224534034729004;0.9926862120628357;0.931159496307373;0.6990447044372559;0.08843369036912918;1.0089279413223267;0.6950899362564087;1.00040602684021;0.1031489446759224;-1.1492048705927825e-41;0.1290043592453003;0.11866410821676254;0.11752703040838242;0.1154405027627945;0.1688864529132843;0.44651976227760315;0.12081991881132126
41;0.7773011922836304;0.9648403525352478;0.7979586124420166;0.3618517220020294;-0.19561533629894257;0.8481630086898804;0.3338994085788727;1.0020785331726074;-0.23496007919311523;-1.1492048705927825e-41;-0.04296070709824562;-0.15438590943813324;-0.07522379606962204;-0.16597217321395874;-0.4104651212692261;0.26710087060928345;-0.08237970620393753
44;0.8722932934761047;0.9612059593200684;0.8853166103363037;0.6585290431976318;0.076393261551857;1.0944786071777344;0.6878258585929871;0.9753797650337219;0.0852079764008522;-1.1492048705927825e-41;0.11374575644731522;0.10520893335342407;0.10232917219400406;0.10167676955461502;0.18349988758563995;0.4240475594997406;0.1039915457367897
42;0.9269155859947205;0.9892243146896362;0.9347230792045593;0.7062441110610962;0.08528884500265121;1.0042192935943604;0.6946970820426941;0.9951004385948181;0.10050071030855179;-1.1492048705927825e-41;0.11615165323019028;0.11681642383337021;0.1178092211484909;0.11529117077589035;0.1676686555147171;0.4275693893432617;0.11967501044273376
42;0.7821980118751526;0.9670364856719971;0.8024850487709045;0.3684684932231903;-0.198915496468544;0.8497759103775024;0.34129491448402405;1.0036343336105347;-0.2294224500656128;-1.1492048705927825e-41;-0.05521875619888306;-0.15608172118663788;-0.08185475319623947;-0.16948935389518738;-0.4070098400115967;0.26309603452682495;-0.08555007725954056
45;0.8741425275802612;0.9576292037963867;0.8864719867706299;0.661316454410553;0.0874914601445198;1.086562991142273;0.6843084692955017;0.9704380631446838;0.08405381441116333;-1.1492048705927825e-41;0.11328046023845673;0.1065453588962555;0.10377798229455948;0.10381795465946198;0.17917895317077637;0.4163344204425812;0.11307404935359955
43;0.9304496049880981;0.9851627349853516;0.9372758865356445;0.7111671566963196;0.08009187877178192;0.9989526867866516;0.6918400526046753;0.9891825914382935;0.09573724120855331;-1.1492048705927825e-41;0.1129966452717781;0.11129981279373169;0.11153405904769897;0.10956820100545883;0.165327250957489;0.4166448414325714;0.11346399784088135
43;0.7874516844749451;0.9695490002632141;0.807361900806427;0.37315633893013;-0.2023889720439911;0.8511950969696045;0.3443771302700043;1.005462884902954;-0.22949865460395813;-1.1492048705927825e-41;-0.06925137341022491;-0.15789823234081268;-0.09045951068401337;-0.1746305674314499;-0.40644845366477966;0.2557632029056549;-0.08920231461524963
46;0.8822958469390869;0.9604488611221313;0.8938507437705994;0.6772506237030029;0.0898117795586586;1.08378005027771;0.656080424785614;0.9719010591506958;0.0897449180483818;-1.1492048705927825e-41;0.11190029233694077;0.10758983343839645;0.10356370359659195;0.10452096164226532;0.1766383796930313;0.4124027192592621;0.11754656583070755
44;0.8722932934761047;0.9612059593200684;0.8853166103363037;0.6585290431976318;0.076393261551857;1.0944786071777344;0.6878258585929871;0.9753797650337219;0.0852079764008522;-1.1492048705927825e-41;0.11374575644731522;0.10520893335342407;0.10232917219400406;0.10167676955461502;0.18349988758563995;0.4240475594997406;0.1039915457367897
44;0.7905550599098206;0.9698005318641663;0.8100911974906921;0.37841302156448364;-0.1579328328371048;0.8515838384628296;0.3491007089614868;1.0050193071365356;-0.23204219341278076;-1.1492048705927825e-41;-0.08117808401584625;-0.16136561334133148;-0.09959041327238083;-0.17485900223255157;-0.39988255500793457;0.24315552413463593;-0.04381781816482544
47;0.8861461877822876;0.9593517184257507;0.8971319198608398;0.683936357498169;0.09086848795413971;1.0803735256195068;0.6499942541122437;0.9695490002632141;0.09060235321521759;-1.1492048705927825e-41;0.11236976087093353;0.10565990209579468;0.10487828403711319;0.1048240065574646;0.172077015042305;0.41277217864990234;0.11817853152751923
45;0.8741425275802612;0.9576292037963867;0.8864719867706299;0.661316454410553;0.0874914601445198;1.086562991142273;0.6843084692955017;0.9704380631446838;0.08405381441116333;-1.1492048705927825e-41;0.11328046023845673;0.1065453588962555;0.10377798229455948;0.10381795465946198;0.17917895317077637;0.4163344204425812;0.11307404935359955
45;0.7936675548553467;0.9701734781265259;0.8128163814544678;0.38150903582572937;-0.13272561132907867;0.8510532975196838;0.34942394495010376;1.0045040845870972;-0.22895140945911407;-1.1492048705927825e-41;-0.08669658750295639;-0.15869782865047455;-0.10258974879980087;-0.17315565049648285;-0.39422544836997986;0.24032576382160187;-0.023651208728551865
48;0.8882489800453186;0.9566460251808167;0.8986183404922485;0.6879070401191711;0.09373802691698074;1.074634313583374;0.6491736173629761;0.9655570983886719;0.09174597263336182;-1.1492048705927825e-41;0.11245826631784439;0.10649237781763077;0.10700394213199615;0.10700544714927673;0.16814789175987244;0.40654125809669495;0.12178972363471985
46;0.8822958469390869;0.9604488611221313;0.8938507437705994;0.6772506237030029;0.0898117795586586;1.08378005027771;0.656080424785614;0.9719010591506958;0.0897449180483818;-1.1492048705927825e-41;0.11190029233694077;0.10758983343839645;0.10356370359659195;0.10452096164226532;0.1766383796930313;0.4124027192592621;0.11754656583070755
46;0.8001684546470642;0.9740322232246399;0.8190280795097351;0.39419057965278625;-0.13326120376586914;0.8549972176551819;0.3274116516113281;1.0075985193252563;-0.21758656203746796;-1.1492048705927825e-41;-0.09201569110155106;-0.15920916199684143;-0.10901690274477005;-0.17560774087905884;-0.383705198764801;0.2500690221786499;-0.013910754583775997
47;0.8861461877822876;0.9593517184257507;0.8971319198608398;0.683936357498169;0.09086848795413971;1.0803735256195068;0.6499942541122437;0.9695490002632141;0.09060235321521759;-1.1492048705927825e-41;0.11236976087093353;0.10565990209579468;0.10487828403711319;0.1048240065574646;0.172077015042305;0.41277217864990234;0.11817853152751923
49;0.8900381922721863;0.9539303779602051;0.8998129963874817;0.691308856010437;0.09618376940488815;1.0681606531143188;0.6486913561820984;0.9617120623588562;0.09320388734340668;-1.1492048705927825e-41;0.11438513547182083;0.10759161412715912;0.10731645673513412;0.10778219252824783;0.16413317620754242;0.40139397978782654;0.12289343774318695
47;0.8062813878059387;0.9774749279022217;0.8248173594474792;0.40513983368873596;-0.13318227231502533;0.858455240726471;0.3151814341545105;1.0103296041488647;-0.2155044823884964;-1.1492048705927825e-41;-0.09480121731758118;-0.15689204633235931;-0.10483364760875702;-0.17563411593437195;-0.3782401382923126;0.2583945393562317;-0.014495784416794777
48;0.8882489800453186;0.9566460251808167;0.8986183404922485;0.6879070401191711;0.09373802691698074;1.074634313583374;0.6491736173629761;0.9655570983886719;0.09174597263336182;-1.1492048705927825e-41;0.11245826631784439;0.10649237781763077;0.10700394213199615;0.10700544714927673;0.16814789175987244;0.40654125809669495;0.12178972363471985
50;0.8964046239852905;0.9563998579978943;0.9055947065353394;0.7016525268554688;0.09918427467346191;1.066237449645996;0.6586146354675293;0.9628308415412903;0.10125575214624405;-1.1492048705927825e-41;0.11365200579166412;0.11059452593326569;0.11602326482534409;0.1109703779220581;0.15817174315452576;0.3913750946521759;0.12635573744773865
48;0.81074059009552;0.9792125225067139;0.8289088010787964;0.41084110736846924;-0.1326882243156433;0.859821081161499;0.32012906670570374;1.0113965272903442;-0.21232251822948456;-1.1492048705927825e-41;-0.09745518863201141;-0.1558232307434082;-0.10805168002843857;-0.17179010808467865;-0.3711729645729065;0.25083985924720764;-0.01508240308612585
49;0.8900381922721863;0.9539303779602051;0.8998129963874817;0.691308856010437;0.09618376940488815;1.0681606531143188;0.6486913561820984;0.9617120623588562;0.09320388734340668;-1.1492048705927825e-41;0.11438513547182083;0.10759161412715912;0.10731645673513412;0.10778219252824783;0.16413317620754242;0.40139397978782654;0.12289343774318695
51;0.8993141055107117;0.9548439979553223;0.9079067707061768;0.7055844664573669;0.09940822422504425;1.0617791414260864;0.6584806442260742;0.9602895975112915;0.09866389632225037;-1.1492048705927825e-41;0.1114540696144104;0.11059141159057617;0.113615982234478;0.1089099645614624;0.1537211388349533;0.38396379351615906;0.12621261179447174
49;0.8143020272254944;0.9800425171852112;0.8321017026901245;0.41541025042533875;-0.13198088109493256;0.8600562214851379;0.3237362802028656;1.0115351676940918;-0.20943066477775574;-1.1492048705927825e-41;-0.1001475602388382;-0.15387345850467682;-0.1111535131931305;-0.17149338126182556;-0.36735159158706665;0.24869732558727264;-0.015673086047172546
50;0.8964046239852905;0.9563998579978943;0.9055947065353394;0.7016525268554688;0.09918427467346191;1.066237449645996;0.6586146354675293;0.9628308415412903;0.10125575214624405;-1.1492048705927825e-41;0.11365200579166412;0.11059452593326569;0.11602326482534409;0.1109703779220581;0.15817174315452576;0.3913750946521759;0.12635573744773865
52;0.9002470374107361;0.9522885680198669;0.9083454608917236;0.7075684666633606;0.09870810061693192;1.0560803413391113;0.6660866141319275;0.9569990634918213;0.09695569425821304;-1.1492048705927825e-41;0.10895519703626633;0.10889232903718948;0.11189552396535873;0.10721545666456223;0.1501646190881729;0.3834637999534607;0.12388097494840622
50;0.8171924948692322;0.9805454015731812;0.8346724510192871;0.42252621054649353;-0.127033993601799;0.861232340335846;0.3332231044769287;1.0114742517471313;-0.18867474794387817;-1.1492048705927825e-41;-0.10277020931243896;-0.14784188568592072;-0.09828317910432816;-0.16756272315979004;-0.3683188557624817;0.24666497111320496;-0.012637666426599026
51;0.8993141055107117;0.9548439979553223;0.9079067707061768;0.7055844664573669;0.09940822422504425;1.0617791414260864;0.6584806442260742;0.9602895975112915;0.09866389632225037;-1.1492048705927825e-41;0.1114540696144104;0.11059141159057617;0.113615982234478;0.1089099645614624;0.1537211388349533;0.38396379351615906;0.12621261179447174
53;0.9035741090774536;0.9520430564880371;0.9111820459365845;0.7120852470397949;0.09604020416736603;1.0519407987594604;0.6680251359939575;0.9559155106544495;0.0950658768415451;-1.1492048705927825e-41;0.10572870075702667;0.10598954558372498;0.10948879271745682;0.10501565784215927;0.1454954892396927;0.37408989667892456;0.12128259986639023
51;0.8205357789993286;0.9811611771583557;0.8376474380493164;0.42758700251579285;-0.12357248365879059;0.8613948822021484;0.33753642439842224;1.011378288269043;-0.18262121081352234;-1.1492048705927825e-41;-0.10650680214166641;-0.13830068707466125;-0.0971137210726738;-0.1621152013540268;-0.358614444732666;0.24605108797550201;-0.010258533991873264
52;0.9002470374107361;0.9522885680198669;0.9083454608917236;0.7075684666633606;0.09870810061693192;1.0560803413391113;0.6660866141319275;0.9569990634918213;0.09695569425821304;-1.1492048705927825e-41;0.10895519703626633;0.10889232903718948;0.11189552396535873;0.10721545666456223;0.1501646190881729;0.3834637999534607;0.12388097494840622
54;0.9047995209693909;0.9498682022094727;0.911949098110199;0.7137066125869751;0.09467320144176483;1.0457091331481934;0.6657480001449585;0.9530738592147827;0.09189766645431519;-1.1492048705927825e-41;0.10447092354297638;0.10381992906332016;0.10678980499505997;0.10340313613414764;0.14368516206741333;0.36749589443206787;0.11848951876163483
52;0.8263133764266968;0.9842435121536255;0.8430637121200562;0.4297720491886139;-0.1214333176612854;0.8645551204681396;0.3398834466934204;1.0140115022659302;-0.17971810698509216;-1.1492048705927825e-41;-0.11140509694814682;-0.13707098364830017;-0.09961894899606705;-0.16367004811763763;-0.35372692346572876;0.24828368425369263;-0.01218557357788086
53;0.9035741090774536;0.9520430564880371;0.9111820459365845;0.7120852470397949;0.09604020416736603;1.0519407987594604;0.6680251359939575;0.9559155106544495;0.0950658768415451;-1.1492048705927825e-41;0.10572870075702667;0.10598954558372498;0.10948879271745682;0.10501565784215927;0.1454954892396927;0.37408989667892456;0.12128259986639023
55;0.922521710395813;0.9643555879592896;0.929277777671814;0.6904961466789246;0.09250372648239136;1.059332013130188;0.6429473161697388;0.9668282866477966;0.08824361860752106;-1.1492048705927825e-41;0.10088063031435013;0.10139701515436172;0.1036834791302681;0.10615412890911102;0.13918490707874298;0.3715933561325073;0.1159496158361435
53;0.8379005193710327;0.9931342005729675;0.8542979955673218;0.41682031750679016;-0.12869881093502045;0.8739082217216492;0.3283713459968567;1.0222420692443848;-0.18525637686252594;-1.1492048705927825e-41;-0.12152077257633209;-0.14430512487888336;-0.1104147806763649;-0.17293494939804077;-0.35476285219192505;0.24658644199371338;-0.020469820126891136
54;0.9047995209693909;0.9498682022094727;0.911949098110199;0.7137066125869751;0.09467320144176483;1.0457091331481934;0.6657480001449585;0.9530738592147827;0.09189766645431519;-1.1492048705927825e-41;0.10447092354297638;0.10381992906332016;0.10678980499505997;0.10340313613414764;0.14368516206741333;0.36749589443206787;0.11848951876163483
56;0.9320040345191956;0.9708604216575623;0.9383886456489563;0.6787455081939697;0.09071721881628036;1.0666087865829468;0.6295040249824524;0.9725366830825806;0.08599432557821274;-1.1492048705927825e-41;0.0988188087940216;0.0993553102016449;0.10101749002933502;0.10307785123586655;0.14105087518692017;0.37704771757125854;0.1153610572218895
54;0.8465971350669861;0.9991998672485352;0.8626273274421692;0.40656161308288574;-0.13442909717559814;0.8797171711921692;0.3178887665271759;1.0274583101272583;-0.18990479409694672;-1.1492048705927825e-41;-0.129221573472023;-0.14870350062847137;-0.11845235526561737;-0.17497675120830536;-0.35249707102775574;0.25248295068740845;-0.02650887332856655
55;0.922521710395813;0.9643555879592896;0.929277777671814;0.6904961466789246;0.09250372648239136;1.059332013130188;0.6429473161697388;0.9668282866477966;0.08824361860752106;-1.1492048705927825e-41;0.10088063031435013;0.10139701515436172;0.1036834791302681;0.10615412890911102;0.13918490707874298;0.3715933561325073;0.1159496158361435
57;0.936964750289917;0.9729714393615723;0.9429787993431091;0.6729685068130493;0.08991403132677078;1.0665758848190308;0.62174391746521;0.9740360975265503;0.08531299233436584;-1.1492048705927825e-41;0.09716834127902985;0.09902623295783997;0.10037510097026825;0.10559934377670288;0.13863307237625122;0.3754899799823761;0.11623276025056839
55;0.8522946834564209;1.002217173576355;0.8679637312889099;0.3987315893173218;-0.1313224881887436;0.8827333450317383;0.310926616191864;1.0296977758407593;-0.18548710644245148;-1.1492048705927825e-41;-0.1319192498922348;-0.14412054419517517;-0.11784837394952774;-0.1672888696193695;-0.34515753388404846;0.257183313369751;-0.02468884550035
56;0.9320040345191956;0.9708604216575623;0.9383886456489563;0.6787455081939697;0.09071721881628036;1.0666087865829468;0.6295040249824524;0.9725366830825806;0.08599432557821274;-1.1492048705927825e-41;0.0988188087940216;0.0993553102016449;0.10101749002933502;0.10307785123586655;0.14105087518692017;0.37704771757125854;0.1153610572218895
58;0.9409198760986328;0.9744174480438232;0.946552038192749;0.6813430786132812;0.08922918140888214;1.0656834840774536;0.6289383769035339;0.9764609932899475;0.08507296442985535;-1.1492048705927825e-41;0.09512149542570114;0.09836699813604355;0.0993444100022316;0.10482068359851837;0.13289768993854523;0.3686620891094208;0.11803249269723892
56;0.8574300408363342;1.004665732383728;0.8727326989173889;0.3918773829936981;-0.127363383769989;0.8850682377815247;0.3030945956707001;1.03136146068573;-0.18003904819488525;-1.1492048705927825e-41;-0.13304342329502106;-0.1365944743156433;-0.11593493819236755;-0.16383640468120575;-0.3359432816505432;0.2623811960220337;-0.01952112838625908
57;0.936964750289917;0.9729714393615723;0.9429787993431091;0.6729685068130493;0.08991403132677078;1.0665758848190308;0.62174391746521;0.9740360975265503;0.08531299233436584;-1.1492048705927825e-41;0.09716834127902985;0.09902623295783997;0.10037510097026825;0.10559934377670288;0.13863307237625122;0.3754899799823761;0.11623276025056839
59;0.9448246955871582;0.9757633805274963;0.9500946402549744;0.6879459619522095;0.08433494716882706;1.0643179416656494;0.6338517665863037;0.9617785811424255;0.08274628967046738;-1.1492048705927825e-41;0.09257134050130844;0.09446773678064346;0.09468715637922287;0.09982830286026001;0.12902086973190308;0.36125287413597107;0.11252611875534058
57;0.8616319894790649;1.0062450170516968;0.876586377620697;0.3902558982372284;-0.12607336044311523;0.8867701292037964;0.30123379826545715;1.0328558683395386;-0.17692150175571442;-1.1492048705927825e-41;-0.13569781184196472;-0.13425980508327484;-0.11646980792284012;-0.15899816155433655;-0.3318289816379547;0.26067185401916504;-0.012528862804174423
58;0.9409198760986328;0.9744174480438232;0.946552038192749;0.6813430786132812;0.08922918140888214;1.0656834840774536;0.6289383769035339;0.9764609932899475;0.08507296442985535;-1.1492048705927825e-41;0.09512149542570114;0.09836699813604355;0.0993444100022316;0.10482068359851837;0.13289768993854523;0.3686620891094208;0.11803249269723892
60;0.9452236890792847;0.9737523794174194;0.9501635432243347;0.6915923953056335;0.08471210300922394;1.0588109493255615;0.6356977820396423;0.9598738551139832;0.08164096623659134;-1.1492048705927825e-41;0.09068328142166138;0.09529412537813187;0.09459652751684189;0.10006803274154663;0.12612973153591156;0.3545362055301666;0.11241675168275833
58;0.864163339138031;1.0064347982406616;0.8788089752197266;0.39428022503852844;-0.1264972686767578;0.8866934776306152;0.3045802116394043;1.0334527492523193;-0.17561697959899902;-1.1492048705927825e-41;-0.1369660347700119;-0.13354597985744476;-0.11825484037399292;-0.1596846729516983;-0.32769712805747986;0.2578018307685852;-0.013306640088558197
59;0.9448246955871582;0.9757633805274963;0.9500946402549744;0.6879459619522095;0.08433494716882706;1.0643179416656494;0.6338517665863037;0.9617785811424255;0.08274628967046738;-1.1492048705927825e-41;0.09257134050130844;0.09446773678064346;0.09468715637922287;0.09982830286026001;0.12902086973190308;0.36125287413597107;0.11252611875534058
61;0.9423319697380066;0.9687336683273315;0.9469417929649353;0.6907337307929993;0.08431820571422577;1.0487407445907593;0.6326919198036194;0.9689589738845825;0.08097317814826965;-1.1492048705927825e-41;0.08944287151098251;0.0941079631447792;0.09293589740991592;0.0990009531378746;0.12325665354728699;0.34798863530158997;0.11016430705785751
59;0.8666221499443054;1.0063103437423706;0.8809258341789246;0.3988405168056488;-0.1268978714942932;0.8863047361373901;0.30859649181365967;1.0338274240493774;-0.17421185970306396;-1.1492048705927825e-41;-0.13643823564052582;-0.13365179300308228;-0.11976516991853714;-0.161179319024086;-0.3195316195487976;0.25444576144218445;-0.015087221749126911
60;0.9452236890792847;0.9737523794174194;0.9501635432243347;0.6915923953056335;0.08471210300922394;1.0588109493255615;0.6356977820396423;0.9598738551139832;0.08164096623659134;-1.1492048705927825e-41;0.09068328142166138;0.09529412537813187;0.09459652751684189;0.10006803274154663;0.12612973153591156;0.3545362055301666;0.11241675168275833
62;0.942175567150116;0.9664645195007324;0.9464807510375977;0.6940842866897583;0.08381827920675278;1.0438603162765503;0.6348248720169067;0.9662641882896423;0.08064261823892593;-1.1492048705927825e-41;0.08822334557771683;0.09316080063581467;0.09125063568353653;0.09887216240167618;0.1186976283788681;0.3458858132362366;0.10833170264959335
60;0.8699228763580322;1.007026195526123;0.8838812708854675;0.404541939496994;-0.12728513777256012;0.8868488669395447;0.3009432554244995;1.0339620113372803;-0.1731257140636444;-1.1492048705927825e-41;-0.13925166428089142;-0.1279400736093521;-0.12115493416786194;-0.1613617092370987;-0.3151603639125824;0.24916666746139526;-0.016004232689738274
61;0.9423319697380066;0.9687336683273315;0.9469417929649353;0.6907337307929993;0.08431820571422577;1.0487407445907593;0.6326919198036194;0.9689589738845825;0.08097317814826965;-1.1492048705927825e-41;0.08944287151098251;0.0941079631447792;0.09293589740991592;0.0990009531378746;0.12325665354728699;0.34798863530158997;0.11016430705785751
63;0.9416766166687012;0.963954746723175;0.9456917643547058;0.6966273784637451;0.08526694029569626;1.0391207933425903;0.6366438865661621;0.9633177518844604;0.08167894929647446;-1.1492048705927825e-41;0.08998861163854599;0.09386539459228516;0.09201845526695251;0.09992402046918869;0.11531807482242584;0.3454883098602295;0.10979895293712616
61;0.8741898536682129;1.008784532546997;0.8878201246261597;0.4126865267753601;-0.1279820203781128;0.8888771533966064;0.29226821660995483;1.0351054668426514;-0.17236730456352234;-1.1492048705927825e-41;-0.1426391303539276;-0.12722928822040558;-0.123761847615242;-0.16281208395957947;-0.3138526678085327;0.24178308248519897;-0.017906224355101585
62;0.942175567150116;0.9664645195007324;0.9464807510375977;0.6940842866897583;0.08381827920675278;1.0438603162765503;0.6348248720169067;0.9662641882896423;0.08064261823892593;-1.1492048705927825e-41;0.08822334557771683;0.09316080063581467;0.09125063568353653;0.09887216240167618;0.1186976283788681;0.3458858132362366;0.10833170264959335
64;0.9408665299415588;0.9612874388694763;0.944574773311615;0.6979542374610901;0.08588772267103195;1.0340235233306885;0.6368849873542786;0.9602552056312561;0.08301138132810593;-1.1492048705927825e-41;0.09126918017864227;0.09522087872028351;0.09229430556297302;0.10045254975557327;0.11419811844825745;0.34568554162979126;0.11029042303562164
62;0.8763633966445923;1.0083898305892944;0.889654278755188;0.41667941212654114;-0.12679153680801392;0.888115406036377;0.28808239102363586;1.0340306758880615;-0.16988272964954376;-1.1492048705927825e-41;-0.14322450757026672;-0.12573251128196716;-0.12445618212223053;-0.1606900990009308;-0.30879658460617065;0.24095658957958221;-0.018150923773646355
63;0.9416766166687012;0.963954746723175;0.9456917643547058;0.6966273784637451;0.08526694029569626;1.0391207933425903;0.6366438865661621;0.9633177518844604;0.08167894929647446;-1.1492048705927825e-41;0.08998861163854599;0.09386539459228516;0.09201845526695251;0.09992402046918869;0.11531807482242584;0.3454883098602295;0.10979895293712616
65;0.9447107911109924;0.9634619355201721;0.9482002258300781;0.7077566981315613;0.08289901912212372;1.0327215194702148;0.6467025279998779;0.9618932008743286;0.0805431380867958;-1.1492048705927825e-41;0.09019067138433456;0.09255810081958771;0.08981063216924667;0.09655346721410751;0.1107679232954979;0.3351302742958069;0.10985328257083893
63;0.877948522567749;1.0074654817581177;0.8909100890159607;0.4213111102581024;-0.12448336184024811;0.8870769143104553;0.29258421063423157;1.0324897766113281;-0.16638058423995972;-1.1492048705927825e-41;-0.14153020083904266;-0.12334218621253967;-0.12389542907476425;-0.1592835783958435;-0.30350038409233093;0.2449961006641388;-0.016731183975934982
64;0.9408665299415588;0.9612874388694763;0.944574773311615;0.6979542374610901;0.08588772267103195;1.0340235233306885;0.6368849873542786;0.9602552056312561;0.08301138132810593;-1.1492048705927825e-41;0.09126918017864227;0.09522087872028351;0.09229430556297302;0.10045254975557327;0.11419811844825745;0.34568554162979126;0.11029042303562164
66;0.9464889168739319;0.9637300968170166;0.9497525095939636;0.713584840297699;0.07881321012973785;1.0305702686309814;0.6523065567016602;0.9620211720466614;0.07694759219884872;-1.1492048705927825e-41;0.09385500848293304;0.08837930858135223;0.08574178069829941;0.09678830951452255;0.11200755834579468;0.3267313539981842;0.10635045170783997
