batch_number;w0;w1;w2;w3;w4;w5;w6;w7;w8;w9;w10;w11;w12;w13;w14;w15;w16
1;-0.1379757821559906;0.15561725199222565;-0.3925607204437256;0.47295987606048584;-0.19290105998516083;0.3853221535682678;0.4096674621105194;0.6641791462898254;0.17451587319374084;0.2927553355693817;-0.15028268098831177;0.05173929035663605;-0.3798774480819702;0.2906143367290497;-0.05645127594470978;0.4025159478187561;0.051686085760593414
2;-0.04402528703212738;0.2489665299654007;-0.29810163378715515;0.5657868385314941;-0.09897127747535706;0.4783155024051666;0.5025578141212463;0.7565935850143433;0.2674104571342468;0.3847191631793976;-0.052085235714912415;0.1448766589164734;-0.2856075167655945;0.3831537365913391;0.046202972531318665;0.5211189985275269;0.14473429322242737
3;-0.012261074036359787;0.27729204297065735;-0.26541098952293396;0.5950804948806763;-0.06930060684680939;0.5079485774040222;0.5320155620574951;0.7853243947029114;0.29558348655700684;0.410807341337204;-0.014787787571549416;0.1730138510465622;-0.25495192408561707;0.4125758707523346;0.08317410945892334;0.5456510782241821;0.17468038201332092
4;0.02161499671638012;0.3087472915649414;-0.2302512675523758;0.6259536147117615;-0.034795597195625305;0.5391596555709839;0.5633326172828674;0.8157188892364502;0.32825884222984314;0.44374537467956543;-0.0025363611057400703;0.20614096522331238;-0.21977652609348297;0.4444965720176697;0.12877081334590912;0.5885249376296997;0.20774045586585999
5;0.04725540056824684;0.3320591151714325;-0.20335173606872559;0.6480326652526855;-0.009661599062383175;0.5618780851364136;0.586269736289978;0.8363751769065857;0.35095787048339844;0.4675004184246063;-0.00036764168180525303;0.22992756962776184;-0.19337794184684753;0.46671244502067566;0.14421966671943665;0.6118277311325073;0.23191894590854645
6;0.030120251700282097;0.31336626410484314;-0.22104507684707642;0.6256811618804932;-0.03029801696538925;0.5416775345802307;0.5646644234657288;0.8145155906677246;0.32889994978904724;0.44355329871177673;-3.752681368496269e-05;0.20953044295310974;-0.20695249736309052;0.449275404214859;0.10436736792325974;0.5767189264297485;0.2021978199481964
7;0.02930246852338314;0.3104803264141083;-0.22037892043590546;0.6206877827644348;-0.03341103717684746;0.5375291705131531;0.5590956807136536;0.8090274930000305;0.32320594787597656;0.4372406601905823;-1.8904490843851818e-06;0.2043883502483368;-0.20787528157234192;0.4431934952735901;0.10058674961328506;0.5848050117492676;0.19537217915058136
8;0.042536281049251556;0.3211820125579834;-0.20545387268066406;0.6290721893310547;-0.022694211453199387;0.5468748807907104;0.5676352381706238;0.8156285285949707;0.3305005729198456;0.4374508857727051;-5.559667926036127e-08;0.21351288259029388;-0.19526921212673187;0.44968053698539734;0.11198484152555466;0.5973357558250427;0.20248821377754211
9;0.055214062333106995;0.3311229646205902;-0.19089393317699432;0.6364891529083252;-0.012313221581280231;0.555289626121521;0.5753090381622314;0.8211691975593567;0.3372659683227539;0.4377795159816742;-8.744980850572404e-10;0.2214946746826172;-0.1830383688211441;0.4557102620601654;0.1259237676858902;0.6095156073570251;0.2091178596019745
10;0.11728598922491074;0.39086204767227173;-0.1273941546678543;0.6943620443344116;-0.05724181607365608;0.6141780018806458;0.6332236528396606;0.8769510984420776;0.29354649782180786;0.4076100289821625;-6.4934758958745675e-12;0.1747387796640396;-0.19849491119384766;0.41960591077804565;0.11506696790456772;0.5718857645988464;0.16132710874080658
11;0.18352852761745453;0.4547295570373535;-0.0596596896648407;0.7562887668609619;-0.11116946488618851;0.677090048789978;0.6952635645866394;0.9369032979011536;0.2338753193616867;0.37436744570732117;-1.8779464135555528e-14;0.11875829845666885;-0.21499742567539215;0.3573155701160431;0.0599726177752018;0.5608060359954834;0.1067628338932991
12;0.2230035662651062;0.49132102727890015;-0.018226750195026398;0.7903112173080444;-0.1383819282054901;0.7121552228927612;0.7295932769775391;0.9689403176307678;0.2002633959054947;0.3580245077610016;-1.490425608226621e-17;0.08584471791982651;-0.24535347521305084;0.3327755331993103;0.03594131022691727;0.5653199553489685;0.07369714975357056
13;0.23628655076026917;0.5012624859809875;-0.002572450088337064;0.7971404194831848;-0.13009653985500336;0.7201268672943115;0.7368587851524353;0.9736300706863403;0.2038968801498413;0.3638732433319092;-1.1189981590704976e-21;0.09175524115562439;-0.23367492854595184;0.3347354233264923;0.02950650453567505;0.5630282759666443;0.07808776944875717
14;0.24797579646110535;0.5094436407089233;0.011649384163320065;0.8020110130310059;-0.12260270118713379;0.7261683940887451;0.7422168254852295;0.9762731194496155;0.20654715597629547;0.3680652379989624;1.2427497455954093e-26;0.09591111540794373;-0.2238600254058838;0.33590126037597656;0.03641708567738533;0.560610830783844;0.08146461844444275
15;0.2597368061542511;0.5175763964653015;0.026030708104372025;0.8066822290420532;-0.11217376589775085;0.7297435998916626;0.7474532723426819;0.9786098599433899;0.21108151972293854;0.3706437945365906;6.5653686972239385e-31;0.10222767293453217;-0.2118094563484192;0.3396707773208618;0.03891860693693161;0.5580207705497742;0.08747443556785583
16;0.2513582706451416;0.5072921514511108;0.019623974338173866;0.794089674949646;-0.12300588935613632;0.7521749138832092;0.7354028224945068;0.9650412797927856;0.1977161467075348;0.3805560767650604;1.4712421001142961e-35;0.09032312035560608;-0.2183866947889328;0.3274713158607483;0.022644415497779846;0.5385754108428955;0.0766482874751091
17;0.2593967616558075;0.5117209553718567;0.030544813722372055;0.7949520945549011;-0.11503452062606812;0.7581092715263367;0.7368214130401611;0.9635668396949768;0.19972337782382965;0.379628449678421;-2.0287578776955404e-40;0.09471538662910461;-0.20845137536525726;0.328366219997406;0.022960077971220016;0.5317647457122803;0.08081625401973724
18;0.2683076858520508;0.5168852210044861;0.04233334958553314;0.7964228391647339;-0.1086067333817482;0.7624531388282776;0.7382100820541382;0.9626485109329224;0.20106251537799835;0.3840274512767792;-1.7624130785813224e-41;0.0975581631064415;-0.1986979842185974;0.3279319703578949;0.022074315696954727;0.5282987952232361;0.08339425176382065
19;0.27742287516593933;0.5221630930900574;0.054411035031080246;0.7979030013084412;-0.1020674929022789;0.766496479511261;0.7396399974822998;0.9616783261299133;0.20248690247535706;0.3882628381252289;-1.7624130785813224e-41;0.1007532849907875;-0.18950381875038147;0.3276693820953369;0.030202051624655724;0.5210230946540833;0.08600866049528122
20;0.2867099344730377;0.5275276899337769;0.06674554944038391;0.7988004684448242;-0.09479323029518127;0.7704105973243713;0.7410932779312134;0.9606369733810425;0.20306968688964844;0.3852568566799164;-1.7624130785813224e-41;0.1057584211230278;-0.17857253551483154;0.3278638422489166;0.03207404166460037;0.521356463432312;0.09054306894540787
21;0.29580098390579224;0.5326143503189087;0.07896623760461807;0.7990948557853699;-0.0876677855849266;0.7738716006278992;0.7422308921813965;0.9591691493988037;0.2047974318265915;0.3777574598789215;-1.7624130785813224e-41;0.1089172512292862;-0.16886980831623077;0.3278331458568573;0.04090160131454468;0.524798572063446;0.0931667611002922
22;0.30439493060112;0.5371288061141968;0.09076835960149765;0.7988598942756653;-0.08125204592943192;0.7765971422195435;0.7429096102714539;0.9569961428642273;0.2064124494791031;0.371429443359375;-1.7624130785813224e-41;0.11217638850212097;-0.15913456678390503;0.32895997166633606;0.04720143601298332;0.5270478129386902;0.09677194058895111
23;0.3127438724040985;0.5413500070571899;0.1023862212896347;0.798931360244751;-0.07407402247190475;0.7788825035095215;0.743748664855957;0.9544206857681274;0.20737524330615997;0.37460508942604065;-1.7624130785813224e-41;0.11608382314443588;-0.14973755180835724;0.3279310464859009;0.05525915324687958;0.5197876691818237;0.09914617240428925
24;0.3206678628921509;0.5450816750526428;0.1136467233300209;0.7984383702278137;-0.06793155521154404;0.7805406451225281;0.7440433502197266;0.9512473940849304;0.20790310204029083;0.37707212567329407;-1.7624130785813224e-41;0.11966153234243393;-0.14082399010658264;0.3266756534576416;0.06072917953133583;0.5165469646453857;0.10106255114078522
25;0.32890498638153076;0.5490915179252625;0.12526893615722656;0.7981812357902527;-0.06035907194018364;0.7823920845985413;0.7445862293243408;0.9482675790786743;0.20984706282615662;0.38068220019340515;-1.7624130785813224e-41;0.12359945476055145;-0.13040579855442047;0.3267243206501007;0.04873848333954811;0.5138188004493713;0.10623341053724289
26;0.33660387992858887;0.5525262951850891;0.13639889657497406;0.7972895503044128;-0.05389466509222984;0.7835381031036377;0.7445085048675537;0.9446364045143127;0.21063320338726044;0.3826632499694824;-1.7624130785813224e-41;0.12653324007987976;-0.12125455588102341;0.3262620270252228;0.051476553082466125;0.5106075406074524;0.10819808393716812
27;0.34442245960235596;0.5560713410377502;0.14767567813396454;0.7964826226234436;-0.04691283777356148;0.7847145795822144;0.7445262670516968;0.9410707354545593;0.2124590426683426;0.3852190375328064;-1.7624130785813224e-41;0.13013826310634613;-0.11043322086334229;0.32607221603393555;0.05171065032482147;0.5029770731925964;0.11215435713529587
28;0.351803183555603;0.559141993522644;0.15855632722377777;0.7951502799987793;-0.04053296148777008;0.7853075265884399;0.7440324425697327;0.936971127986908;0.21318061649799347;0.38724032044410706;-1.7624130785813224e-41;0.13304837048053741;-0.10118323564529419;0.3247467577457428;0.05536821484565735;0.49955034255981445;0.11442293226718903
29;0.3587148189544678;0.5617271065711975;0.16899867355823517;0.7932880520820618;-0.03471001610159874;0.7853068709373474;0.7430213689804077;0.9323410391807556;0.2133447676897049;0.38829168677330017;-1.7624130785813224e-41;0.13496653735637665;-0.09263049066066742;0.3235850930213928;0.06064232438802719;0.49898502230644226;0.11597344279289246
30;0.3680066168308258;0.5667712688446045;0.18178072571754456;0.7931918501853943;-0.023597460240125656;0.787226140499115;0.7439621686935425;0.9302322268486023;0.21930676698684692;0.38604938983917236;-1.7624130785813224e-41;0.14227068424224854;-0.07934815436601639;0.32719850540161133;0.04792947694659233;0.478059858083725;0.12333555519580841
31;0.37894579768180847;0.5735000967979431;0.19619368016719818;0.7943777441978455;-0.009160635992884636;0.7905321717262268;0.7462980151176453;0.9298356771469116;0.22821663320064545;0.38236501812934875;-1.7624130785813224e-41;0.15239441394805908;-0.06371211260557175;0.3337668180465698;0.02557905577123165;0.4457024931907654;0.13299790024757385
32;0.3372672200202942;0.5503373146057129;0.14675720036029816;0.7767449021339417;-0.05236636847257614;0.7660133838653564;0.7270967364311218;0.9269973635673523;0.20203229784965515;0.3655424118041992;-1.7624130785813224e-41;0.09328000247478485;-0.15382933616638184;0.28787073493003845;-0.04265546798706055;0.40654224157333374;0.07364912331104279
33;0.3210735321044922;0.5356322526931763;0.129757359623909;0.7644744515419006;-0.07391028851270676;0.7498199939727783;0.7085515856742859;0.9103059768676758;0.18361245095729828;0.3511190116405487;-1.7624130785813224e-41;0.0763309970498085;-0.17903737723827362;0.2696065902709961;-0.07773663103580475;0.3786393702030182;0.054702166467905045
34;0.3072022497653961;0.5207703113555908;0.11763989925384521;0.7480453848838806;-0.08535318076610565;0.8020473718643188;0.6926462650299072;0.8927984237670898;0.1703769862651825;0.34968239068984985;-1.7624130785813224e-41;0.0640009269118309;-0.19003789126873016;0.2547222077846527;-0.0906415805220604;0.3666187822818756;0.042940594255924225
35;0.3184329867362976;0.5315154194831848;0.09609400480985641;0.7326610088348389;-0.09642964601516724;0.8116967082023621;0.6769170165061951;0.9037157893180847;0.160408154129982;0.34903931617736816;-1.7624130785813224e-41;0.056272074580192566;-0.21685920655727386;0.2495209127664566;-0.1157943457365036;0.34266769886016846;0.035778630524873734
36;0.3170165419578552;0.5308364629745483;0.11985538899898529;0.6983934044837952;-0.12474589794874191;0.8053883910179138;0.6416584849357605;0.9049903750419617;0.1334950476884842;0.33343374729156494;-1.7624130785813224e-41;0.031190570443868637;-0.2489510029554367;0.22412730753421783;-0.15982896089553833;0.3341517448425293;0.009327767416834831
37;0.30948060750961304;0.5233021974563599;0.10965128988027573;0.6904217600822449;-0.13291619718074799;0.7938632965087891;0.6367623805999756;0.8985788226127625;0.12561967968940735;0.3280075490474701;-1.7624130785813224e-41;0.027236279100179672;-0.2528804838657379;0.2177889347076416;-0.1847449541091919;0.3145506680011749;0.003888809820637107
38;0.308608740568161;0.5223506093025208;0.11018731445074081;0.6877220273017883;-0.13487057387828827;0.7895225882530212;0.6345763206481934;0.8962924480438232;0.12215113639831543;0.3182603716850281;-1.7624130785813224e-41;0.025705009698867798;-0.2558894157409668;0.21489746868610382;-0.19403386116027832;0.3027551472187042;0.004751745145767927
39;0.2828461527824402;0.502044677734375;0.08107878267765045;0.6867997050285339;-0.1804252713918686;0.761778712272644;0.6332337856292725;0.8907568454742432;0.08702271431684494;0.25383925437927246;-1.7624130785813224e-41;-0.017907576635479927;-0.29976674914360046;0.22080683708190918;-0.22134093940258026;0.2486145794391632;-0.036346592009067535
40;0.268072247505188;0.4890320599079132;0.0637521967291832;0.6740346550941467;-0.19684289395809174;0.7438366413116455;0.6206561923027039;0.8764248490333557;0.07087405771017075;0.2277268022298813;-1.7624130785813224e-41;-0.03170905262231827;-0.3237014412879944;0.20694127678871155;-0.2616053819656372;0.21626470983028412;-0.04895390570163727
41;0.2627432644367218;0.48523983359336853;0.06283744424581528;0.6688801646232605;-0.1961025595664978;0.7387608289718628;0.6158498525619507;0.8696490526199341;0.06746575981378555;0.21427762508392334;-1.7624130785813224e-41;-0.034310322254896164;-0.32419082522392273;0.20162996649742126;-0.2571682035923004;0.22014768421649933;-0.05358361452817917
42;0.28237730264663696;0.5035099387168884;0.08077151328325272;0.6861563324928284;-0.2212667614221573;0.7550013661384583;0.6338983774185181;0.8859214782714844;0.05368361249566078;0.19096727669239044;-1.7624130785813224e-41;-0.06015001982450485;-0.34869584441185;0.1762206256389618;-0.27551671862602234;0.19989319145679474;-0.07646891474723816
43;0.3136499226093292;0.5325681567192078;0.11265520751476288;0.712590754032135;-0.2476683259010315;0.783487856388092;0.6603227853775024;0.9109424948692322;0.023703737184405327;0.15410807728767395;-1.7624130785813224e-41;-0.08814632147550583;-0.3779568374156952;0.1436687856912613;-0.29667559266090393;0.19200217723846436;-0.10366308689117432
44;0.3243546485900879;0.5409885048866272;0.1256898045539856;0.7182592749595642;-0.24427509307861328;0.790730357170105;0.6663375496864319;0.9150223135948181;0.01804114505648613;0.14410556852817535;-1.7624130785813224e-41;-0.09392861276865005;-0.380961537361145;0.13752064108848572;-0.29071393609046936;0.18446995317935944;-0.09434713423252106
45;0.33054089546203613;0.5448513627052307;0.13375133275985718;0.7193166017532349;-0.2340036779642105;0.7935938239097595;0.667832612991333;0.9144702553749084;0.01843392662703991;0.13922469317913055;-1.7624130785813224e-41;-0.09198150783777237;-0.37598758935928345;0.13898038864135742;-0.2806573510169983;0.19363436102867126;-0.07740572839975357
46;0.34096387028694153;0.5529453158378601;0.1460016965866089;0.7246277332305908;-0.2355380803346634;0.8005969524383545;0.6727039813995361;0.9182239770889282;0.016034172847867012;0.1373709738254547;-1.7624130785813224e-41;-0.09517938643693924;-0.37617480754852295;0.1347159892320633;-0.27160629630088806;0.19401709735393524;-0.061747439205646515
47;0.3478245139122009;0.5574588775634766;0.15475109219551086;0.7263503074645996;-0.2298576533794403;0.804000735282898;0.6741460561752319;0.9183636903762817;0.01867460273206234;0.14600008726119995;-1.7624130785813224e-41;-0.08973658084869385;-0.367782860994339;0.13628984987735748;-0.2684914767742157;0.19986075162887573;-0.05759220942854881
48;0.35475489497184753;0.562049150466919;0.1635870635509491;0.7281674742698669;-0.22381506860256195;0.8074484467506409;0.6763986349105835;0.9186033010482788;0.02181807905435562;0.15511947870254517;-1.7624130785813224e-41;-0.0864788070321083;-0.3613826632499695;0.13925975561141968;-0.25982192158699036;0.19855056703090668;-0.0537046454846859
49;0.3614844083786011;0.5664327144622803;0.17222586274147034;0.7297934293746948;-0.21780908107757568;0.8106603622436523;0.6784862875938416;0.9186508059501648;0.024944830685853958;0.1639033704996109;-1.7624130785813224e-41;-0.08209451287984848;-0.3541722595691681;0.1418927013874054;-0.2553514242172241;0.19836775958538055;-0.04954947531223297
50;0.3676486313343048;0.5704919695854187;0.1800892949104309;0.7314456105232239;-0.20949310064315796;0.8139398097991943;0.6803390979766846;0.9188405275344849;0.034629590809345245;0.15987050533294678;-1.7624130785813224e-41;-0.07604176551103592;-0.3430826663970947;0.1473822295665741;-0.27223217487335205;0.20499876141548157;-0.04376599192619324
51;0.37114858627319336;0.5726330876350403;0.1849326342344284;0.7325524091720581;-0.20315663516521454;0.8144239187240601;0.6791552305221558;0.9186630249023438;0.0377093143761158;0.15933255851268768;-1.7624130785813224e-41;-0.07017726451158524;-0.33906951546669006;0.15016648173332214;-0.2696281671524048;0.1920887976884842;-0.04208522289991379
52;0.37522801756858826;0.5764301419258118;0.1898176074028015;0.7309326529502869;-0.20133459568023682;0.8158570528030396;0.6816733479499817;0.9169719815254211;0.04022655263543129;0.14366810023784637;-1.7624130785813224e-41;-0.06692132353782654;-0.3360031545162201;0.15316560864448547;-0.27585068345069885;0.17619700729846954;-0.039583511650562286
53;0.3754524290561676;0.5744118690490723;0.1917797178030014;0.7280670404434204;-0.19791629910469055;0.8128793835639954;0.6795976161956787;0.9110590219497681;0.04113218933343887;0.1500115543603897;-1.7624130785813224e-41;-0.06595932692289352;-0.33179497718811035;0.15316720306873322;-0.26718273758888245;0.1799919754266739;-0.03886784240603447
54;0.376817911863327;0.5694912672042847;0.19431868195533752;0.7274875640869141;-0.19622716307640076;0.8115671277046204;0.6793310046195984;0.909183144569397;0.054960884153842926;0.15146034955978394;-1.7624130785813224e-41;-0.06361961364746094;-0.3282497823238373;0.143938347697258;-0.26573818922042847;0.17587408423423767;-0.0366099514067173
55;0.37842580676078796;0.5707233548164368;0.1966831088066101;0.7277464270591736;-0.19564227759838104;0.8110353946685791;0.676333487033844;0.907281219959259;0.054693739861249924;0.14577604830265045;-1.7624130785813224e-41;-0.06448373198509216;-0.32752278447151184;0.14628370106220245;-0.2796364426612854;0.16637210547924042;-0.03497256338596344
56;0.3776850700378418;0.5711309909820557;0.19972935318946838;0.7268330454826355;-0.19203273952007294;0.8098763823509216;0.6761945486068726;0.9052900671958923;0.055801212787628174;0.143281951546669;-1.7624130785813224e-41;-0.06295838207006454;-0.32657232880592346;0.14441698789596558;-0.27484750747680664;0.16291888058185577;-0.03478953614830971
57;0.3750866949558258;0.5681344270706177;0.19585008919239044;0.734853208065033;-0.2158074975013733;0.806241512298584;0.6844277381896973;0.9089718461036682;0.03387237340211868;0.15601180493831635;-1.7624130785813224e-41;-0.08465314656496048;-0.35117262601852417;0.12816716730594635;-0.3028040826320648;0.1505666971206665;-0.06484915316104889
58;0.3746159076690674;0.5704516172409058;0.19360853731632233;0.7395603656768799;-0.2690883278846741;0.805087149143219;0.6890172362327576;0.9121662378311157;-0.007010664790868759;0.1428610235452652;-1.7624130785813224e-41;-0.12106867879629135;-0.3921133875846863;0.09248985350131989;-0.3336750864982605;0.10765255242586136;-0.09900625050067902
59;0.3716873228549957;0.5696495175361633;0.18945933878421783;0.7489321231842041;-0.3087538778781891;0.8011269569396973;0.6983364224433899;0.9199627637863159;-0.052437782287597656;0.13896629214286804;-1.7624130785813224e-41;-0.15975406765937805;-0.4428844153881073;0.05259649455547333;-0.39047184586524963;0.05104384571313858;-0.14023253321647644
60;0.3694804608821869;0.5659146904945374;0.1887313574552536;0.7357253432273865;-0.3126612603664398;0.7960957288742065;0.6853445768356323;0.9139377474784851;-0.06033653765916824;0.12805160880088806;-1.7624130785813224e-41;-0.16570526361465454;-0.4490204155445099;0.0419151671230793;-0.44345158338546753;-0.013981175608932972;-0.14875097572803497
61;0.3732546269893646;0.5677316188812256;0.1941966712474823;0.7353707551956177;-0.30914396047592163;0.7969610691070557;0.6853303909301758;0.9120032787322998;-0.05929380655288696;0.12106756865978241;-1.7624130785813224e-41;-0.16281536221504211;-0.4456899166107178;0.04236945882439613;-0.4601937532424927;-0.03665432333946228;-0.14846481382846832
62;0.3800966143608093;0.5727852582931519;0.202910378575325;0.7383323907852173;-0.300517201423645;0.8011329174041748;0.6885657906532288;0.9132780432701111;-0.05302618443965912;0.12724509835243225;-1.7624130785813224e-41;-0.1550542116165161;-0.4359171390533447;0.049420420080423355;-0.4822761118412018;-0.06341049820184708;-0.14105667173862457
63;0.38268381357192993;0.5764442682266235;0.20883221924304962;0.7408760786056519;-0.2944861948490143;0.8037018179893494;0.6913201212882996;0.9146785736083984;-0.048618167638778687;0.13639949262142181;-1.7624130785813224e-41;-0.15002597868442535;-0.43087103962898254;0.05144322291016579;-0.4788975715637207;-0.061807263642549515;-0.1361176073551178
64;0.38391339778900146;0.5788717865943909;0.21295469999313354;0.742793619632721;-0.2899773120880127;0.8047188520431519;0.6916075944900513;0.9156677722930908;-0.04329318180680275;0.14039647579193115;-1.7624130785813224e-41;-0.1451530009508133;-0.4340788424015045;0.05253132805228233;-0.4782339036464691;-0.05609193816781044;-0.1360575407743454
65;0.39935067296028137;0.5922647714614868;0.22988596558570862;0.7540441751480103;-0.30947762727737427;0.816724419593811;0.7033120393753052;0.9255995154380798;-0.06563590466976166;0.17407691478729248;-1.7624130785813224e-41;-0.1656137853860855;-0.4448893070220947;0.03021792694926262;-0.4811360538005829;-0.07252137362957001;-0.15058597922325134
66;0.41423308849334717;0.6053006052970886;0.24652598798274994;0.7649126648902893;-0.3263572156429291;0.8280870318412781;0.7144026160240173;0.9349074959754944;-0.08538417518138885;0.20359374582767487;-1.7624130785813224e-41;-0.18435674905776978;-0.4619654715061188;0.02031249925494194;-0.483034610748291;-0.08631645888090134;-0.1695386916399002
67;0.423592746257782;0.6127932071685791;0.2575761377811432;0.7708539366722107;-0.3326047360897064;0.8351230621337891;0.7210693359375;0.9392427802085876;-0.09427656978368759;0.22344259917736053;-1.7624130785813224e-41;-0.19308771193027496;-0.46794596314430237;0.009321586228907108;-0.48498183488845825;-0.09131961315870285;-0.17857225239276886
68;0.4267822206020355;0.6143269538879395;0.2622358202934265;0.7717950344085693;-0.32842817902565;0.8377648591995239;0.7231754064559937;0.9372885227203369;-0.09220661222934723;0.2311442494392395;-1.7624130785813224e-41;-0.18932539224624634;-0.4600590765476227;0.011666590347886086;-0.47543779015541077;-0.08173348009586334;-0.17510047554969788
69;0.4313945770263672;0.617097795009613;0.2684658169746399;0.7738571763038635;-0.32248127460479736;0.8416905999183655;0.7264797687530518;0.9362102746963501;-0.08859749138355255;0.24040642380714417;-1.7624130785813224e-41;-0.1843039095401764;-0.45322078466415405;0.015005750581622124;-0.4597076177597046;-0.06785079091787338;-0.1704474538564682
70;0.4464297592639923;0.6307889819145203;0.2845335304737091;0.7845419049263;-0.33575648069381714;0.8530526161193848;0.7385448217391968;0.9478663206100464;-0.09821842610836029;0.2237580120563507;-1.7624130785813224e-41;-0.19179825484752655;-0.45039597153663635;-0.0015189731493592262;-0.4494248926639557;-0.08358604460954666;-0.1854560673236847
71;0.4600927233695984;0.6424845457077026;0.29972198605537415;0.7942546606063843;-0.34392306208610535;0.8634576201438904;0.7486861944198608;0.9561580419540405;-0.10949496179819107;0.2129807472229004;-1.7624130785813224e-41;-0.20221474766731262;-0.4594411551952362;-0.005841216538101435;-0.4567292332649231;-0.08841229975223541;-0.1960608810186386
72;0.46948376297950745;0.6499606966972351;0.3106914460659027;0.7997143268585205;-0.34822341799736023;0.8697091937065125;0.7545421719551086;0.9601706266403198;-0.11644160747528076;0.20893625915050507;-1.7624130785813224e-41;-0.20183348655700684;-0.4620966911315918;-0.010415485128760338;-0.4564909338951111;-0.09665334969758987;-0.20299987494945526
73;0.474372535943985;0.6529919505119324;0.317192405462265;0.8006598949432373;-0.34395071864128113;0.87160724401474;0.7558718919754028;0.9596430659294128;-0.11426746100187302;0.2166198492050171;-1.7624130785813224e-41;-0.19988219439983368;-0.45598599314689636;-0.010056587867438793;-0.4558531939983368;-0.0902101993560791;-0.20017150044441223
74;0.47964566946029663;0.6564284563064575;0.32406800985336304;0.8020135760307312;-0.33958661556243896;0.8739128708839417;0.7576050758361816;0.9595339298248291;-0.11223514378070831;0.2246280163526535;-1.7624130785813224e-41;-0.19530488550662994;-0.449361115694046;-0.008419821970164776;-0.44627097249031067;-0.08222179859876633;-0.19723235070705414
75;0.4931584596633911;0.6680247783660889;0.33906877040863037;0.8116592168807983;-0.344180703163147;0.8842372894287109;0.7676563858985901;0.9677718281745911;-0.1195957288146019;0.21167002618312836;-1.7624130785813224e-41;-0.20146724581718445;-0.448096364736557;-0.01659436523914337;-0.4464988112449646;-0.08022124320268631;-0.20383088290691376
76;0.5051945447921753;0.6781340837478638;0.35259729623794556;0.8198268413543701;-0.34873166680336;0.8930197954177856;0.7762308120727539;0.9745495319366455;-0.12691502273082733;0.19697779417037964;-1.7624130785813224e-41;-0.2081836462020874;-0.4530690908432007;-0.025721954181790352;-0.4509332478046417;-0.0782897099852562;-0.2103687822818756
77;0.5123509168624878;0.683926522731781;0.3570632040500641;0.8245622515678406;-0.35154402256011963;0.897520899772644;0.7812784910202026;0.9782130718231201;-0.13186922669410706;0.18838267028331757;-1.7624130785813224e-41;-0.21132799983024597;-0.45641303062438965;-0.032174691557884216;-0.4535611867904663;-0.08426259458065033;-0.20674099028110504
78;0.5119701623916626;0.6810041666030884;0.3572653830051422;0.8197140097618103;-0.35165712237358093;0.8951635360717773;0.7803100943565369;0.9763281941413879;-0.13272054493427277;0.18737712502479553;-1.7624130785813224e-41;-0.2068520039319992;-0.4526425302028656;-0.028671838343143463;-0.4575040340423584;-0.0906975120306015;-0.20469577610492706
79;0.5060743689537048;0.6788679957389832;0.35510167479515076;0.8182192444801331;-0.35240909457206726;0.8915275931358337;0.7773242592811584;0.9746413230895996;-0.13262829184532166;0.17962944507598877;-1.7624130785813224e-41;-0.19909141957759857;-0.4521183371543884;-0.03557884320616722;-0.4690362215042114;-0.10317433625459671;-0.20131464302539825
80;0.5015895962715149;0.675869345664978;0.352939248085022;0.8151720762252808;-0.35368871688842773;0.8872845768928528;0.7727112770080566;0.97110515832901;-0.13457529246807098;0.17469422519207;-1.7624130785813224e-41;-0.20041799545288086;-0.4519409239292145;-0.03528217971324921;-0.47508418560028076;-0.11037153750658035;-0.20068830251693726
81;0.5017957091331482;0.6746734976768494;0.35466545820236206;0.8111298680305481;-0.35156524181365967;0.8849896788597107;0.7688553929328918;0.966810941696167;-0.1343735307455063;0.1730407029390335;-1.7624130785813224e-41;-0.19969165325164795;-0.4489106833934784;-0.034589458256959915;-0.466448575258255;-0.10789035260677338;-0.19952335953712463
82;0.5057612657546997;0.6769896745681763;0.3601614534854889;0.8099288940429688;-0.3456662893295288;0.8864485621452332;0.767983615398407;0.9656351208686829;-0.12887898087501526;0.17292548716068268;-1.7624130785813224e-41;-0.19622984528541565;-0.443116158246994;-0.029731793329119682;-0.4553837776184082;-0.09765864163637161;-0.1967032253742218
83;0.5077123641967773;0.6782939434051514;0.3626598119735718;0.8091152906417847;-0.3425390124320984;0.8865873217582703;0.7700700163841248;0.9642075896263123;-0.12675867974758148;0.17159663140773773;-1.7624130785813224e-41;-0.19496114552021027;-0.4415281116962433;-0.031605590134859085;-0.4528636932373047;-0.10102112591266632;-0.19505558907985687
84;0.5128107666969299;0.681683361530304;0.36927518248558044;0.8106188178062439;-0.3360527455806732;0.888952910900116;0.7719748616218567;0.9643154740333557;-0.12242444604635239;0.16105110943317413;-1.7624130785813224e-41;-0.19074171781539917;-0.43451717495918274;-0.028645353391766548;-0.45397821068763733;-0.10540677607059479;-0.19110547006130219
85;0.5183117985725403;0.6855034828186035;0.3762744963169098;0.812576174736023;-0.33017775416374207;0.8917309045791626;0.7742975950241089;0.9648846387863159;-0.1176079586148262;0.15193083882331848;-1.7624130785813224e-41;-0.18627186119556427;-0.42708835005760193;-0.025765912607312202;-0.4474840760231018;-0.10197919607162476;-0.18600651621818542
86;0.5186605453491211;0.6871203184127808;0.37935689091682434;0.8120533227920532;-0.32786911725997925;0.8921168446540833;0.7758989930152893;0.9638218879699707;-0.11627216637134552;0.15861573815345764;-1.7624130785813224e-41;-0.18310923874378204;-0.4274958670139313;-0.024687394499778748;-0.4362259805202484;-0.10675152391195297;-0.1835831105709076
87;0.5189493298530579;0.6865227818489075;0.38058871030807495;0.8105614185333252;-0.32563453912734985;0.8904834985733032;0.7747319936752319;0.9594758749008179;-0.11534792929887772;0.15706340968608856;-1.7624130785813224e-41;-0.18022549152374268;-0.43261420726776123;-0.022276099771261215;-0.4304574131965637;-0.11849114298820496;-0.1810944825410843
88;0.5183596611022949;0.6868860721588135;0.3829609155654907;0.8098695278167725;-0.3226175904273987;0.8897356986999512;0.7744339108467102;0.957700252532959;-0.1123420000076294;0.15231606364250183;-1.7624130785813224e-41;-0.17696940898895264;-0.4268086552619934;-0.01907900720834732;-0.4329145550727844;-0.11623838543891907;-0.1777976006269455
89;0.5183361172676086;0.6880260705947876;0.38592150807380676;0.8101552128791809;-0.3185690641403198;0.8898689150810242;0.7749441266059875;0.9577491283416748;-0.1093410775065422;0.15405739843845367;-1.7624130785813224e-41;-0.17321433126926422;-0.4224882423877716;-0.017660515382885933;-0.4403153657913208;-0.12069465965032578;-0.17548120021820068
90;0.5181132555007935;0.6868457794189453;0.3867712616920471;0.8060116767883301;-0.3176378011703491;0.8875171542167664;0.7710214853286743;0.9546458125114441;-0.10989682376384735;0.1519428789615631;-1.7624130785813224e-41;-0.17407897114753723;-0.4231954514980316;-0.019305944442749023;-0.42235469818115234;-0.11940764635801315;-0.17818596959114075
91;0.5187569260597229;0.6887015700340271;0.38880518078804016;0.8044190406799316;-0.31376543641090393;0.8854817152023315;0.7697579860687256;0.9504844546318054;-0.10767009109258652;0.15051740407943726;-1.7624130785813224e-41;-0.1661595106124878;-0.41302689909935;-0.013158386573195457;-0.4127405285835266;-0.12162961065769196;-0.16998760402202606
92;0.5218096971511841;0.6902477741241455;0.3928830027580261;0.8064201474189758;-0.31085431575775146;0.8870548605918884;0.7693421840667725;0.9492171406745911;-0.10549820214509964;0.15355396270751953;-1.7624130785813224e-41;-0.16258737444877625;-0.4081815481185913;-0.00887465663254261;-0.4150755703449249;-0.12598620355129242;-0.1659860908985138
93;0.5156237483024597;0.7125297784805298;0.3873542249202728;0.7988204956054688;-0.32299742102622986;0.8794743418693542;0.7618562579154968;0.9409257769584656;-0.10897883027791977;0.14789624512195587;-1.7624130785813224e-41;-0.16653943061828613;-0.4115094542503357;-0.01380331814289093;-0.42184674739837646;-0.10440567135810852;-0.16841213405132294
94;0.5245040655136108;0.7203062176704407;0.39760950207710266;0.8043804168701172;-0.33032849431037903;0.8854517936706543;0.7677401304244995;0.9452139735221863;-0.11847459524869919;0.13918231427669525;-1.7624130785813224e-41;-0.175038680434227;-0.4127543866634369;-0.023943377658724785;-0.4119187295436859;-0.1117485985159874;-0.17723526060581207
95;0.5329223275184631;0.7272161841392517;0.4073944389820099;0.8094678521156311;-0.3348475396633148;0.8909660577774048;0.7731691598892212;0.9490625262260437;-0.1242818757891655;0.13295556604862213;-1.7624130785813224e-41;-0.18127505481243134;-0.417433500289917;-0.03203917294740677;-0.40870368480682373;-0.1168426126241684;-0.18353888392448425
96;0.5385690927505493;0.7312862277030945;0.41443750262260437;0.8118050694465637;-0.334332138299942;0.8938381671905518;0.7758578062057495;0.9501469135284424;-0.12475259602069855;0.13036514818668365;-1.7624130785813224e-41;-0.18146845698356628;-0.41650328040122986;-0.03503578156232834;-0.4125840961933136;-0.12139207869768143;-0.1848953813314438
97;0.5426558256149292;0.7337985634803772;0.4199361205101013;0.812615692615509;-0.3294570744037628;0.8952837586402893;0.7770049571990967;0.9497036337852478;-0.12165181338787079;0.13064371049404144;-1.7624130785813224e-41;-0.17864646017551422;-0.4119776487350464;-0.03392023220658302;-0.40987321734428406;-0.11997020244598389;-0.18305161595344543
98;0.5468778610229492;0.7363879680633545;0.42554783821105957;0.8135792016983032;-0.32498839497566223;0.8968793153762817;0.778300404548645;0.9494286775588989;-0.1190122663974762;0.13068431615829468;-1.7624130785813224e-41;-0.17399995028972626;-0.40653520822525024;-0.03154134377837181;-0.40495628118515015;-0.11214777082204819;-0.1794539839029312
99;0.5522348880767822;0.7401561737060547;0.4322948455810547;0.8157140612602234;-0.3181900978088379;0.8996468782424927;0.7807744741439819;0.9503138065338135;-0.11419490724802017;0.12434852123260498;-1.7624130785813224e-41;-0.168984055519104;-0.39912015199661255;-0.02822999842464924;-0.40597081184387207;-0.11012984812259674;-0.17464102804660797
100;0.5572843551635742;0.7436500191688538;0.43873050808906555;0.8175631761550903;-0.31202200055122375;0.90212082862854;0.782954752445221;0.9509381055831909;-0.10999441146850586;0.11708568781614304;-1.7624130785813224e-41;-0.16457043588161469;-0.3927497863769531;-0.02399761788547039;-0.3997957408428192;-0.1089731827378273;-0.1705644428730011
batch_number;w0;w1;w2;w3;w4;w5;w6;w7;w8;w9;w10;w11;w12;w13;w14;w15;w16
1;-0.14349596202373505;-5.664930426974024e-07;-0.38382917642593384;0.1290375292301178;-0.19333074986934662;0.056776199489831924;0.07565322518348694;0.3069671094417572;-2.4221421313086466e-08;0.005736006423830986;-0.15028268098831177;-0.007140344474464655;-0.37113651633262634;0.004948182497173548;-0.013447552919387817;0.16568905115127563;-0.0071131447330117226
2;-0.047828733921051025;6.835204711258536e-12;-0.23843516409397125;0.039164088666439056;-0.08142077177762985;0.006945712957531214;0.013192237354815006;0.17156383395195007;2.9254512224144436e-13;8.49393200041959e-06;-0.052085235714912415;-1.9333718228153884e-05;-0.22717802226543427;4.636689936887706e-06;-0.0001540215889690444;0.06215023621916771;-1.9070081179961562e-05
3;-0.056094471365213394;0.2335716336965561;-0.3073984682559967;0.5466507077217102;-0.10632804036140442;0.4602181911468506;0.48428720235824585;0.7396867275238037;0.2562478184700012;0.37280237674713135;-0.014787787571549416;0.1332276463508606;-0.2965496778488159;0.3662947714328766;0.07233268022537231;0.5320581793785095;0.12958475947380066
batch_number;w0;w1;w2;w3;w4;w5;w6;w7;w8;w9;w10;w11;w12;w13;w14;w15;w16
1;-0.14349596202373505;-5.664930426974024e-07;-0.38382917642593384;0.1290375292301178;-0.19333074986934662;0.056776199489831924;0.07565322518348694;0.3069671094417572;-2.4221421313086466e-08;0.005736006423830986;-0.15028268098831177;-0.007140344474464655;-0.37113651633262634;0.004948182497173548;-0.013447552919387817;0.16568905115127563;-0.0071131447330117226
4;-0.025096245110034943;0.26153865456581116;-0.2738131284713745;0.5712152719497681;-0.07601502537727356;0.48572537302970886;0.5095322728157043;0.7611072659492493;0.28278687596321106;0.398516446352005;-0.0025363611057400703;0.1621403694152832;-0.2638699412345886;0.3921298086643219;0.10909510403871536;0.5624703764915466;0.1579069197177887
batch_number;w0;w1;w2;w3;w4;w5;w6;w7;w8;w9;w10;w11;w12;w13;w14;w15;w16
1;-0.1379757821559906;0.15561725199222565;-0.3925607204437256;0.47295987606048584;-0.19290105998516083;0.3853221535682678;0.4096674621105194;0.6641791462898254;0.17451587319374084;0.2927553355693817;-0.15028268098831177;0.05173929035663605;-0.3798774480819702;0.2906143367290497;-0.05645127594470978;0.4025159478187561;0.051686085760593414
2;-0.047828733921051025;6.835204711258536e-12;-0.23843516409397125;0.039164088666439056;-0.08142077177762985;0.006945712957531214;0.013192237354815006;0.17156383395195007;2.9254512224144436e-13;8.49393200041959e-06;-0.052085235714912415;-1.9333718228153884e-05;-0.22717802226543427;4.636689936887706e-06;-0.0001540215889690444;0.06215023621916771;-1.9070081179961562e-05
5;0.027813436463475227;0.31392139196395874;-0.220481738448143;0.6231842041015625;-0.022537749260663986;0.5378231406211853;0.5615944266319275;0.7863608598709106;0.3355030119419098;0.45114806294441223;-0.0002904378343373537;0.21569345891475677;-0.21501249074935913;0.4395747780799866;0.14389947056770325;0.616563081741333;0.20584622025489807
2;-0.04402528703212738;0.2489665299654007;-0.29810163378715515;0.5657868385314941;-0.09897127747535706;0.4783155024051666;0.5025578141212463;0.7565935850143433;0.2674104571342468;0.3847191631793976;-0.052085235714912415;0.1448766589164734;-0.2856075167655945;0.3831537365913391;0.046202972531318665;0.5211189985275269;0.14473429322242737
3;-0.056094471365213394;0.2335716336965561;-0.3073984682559967;0.5466507077217102;-0.10632804036140442;0.4602181911468506;0.48428720235824585;0.7396867275238037;0.2562478184700012;0.37280237674713135;-0.014787787571549416;0.1332276463508606;-0.2965496778488159;0.3662947714328766;0.07233268022537231;0.5320581793785095;0.12958475947380066
6;-0.006778647191822529;0.2779770493507385;-0.2583528459072113;0.5853012800216675;-0.059711530804634094;0.5003831386566162;0.5237789154052734;0.7423662543296814;0.29599729180336;0.4071997404098511;-2.8459711757022887e-05;0.16747739911079407;-0.258747935295105;0.392630934715271;0.07390289008617401;0.5554319024085999;0.1600276380777359
3;-0.012261074036359787;0.27729204297065735;-0.26541098952293396;0.5950804948806763;-0.06930060684680939;0.5079485774040222;0.5320155620574951;0.7853243947029114;0.29558348655700684;0.410807341337204;-0.014787787571549416;0.1730138510465622;-0.25495192408561707;0.4125758707523346;0.08317410945892334;0.5456510782241821;0.17468038201332092
4;-0.025096245110034943;0.26153865456581116;-0.2738131284713745;0.5712152719497681;-0.07601502537727356;0.48572537302970886;0.5095322728157043;0.7611072659492493;0.28278687596321106;0.398516446352005;-0.0025363611057400703;0.1621403694152832;-0.2638699412345886;0.3921298086643219;0.10909510403871536;0.5624703764915466;0.1579069197177887
7;0.07648681849241257;0.3555399775505066;-0.1656254231929779;0.6566483974456787;0.02784331515431404;0.5734730362892151;0.5967029333114624;0.8170117139816284;0.376741498708725;0.4889529347419739;-6.968607522139791e-07;0.2600357234477997;-0.16511039435863495;0.4726940095424652;0.17283423244953156;0.6354926228523254;0.24505244195461273
4;0.02161499671638012;0.3087472915649414;-0.2302512675523758;0.6259536147117615;-0.034795597195625305;0.5391596555709839;0.5633326172828674;0.8157188892364502;0.32825884222984314;0.44374537467956543;-0.0025363611057400703;0.20614096522331238;-0.21977652609348297;0.4444965720176697;0.12877081334590912;0.5885249376296997;0.20774045586585999
5;0.027813436463475227;0.31392139196395874;-0.220481738448143;0.6231842041015625;-0.022537749260663986;0.5378231406211853;0.5615944266319275;0.7863608598709106;0.3355030119419098;0.45114806294441223;-0.0002904378343373537;0.21569345891475677;-0.21501249074935913;0.4395747780799866;0.14389947056770325;0.616563081741333;0.20584622025489807
8;0.05027490109205246;0.32776740193367004;-0.19003386795520782;0.6262166500091553;-0.006449940148741007;0.543635368347168;0.5666953325271606;0.7832958698272705;0.34014034271240234;0.4478611946105957;-2.5561321947975557e-08;0.21922816336154938;-0.19635753333568573;0.4379352331161499;0.13739962875843048;0.6049559712409973;0.21150916814804077
5;0.04725540056824684;0.3320591151714325;-0.20335173606872559;0.6480326652526855;-0.009661599062383175;0.5618780851364136;0.586269736289978;0.8363751769065857;0.35095787048339844;0.4675004184246063;-0.00036764168180525303;0.22992756962776184;-0.19337794184684753;0.46671244502067566;0.14421966671943665;0.6118277311325073;0.23191894590854645
6;-0.006778647191822529;0.2779770493507385;-0.2583528459072113;0.5853012800216675;-0.059711530804634094;0.5003831386566162;0.5237789154052734;0.7423662543296814;0.29599729180336;0.4071997404098511;-2.8459711757022887e-05;0.16747739911079407;-0.258747935295105;0.392630934715271;0.07390289008617401;0.5554319024085999;0.1600276380777359
9;0.10076582431793213;0.37112265825271606;-0.13395868241786957;0.6626124978065491;0.05161755159497261;0.5821161270141602;0.6046016216278076;0.8182939887046814;0.38975757360458374;0.5000616908073425;-3.500313927595755e-10;0.2770208716392517;-0.129202738404274;0.4893472492694855;0.21363945305347443;0.6612127423286438;0.2686935067176819
6;0.030120251700282097;0.31336626410484314;-0.22104507684707642;0.6256811618804932;-0.03029801696538925;0.5416775345802307;0.5646644234657288;0.8145155906677246;0.32889994978904724;0.44355329871177673;-3.752681368496269e-05;0.20953044295310974;-0.20695249736309052;0.449275404214859;0.10436736792325974;0.5767189264297485;0.2021978199481964
7;0.07648681849241257;0.3555399775505066;-0.1656254231929779;0.6566483974456787;0.02784331515431404;0.5734730362892151;0.5967029333114624;0.8170117139816284;0.376741498708725;0.4889529347419739;-6.968607522139791e-07;0.2600357234477997;-0.16511039435863495;0.4726940095424652;0.17283423244953156;0.6354926228523254;0.24505244195461273
10;0.08947749435901642;0.365723580121994;-0.15354202687740326;0.6605462431907654;-0.07505932450294495;0.5816649794578552;0.6043658256530762;0.8408321142196655;0.2799701392650604;0.4150293469429016;-6.4934758958745675e-12;0.14921578764915466;-0.2292366772890091;0.3878881633281708;0.09547263383865356;0.5406631231307983;0.15075553953647614
7;0.02930246852338314;0.3104803264141083;-0.22037892043590546;0.6206877827644348;-0.03341103717684746;0.5375291705131531;0.5590956807136536;0.8090274930000305;0.32320594787597656;0.4372406601905823;-1.8904490843851818e-06;0.2043883502483368;-0.20787528157234192;0.4431934952735901;0.10058674961328506;0.5848050117492676;0.19537217915058136
8;0.05027490109205246;0.32776740193367004;-0.19003386795520782;0.6262166500091553;-0.006449940148741007;0.543635368347168;0.5666953325271606;0.7832958698272705;0.34014034271240234;0.4478611946105957;-2.5561321947975557e-08;0.21922816336154938;-0.19635753333568573;0.4379352331161499;0.13739962875843048;0.6049559712409973;0.21150916814804077
11;0.23864176869392395;0.504554033279419;0.007619880139827728;0.7912630438804626;0.025128938257694244;0.7120951414108276;0.7342062592506409;0.9459916353225708;0.3524079918861389;0.5636608600616455;-2.5870016747569797e-15;0.2512844502925873;-0.09969010949134827;0.4617505371570587;0.23410241305828094;0.6760616898536682;0.2444557547569275
8;0.042536281049251556;0.3211820125579834;-0.20545387268066406;0.6290721893310547;-0.022694211453199387;0.5468748807907104;0.5676352381706238;0.8156285285949707;0.3305005729198456;0.4374508857727051;-5.559667926036127e-08;0.21351288259029388;-0.19526921212673187;0.44968053698539734;0.11198484152555466;0.5973357558250427;0.20248821377754211
9;0.10076582431793213;0.37112265825271606;-0.13395868241786957;0.6626124978065491;0.05161755159497261;0.5821161270141602;0.6046016216278076;0.8182939887046814;0.38975757360458374;0.5000616908073425;-3.500313927595755e-10;0.2770208716392517;-0.129202738404274;0.4893472492694855;0.21363945305347443;0.6612127423286438;0.2686935067176819
12;0.262755811214447;0.5188575387001038;0.03998377546668053;0.794638454914093;0.021104181185364723;0.7185401916503906;0.7398370504379272;0.9384217262268066;0.3254270851612091;0.5338042974472046;-1.2248417983760313e-18;0.21945933997631073;-0.10852979123592377;0.41464683413505554;0.2122204601764679;0.6699923276901245;0.20779353380203247
9;0.055214062333106995;0.3311229646205902;-0.19089393317699432;0.6364891529083252;-0.012313221581280231;0.555289626121521;0.5753090381622314;0.8211691975593567;0.3372659683227539;0.4377795159816742;-8.744980850572404e-10;0.2214946746826172;-0.1830383688211441;0.4557102620601654;0.1259237676858902;0.6095156073570251;0.2091178596019745
10;0.08947749435901642;0.365723580121994;-0.15354202687740326;0.6605462431907654;-0.07505932450294495;0.5816649794578552;0.6043658256530762;0.8408321142196655;0.2799701392650604;0.4150293469429016;-6.4934758958745675e-12;0.14921578764915466;-0.2292366772890091;0.3878881633281708;0.09547263383865356;0.5406631231307983;0.15075553953647614
13;0.2809980511665344;0.5304938554763794;0.0637909322977066;0.7989758849143982;0.021134324371814728;0.7249219417572021;0.7456495761871338;0.9402899146080017;0.3168923258781433;0.5399081110954285;-9.673868333902212e-24;0.21235747635364532;-0.09874051064252853;0.40433818101882935;0.2123531550168991;0.6531146764755249;0.20226283371448517
10;0.11728598922491074;0.39086204767227173;-0.1273941546678543;0.6943620443344116;-0.05724181607365608;0.6141780018806458;0.6332236528396606;0.8769510984420776;0.29354649782180786;0.4076100289821625;-6.4934758958745675e-12;0.1747387796640396;-0.19849491119384766;0.41960591077804565;0.11506696790456772;0.5718857645988464;0.16132710874080658
11;0.23864176869392395;0.504554033279419;0.007619880139827728;0.7912630438804626;0.025128938257694244;0.7120951414108276;0.7342062592506409;0.9459916353225708;0.3524079918861389;0.5636608600616455;-2.5870016747569797e-15;0.2512844502925873;-0.09969010949134827;0.4617505371570587;0.23410241305828094;0.6760616898536682;0.2444557547569275
14;0.29649192094802856;0.5386744141578674;0.08544990420341492;0.7990236878395081;0.022195205092430115;0.7272375226020813;0.7473369240760803;0.9352341294288635;0.3118356466293335;0.542617678642273;-9.274464906767424e-28;0.20791031420230865;-0.09028477966785431;0.39305561780929565;0.21548381447792053;0.6396467685699463;0.19697639346122742
11;0.18352852761745453;0.4547295570373535;-0.0596596896648407;0.7562887668609619;-0.11116946488618851;0.677090048789978;0.6952635645866394;0.9369032979011536;0.2338753193616867;0.37436744570732117;-1.8779464135555528e-14;0.11875829845666885;-0.21499742567539215;0.3573155701160431;0.0599726177752018;0.5608060359954834;0.1067628338932991
12;0.262755811214447;0.5188575387001038;0.03998377546668053;0.794638454914093;0.021104181185364723;0.7185401916503906;0.7398370504379272;0.9384217262268066;0.3254270851612091;0.5338042974472046;-1.2248417983760313e-18;0.21945933997631073;-0.10852979123592377;0.41464683413505554;0.2122204601764679;0.6699923276901245;0.20779353380203247
15;0.31990671157836914;0.5613074898719788;0.10961288958787918;0.8208904266357422;0.04857780784368515;0.7493091225624084;0.7693253755569458;0.9623797535896301;0.3351884186267853;0.5960808396339417;-1.2314081355186912e-32;0.23228588700294495;-0.061920277774333954;0.42360642552375793;0.243560329079628;0.6655421853065491;0.2264711707830429
12;0.2230035662651062;0.49132102727890015;-0.018226750195026398;0.7903112173080444;-0.1383819282054901;0.7121552228927612;0.7295932769775391;0.9689403176307678;0.2002633959054947;0.3580245077610016;-1.490425608226621e-17;0.08584471791982651;-0.24535347521305084;0.3327755331993103;0.03594131022691727;0.5653199553489685;0.07369714975357056
13;0.2809980511665344;0.5304938554763794;0.0637909322977066;0.7989758849143982;0.021134324371814728;0.7249219417572021;0.7456495761871338;0.9402899146080017;0.3168923258781433;0.5399081110954285;-9.673868333902212e-24;0.21235747635364532;-0.09874051064252853;0.40433818101882935;0.2123531550168991;0.6531146764755249;0.20226283371448517
16;0.26961109042167664;0.5120734572410583;0.058716289699077606;0.7732398509979248;-0.014035506173968315;0.7451557517051697;0.72133469581604;0.9307972192764282;0.27947551012039185;0.639978289604187;-8.477671858806624e-37;0.17423932254314423;-0.10358382761478424;0.38397032022476196;0.18080228567123413;0.6952932476997375;0.18261989951133728
13;0.23628655076026917;0.5012624859809875;-0.002572450088337064;0.7971404194831848;-0.13009653985500336;0.7201268672943115;0.7368587851524353;0.9736300706863403;0.2038968801498413;0.3638732433319092;-1.1189981590704976e-21;0.09175524115562439;-0.23367492854595184;0.3347354233264923;0.02950650453567505;0.5630282759666443;0.07808776944875717
14;0.29649192094802856;0.5386744141578674;0.08544990420341492;0.7990236878395081;0.022195205092430115;0.7272375226020813;0.7473369240760803;0.9352341294288635;0.3118356466293335;0.542617678642273;-9.274464906767424e-28;0.20791031420230865;-0.09028477966785431;0.39305561780929565;0.21548381447792053;0.6396467685699463;0.19697639346122742
17;0.2680034339427948;0.5069343447685242;0.0604095458984375;0.7642749547958374;-0.023173782974481583;0.7504131197929382;0.7130549550056458;0.9194211959838867;0.26570263504981995;0.5827949047088623;-2.0287578776955404e-40;0.16392898559570312;-0.10212638229131699;0.37739118933677673;0.18385040760040283;0.713895320892334;0.1778661459684372
14;0.24797579646110535;0.5094436407089233;0.011649384163320065;0.8020110130310059;-0.12260270118713379;0.7261683940887451;0.7422168254852295;0.9762731194496155;0.20654715597629547;0.3680652379989624;1.2427497455954093e-26;0.09591111540794373;-0.2238600254058838;0.33590126037597656;0.03641708567738533;0.560610830783844;0.08146461844444275
15;0.31990671157836914;0.5613074898719788;0.10961288958787918;0.8208904266357422;0.04857780784368515;0.7493091225624084;0.7693253755569458;0.9623797535896301;0.3351884186267853;0.5960808396339417;-1.2314081355186912e-32;0.23228588700294495;-0.061920277774333954;0.42360642552375793;0.243560329079628;0.6655421853065491;0.2264711707830429
18;0.27841684222221375;0.5114849209785461;0.07586520910263062;0.7624486684799194;-0.021590067073702812;0.7530900239944458;0.7120451927185059;0.9137121438980103;0.26098182797431946;0.583311915397644;-1.7624130785813224e-41;0.16053667664527893;-0.09313099831342697;0.36895573139190674;0.17113380134105682;0.7044367790222168;0.17518331110477448
15;0.2597368061542511;0.5175763964653015;0.026030708104372025;0.8066822290420532;-0.11217376589775085;0.7297435998916626;0.7474532723426819;0.9786098599433899;0.21108151972293854;0.3706437945365906;6.5653686972239385e-31;0.10222767293453217;-0.2118094563484192;0.3396707773208618;0.03891860693693161;0.5580207705497742;0.08747443556785583
16;0.26961109042167664;0.5120734572410583;0.058716289699077606;0.7732398509979248;-0.014035506173968315;0.7451557517051697;0.72133469581604;0.9307972192764282;0.27947551012039185;0.639978289604187;-8.477671858806624e-37;0.17423932254314423;-0.10358382761478424;0.38397032022476196;0.18080228567123413;0.6952932476997375;0.18261989951133728
19;0.293276846408844;0.520546019077301;0.09571561217308044;0.7651812434196472;-0.02063661813735962;0.7602183222770691;0.7157458066940308;0.9125608801841736;0.2543416917324066;0.589454174041748;-1.7624130785813224e-41;0.1553962081670761;-0.09381424635648727;0.35660403966903687;0.16393844783306122;0.6820778250694275;0.16775727272033691
16;0.2513582706451416;0.5072921514511108;0.019623974338173866;0.794089674949646;-0.12300588935613632;0.7521749138832092;0.7354028224945068;0.9650412797927856;0.1977161467075348;0.3805560767650604;1.4712421001142961e-35;0.09032312035560608;-0.2183866947889328;0.3274713158607483;0.022644415497779846;0.5385754108428955;0.0766482874751091
17;0.2680034339427948;0.5069343447685242;0.0604095458984375;0.7642749547958374;-0.023173782974481583;0.7504131197929382;0.7130549550056458;0.9194211959838867;0.26570263504981995;0.5827949047088623;-2.0287578776955404e-40;0.16392898559570312;-0.10212638229131699;0.37739118933677673;0.18385040760040283;0.713895320892334;0.1778661459684372
20;0.3125137388706207;0.5339382886886597;0.11999072879552841;0.7721959352493286;-0.02390463463962078;0.7712610363960266;0.7239618301391602;0.9156644344329834;0.2362317591905594;0.5544911026954651;-1.7624130785813224e-41;0.1489047110080719;-0.08735786378383636;0.3450721502304077;0.16463379561901093;0.6789930462837219;0.16088610887527466
17;0.2593967616558075;0.5117209553718567;0.030544813722372055;0.7949520945549011;-0.11503452062606812;0.7581092715263367;0.7368214130401611;0.9635668396949768;0.19972337782382965;0.379628449678421;-2.0287578776955404e-40;0.09471538662910461;-0.20845137536525726;0.328366219997406;0.022960077971220016;0.5317647457122803;0.08081625401973724
18;0.27841684222221375;0.5114849209785461;0.07586520910263062;0.7624486684799194;-0.021590067073702812;0.7530900239944458;0.7120451927185059;0.9137121438980103;0.26098182797431946;0.583311915397644;-1.7624130785813224e-41;0.16053667664527893;-0.09313099831342697;0.36895573139190674;0.17113380134105682;0.7044367790222168;0.17518331110477448
21;0.2934437394142151;0.519340455532074;0.08987758308649063;0.7632384300231934;-0.06428945064544678;0.7492772936820984;0.7111908793449402;0.9057418704032898;0.20534205436706543;0.4720441997051239;-1.7624130785813224e-41;0.11343035846948624;-0.11885916441679001;0.3256164789199829;0.11046024411916733;0.6425367593765259;0.13361182808876038
18;0.2683076858520508;0.5168852210044861;0.04233334958553314;0.7964228391647339;-0.1086067333817482;0.7624531388282776;0.7382100820541382;0.9626485109329224;0.20106251537799835;0.3840274512767792;-1.7624130785813224e-41;0.0975581631064415;-0.1986979842185974;0.3279319703578949;0.022074315696954727;0.5282987952232361;0.08339425176382065
19;0.293276846408844;0.520546019077301;0.09571561217308044;0.7651812434196472;-0.02063661813735962;0.7602183222770691;0.7157458066940308;0.9125608801841736;0.2543416917324066;0.589454174041748;-1.7624130785813224e-41;0.1553962081670761;-0.09381424635648727;0.35660403966903687;0.16393844783306122;0.6820778250694275;0.16775727272033691
22;0.30697131156921387;0.527727484703064;0.10758206248283386;0.766048789024353;-0.06317905336618423;0.7549192905426025;0.7150751948356628;0.9051120281219482;0.20093336701393127;0.4418652653694153;-1.7624130785813224e-41;0.11175578832626343;-0.11033225059509277;0.321865439414978;0.1142752543091774;0.6443403363227844;0.13335445523262024
19;0.27742287516593933;0.5221630930900574;0.054411035031080246;0.7979030013084412;-0.1020674929022789;0.766496479511261;0.7396399974822998;0.9616783261299133;0.20248690247535706;0.3882628381252289;-1.7624130785813224e-41;0.1007532849907875;-0.18950381875038147;0.3276693820953369;0.030202051624655724;0.5210230946540833;0.08600866049528122
20;0.3125137388706207;0.5339382886886597;0.11999072879552841;0.7721959352493286;-0.02390463463962078;0.7712610363960266;0.7239618301391602;0.9156644344329834;0.2362317591905594;0.5544911026954651;-1.7624130785813224e-41;0.1489047110080719;-0.08735786378383636;0.3450721502304077;0.16463379561901093;0.6789930462837219;0.16088610887527466
23;0.2698487639427185;0.5022336840629578;0.06398466229438782;0.7498360276222229;-0.11513927578926086;0.7213925123214722;0.6972813010215759;0.8879392147064209;0.16297006607055664;0.37038952112197876;-1.7624130785813224e-41;0.05883833020925522;-0.20040544867515564;0.286904901266098;0.027039526030421257;0.5587669610977173;0.07934078574180603
20;0.2867099344730377;0.5275276899337769;0.06674554944038391;0.7988004684448242;-0.09479323029518127;0.7704105973243713;0.7410932779312134;0.9606369733810425;0.20306968688964844;0.3852568566799164;-1.7624130785813224e-41;0.1057584211230278;-0.17857253551483154;0.3278638422489166;0.03207404166460037;0.521356463432312;0.09054306894540787
21;0.2934437394142151;0.519340455532074;0.08987758308649063;0.7632384300231934;-0.06428945064544678;0.7492772936820984;0.7111908793449402;0.9057418704032898;0.20534205436706543;0.4720441997051239;-1.7624130785813224e-41;0.11343035846948624;-0.11885916441679001;0.3256164789199829;0.11046024411916733;0.6425367593765259;0.13361182808876038
24;0.2780109941959381;0.506201982498169;0.07565273344516754;0.7492029070854187;-0.10869639366865158;0.7229685187339783;0.6975290179252625;0.8843488693237305;0.1639314442873001;0.37302207946777344;-1.7624130785813224e-41;0.06102266162633896;-0.1947677880525589;0.2839171290397644;0.029623983427882195;0.5599958896636963;0.0797172486782074
21;0.29580098390579224;0.5326143503189087;0.07896623760461807;0.7990948557853699;-0.0876677855849266;0.7738716006278992;0.7422308921813965;0.9591691493988037;0.2047974318265915;0.3777574598789215;-1.7624130785813224e-41;0.1089172512292862;-0.16886980831623077;0.3278331458568573;0.04090160131454468;0.524798572063446;0.0931667611002922
22;0.30697131156921387;0.527727484703064;0.10758206248283386;0.766048789024353;-0.06317905336618423;0.7549192905426025;0.7150751948356628;0.9051120281219482;0.20093336701393127;0.4418652653694153;-1.7624130785813224e-41;0.11175578832626343;-0.11033225059509277;0.321865439414978;0.1142752543091774;0.6443403363227844;0.13335445523262024
25;0.28671571612358093;0.5106891989707947;0.08789609372615814;0.7490698099136353;-0.10283806920051575;0.7250524163246155;0.6982811093330383;0.8812735080718994;0.1644502431154251;0.3759062588214874;-1.7624130785813224e-41;0.06443250179290771;-0.18480531871318817;0.28322091698646545;0.019835898652672768;0.5568951964378357;0.08302466571331024
22;0.30439493060112;0.5371288061141968;0.09076835960149765;0.7988598942756653;-0.08125204592943192;0.7765971422195435;0.7429096102714539;0.9569961428642273;0.2064124494791031;0.371429443359375;-1.7624130785813224e-41;0.11217638850212097;-0.15913456678390503;0.32895997166633606;0.04720143601298332;0.5270478129386902;0.09677194058895111
23;0.2698487639427185;0.5022336840629578;0.06398466229438782;0.7498360276222229;-0.11513927578926086;0.7213925123214722;0.6972813010215759;0.8879392147064209;0.16297006607055664;0.37038952112197876;-1.7624130785813224e-41;0.05883833020925522;-0.20040544867515564;0.286904901266098;0.027039526030421257;0.5587669610977173;0.07934078574180603
26;0.2951950430870056;0.5153994560241699;0.09959374368190765;0.749679684638977;-0.09446526318788528;0.7330754399299622;0.6996945142745972;0.8793290257453918;0.16794130206108093;0.38495370745658875;-1.7624130785813224e-41;0.06863616406917572;-0.17727556824684143;0.2831609845161438;0.02030736580491066;0.5070921182632446;0.08607365936040878
23;0.3127438724040985;0.5413500070571899;0.1023862212896347;0.798931360244751;-0.07407402247190475;0.7788825035095215;0.743748664855957;0.9544206857681274;0.20737524330615997;0.37460508942604065;-1.7624130785813224e-41;0.11608382314443588;-0.14973755180835724;0.3279310464859009;0.05525915324687958;0.5197876691818237;0.09914617240428925
24;0.2780109941959381;0.506201982498169;0.07565273344516754;0.7492029070854187;-0.10869639366865158;0.7229685187339783;0.6975290179252625;0.8843488693237305;0.1639314442873001;0.37302207946777344;-1.7624130785813224e-41;0.06102266162633896;-0.1947677880525589;0.2839171290397644;0.029623983427882195;0.5599958896636963;0.0797172486782074
27;0.2932279706001282;0.49997958540916443;0.09821204841136932;0.7470731735229492;-0.10474926978349686;0.7282224893569946;0.697276771068573;0.8741978406906128;0.15852560102939606;0.3743082284927368;-1.7624130785813224e-41;0.060549356043338776;-0.18711760640144348;0.281389445066452;0.01703198067843914;0.4879026412963867;0.08381930738687515
24;0.3206678628921509;0.5450816750526428;0.1136467233300209;0.7984383702278137;-0.06793155521154404;0.7805406451225281;0.7440433502197266;0.9512473940849304;0.20790310204029083;0.37707212567329407;-1.7624130785813224e-41;0.11966153234243393;-0.14082399010658264;0.3266756534576416;0.06072917953133583;0.5165469646453857;0.10106255114078522
25;0.28671571612358093;0.5106891989707947;0.08789609372615814;0.7490698099136353;-0.10283806920051575;0.7250524163246155;0.6982811093330383;0.8812735080718994;0.1644502431154251;0.3759062588214874;-1.7624130785813224e-41;0.06443250179290771;-0.18480531871318817;0.28322091698646545;0.019835898652672768;0.5568951964378357;0.08302466571331024
28;0.26924312114715576;0.4866209626197815;0.06844569742679596;0.7362834215164185;-0.140062153339386;0.7103768587112427;0.6850061416625977;0.8597956895828247;0.136731818318367;0.3408050239086151;-1.7624130785813224e-41;0.03969324380159378;-0.22687062621116638;0.25555163621902466;-0.059929754585027695;0.4524264633655548;0.04522779956459999
25;0.32890498638153076;0.5490915179252625;0.12526893615722656;0.7981812357902527;-0.06035907194018364;0.7823920845985413;0.7445862293243408;0.9482675790786743;0.20984706282615662;0.38068220019340515;-1.7624130785813224e-41;0.12359945476055145;-0.13040579855442047;0.3267243206501007;0.04873848333954811;0.5138188004493713;0.10623341053724289
26;0.2951950430870056;0.5153994560241699;0.09959374368190765;0.749679684638977;-0.09446526318788528;0.7330754399299622;0.6996945142745972;0.8793290257453918;0.16794130206108093;0.38495370745658875;-1.7624130785813224e-41;0.06863616406917572;-0.17727556824684143;0.2831609845161438;0.02030736580491066;0.5070921182632446;0.08607365936040878
29;0.2761974334716797;0.49001649022102356;0.07833115756511688;0.7359723448753357;-0.13384278118610382;0.711693286895752;0.6854109168052673;0.8569129109382629;0.13895392417907715;0.3438982665538788;-1.7624130785813224e-41;0.040880799293518066;-0.22211773693561554;0.2553444504737854;-0.052873630076646805;0.45300763845443726;0.0464683398604393
26;0.33660387992858887;0.5525262951850891;0.13639889657497406;0.7972895503044128;-0.05389466509222984;0.7835381031036377;0.7445085048675537;0.9446364045143127;0.21063320338726044;0.3826632499694824;-1.7624130785813224e-41;0.12653324007987976;-0.12125455588102341;0.3262620270252228;0.051476553082466125;0.5106075406074524;0.10819808393716812
27;0.2932279706001282;0.49997958540916443;0.09821204841136932;0.7470731735229492;-0.10474926978349686;0.7282224893569946;0.697276771068573;0.8741978406906128;0.15852560102939606;0.3743082284927368;-1.7624130785813224e-41;0.060549356043338776;-0.18711760640144348;0.281389445066452;0.01703198067843914;0.4879026412963867;0.08381930738687515
30;0.2671937942504883;0.4864296317100525;0.07241042703390121;0.7337660789489746;-0.14305537939071655;0.7062965631484985;0.6775617003440857;0.8578372001647949;0.13176918029785156;0.31597328186035156;-1.7624130785813224e-41;0.03479569032788277;-0.23083144426345825;0.24836470186710358;-0.06406719237565994;0.44933998584747314;0.036757271736860275
27;0.34442245960235596;0.5560713410377502;0.14767567813396454;0.7964826226234436;-0.04691283777356148;0.7847145795822144;0.7445262670516968;0.9410707354545593;0.2124590426683426;0.3852190375328064;-1.7624130785813224e-41;0.13013826310634613;-0.11043322086334229;0.32607221603393555;0.05171065032482147;0.5029770731925964;0.11215435713529587
28;0.26924312114715576;0.4866209626197815;0.06844569742679596;0.7362834215164185;-0.140062153339386;0.7103768587112427;0.6850061416625977;0.8597956895828247;0.136731818318367;0.3408050239086151;-1.7624130785813224e-41;0.03969324380159378;-0.22687062621116638;0.25555163621902466;-0.059929754585027695;0.4524264633655548;0.04522779956459999
31;0.28119227290153503;0.4972585439682007;0.08912033587694168;0.7412484884262085;-0.1304040402173996;0.7154694199562073;0.685614824295044;0.8629525303840637;0.14054355025291443;0.30135205388069153;-1.7624130785813224e-41;0.042947717010974884;-0.21868816018104553;0.2525073289871216;-0.09355639666318893;0.4114004969596863;0.044942133128643036
28;0.351803183555603;0.559141993522644;0.15855632722377777;0.7951502799987793;-0.04053296148777008;0.7853075265884399;0.7440324425697327;0.936971127986908;0.21318061649799347;0.38724032044410706;-1.7624130785813224e-41;0.13304837048053741;-0.10118323564529419;0.3247467577457428;0.05536821484565735;0.49955034255981445;0.11442293226718903
29;0.2761974334716797;0.49001649022102356;0.07833115756511688;0.7359723448753357;-0.13384278118610382;0.711693286895752;0.6854109168052673;0.8569129109382629;0.13895392417907715;0.3438982665538788;-1.7624130785813224e-41;0.040880799293518066;-0.22211773693561554;0.2553444504737854;-0.052873630076646805;0.45300763845443726;0.0464683398604393
32;0.5803439021110535;0.6715610027313232;0.4980739653110504;0.7671083211898804;0.16241347789764404;0.7405844926834106;0.7479786276817322;0.824937641620636;0.2544322609901428;0.3815357983112335;-1.7624130785813224e-41;0.2190791815519333;0.1608523279428482;0.30133211612701416;0.23309151828289032;0.4357791543006897;0.21807223558425903
29;0.3587148189544678;0.5617271065711975;0.16899867355823517;0.7932880520820618;-0.03471001610159874;0.7853068709373474;0.7430213689804077;0.9323410391807556;0.2133447676897049;0.38829168677330017;-1.7624130785813224e-41;0.13496653735637665;-0.09263049066066742;0.3235850930213928;0.06064232438802719;0.49898502230644226;0.11597344279289246
30;0.2671937942504883;0.4864296317100525;0.07241042703390121;0.7337660789489746;-0.14305537939071655;0.7062965631484985;0.6775617003440857;0.8578372001647949;0.13176918029785156;0.31597328186035156;-1.7624130785813224e-41;0.03479569032788277;-0.23083144426345825;0.24836470186710358;-0.06406719237565994;0.44933998584747314;0.036757271736860275
33;0.25956276059150696;0.4986167848110199;0.05362827703356743;0.7533891797065735;-0.23139099776744843;0.7192350029945374;0.6940053105354309;0.8855906128883362;0.05853068456053734;0.2084876298904419;-1.7624130785813224e-41;-0.04798944666981697;-0.3472016155719757;0.1728413999080658;-0.2729819715023041;0.36001330614089966;-0.04745376110076904
30;0.3680066168308258;0.5667712688446045;0.18178072571754456;0.7931918501853943;-0.023597460240125656;0.787226140499115;0.7439621686935425;0.9302322268486023;0.21930676698684692;0.38604938983917236;-1.7624130785813224e-41;0.14227068424224854;-0.07934815436601639;0.32719850540161133;0.04792947694659233;0.478059858083725;0.12333555519580841
31;0.28119227290153503;0.4972585439682007;0.08912033587694168;0.7412484884262085;-0.1304040402173996;0.7154694199562073;0.685614824295044;0.8629525303840637;0.14054355025291443;0.30135205388069153;-1.7624130785813224e-41;0.042947717010974884;-0.21868816018104553;0.2525073289871216;-0.09355639666318893;0.4114004969596863;0.044942133128643036
34;0.24404358863830566;0.4803928732872009;0.04077228903770447;0.7373996376991272;-0.24027065932750702;0.7343416810035706;0.6786012649536133;0.8672776818275452;0.04707077518105507;0.19762960076332092;-1.7624130785813224e-41;-0.06028518080711365;-0.35625508427619934;0.15073946118354797;-0.266832172870636;0.35123348236083984;-0.062066495418548584
31;0.37894579768180847;0.5735000967979431;0.19619368016719818;0.7943777441978455;-0.009160635992884636;0.7905321717262268;0.7462980151176453;0.9298356771469116;0.22821663320064545;0.38236501812934875;-1.7624130785813224e-41;0.15239441394805908;-0.06371211260557175;0.3337668180465698;0.02557905577123165;0.4457024931907654;0.13299790024757385
32;0.5803439021110535;0.6715610027313232;0.4980739653110504;0.7671083211898804;0.16241347789764404;0.7405844926834106;0.7479786276817322;0.824937641620636;0.2544322609901428;0.3815357983112335;-1.7624130785813224e-41;0.2190791815519333;0.1608523279428482;0.30133211612701416;0.23309151828289032;0.4357791543006897;0.21807223558425903
35;0.2455497533082962;0.47844594717025757;0.044386617839336395;0.7238681316375732;-0.23811179399490356;0.7373479604721069;0.6664998531341553;0.862199068069458;0.04571737349033356;0.1942351907491684;-1.7624130785813224e-41;-0.059035178273916245;-0.35144948959350586;0.1511380970478058;-0.2589145004749298;0.36029133200645447;-0.05882749706506729
32;0.3372672200202942;0.5503373146057129;0.14675720036029816;0.7767449021339417;-0.05236636847257614;0.7660133838653564;0.7270967364311218;0.9269973635673523;0.20203229784965515;0.3655424118041992;-1.7624130785813224e-41;0.09328000247478485;-0.15382933616638184;0.28787073493003845;-0.04265546798706055;0.40654224157333374;0.07364912331104279
33;0.25956276059150696;0.4986167848110199;0.05362827703356743;0.7533891797065735;-0.23139099776744843;0.7192350029945374;0.6940053105354309;0.8855906128883362;0.05853068456053734;0.2084876298904419;-1.7624130785813224e-41;-0.04798944666981697;-0.3472016155719757;0.1728413999080658;-0.2729819715023041;0.36001330614089966;-0.04745376110076904
36;0.2619194984436035;0.49695101380348206;0.05759255960583687;0.6964626908302307;-0.2563331723213196;0.7511654496192932;0.6351599097251892;0.8863349556922913;0.030438296496868134;0.15742984414100647;-1.7624130785813224e-41;-0.07275587320327759;-0.3868403732776642;0.12012665718793869;-0.3256588280200958;0.3250136077404022;-0.08771423995494843
33;0.3210735321044922;0.5356322526931763;0.129757359623909;0.7644744515419006;-0.07391028851270676;0.7498199939727783;0.7085515856742859;0.9103059768676758;0.18361245095729828;0.3511190116405487;-1.7624130785813224e-41;0.0763309970498085;-0.17903737723827362;0.2696065902709961;-0.07773663103580475;0.3786393702030182;0.054702166467905045
34;0.24404358863830566;0.4803928732872009;0.04077228903770447;0.7373996376991272;-0.24027065932750702;0.7343416810035706;0.6786012649536133;0.8672776818275452;0.04707077518105507;0.19762960076332092;-1.7624130785813224e-41;-0.06028518080711365;-0.35625508427619934;0.15073946118354797;-0.266832172870636;0.35123348236083984;-0.062066495418548584
37;0.2677744925022125;0.5018467903137207;0.06426789611577988;0.6998232007026672;-0.25744807720184326;0.754355251789093;0.6377373337745667;0.8875784277915955;0.028136538341641426;0.15291354060173035;-1.7624130785813224e-41;-0.07504498213529587;-0.3842929005622864;0.11873947083950043;-0.3438624143600464;0.3037881553173065;-0.08790341019630432
34;0.3072022497653961;0.5207703113555908;0.11763989925384521;0.7480453848838806;-0.08535318076610565;0.8020473718643188;0.6926462650299072;0.8927984237670898;0.1703769862651825;0.34968239068984985;-1.7624130785813224e-41;0.0640009269118309;-0.19003789126873016;0.2547222077846527;-0.0906415805220604;0.3666187822818756;0.042940594255924225
35;0.2455497533082962;0.47844594717025757;0.044386617839336395;0.7238681316375732;-0.23811179399490356;0.7373479604721069;0.6664998531341553;0.862199068069458;0.04571737349033356;0.1942351907491684;-1.7624130785813224e-41;-0.059035178273916245;-0.35144948959350586;0.1511380970478058;-0.2589145004749298;0.36029133200645447;-0.05882749706506729
38;0.25713011622428894;0.491625040769577;0.05101019889116287;0.6916317939758301;-0.26407390832901;0.7423326373100281;0.6308507919311523;0.8816816210746765;0.022767448797822;0.14889012277126312;-1.7624130785813224e-41;-0.08086246997117996;-0.3854679763317108;0.11887221783399582;-0.3708880841732025;0.2873164415359497;-0.09036958962678909
35;0.3184329867362976;0.5315154194831848;0.09609400480985641;0.7326610088348389;-0.09642964601516724;0.8116967082023621;0.6769170165061951;0.9037157893180847;0.160408154129982;0.34903931617736816;-1.7624130785813224e-41;0.056272074580192566;-0.21685920655727386;0.2495209127664566;-0.1157943457365036;0.34266769886016846;0.035778630524873734
36;0.2619194984436035;0.49695101380348206;0.05759255960583687;0.6964626908302307;-0.2563331723213196;0.7511654496192932;0.6351599097251892;0.8863349556922913;0.030438296496868134;0.15742984414100647;-1.7624130785813224e-41;-0.07275587320327759;-0.3868403732776642;0.12012665718793869;-0.3256588280200958;0.3250136077404022;-0.08771423995494843
36;0.3170165419578552;0.5308364629745483;0.11985538899898529;0.6983934044837952;-0.12474589794874191;0.8053883910179138;0.6416584849357605;0.9049903750419617;0.1334950476884842;0.33343374729156494;-1.7624130785813224e-41;0.031190570443868637;-0.2489510029554367;0.22412730753421783;-0.15982896089553833;0.3341517448425293;0.009327767416834831
39;0.24653032422065735;0.48246529698371887;0.03970026597380638;0.6885295510292053;-0.2929497957229614;0.7299336194992065;0.6285712718963623;0.8775740265846252;-0.004084131680428982;0.13348978757858276;-1.7624130785813224e-41;-0.1081785261631012;-0.41451969742774963;0.12253604084253311;-0.4017326235771179;0.24140681326389313;-0.11851275712251663
37;0.2677744925022125;0.5018467903137207;0.06426789611577988;0.6998232007026672;-0.25744807720184326;0.754355251789093;0.6377373337745667;0.8875784277915955;0.028136538341641426;0.15291354060173035;-1.7624130785813224e-41;-0.07504498213529587;-0.3842929005622864;0.11873947083950043;-0.3438624143600464;0.3037881553173065;-0.08790341019630432
37;0.30948060750961304;0.5233021974563599;0.10965128988027573;0.6904217600822449;-0.13291619718074799;0.7938632965087891;0.6367623805999756;0.8985788226127625;0.12561967968940735;0.3280075490474701;-1.7624130785813224e-41;0.027236279100179672;-0.2528804838657379;0.2177889347076416;-0.1847449541091919;0.3145506680011749;0.003888809820637107
40;0.24021463096141815;0.47587206959724426;0.03404504805803299;0.6820159554481506;-0.3001580238342285;0.7215555906295776;0.6214206218719482;0.8693361878395081;-0.0116994958370924;0.103193499147892;-1.7624130785813224e-41;-0.11678307503461838;-0.42428505420684814;0.11386248469352722;-0.44309166073799133;0.22161215543746948;-0.12819698452949524
38;0.25713011622428894;0.491625040769577;0.05101019889116287;0.6916317939758301;-0.26407390832901;0.7423326373100281;0.6308507919311523;0.8816816210746765;0.022767448797822;0.14889012277126312;-1.7624130785813224e-41;-0.08086246997117996;-0.3854679763317108;0.11887221783399582;-0.3708880841732025;0.2873164415359497;-0.09036958962678909
38;0.308608740568161;0.5223506093025208;0.11018731445074081;0.6877220273017883;-0.13487057387828827;0.7895225882530212;0.6345763206481934;0.8962924480438232;0.12215113639831543;0.3182603716850281;-1.7624130785813224e-41;0.025705009698867798;-0.2558894157409668;0.21489746868610382;-0.19403386116027832;0.3027551472187042;0.004751745145767927
41;0.2212338000535965;0.46099424362182617;0.015797002241015434;0.6730789542198181;-0.3427119553089142;0.725822389125824;0.609924852848053;0.8667894005775452;-0.047666098922491074;0.02889053151011467;-1.7624130785813224e-41;-0.15136028826236725;-0.45116233825683594;0.08231789618730545;-0.40141698718070984;0.17022418975830078;-0.16216184198856354
39;0.24653032422065735;0.48246529698371887;0.03970026597380638;0.6885295510292053;-0.2929497957229614;0.7299336194992065;0.6285712718963623;0.8775740265846252;-0.004084131680428982;0.13348978757858276;-1.7624130785813224e-41;-0.1081785261631012;-0.41451969742774963;0.12253604084253311;-0.4017326235771179;0.24140681326389313;-0.11851275712251663
39;0.2828461527824402;0.502044677734375;0.08107878267765045;0.6867997050285339;-0.1804252713918686;0.761778712272644;0.6332337856292725;0.8907568454742432;0.08702271431684494;0.25383925437927246;-1.7624130785813224e-41;-0.017907576635479927;-0.29976674914360046;0.22080683708190918;-0.22134093940258026;0.2486145794391632;-0.036346592009067535
42;0.683775007724762;0.7191852331161499;0.6537072062492371;0.7564088106155396;0.22637565433979034;0.7470786571502686;0.7490941882133484;0.778887927532196;0.24951916933059692;0.3253878653049469;-1.7624130785813224e-41;0.24619846045970917;0.25424209237098694;0.27805599570274353;0.2507885992527008;0.34434083104133606;0.24976706504821777
40;0.24021463096141815;0.47587206959724426;0.03404504805803299;0.6820159554481506;-0.3001580238342285;0.7215555906295776;0.6214206218719482;0.8693361878395081;-0.0116994958370924;0.103193499147892;-1.7624130785813224e-41;-0.11678307503461838;-0.42428505420684814;0.11386248469352722;-0.44309166073799133;0.22161215543746948;-0.12819698452949524
40;0.268072247505188;0.4890320599079132;0.0637521967291832;0.6740346550941467;-0.19684289395809174;0.7438366413116455;0.6206561923027039;0.8764248490333557;0.07087405771017075;0.2277268022298813;-1.7624130785813224e-41;-0.03170905262231827;-0.3237014412879944;0.20694127678871155;-0.2616053819656372;0.21626470983028412;-0.04895390570163727
43;0.7214716076850891;0.7454224824905396;0.7016342282295227;0.7705104947090149;0.2143867015838623;0.7643387913703918;0.7661174535751343;0.785495400428772;0.22690804302692413;0.3490087389945984;-1.7624130785813224e-41;0.22644448280334473;0.23387791216373444;0.24742630124092102;0.23034198582172394;0.37479618191719055;0.22610142827033997
41;0.2212338000535965;0.46099424362182617;0.015797002241015434;0.6730789542198181;-0.3427119553089142;0.725822389125824;0.609924852848053;0.8667894005775452;-0.047666098922491074;0.02889053151011467;-1.7624130785813224e-41;-0.15136028826236725;-0.45116233825683594;0.08231789618730545;-0.40141698718070984;0.17022418975830078;-0.16216184198856354
41;0.2627432644367218;0.48523983359336853;0.06283744424581528;0.6688801646232605;-0.1961025595664978;0.7387608289718628;0.6158498525619507;0.8696490526199341;0.06746575981378555;0.21427762508392334;-1.7624130785813224e-41;-0.034310322254896164;-0.32419082522392273;0.20162996649742126;-0.2571682035923004;0.22014768421649933;-0.05358361452817917
44;0.7432544231414795;0.7630627155303955;0.7270060777664185;0.7838507890701294;0.2020636796951294;0.7789351344108582;0.7802342176437378;0.7962409257888794;0.21065524220466614;0.35440245270729065;-1.7624130785813224e-41;0.21050310134887695;0.22054244577884674;0.22815203666687012;0.22381533682346344;0.3667970299720764;0.21127918362617493
42;0.683775007724762;0.7191852331161499;0.6537072062492371;0.7564088106155396;0.22637565433979034;0.7470786571502686;0.7490941882133484;0.778887927532196;0.24951916933059692;0.3253878653049469;-1.7624130785813224e-41;0.24619846045970917;0.25424209237098694;0.27805599570274353;0.2507885992527008;0.34434083104133606;0.24976706504821777
42;0.28237730264663696;0.5035099387168884;0.08077151328325272;0.6861563324928284;-0.2212667614221573;0.7550013661384583;0.6338983774185181;0.8859214782714844;0.05368361249566078;0.19096727669239044;-1.7624130785813224e-41;-0.06015001982450485;-0.34869584441185;0.1762206256389618;-0.27551671862602234;0.19989319145679474;-0.07646891474723816
45;0.750481128692627;0.7673095464706421;0.7370098829269409;0.7850223779678345;0.19807806611061096;0.7809212803840637;0.7819800972938538;0.7955838441848755;0.20373626053333282;0.351718932390213;-1.7624130785813224e-41;0.20456717908382416;0.21659454703330994;0.22105978429317474;0.21837587654590607;0.3636581599712372;0.20618771016597748
43;0.7214716076850891;0.7454224824905396;0.7016342282295227;0.7705104947090149;0.2143867015838623;0.7643387913703918;0.7661174535751343;0.785495400428772;0.22690804302692413;0.3490087389945984;-1.7624130785813224e-41;0.22644448280334473;0.23387791216373444;0.24742630124092102;0.23034198582172394;0.37479618191719055;0.22610142827033997
43;0.3136499226093292;0.5325681567192078;0.11265520751476288;0.712590754032135;-0.2476683259010315;0.783487856388092;0.6603227853775024;0.9109424948692322;0.023703737184405327;0.15410807728767395;-1.7624130785813224e-41;-0.08814632147550583;-0.3779568374156952;0.1436687856912613;-0.29667559266090393;0.19200217723846436;-0.10366308689117432
46;0.755537748336792;0.7694929242134094;0.744713544845581;0.7842735052108765;0.19281405210494995;0.7809402346611023;0.7818194031715393;0.7930641770362854;0.19892480969429016;0.34150248765945435;-1.7624130785813224e-41;0.20134876668453217;0.2154712826013565;0.21641655266284943;0.21650481224060059;0.3618509769439697;0.21634627878665924
44;0.7432544231414795;0.7630627155303955;0.7270060777664185;0.7838507890701294;0.2020636796951294;0.7789351344108582;0.7802342176437378;0.7962409257888794;0.21065524220466614;0.35440245270729065;-1.7624130785813224e-41;0.21050310134887695;0.22054244577884674;0.22815203666687012;0.22381533682346344;0.3667970299720764;0.21127918362617493
44;0.3243546485900879;0.5409885048866272;0.1256898045539856;0.7182592749595642;-0.24427509307861328;0.790730357170105;0.6663375496864319;0.9150223135948181;0.01804114505648613;0.14410556852817535;-1.7624130785813224e-41;-0.09392861276865005;-0.380961537361145;0.13752064108848572;-0.29071393609046936;0.18446995317935944;-0.09434713423252106
47;0.7561089992523193;0.767925500869751;0.7472555041313171;0.7805072069168091;0.19228439033031464;0.7777583599090576;0.7785203456878662;0.7880232334136963;0.19744811952114105;0.338769793510437;-1.7624130785813224e-41;0.2003924548625946;0.21542227268218994;0.21530942618846893;0.21498186886310577;0.3576010763645172;0.21688012778759003
45;0.750481128692627;0.7673095464706421;0.7370098829269409;0.7850223779678345;0.19807806611061096;0.7809212803840637;0.7819800972938538;0.7955838441848755;0.20373626053333282;0.351718932390213;-1.7624130785813224e-41;0.20456717908382416;0.21659454703330994;0.22105978429317474;0.21837587654590607;0.3636581599712372;0.20618771016597748
45;0.33054089546203613;0.5448513627052307;0.13375133275985718;0.7193166017532349;-0.2340036779642105;0.7935938239097595;0.667832612991333;0.9144702553749084;0.01843392662703991;0.13922469317913055;-1.7624130785813224e-41;-0.09198150783777237;-0.37598758935928345;0.13898038864135742;-0.2806573510169983;0.19363436102867126;-0.07740572839975357
48;0.7552154660224915;0.7652177214622498;0.7480288147926331;0.7759473919868469;0.19286231696605682;0.7736997008323669;0.7743094563484192;0.7823812961578369;0.19740121066570282;0.33768633008003235;-1.7624130785813224e-41;0.20009931921958923;0.2161291241645813;0.21467237174510956;0.21470975875854492;0.3557713031768799;0.2169864922761917
46;0.755537748336792;0.7694929242134094;0.744713544845581;0.7842735052108765;0.19281405210494995;0.7809402346611023;0.7818194031715393;0.7930641770362854;0.19892480969429016;0.34150248765945435;-1.7624130785813224e-41;0.20134876668453217;0.2154712826013565;0.21641655266284943;0.21650481224060059;0.3618509769439697;0.21634627878665924
46;0.34096387028694153;0.5529453158378601;0.1460016965866089;0.7246277332305908;-0.2355380803346634;0.8005969524383545;0.6727039813995361;0.9182239770889282;0.016034172847867012;0.1373709738254547;-1.7624130785813224e-41;-0.09517938643693924;-0.37617480754852295;0.1347159892320633;-0.27160629630088806;0.19401709735393524;-0.061747439205646515
47;0.7561089992523193;0.767925500869751;0.7472555041313171;0.7805072069168091;0.19228439033031464;0.7777583599090576;0.7785203456878662;0.7880232334136963;0.19744811952114105;0.338769793510437;-1.7624130785813224e-41;0.2003924548625946;0.21542227268218994;0.21530942618846893;0.21498186886310577;0.3576010763645172;0.21688012778759003
49;0.7541754245758057;0.762664258480072;0.748379111289978;0.7718560695648193;0.19385087490081787;0.7699967622756958;0.7705052495002747;0.7773798108100891;0.19785833358764648;0.33737829327583313;-1.7624130785813224e-41;0.20106026530265808;0.21790024638175964;0.2150767743587494;0.20981720089912415;0.3505958616733551;0.21749861538410187
47;0.3478245139122009;0.5574588775634766;0.15475109219551086;0.7263503074645996;-0.2298576533794403;0.804000735282898;0.6741460561752319;0.9183636903762817;0.01867460273206234;0.14600008726119995;-1.7624130785813224e-41;-0.08973658084869385;-0.367782860994339;0.13628984987735748;-0.2684914767742157;0.19986075162887573;-0.05759220942854881
48;0.7552154660224915;0.7652177214622498;0.7480288147926331;0.7759473919868469;0.19286231696605682;0.7736997008323669;0.7743094563484192;0.7823812961578369;0.19740121066570282;0.33768633008003235;-1.7624130785813224e-41;0.20009931921958923;0.2161291241645813;0.21467237174510956;0.21470975875854492;0.3557713031768799;0.2169864922761917
50;0.7538776397705078;0.7611766457557678;0.7491439580917358;0.7691860198974609;0.19800539314746857;0.7675799131393433;0.7680479288101196;0.7739477753639221;0.20222297310829163;0.33796629309654236;-1.7624130785813224e-41;0.20428939163684845;0.22240041196346283;0.2188812643289566;0.20645299553871155;0.35224252939224243;0.2206369787454605
48;0.35475489497184753;0.562049150466919;0.1635870635509491;0.7281674742698669;-0.22381506860256195;0.8074484467506409;0.6763986349105835;0.9186033010482788;0.02181807905435562;0.15511947870254517;-1.7624130785813224e-41;-0.0864788070321083;-0.3613826632499695;0.13925975561141968;-0.25982192158699036;0.19855056703090668;-0.0537046454846859
49;0.7541754245758057;0.762664258480072;0.748379111289978;0.7718560695648193;0.19385087490081787;0.7699967622756958;0.7705052495002747;0.7773798108100891;0.19785833358764648;0.33737829327583313;-1.7624130785813224e-41;0.20106026530265808;0.21790024638175964;0.2150767743587494;0.20981720089912415;0.3505958616733551;0.21749861538410187
51;0.7525284886360168;0.7587153911590576;0.7488026022911072;0.7655938267707825;0.1999872922897339;0.7643275856971741;0.7646603584289551;0.7696868181228638;0.2037247121334076;0.3355007469654083;-1.7624130785813224e-41;0.2060600221157074;0.22434468567371368;0.2202480584383011;0.20906515419483185;0.3512458801269531;0.2213890552520752
49;0.3614844083786011;0.5664327144622803;0.17222586274147034;0.7297934293746948;-0.21780908107757568;0.8106603622436523;0.6784862875938416;0.9186508059501648;0.024944830685853958;0.1639033704996109;-1.7624130785813224e-41;-0.08209451287984848;-0.3541722595691681;0.1418927013874054;-0.2553514242172241;0.19836775958538055;-0.04954947531223297
50;0.7538776397705078;0.7611766457557678;0.7491439580917358;0.7691860198974609;0.19800539314746857;0.7675799131393433;0.7680479288101196;0.7739477753639221;0.20222297310829163;0.33796629309654236;-1.7624130785813224e-41;0.20428939163684845;0.22240041196346283;0.2188812643289566;0.20645299553871155;0.35224252939224243;0.2206369787454605
52;0.7507684230804443;0.7560386061668396;0.7478665709495544;0.7619632482528687;0.20218975841999054;0.7609401941299438;0.7612094283103943;0.7655103802680969;0.2058488428592682;0.3344055712223053;-1.7624130785813224e-41;0.2083146870136261;0.22674164175987244;0.22232294082641602;0.21115310490131378;0.3503752648830414;0.2231554538011551
50;0.3676486313343048;0.5704919695854187;0.1800892949104309;0.7314456105232239;-0.20949310064315796;0.8139398097991943;0.6803390979766846;0.9188405275344849;0.034629590809345245;0.15987050533294678;-1.7624130785813224e-41;-0.07604176551103592;-0.3430826663970947;0.1473822295665741;-0.27223217487335205;0.20499876141548157;-0.04376599192619324
51;0.7525284886360168;0.7587153911590576;0.7488026022911072;0.7655938267707825;0.1999872922897339;0.7643275856971741;0.7646603584289551;0.7696868181228638;0.2037247121334076;0.3355007469654083;-1.7624130785813224e-41;0.2060600221157074;0.22434468567371368;0.2202480584383011;0.20906515419483185;0.3512458801269531;0.2213890552520752
53;0.7497768998146057;0.7543267011642456;0.747520387172699;0.7595001459121704;0.2057829052209854;0.7585911750793457;0.7588587999343872;0.7625877857208252;0.20929834246635437;0.3383675515651703;-1.7624130785813224e-41;0.21136511862277985;0.23002086579799652;0.2252090573310852;0.2155810296535492;0.3523833751678467;0.22571797668933868
51;0.37114858627319336;0.5726330876350403;0.1849326342344284;0.7325524091720581;-0.20315663516521454;0.8144239187240601;0.6791552305221558;0.9186630249023438;0.0377093143761158;0.15933255851268768;-1.7624130785813224e-41;-0.07017726451158524;-0.33906951546669006;0.15016648173332214;-0.2696281671524048;0.1920887976884842;-0.04208522289991379
52;0.7507684230804443;0.7560386061668396;0.7478665709495544;0.7619632482528687;0.20218975841999054;0.7609401941299438;0.7612094283103943;0.7655103802680969;0.2058488428592682;0.3344055712223053;-1.7624130785813224e-41;0.2083146870136261;0.22674164175987244;0.22232294082641602;0.21115310490131378;0.3503752648830414;0.2231554538011551
54;0.7492663860321045;0.7531784772872925;0.7475565671920776;0.7577162981033325;0.20961973071098328;0.7570153474807739;0.7572006583213806;0.7604040503501892;0.21214094758033752;0.3441821336746216;-1.7624130785813224e-41;0.2153209149837494;0.23399728536605835;0.2290627807378769;0.22063639760017395;0.3526252806186676;0.22907079756259918
52;0.37522801756858826;0.5764301419258118;0.1898176074028015;0.7309326529502869;-0.20133459568023682;0.8158570528030396;0.6816733479499817;0.9169719815254211;0.04022655263543129;0.14366810023784637;-1.7624130785813224e-41;-0.06692132353782654;-0.3360031545162201;0.15316560864448547;-0.27585068345069885;0.17619700729846954;-0.039583511650562286
53;0.7497768998146057;0.7543267011642456;0.747520387172699;0.7595001459121704;0.2057829052209854;0.7585911750793457;0.7588587999343872;0.7625877857208252;0.20929834246635437;0.3383675515651703;-1.7624130785813224e-41;0.21136511862277985;0.23002086579799652;0.2252090573310852;0.2155810296535492;0.3523833751678467;0.22571797668933868
55;0.7470058798789978;0.7503558993339539;0.7457867860794067;0.7545350193977356;0.21173535287380219;0.7537579536437988;0.7541463971138;0.7566454410552979;0.21413114666938782;0.3438793122768402;-1.7624130785813224e-41;0.21695774793624878;0.23598286509513855;0.23098544776439667;0.22391432523727417;0.3537186086177826;0.23046235740184784
53;0.3754524290561676;0.5744118690490723;0.1917797178030014;0.7280670404434204;-0.19791629910469055;0.8128793835639954;0.6795976161956787;0.9110590219497681;0.04113218933343887;0.1500115543603897;-1.7624130785813224e-41;-0.06595932692289352;-0.33179497718811035;0.15316720306873322;-0.26718273758888245;0.1799919754266739;-0.03886784240603447
54;0.7492663860321045;0.7531784772872925;0.7475565671920776;0.7577162981033325;0.20961973071098328;0.7570153474807739;0.7572006583213806;0.7604040503501892;0.21214094758033752;0.3441821336746216;-1.7624130785813224e-41;0.2153209149837494;0.23399728536605835;0.2290627807378769;0.22063639760017395;0.3526252806186676;0.22907079756259918
56;0.7411320209503174;0.7440379858016968;0.7404076457023621;0.7478517889976501;0.215560182929039;0.7471948862075806;0.7475930452346802;0.7496024370193481;0.2180102914571762;0.34042808413505554;-1.7624130785813224e-41;0.2204217165708542;0.2410733699798584;0.23571687936782837;0.22824376821517944;0.35791096091270447;0.23488867282867432
54;0.376817911863327;0.5694912672042847;0.19431868195533752;0.7274875640869141;-0.19622716307640076;0.8115671277046204;0.6793310046195984;0.909183144569397;0.054960884153842926;0.15146034955978394;-1.7624130785813224e-41;-0.06361961364746094;-0.3282497823238373;0.143938347697258;-0.26573818922042847;0.17587408423423767;-0.0366099514067173
55;0.7470058798789978;0.7503558993339539;0.7457867860794067;0.7545350193977356;0.21173535287380219;0.7537579536437988;0.7541463971138;0.7566454410552979;0.21413114666938782;0.3438793122768402;-1.7624130785813224e-41;0.21695774793624878;0.23598286509513855;0.23098544776439667;0.22391432523727417;0.3537186086177826;0.23046235740184784
57;0.29077285528182983;0.5150445699691772;0.09648435562849045;0.7258439660072327;-0.4226818382740021;0.7669549584388733;0.6630602478981018;0.894188404083252;-0.14246755838394165;-0.020147353410720825;-1.7624130785813224e-41;-0.24057678878307343;-0.5049957036972046;-0.00995619222521782;-0.6159348487854004;0.05763382464647293;-0.15242116153240204
55;0.37842580676078796;0.5707233548164368;0.1966831088066101;0.7277464270591736;-0.19564227759838104;0.8110353946685791;0.676333487033844;0.907281219959259;0.054693739861249924;0.14577604830265045;-1.7624130785813224e-41;-0.06448373198509216;-0.32752278447151184;0.14628370106220245;-0.2796364426612854;0.16637210547924042;-0.03497256338596344
56;0.7411320209503174;0.7440379858016968;0.7404076457023621;0.7478517889976501;0.215560182929039;0.7471948862075806;0.7475930452346802;0.7496024370193481;0.2180102914571762;0.34042808413505554;-1.7624130785813224e-41;0.2204217165708542;0.2410733699798584;0.23571687936782837;0.22824376821517944;0.35791096091270447;0.23488867282867432
58;0.28332003951072693;0.5056812167167664;0.0901060402393341;0.7185118198394775;-0.43437501788139343;0.7564146518707275;0.6578502655029297;0.8784910440444946;-0.1473967432975769;0.08384756743907928;-1.7624130785813224e-41;-0.24540799856185913;-0.517922043800354;-0.026822594925761223;-0.6000828146934509;0.04999798908829689;-0.1754128485918045
56;0.3776850700378418;0.5711309909820557;0.19972935318946838;0.7268330454826355;-0.19203273952007294;0.8098763823509216;0.6761945486068726;0.9052900671958923;0.055801212787628174;0.143281951546669;-1.7624130785813224e-41;-0.06295838207006454;-0.32657232880592346;0.14441698789596558;-0.27484750747680664;0.16291888058185577;-0.03478953614830971
57;0.29077285528182983;0.5150445699691772;0.09648435562849045;0.7258439660072327;-0.4226818382740021;0.7669549584388733;0.6630602478981018;0.894188404083252;-0.14246755838394165;-0.020147353410720825;-1.7624130785813224e-41;-0.24057678878307343;-0.5049957036972046;-0.00995619222521782;-0.6159348487854004;0.05763382464647293;-0.15242116153240204
59;0.31805893778800964;0.536914587020874;0.12768591940402985;0.7495482563972473;-0.4187033474445343;0.7670502662658691;0.691218376159668;0.9079720973968506;-0.15244191884994507;0.12552474439144135;-1.7624130785813224e-41;-0.24646136164665222;-0.5198614001274109;-0.039013322442770004;-0.6360405087471008;0.04828042909502983;-0.17961226403713226
57;0.3750866949558258;0.5681344270706177;0.19585008919239044;0.734853208065033;-0.2158074975013733;0.806241512298584;0.6844277381896973;0.9089718461036682;0.03387237340211868;0.15601180493831635;-1.7624130785813224e-41;-0.08465314656496048;-0.35117262601852417;0.12816716730594635;-0.3028040826320648;0.1505666971206665;-0.06484915316104889
58;0.28332003951072693;0.5056812167167664;0.0901060402393341;0.7185118198394775;-0.43437501788139343;0.7564146518707275;0.6578502655029297;0.8784910440444946;-0.1473967432975769;0.08384756743907928;-1.7624130785813224e-41;-0.24540799856185913;-0.517922043800354;-0.026822594925761223;-0.6000828146934509;0.04999798908829689;-0.1754128485918045
60;0.3001796305179596;0.5221326351165771;0.10826309770345688;0.7263625860214233;-0.3880496621131897;0.7715055346488953;0.6639235019683838;0.8950586915016174;-0.11172738671302795;-0.07185396552085876;-1.7624130785813224e-41;-0.2136932611465454;-0.47482284903526306;0.011678696610033512;-0.6374102234840393;0.03612098470330238;-0.12854233384132385
58;0.3746159076690674;0.5704516172409058;0.19360853731632233;0.7395603656768799;-0.2690883278846741;0.805087149143219;0.6890172362327576;0.9121662378311157;-0.007010664790868759;0.1428610235452652;-1.7624130785813224e-41;-0.12106867879629135;-0.3921133875846863;0.09248985350131989;-0.3336750864982605;0.10765255242586136;-0.09900625050067902
59;0.31805893778800964;0.536914587020874;0.12768591940402985;0.7495482563972473;-0.4187033474445343;0.7670502662658691;0.691218376159668;0.9079720973968506;-0.15244191884994507;0.12552474439144135;-1.7624130785813224e-41;-0.24646136164665222;-0.5198614001274109;-0.039013322442770004;-0.6360405087471008;0.04828042909502983;-0.17961226403713226
61;0.2867870330810547;0.509669840335846;0.08966535329818726;0.7131194472312927;-0.39964526891708374;0.7584408521652222;0.6523493528366089;0.8836057782173157;-0.11801783740520477;-0.09112506359815598;-1.7624130785813224e-41;-0.21679984033107758;-0.46846893429756165;0.025397799909114838;-0.6650673151016235;-0.017774615436792374;-0.12472940981388092
59;0.3716873228549957;0.5696495175361633;0.18945933878421783;0.7489321231842041;-0.3087538778781891;0.8011269569396973;0.6983364224433899;0.9199627637863159;-0.052437782287597656;0.13896629214286804;-1.7624130785813224e-41;-0.15975406765937805;-0.4428844153881073;0.05259649455547333;-0.39047184586524963;0.05104384571313858;-0.14023253321647644
60;0.3001796305179596;0.5221326351165771;0.10826309770345688;0.7263625860214233;-0.3880496621131897;0.7715055346488953;0.6639235019683838;0.8950586915016174;-0.11172738671302795;-0.07185396552085876;-1.7624130785813224e-41;-0.2136932611465454;-0.47482284903526306;0.011678696610033512;-0.6374102234840393;0.03612098470330238;-0.12854233384132385
62;0.29695260524749756;0.5185442566871643;0.10096760094165802;0.7207819223403931;-0.390475869178772;0.766749382019043;0.6600797176361084;0.8907020688056946;-0.10960865765810013;-0.07287637889385223;-1.7624130785813224e-41;-0.20580774545669556;-0.4536742866039276;0.03962502256035805;-0.6682789921760559;-0.058867644518613815;-0.10928580164909363
60;0.3694804608821869;0.5659146904945374;0.1887313574552536;0.7357253432273865;-0.3126612603664398;0.7960957288742065;0.6853445768356323;0.9139377474784851;-0.06033653765916824;0.12805160880088806;-1.7624130785813224e-41;-0.16570526361465454;-0.4490204155445099;0.0419151671230793;-0.44345158338546753;-0.013981175608932972;-0.14875097572803497
61;0.2867870330810547;0.509669840335846;0.08966535329818726;0.7131194472312927;-0.39964526891708374;0.7584408521652222;0.6523493528366089;0.8836057782173157;-0.11801783740520477;-0.09112506359815598;-1.7624130785813224e-41;-0.21679984033107758;-0.46846893429756165;0.025397799909114838;-0.6650673151016235;-0.017774615436792374;-0.12472940981388092
63;0.29785287380218506;0.519130527973175;0.10219353437423706;0.7210264801979065;-0.40232717990875244;0.765758752822876;0.6611772179603577;0.8908199667930603;-0.12206011265516281;-0.10687272250652313;-1.7624130785813224e-41;-0.21280580759048462;-0.46688777208328247;0.027940575033426285;-0.6876267194747925;-0.08317799121141434;-0.12568512558937073
61;0.3732546269893646;0.5677316188812256;0.1941966712474823;0.7353707551956177;-0.30914396047592163;0.7969610691070557;0.6853303909301758;0.9120032787322998;-0.05929380655288696;0.12106756865978241;-1.7624130785813224e-41;-0.16281536221504211;-0.4456899166107178;0.04236945882439613;-0.4601937532424927;-0.03665432333946228;-0.14846481382846832
62;0.29695260524749756;0.5185442566871643;0.10096760094165802;0.7207819223403931;-0.390475869178772;0.766749382019043;0.6600797176361084;0.8907020688056946;-0.10960865765810013;-0.07287637889385223;-1.7624130785813224e-41;-0.20580774545669556;-0.4536742866039276;0.03962502256035805;-0.6682789921760559;-0.058867644518613815;-0.10928580164909363
64;0.2916128635406494;0.5124592185020447;0.09656082838773727;0.7147535681724548;-0.40353381633758545;0.7580844759941101;0.6552152037620544;0.8839506506919861;-0.12532326579093933;-0.11817038059234619;-1.7624130785813224e-41;-0.217842236161232;-0.47581586241722107;0.019619610160589218;-0.7389587163925171;-0.09657449275255203;-0.13362553715705872
62;0.3800966143608093;0.5727852582931519;0.202910378575325;0.7383323907852173;-0.300517201423645;0.8011329174041748;0.6885657906532288;0.9132780432701111;-0.05302618443965912;0.12724509835243225;-1.7624130785813224e-41;-0.1550542116165161;-0.4359171390533447;0.049420420080423355;-0.4822761118412018;-0.06341049820184708;-0.14105667173862457
63;0.29785287380218506;0.519130527973175;0.10219353437423706;0.7210264801979065;-0.40232717990875244;0.765758752822876;0.6611772179603577;0.8908199667930603;-0.12206011265516281;-0.10687272250652313;-1.7624130785813224e-41;-0.21280580759048462;-0.46688777208328247;0.027940575033426285;-0.6876267194747925;-0.08317799121141434;-0.12568512558937073
65;0.3418281674385071;0.5558213591575623;0.15726877748966217;0.773362398147583;-0.4474566578865051;0.8002037405967712;0.7159156799316406;0.9204272627830505;-0.18556304275989532;0.07432086020708084;-1.7624130785813224e-41;-0.2559294104576111;-0.5354844331741333;-0.0653330609202385;-0.783353328704834;-0.14536598324775696;-0.19382864236831665
63;0.38268381357192993;0.5764442682266235;0.20883221924304962;0.7408760786056519;-0.2944861948490143;0.8037018179893494;0.6913201212882996;0.9146785736083984;-0.048618167638778687;0.13639949262142181;-1.7624130785813224e-41;-0.15002597868442535;-0.43087103962898254;0.05144322291016579;-0.4788975715637207;-0.061807263642549515;-0.1361176073551178
